nep4 1 C 
cutoff 4.2 3.7 98 56
n_max 10 15
basis_size 10 15
l_max 4 2 1
ANN 100 0
 -2.0874555e+00
 -1.6677959e+00
 -1.5379282e+00
 -9.6693075e-01
 -2.0947690e+00
  3.0426891e+00
 -2.5541129e+00
  1.0317601e+00
  1.6553984e+00
 -1.2566339e+00
 -1.3118851e+00
 -6.2853187e-01
  4.3604116e+00
 -1.3174628e+00
  4.9377751e-01
  5.9042829e-01
  1.4094263e-01
  2.1268103e+00
  1.6677976e+00
 -1.4283378e-01
 -2.2230599e+00
 -1.6518929e+00
  1.0572769e-01
 -2.2949886e+00
 -4.8578215e+00
 -2.3391876e+00
  2.0321169e+00
 -6.8585056e-01
  1.5819618e+00
 -1.1901121e+00
 -1.2402914e-01
  1.8160074e+00
  1.5212740e+00
 -1.2778101e+00
  1.4422168e+00
 -4.4161290e-01
 -4.0727582e+00
 -2.7816626e-01
  3.1889249e-02
 -1.2714299e+00
  1.2577295e+00
 -2.0290661e-01
 -4.1021359e-01
  5.8126646e-01
 -2.9410899e+00
 -8.3546466e-01
 -2.3233740e+00
  7.0069946e-02
 -6.1336569e-02
  5.6782699e-01
 -3.1784435e-03
  3.2469888e+00
 -8.3267826e-01
 -2.1496727e+00
  1.0708981e+00
  1.5994352e-01
  3.2686356e-01
 -5.1354194e-01
  1.5932025e+00
 -1.6815166e+00
  2.7274945e+00
 -3.2916408e+00
  1.4134978e-01
  8.2882524e-01
 -8.1126422e-01
 -4.2155290e-01
  1.2309344e-01
  1.7265754e+00
  2.6059499e-01
  1.1598434e-01
  2.7773604e-01
 -4.7966039e-01
 -4.8867908e-01
 -8.1667048e-01
  5.2012032e-01
  4.0371141e-01
  1.1127100e+00
  2.7274494e+00
  1.1947656e+00
 -8.1452572e-01
 -1.3039601e-01
 -9.1042644e-01
  1.5962556e-02
  1.8928960e-02
 -1.8699098e+00
 -6.9100291e-01
 -5.5300254e-01
  1.7883275e-02
  4.1947052e-01
  3.5347037e+00
  2.2060699e-03
 -1.7676473e-02
 -1.1016415e-03
  1.9755756e-02
  1.2549868e-02
  2.0488538e-03
 -2.3451331e-03
  1.4422468e-02
 -3.7217077e-02
 -1.8769322e-03
 -5.9070226e-02
  3.7469047e-03
 -1.7734870e-02
 -1.8543223e-02
 -3.3036929e-03
 -8.5330345e-03
  9.7146407e-02
  2.7065034e+00
  4.3405156e+00
 -6.2239134e-01
  3.3547328e+00
 -3.0537274e-01
  2.3471537e-01
 -1.1464828e+00
  4.0395147e-01
 -5.8473831e-01
 -1.9777495e+00
  7.2187269e-01
  7.3196925e-02
 -1.2273805e+00
 -8.3710778e-01
 -1.2504861e-01
 -1.0466043e+00
  6.8466365e-01
  1.2508551e+00
 -1.0065433e+00
  6.9622912e-02
 -3.0133018e-01
 -1.1929555e+00
  2.2803261e+00
 -1.4255888e+00
 -2.9247761e-01
 -2.7076311e+00
 -1.7917188e+00
 -2.3323362e+00
 -9.5657247e-01
 -9.3744435e-05
 -2.8035781e+00
  2.7604012e+00
  3.2484525e-01
 -1.1417208e+00
 -1.9708041e+00
  2.1686854e+00
 -3.5045883e-01
 -9.2081255e-01
 -4.0114215e-01
  3.5446480e-01
  1.4362454e+00
  5.6070966e-01
 -1.5927097e+00
 -2.8428631e+00
  5.0742871e-01
  2.7226868e+00
 -9.0026082e-03
  2.4416485e+00
 -1.3432006e+00
 -2.8050512e-01
  2.9671116e+00
  8.3619410e-01
 -2.6661503e-01
 -3.2036480e-01
 -2.1356926e+00
  1.8919225e-01
  1.1270556e+00
  8.8620657e-01
 -2.4632010e+00
  1.2491826e+00
  6.7146039e-01
  2.6088279e-01
 -3.3824215e+00
  3.4414127e+00
 -8.6812788e-01
 -1.0640779e+00
 -1.0914829e+00
 -1.2807158e+00
 -6.4793058e-02
  7.2050041e-01
 -1.9738282e-01
 -9.2752433e-01
 -2.4726412e+00
  1.7253572e+00
  5.6826192e-01
 -2.7089250e-01
 -1.5265559e+00
 -1.0267590e+00
 -9.5917380e-01
 -2.5074071e-01
 -7.4824081e-03
 -3.7004061e-02
  8.2599407e-01
 -1.0609823e+00
 -2.9309706e-03
  1.3079792e-01
  3.6719239e-03
 -2.2716509e-01
 -8.8753070e-05
 -3.6636052e-01
 -5.7942229e-03
  8.3687820e-04
  5.7432300e-01
 -1.6565093e+00
  1.0886757e-02
 -8.9018280e-03
 -2.6082161e-03
  1.2496377e-03
  1.4069821e-03
 -9.4672886e-04
  7.9312045e-03
 -2.4664450e-02
 -5.2084390e-02
  3.2984901e-03
  4.7237999e-03
 -1.5393290e-02
  6.8314457e-03
 -1.9539614e+00
  1.2185420e+00
  8.9414537e-02
 -1.9481231e+00
  1.0640581e+00
  2.3284602e+00
 -8.7464952e-01
 -8.9169377e-03
 -2.6620984e-01
  3.5809226e+00
 -1.8650566e+00
 -1.0776831e+00
 -3.1573114e+00
 -5.6647646e-01
 -2.0441513e-01
  3.0319254e+00
 -7.0471174e-01
  1.1804253e+00
 -1.0729067e+00
  2.1933812e-01
 -7.1517965e-03
 -2.3242011e+00
  1.9659372e-02
  2.0791996e+00
  1.1759783e+00
  1.6784270e+00
 -1.3768761e+00
 -9.8537761e-01
 -6.9030404e-01
 -2.3704368e-01
 -4.0710936e+00
 -3.1915591e+00
  1.5127766e-01
  9.2591643e-01
 -6.0937917e-01
 -1.6740210e+00
  2.6536238e+00
  5.6316912e-01
  1.5000211e+00
  5.0423369e-02
  2.3030865e+00
 -2.2262149e-01
 -2.3075990e-01
  3.1283948e+00
  3.3824325e+00
 -4.2435837e+00
 -1.1019727e-02
 -4.1590247e-01
  1.7254679e+00
  6.3017571e-01
  9.9984646e-02
 -1.0849487e+00
 -3.1863310e+00
 -2.1845543e+00
 -4.5155665e-01
 -4.6604037e-01
  6.6856593e-03
 -4.3808293e-01
  8.0079979e-01
 -2.0864084e-01
 -3.0504401e+00
 -6.8239313e-01
  3.2742658e-01
  1.5151303e+00
  2.8308165e-01
 -1.1047879e+00
 -3.3862000e+00
  1.0945081e-01
  1.1986839e+00
  8.2184422e-01
 -3.9641929e-01
  1.2194866e+00
 -6.7784560e-01
 -1.0109853e-01
  2.9984587e-01
 -4.4637568e-02
 -1.1368188e+00
  1.4328417e+00
 -4.9812716e-02
  3.6632073e+00
  3.4053369e+00
 -2.4843214e+00
 -1.9666196e+00
 -8.8497001e-01
 -9.8152347e-03
 -2.3786597e+00
 -3.6687700e-03
 -1.2058898e+00
  1.5573126e+00
 -2.7515614e+00
  4.1538145e-02
  6.5819095e-03
 -1.3080513e-03
 -2.5190962e-03
 -1.0400820e-02
  4.8699617e-01
 -8.4982738e-03
  2.3478194e-01
  1.8541677e-03
  2.5971089e-02
  4.1011561e-04
 -1.5038087e-02
  1.5551529e-03
  3.8973734e-02
  1.7307263e-03
 -2.1244455e-03
 -4.1599511e-03
  1.2862803e+00
 -1.2821702e+00
 -1.5644523e+00
  5.0277245e-01
  4.9082176e-03
  2.1019173e+00
  6.6105189e+00
 -2.8317688e-02
 -7.9504454e-01
 -9.6730316e-01
 -5.5274802e-01
  8.8345343e-03
  5.5649526e-02
 -1.5259340e-03
  2.6693463e+00
  2.4331348e+00
  2.1772063e+00
  1.1213479e-01
 -5.8059772e-03
 -4.8409557e-01
  5.6229866e-01
  1.3756845e+00
  7.3634051e-03
  1.1779000e-02
  2.4312116e-02
 -1.6469119e+00
  1.8427546e+00
 -7.1843863e-01
  9.9515539e-01
  9.2501640e-03
 -5.1760897e-02
 -1.6499487e-03
 -1.9047884e-03
  1.7515954e+00
  1.8129658e+00
 -1.8675169e+00
 -7.5621921e-01
  1.4788765e-02
 -4.3481967e-01
  1.0092847e+00
  2.7273369e-01
  2.9351220e+00
 -5.3793305e-01
 -4.9098197e-01
 -1.9837862e-02
  1.4663233e-01
 -9.8912455e-03
  8.8095075e-01
  1.0708059e+00
 -4.2413105e-03
  9.1924553e-04
 -9.1813849e-03
  2.5856020e+00
  2.9159964e-03
  1.2583240e+00
 -1.5164942e-01
  1.3998766e+00
 -1.8738855e-02
 -1.0338525e-03
 -1.0178567e-02
 -3.3060967e-03
 -5.3096185e-03
 -3.1709430e-01
  1.4602840e+00
 -1.8276165e-05
  3.0501047e-02
  7.7196131e-03
  1.6204808e-02
  7.4133663e-03
  1.0517774e-03
 -1.9708343e-03
 -7.5674993e-01
 -5.4664969e-01
  2.2152284e-02
 -4.7695028e-04
  4.4713225e-03
 -2.0338243e-02
 -1.3838797e-03
  3.6050838e-03
  4.3255019e-01
 -1.0384083e-03
  5.9487283e-02
 -1.2386474e-03
 -5.8620702e-03
  2.1193810e-02
 -1.4344438e-03
 -9.0729930e-03
  1.5774411e-01
  5.7884451e-04
  1.1837266e-02
 -1.7139293e-03
 -3.2514369e-01
 -6.3923020e-03
 -1.4632906e-02
  6.7232149e-03
  2.8527814e-03
  7.1684917e-04
 -1.0712350e-02
 -2.8336924e-03
  3.4434766e-02
  2.6402646e-03
  4.7586891e-03
 -1.0483745e-02
 -3.1395424e-03
 -1.3023773e-03
 -2.3346926e-01
  1.5164160e-03
 -1.4894030e+00
  4.7294268e-01
  2.6040535e+00
  5.9112554e+00
  1.0752585e+00
 -1.0272110e+00
 -2.2258905e-01
 -3.8868916e+00
  1.3088213e+00
 -1.1594142e+00
  6.0007995e-01
 -2.2119718e+00
  5.1687583e-02
  7.8458190e-01
 -1.2054716e-01
  2.5723073e+00
  4.8534730e-01
  4.6677187e-01
 -6.6961657e-05
  7.4526526e-02
  6.5741134e-01
  3.7417829e-02
  8.2147652e-03
 -1.9657423e+00
  1.5157821e-03
 -2.3071635e+00
  1.0577263e+00
 -1.2034469e+00
  9.4888788e-01
  1.5518367e+00
 -3.0546603e-01
 -1.4004680e+00
  1.2708099e+00
  2.4378808e+00
  1.5907168e-02
 -1.5308174e+00
  1.2847422e-01
  7.8791207e-01
  9.3207115e-01
 -1.8335835e+00
 -1.4200287e-01
 -1.1839316e+00
  9.5274057e-03
  1.4481133e+00
 -5.9395438e-01
  5.5839074e-01
 -1.9850587e+00
 -1.5485028e+00
 -1.8226749e+00
  2.1281152e+00
  6.7384273e-01
  7.9537965e-02
  1.5674035e-01
 -3.4129623e-01
 -3.3146048e+00
  7.4713749e-01
  6.3213462e-01
 -2.3570873e-01
  5.8607094e-04
  4.6885979e-01
 -3.5037731e-03
 -8.2586473e-01
  4.1228503e-02
 -1.6715614e+00
  2.6240206e-01
 -8.7723809e-01
 -1.3429579e+00
 -6.5412885e-01
 -7.0442557e-01
  6.0367674e-01
  9.2718871e-03
  7.5044009e-05
  1.8070571e-02
  1.6103594e+00
 -5.1825414e-03
 -6.3137251e-01
  4.3942207e-03
  4.6982891e-03
 -4.9732844e-03
  2.3401525e+00
  3.1045098e+00
  1.9659331e-01
  1.3085038e-02
 -2.2614699e-02
  1.0149051e-02
 -3.2542303e-01
 -1.4666102e-02
 -8.9759505e-01
  6.7451340e-04
 -2.3986758e-01
 -1.8459639e-03
  6.8277968e-03
 -3.2958886e-04
  7.8285849e-03
  4.7656594e-04
  4.5154309e-03
  1.0734242e-02
  7.5649233e-03
 -6.7980913e-04
 -2.6333481e-02
 -1.5931280e-02
  2.6909607e-03
 -1.1142503e-02
 -8.3463416e-03
  4.1197415e-02
  1.8626209e-02
  1.8659342e-02
  3.3721209e-01
  1.4925996e+00
  4.4402915e-01
  2.6734576e+00
  1.2344429e+00
 -2.2695065e+00
  6.1095238e-02
 -3.6920841e+00
 -1.0783940e-02
  2.6533129e+00
  4.0361261e+00
  1.3775249e-01
  1.5931213e+00
 -1.1201057e-01
 -2.8295164e+00
  4.1067016e-01
  1.2048565e+00
 -1.5381555e-01
  9.8179436e-01
 -1.1279829e+00
  9.3145800e-01
  1.2555206e+00
 -6.4939094e-01
  2.3636620e+00
  1.2067515e+00
  3.1296442e+00
  6.7650932e-01
  6.2026061e-02
 -3.0781171e-01
  2.0249879e-01
  4.0040222e-01
  7.6684847e-02
  4.5319790e-01
 -5.6050098e-01
  8.1337607e-01
 -1.0355120e+00
  2.4608285e+00
 -9.1650784e-02
 -6.4099938e-01
  1.3457022e+00
  3.7170197e-03
  4.1718583e+00
 -3.9499745e-01
 -2.1003284e+00
 -3.4064597e-01
  3.7794822e-01
  1.9427888e+00
  1.3226273e+00
 -7.6725721e-01
  1.0496258e+00
 -1.3552265e+00
  1.0661284e-02
  1.5487565e-02
  2.9256505e-01
  9.0889442e-01
  6.2068748e-01
 -4.1741556e-01
 -2.4656720e-02
  2.0542103e-01
 -3.0968034e-01
  6.1669126e-02
  1.9010727e-01
  1.8396876e+00
  1.7284647e+00
 -1.7940709e-02
  2.8013220e-01
 -1.0432627e+00
 -5.4355663e-01
 -1.4197162e+00
 -8.3858661e-02
  8.9127612e-01
 -1.1457722e+00
  4.1288546e-01
 -7.4488515e-01
 -1.3772626e+00
 -2.3013635e+00
  1.9244556e+00
 -4.3241265e-03
  5.8745127e-03
 -1.6606226e+00
  9.5867791e-04
 -9.1406024e-01
  1.8286780e+00
  1.7942609e-02
 -3.0507548e+00
  7.2180280e-03
  1.4062141e-02
 -1.3454745e+00
  2.4422879e+00
  3.7227912e+00
  4.0661752e-02
 -2.8429490e-02
  2.8456254e-03
 -1.4099363e-03
 -3.1212205e-03
 -7.7331900e-03
  3.2648729e-04
 -1.4134025e-02
 -4.0685125e-03
 -1.1762232e-02
  8.7527316e-03
 -4.5067356e-03
 -5.4309242e-03
 -6.6669760e-03
 -1.1231495e-04
 -7.0683425e-03
 -1.4068103e-02
 -4.5715437e+00
 -1.1953936e+00
  3.2949877e+00
 -2.4902523e+00
  2.0943739e-02
 -2.0630236e+00
  9.6638423e-01
  9.8495519e-01
  6.7448384e-01
  2.2921412e+00
  2.3396354e+00
 -1.6436900e+00
 -2.7520454e-01
 -7.1980767e-03
 -1.8685976e+00
  4.4883704e+00
 -1.2118649e+00
  1.8279079e+00
 -1.3661007e+00
  9.1485940e-03
  3.0837017e-01
  1.1843762e-01
  4.7357562e-03
 -2.8518572e+00
  2.6269841e+00
 -3.1564629e+00
 -1.7991707e-03
 -9.2097014e-01
 -3.3274505e-01
  4.7053093e-01
  1.0995872e+00
 -1.5640608e+00
 -1.1643414e+00
  1.0392616e+00
 -2.4455953e+00
  1.9437484e-01
 -4.4025230e-01
  6.9786352e-01
  2.1557522e+00
 -6.3537493e-02
  3.8298839e-01
 -9.4713473e-01
 -1.0749587e-01
  1.7715349e+00
  4.8217446e-01
 -2.1582003e-01
 -2.6979406e+00
 -7.1800596e-01
  9.2941850e-01
 -5.4886818e-02
 -1.3409095e+00
 -4.8218346e-03
  2.0349817e+00
 -1.3533764e+00
 -3.5587931e+00
 -3.3274312e+00
 -1.4618412e+00
  1.5047435e+00
 -6.8028346e-02
 -1.9275846e-02
  7.8336251e-01
  3.6829951e-01
 -1.6533900e+00
 -5.4072112e-01
  1.2523924e-01
 -7.8134608e-01
  1.0157930e-02
 -6.9665417e-02
  2.7316466e-01
 -1.4642042e-01
 -1.5929765e+00
  8.8333654e-01
 -1.7928052e+00
  2.0250928e+00
 -6.8653874e-02
 -1.6051553e-03
 -3.3797020e-01
  8.3254451e-01
 -8.9280084e-02
  1.2686976e+00
  9.6703395e-03
 -1.5006229e+00
 -3.7224721e-03
 -5.9795308e-01
  4.9741399e-03
  4.0153330e-03
 -7.9392409e-03
 -3.3905327e-03
 -7.8978348e-01
 -4.9910109e-02
  5.7722805e-03
  1.7108686e-02
 -1.3336283e-01
  7.8949699e-04
  1.2211389e-03
 -7.1406071e-03
  3.8111858e-02
 -3.9684582e-03
 -1.7468603e-02
  9.8722754e-03
 -3.5859668e-03
 -6.2073395e-04
 -1.8025659e-01
  1.3568031e-02
 -8.6210370e-03
 -1.2698418e-02
 -5.5089304e-03
 -9.4569063e-01
 -8.7539278e-02
  2.6496742e+00
  1.7863675e+00
  2.0479465e+00
 -1.2114429e-01
  2.1442904e+00
 -3.0726826e-01
  2.2533272e-01
  2.1976771e+00
 -7.3571503e-01
 -1.0587888e+00
 -1.1589190e+00
  9.2607662e-02
  3.4343441e+00
  5.7889456e-01
  2.0569256e-02
 -6.7467231e-01
 -1.3824897e+00
  9.1405185e-03
 -1.3887279e+00
  4.6524483e-01
  2.6748519e-02
 -1.0456809e+00
  4.3335054e-02
 -2.0861647e+00
 -1.3750548e+00
 -2.0234826e+00
  3.2746601e+00
  1.2763510e+00
  2.3212926e+00
  4.5486191e-01
  6.8582469e-01
  3.4907934e-01
 -2.9512081e+00
 -2.6784453e+00
  2.5431054e+00
  1.1367079e+00
  2.8610295e-01
 -2.9492882e-01
 -2.1819432e+00
  2.1647157e-01
 -6.3989580e-01
 -2.0537848e+00
 -2.4301995e-01
  2.3197861e+00
 -9.5052111e-01
 -1.7649762e-01
 -3.3912477e+00
  5.5011725e-01
 -2.2774336e+00
 -6.5187357e-02
  3.6497178e+00
 -1.1663476e+00
  1.0801295e+00
 -1.3627785e-01
 -5.6043869e-01
  3.5347161e+00
  1.7786050e-01
  1.2921825e-01
 -1.7944800e-02
  6.5066612e-01
  1.5670350e-01
 -3.3029647e+00
  2.8270569e-03
  6.9529885e-01
  4.3238035e-01
 -1.7973576e+00
  8.8946867e-01
 -1.9085658e-01
 -2.6915708e-01
 -7.5864071e-01
  4.0546086e-02
  2.8737130e+00
  6.1263061e-01
  8.9687145e-01
 -1.6789777e-02
 -5.5919904e-01
 -3.9194500e-01
 -3.2621090e+00
  2.3010360e-01
 -5.2346278e-02
  6.4957315e-01
  3.9472675e-01
 -2.8395994e+00
 -8.5752243e-01
  7.3718443e-03
  1.4095862e+00
 -6.2194127e-01
 -1.6401942e+00
  1.6864962e-03
  4.2484004e-02
  1.9149936e-03
 -1.2178345e-02
  5.3149154e-03
 -3.0780644e-03
  2.7637300e-03
  2.5843077e-03
  3.1820677e-02
  1.6184663e-02
 -6.1602909e-03
  5.9975726e-03
  1.7161834e-03
 -1.0971508e-03
  5.1672668e-03
  9.2482427e-03
 -1.1605784e-02
 -8.6526014e-02
  2.0697212e-01
  6.3971974e-02
 -1.3383535e-01
 -1.0230153e+00
 -1.0609360e-03
 -2.9786041e+00
  7.7884076e-03
  1.1421100e-01
  7.6720870e-01
 -2.4358930e-01
 -2.2793341e+00
 -3.6118680e-01
  9.7728467e-01
  1.7667516e+00
  2.1499739e+00
  2.5376129e+00
 -3.2703134e-01
 -1.7565124e+00
 -8.3094722e-01
  3.4110353e+00
  2.0488012e+00
  6.5465277e-01
 -8.7413406e-03
 -3.0026244e-02
 -3.8595667e+00
  1.2803510e-01
  3.5847011e+00
 -2.4805318e-01
  3.4863457e-02
  1.7449061e+00
 -3.1322377e+00
  7.1194434e-01
  1.2451384e+00
  3.8014925e-01
 -1.1513634e-01
 -1.1945088e+00
  1.1376753e+00
 -1.7828894e+00
  2.9438181e+00
 -1.6100459e-02
 -4.2290109e-01
  2.3207881e-02
  4.9661744e-01
 -1.2210383e+00
  3.8738381e-02
  1.3438982e+00
  1.0470909e+00
  8.7571168e-01
 -6.6557062e-01
  9.4071299e-02
  1.6210817e+00
  2.0175056e+00
  1.2468369e-01
  1.9667656e+00
 -2.5827469e-02
 -9.8014390e-01
 -3.8260036e+00
 -3.1268543e-01
 -1.4345742e+00
  1.2056317e-01
  1.1005897e-02
  5.6004578e-01
 -7.1647811e-01
 -2.3941886e-01
  5.2284710e-02
 -1.9530312e+00
  1.7005720e+00
  1.8929251e-01
 -6.9520384e-01
  4.6252418e-01
 -1.0911068e-01
  9.9297720e-01
  6.9579595e-01
 -2.3047080e-02
  2.0541035e-01
  7.8566837e-01
 -3.3471802e-01
  4.3734774e-02
  1.3091054e+00
 -3.9995351e-01
  1.9649595e+00
 -1.1417392e-02
  7.5336121e-02
  2.4555535e+00
  8.1997180e-01
  1.9343829e-01
 -2.0678395e-03
 -2.0611769e-02
  1.7488538e+00
 -5.4168798e-02
  4.6635848e-03
  4.7930341e-02
 -7.2205239e-03
 -1.3916997e-02
  1.9239587e-03
 -1.6684398e-03
  4.1975947e-03
  6.8663126e-03
  1.6731989e-02
  6.9103115e-03
  4.5758532e-03
  1.1078293e-02
 -5.2403756e-03
  5.4330132e-03
  9.3617693e-02
  7.8569166e-03
 -3.9086032e-01
 -5.6421816e-01
 -1.3332857e-01
 -3.3653763e-01
 -4.9521339e-01
 -2.8360724e-02
  7.6699930e-01
  1.3308461e-01
  9.0047461e-01
  5.4860927e-02
 -1.4275833e+00
  1.2988502e+00
  4.8682973e-01
 -4.6596503e-01
  5.6932777e-01
 -1.5981516e-02
  1.0273877e+00
  2.5108483e+00
  9.3026338e-03
  8.4187761e-02
  3.9990924e-04
 -7.0606357e-01
 -6.6918766e-01
 -3.0141270e-03
 -9.1292155e-01
  1.6976384e-02
 -3.6975175e-02
 -5.0468314e-01
 -1.2729087e+00
 -1.5414144e-01
  8.2580465e-01
  1.9024013e+00
  2.2159752e-01
 -9.0019977e-01
 -1.1241320e+00
 -1.6631101e+00
 -2.0529363e+00
 -2.0563214e-01
  9.8994844e-02
  1.6934003e-01
  1.5371872e+00
 -3.6449454e+00
  7.0479399e-01
  7.6222110e-01
 -6.6128135e-01
  8.3088773e-01
  2.1762743e+00
 -6.1851835e-01
  3.6807737e-01
 -7.4063438e-01
 -4.8893017e-01
  4.8510629e-01
 -1.3586355e+00
 -2.0969133e-01
 -2.2587872e-01
 -1.6998610e-01
 -8.7015444e-01
 -5.7144582e-01
  1.2667349e-01
 -4.8640037e-01
  2.3232689e-01
  1.5610369e-01
  2.6885066e+00
 -1.1567385e+00
 -1.7805220e-01
  8.6550516e-01
 -1.2794165e-01
  3.2853791e-01
 -2.2214212e+00
 -8.1181771e-01
  3.2581764e-01
  9.4412869e-01
 -3.7818637e-02
  3.1887881e-02
 -1.5602091e-01
 -1.5150647e-02
 -3.5284501e-01
 -1.2761275e-01
  1.4240243e-01
 -1.0505270e+00
  3.8084093e-01
  6.9312481e-03
  2.2916400e-01
  8.2409859e-02
 -2.6746048e-03
 -5.9806518e-03
  7.5087096e-03
 -2.4000000e-02
 -1.6912635e-01
 -2.0297508e-01
 -2.0488821e-02
  1.1476010e-01
  6.3026786e-01
  4.8507419e-03
  4.2079724e-03
 -1.1934949e-02
  1.3202282e-02
  1.4544650e-03
  7.3992205e-04
 -2.3584710e-03
  8.7004319e-02
 -5.8601908e-02
 -2.8045713e-03
  5.5492535e-02
 -1.8533939e-03
 -3.1885810e-02
 -1.2506515e+00
  7.7660091e-02
 -3.0556368e-03
  3.4530232e+00
  1.1391538e+00
  5.9062135e-01
  1.5671301e-01
  5.5605072e-01
  1.3639429e-01
  4.6596634e-03
  1.6210622e+00
  4.3606356e-01
  6.1320001e-01
  4.3005586e-01
 -5.7702577e-01
  9.9444193e-01
 -2.2951025e-03
  6.5441012e-01
 -4.6132099e-02
 -2.8679047e-03
  1.2330911e+00
  2.6149005e-01
  1.4839652e+00
 -1.7630169e+00
 -1.2218826e-02
 -1.2537663e-02
 -1.2791060e+00
  4.1317454e-01
 -2.7732155e-01
  2.4643463e-01
 -4.2098239e-01
 -3.2067683e-02
  7.9435563e-01
  1.3410565e-02
 -4.3955285e-04
 -6.4760965e-01
  1.2714030e-03
  2.5856089e-02
 -1.1646600e+00
 -1.7475271e-01
  3.8516865e-04
  1.8140610e+00
 -7.1259660e-01
 -5.2013773e-01
 -6.6791803e-01
  2.4496290e-01
 -1.9542649e-02
  6.2304395e-01
  1.1057501e-01
  1.6648832e-01
  1.6704944e-01
 -1.5776302e-01
  1.3037881e-01
 -5.0112545e-01
 -4.8150800e-02
  3.2312810e-01
  1.4664984e-01
  7.5090472e-03
  7.7700979e-01
 -3.9062377e-03
  6.2174445e-01
 -8.0400693e-01
  5.8271927e-01
  8.2953991e-03
  1.4405160e-01
 -6.7067720e-02
 -5.3848486e-02
  1.1531717e-01
 -1.3824428e-02
  3.1635016e-01
 -1.5602142e-03
  3.9416799e-01
 -2.3014829e-04
 -8.5543934e-03
 -1.7073105e-01
 -1.0462454e-01
 -2.8428586e-02
 -1.4072404e+00
  3.2302269e-03
  1.2503772e-02
  2.3021140e+00
 -3.7514451e-03
  1.3195992e-03
 -2.4977503e-03
  1.3604939e+00
  2.8437874e-01
  3.5143816e-03
 -2.0426728e-03
 -1.9402876e-02
 -8.9278724e-03
 -1.1149210e+00
  1.2779142e-03
  4.3521891e-03
 -1.7031564e+00
  8.4779225e-03
  3.4424982e-03
 -8.4833317e-03
 -9.7215613e-03
  1.3287559e-03
 -1.0268561e-03
  9.9463034e-03
 -1.5710096e-03
 -3.0745283e-01
 -8.3305528e-03
 -1.9438015e-03
  8.1319296e-05
  6.1240294e-03
  2.1539507e-03
 -5.6536722e-01
 -3.7385286e-03
 -1.7241286e-01
 -1.7929116e+00
  5.5276871e-01
  1.3092927e+00
 -2.0418000e+00
 -1.8905720e-02
 -7.1056029e-03
 -4.9004033e-01
 -1.1193643e+00
  5.2324007e-03
 -1.4716424e+00
  4.2480468e-03
 -3.1375569e-01
  1.8309004e+00
  7.7076554e-01
 -4.8910002e-03
  2.1771848e-01
 -3.5113361e-02
  1.7886113e+00
 -6.6942483e-02
  1.9036540e-03
  3.6525977e-01
  3.2603109e-01
  1.0159842e+00
 -1.2847033e-01
  4.6544564e-01
 -6.7892408e-01
  2.4566433e-01
 -3.9771414e+00
 -6.3897544e-01
 -3.1517613e-01
 -3.0652681e-01
  2.5986240e-03
 -2.2658866e-03
  6.0680206e-03
  1.5868995e-01
  6.0240710e-03
  2.9689909e-06
  3.7965345e-01
  7.9375068e-03
 -6.1042321e-01
  1.4736892e-02
 -1.0662425e-01
  6.2769137e-02
 -9.7321457e-01
 -5.2839947e-01
 -1.1755530e-01
 -7.1135573e-02
  1.1652055e+00
  3.1927925e-02
  2.3371377e+00
 -2.4617200e-01
  1.1748487e+00
 -4.4689178e-01
  1.8629733e-01
 -3.0846915e+00
 -5.6612384e-01
  3.9423648e-01
  1.0944039e+00
 -1.9097002e-02
  9.6172262e-03
 -2.3475507e-02
 -4.2362267e-01
  1.8452862e-02
 -7.0196784e-01
 -5.5703944e-01
 -2.8850073e-01
  7.0299613e-01
 -4.6358117e-01
 -2.1315182e-03
  9.0406632e-01
  1.1009475e+00
 -1.7539045e-01
 -5.4434363e-02
 -6.1175316e-03
 -1.5091506e-01
  5.1577142e-03
  3.9451499e-02
  5.0843980e-02
 -5.0663105e-03
  1.7361161e-03
  4.4846311e-03
  9.8187625e-03
 -6.1189462e-03
 -5.5450243e-03
 -3.7231597e-01
  1.6993560e-02
  2.8290951e-01
 -2.3169345e-03
  1.7622655e-03
 -2.2680480e-03
  1.7980171e-02
  8.8421935e-03
  3.0918968e+00
 -2.6660899e-02
  5.2372813e+00
  4.4651343e-03
  6.5730894e-03
 -3.7248633e-03
  1.1708720e-03
  5.0990668e-04
  5.6009419e-02
  5.9259403e-03
  1.3052871e-02
 -8.7434566e-01
 -2.6702964e-01
  2.2636397e+00
  3.6745077e-01
 -1.3271240e+00
  2.2337954e+00
  3.2640839e-01
 -5.0841422e+00
  1.6840165e+00
  8.4397203e-01
  8.8051897e-01
 -7.3402160e-01
  9.0577118e-03
 -5.2146230e+00
 -5.0019932e-01
  2.3792446e+00
  2.5681884e+00
  5.6058276e-02
 -1.4037232e+00
  2.6291637e+00
 -4.9986827e-01
  5.6450558e+00
 -9.6192949e-02
  1.4045877e+00
 -1.1065774e-01
  1.3772073e-01
 -7.3197269e-01
 -4.7380038e-02
  8.3133154e-02
 -1.9228272e+00
  8.2477349e-01
 -1.4397377e+00
  4.2535812e-01
  1.8642293e-01
  4.2235627e+00
  5.5988038e-01
  8.9390802e-01
  1.2874045e+00
  1.5904605e-02
  2.7685592e+00
  5.9572971e-01
  4.1418067e-01
 -5.2057076e+00
  2.2410777e+00
  1.7989446e+00
  2.0698707e+00
  1.2237517e+00
  2.1992712e+00
  1.2051651e+00
  1.0284991e+00
 -1.2387428e+00
  5.4167947e-03
 -7.1253767e-03
 -4.9399409e+00
 -2.7638450e-01
 -1.9134353e-03
  6.4862841e-01
 -5.3098989e-01
 -7.5393033e-01
  1.2027128e+00
 -6.5902913e-01
 -1.6460673e+00
  9.7681098e-02
  1.6281382e+00
  1.6315434e+00
 -2.2928317e+00
  5.5411708e-01
 -4.3831514e-03
  2.5490269e-01
 -9.4943738e-01
  6.6658646e-01
 -1.2772180e+00
  7.7606791e-01
 -1.5140611e+00
  4.9137488e-01
 -5.3229880e+00
  8.1420597e-04
 -2.3790577e-01
  3.9770406e-01
 -1.3061477e+00
  2.4304035e+00
  1.2341221e-01
  7.3492290e-03
 -1.5360767e+00
 -6.9190371e-01
 -2.7514951e-02
 -4.7809416e-01
 -1.6129688e+00
  1.6481615e+00
  3.2474753e-01
 -2.2916656e+00
 -3.8703408e-03
  9.5466053e-04
 -4.6686283e-03
  1.9234546e-03
  6.8724654e-03
  3.4952265e-01
  1.1468858e+00
 -8.3337948e-03
 -6.7848028e-03
  9.6681044e-03
 -1.7732659e-03
 -2.9585147e-02
  3.4501723e-03
  5.7297392e-04
 -8.4111840e-03
  7.7828672e-03
  6.9304784e-03
  2.2239614e+00
 -4.0419240e-02
 -4.1071257e-01
 -1.2647036e+00
 -9.0336753e-03
 -9.3383104e-01
 -1.2432194e+00
 -1.9736605e-02
 -7.5283033e-01
 -3.8384185e+00
  1.7766073e-01
 -4.0687960e-01
  1.0530654e+00
  1.1033892e-02
 -6.6366792e-01
  3.7260468e+00
 -9.3780663e-03
  1.1178762e-02
 -1.5190217e-02
  3.2866042e-04
 -3.0857872e-04
 -6.3495260e-01
  2.4063694e-03
  6.7136422e-02
  1.4658110e+00
 -4.0491876e-01
 -3.9170054e-03
  2.2226202e-01
 -2.2154956e+00
 -3.6843976e-01
  7.0553863e-01
 -1.8549061e+00
 -9.2911661e-02
 -6.6446149e-01
 -2.3440134e-02
 -3.7996529e-03
 -8.9706010e-01
 -6.0618132e-01
  1.2216700e-02
  2.1539451e-01
 -4.6107476e-03
 -2.1809027e-01
 -2.6205999e-01
  4.3111138e+00
  3.8960922e-01
 -9.4439954e-02
 -4.5355836e-01
  1.3357673e+00
 -2.9627565e-01
 -4.4378459e-01
 -6.5578856e-03
 -3.7914771e-03
 -1.9821242e+00
 -7.5650436e-01
 -2.2286996e-03
 -3.0612534e-01
 -1.6112942e+00
 -3.2948545e-01
 -2.3024294e+00
  4.4331655e-01
  1.6386446e-01
  1.0991678e-02
 -2.1237552e-03
 -3.2349284e+00
 -1.8525766e-03
 -1.5091789e-03
 -1.8355906e+00
 -1.0731572e+00
  2.3867483e+00
 -7.5139779e-01
 -5.8645010e-03
 -2.3674835e-03
  8.9917138e-02
 -1.0042492e+00
  2.1485498e-02
  6.1411452e-03
 -2.7373299e-06
  2.1962938e-04
 -2.7909600e-03
  1.1735982e-01
  2.6112350e-02
  4.4403425e-03
 -2.3339042e-03
  2.1778785e-02
  1.0956252e+00
 -2.1255170e-03
 -8.3498610e-03
 -5.2574719e-04
 -1.2396715e-03
  3.8431403e-01
 -5.4875873e-03
 -7.5677466e-03
 -1.0663346e-02
 -4.6761134e-03
  7.4046999e-03
  1.7615017e-01
 -6.7997756e-03
 -8.3410293e-03
 -4.9738336e-04
 -3.5645505e-03
 -1.8703785e-02
  1.5073225e-03
  1.0425263e-03
  7.5376948e-04
  2.1861782e-03
 -1.4948968e-03
 -2.0278852e-04
 -4.5761248e-01
 -9.4222194e-01
  6.7276351e-02
 -8.8139355e-01
 -1.4509712e+00
  5.4471350e-01
  1.1546025e-01
 -1.2086059e+00
  1.9293081e+00
 -1.6048046e+00
 -3.1263814e+00
 -3.3896945e-02
  2.0546947e+00
 -2.5933945e-01
 -5.2414328e-02
 -6.4779777e-04
 -9.9080326e-03
  3.8665491e-03
  1.8310351e-03
 -1.7940162e-02
  3.1535901e-02
 -2.9640117e+00
 -1.1803417e+00
 -9.5591180e-02
 -2.1886967e-01
  2.1135612e+00
  4.1353049e+00
 -7.7432603e-01
  1.5088046e-01
  5.6883317e-01
 -1.0970238e+00
  4.8071820e-02
  3.0687177e+00
 -7.9940218e-01
 -2.9598296e-01
  5.9162326e-02
 -2.1727328e-01
  2.7844056e-01
  2.5203161e+00
 -1.0905461e+00
 -9.6667594e-01
  1.1139041e-02
  1.5498562e-03
  2.4899654e-04
 -1.7951037e-01
 -1.0655861e+00
 -1.8034918e+00
 -1.5574263e+00
  4.4402912e-01
  2.5846977e-02
 -4.9647513e-01
  1.2230104e+00
 -3.2138306e-01
  3.2320917e-01
 -7.0547962e-01
 -1.1112760e+00
  6.4842999e-01
  4.1078787e+00
  4.6699044e-01
  2.8200358e-02
  2.8717336e-01
  8.7757371e-02
 -2.6309824e+00
  1.8213810e+00
 -9.6915185e-02
 -2.2152641e+00
  1.3658882e+00
  1.7850736e-02
 -3.7757158e+00
  2.6090322e-02
 -9.7511005e-01
 -1.5314640e-01
 -1.2086691e+00
  1.0323535e+00
  1.3976351e-03
  7.1267200e-01
 -3.2709666e-02
 -1.5896786e-03
 -3.4214775e-03
 -1.1464607e-02
 -3.0808562e-01
 -5.4199733e-03
  4.9136081e-03
  5.0318828e-03
  2.8848946e-02
 -8.4932847e-03
  3.7952131e-03
 -1.9449214e-03
 -1.9262303e-03
  2.1511097e-02
  4.4881275e-01
 -2.0868545e-03
 -1.1376807e-02
  9.1781346e-03
  2.7062129e-03
  2.7924273e+00
  1.6917255e-03
 -5.5482201e-03
 -1.1180969e-03
  2.2842470e-03
  7.3035189e-04
 -6.1412849e-03
  1.5516028e-02
 -5.2577024e-03
  4.8086313e-03
 -2.1890970e-01
  5.9970980e+00
 -2.0213337e-03
 -3.6664143e-01
 -9.7521079e-01
  8.9450055e-01
 -4.3865475e-01
  9.5505547e-03
 -1.1329494e+00
  2.0772234e-02
  3.0155652e+00
 -1.3337931e-01
  3.8007751e-01
  8.3206093e-01
 -5.6044586e-02
  2.0464319e-01
  3.6202723e-01
  1.7664205e+00
 -7.9325162e-02
 -2.1290823e-03
  1.8355016e+00
 -1.1828216e-02
 -1.9052258e-02
 -2.7134605e-02
  4.5965987e-01
 -1.9148951e+00
  6.6355932e-01
  4.9580210e-01
 -2.8296332e+00
  9.0019667e-01
  6.2583137e-01
  3.4265643e-01
  1.4626813e+00
  4.5988029e-01
  1.6819826e-01
  1.5835563e+00
  1.0621858e+00
  1.3611677e-01
  6.9733214e-01
  1.3060379e-01
  8.5860163e-01
 -6.1875689e-01
  2.2539730e+00
  1.2104211e+00
 -8.9121848e-01
  1.7397704e+00
  1.4827372e-02
  1.6686078e-02
 -4.1665420e-01
 -1.5964200e+00
  4.5176634e-01
 -2.3198269e-01
  1.0911021e-01
 -1.0746560e+00
  3.7408847e-01
 -1.5274255e-01
  1.4942867e-01
  9.1378570e-02
  6.3362050e-01
 -6.4076036e-01
 -1.3111025e-01
 -2.6640052e-01
 -1.3360852e-02
  6.4022827e-01
 -3.9587983e-01
 -8.2072890e-01
 -9.3860283e-02
 -1.5217296e+00
 -7.2399426e-01
  3.1004682e-01
  1.5300473e+00
  6.7749254e-02
 -2.3508966e-02
  2.0894517e-01
  6.3229281e-01
  6.5897149e-03
 -2.9582366e-01
 -3.0863580e-01
 -8.0695331e-01
  4.0152963e-04
 -1.2600100e-01
 -1.2041913e+00
  6.4016157e-03
  3.2571828e-01
 -2.9701490e+00
  2.9937031e-03
  7.7619731e-01
  4.2584091e-03
  1.0546489e+00
  3.2489353e-03
 -1.4175184e-01
 -4.2497024e-01
  2.0848920e+00
 -2.6810686e-03
  3.6165174e-03
 -1.4918378e-02
 -8.4980875e-03
  6.8881065e-01
 -3.7499515e-03
 -1.4203357e-03
 -1.2132920e-02
  3.6929867e-03
  1.0282815e-03
 -1.3828903e-01
  9.9857878e-03
  1.9670829e-02
 -4.4917827e-04
  4.2030686e-03
 -6.4245093e-04
  6.4888909e-02
  4.4830862e-01
  2.2249384e-01
 -7.9629794e-02
  1.8780798e-01
 -4.9641192e-01
 -1.7365415e-02
  1.0928403e-02
 -6.2705511e-03
  4.2096663e-01
 -1.7491006e+00
 -4.7867931e-02
 -4.5337540e-01
 -5.0747553e-03
 -1.9567080e-03
  4.5052499e-02
  3.4934580e-02
  1.2422898e-02
 -8.0410857e-03
 -4.3797633e-01
  4.6750315e-02
 -5.2947614e-02
  3.5776854e-03
  1.9401860e-01
  2.0027491e-03
  1.0918053e-02
  3.4553362e-03
 -1.1659704e+00
  2.8301699e-02
 -1.7705692e-01
  2.5779679e-01
 -2.5208383e+00
  4.8742715e-02
  2.3017912e-01
 -3.8138956e-02
  1.5065849e-02
  1.9238470e-01
 -8.2473539e-02
 -3.1279296e-02
 -1.8303690e-03
 -6.2055033e-01
  1.3993329e+00
  6.5463078e-03
 -3.2886970e-03
 -1.1298732e-03
 -4.2561409e-03
  1.9983974e-01
  1.8930751e+00
  2.7346888e-01
  1.9312747e-01
  6.1952546e-03
  1.6470734e-02
  1.6669714e-01
  1.2527400e-04
  3.2555826e-03
  2.1956305e-03
  1.0011321e-02
  1.3931121e+00
  8.8935763e-02
 -2.1785732e-01
  1.6061472e-02
 -1.2824462e-02
  6.6939099e-03
 -2.3356552e-01
 -6.3961828e-01
  1.1894157e-02
 -1.0447191e+00
 -9.2226453e-03
 -4.4640392e-01
  8.9032060e-01
 -4.5118421e-02
 -6.2101059e-02
 -1.9700041e-01
 -3.1024772e-01
  3.1143957e-01
 -4.3850228e-02
 -8.4390948e-03
 -1.0990551e-02
  3.7338804e-03
 -4.0247221e-04
 -2.0117215e-03
  1.3987078e-02
  1.3944650e-02
  2.0943675e-02
 -2.6560557e-01
  1.7068919e-02
 -1.1958908e-02
 -1.7701680e-02
  2.1244483e-01
  4.3110713e-01
 -1.2816811e-03
  2.5227521e-02
  6.2146145e-03
  5.4107951e-03
  2.5628153e-02
 -1.7512186e-03
 -5.8145020e-03
 -1.1581670e-02
 -1.5340458e-03
 -4.8902532e-04
 -3.3071379e-03
 -3.7717428e-02
  3.3833152e-03
  1.5902644e-03
  1.0003007e-02
 -1.0736707e+00
 -1.7741135e-03
 -1.2894711e+00
  5.1795000e-01
 -3.4342158e-01
 -1.5962356e+00
  2.8095867e-02
  3.8697344e-01
 -6.8093830e-01
 -1.1269119e-01
 -5.6457624e-02
  1.3195679e-02
  1.9635576e+00
 -4.7044975e-01
 -2.1679159e-02
 -9.6497732e-01
  9.2532393e-03
  9.4531912e-01
  1.1193042e-01
  1.1073775e+00
 -4.3162534e-01
 -6.0182124e-01
 -2.4552517e-02
  2.3793852e-01
  4.3998808e-01
 -3.6906189e-01
  1.5547724e-02
  2.2517271e+00
 -1.2465832e-02
 -1.7243387e-02
 -1.6367105e-01
 -2.7662191e-01
  1.7987845e+00
  3.0322559e+00
 -4.5118710e-01
  1.7435272e-01
 -3.7247384e-01
  1.4788312e-01
 -4.0074381e-01
 -1.0752303e-01
 -1.3522112e-02
  1.3622109e+00
  1.3947492e+00
  4.3110362e-01
  5.3897452e-01
  1.2610680e+00
 -1.9984372e-01
 -5.4953903e-01
  1.2012634e+00
  4.2456511e-01
  2.3703511e-01
 -9.9697977e-01
  4.4506866e-01
  2.8437018e-01
  1.4655339e+00
 -1.4617452e-01
  1.1627715e-02
 -7.3836756e-01
  1.0672809e+00
  2.1770241e-02
 -4.2502180e-01
  6.7956501e-01
  1.6688451e+00
  2.0058289e-02
  8.0917656e-01
  5.7003522e-01
 -5.1204020e-01
 -4.4643727e-01
  2.0504522e+00
  1.6015393e-01
  7.1847796e-02
 -8.6114663e-01
 -5.9366542e-01
 -4.4464362e-03
 -8.3528794e-03
 -4.7528390e-02
 -9.6464381e-02
  9.5410800e-01
 -7.9633193e-03
  1.1884019e-02
 -4.8967654e-01
 -7.3250759e-01
  1.1658286e-01
 -6.6706902e-01
  1.8510640e-03
 -1.3585096e-03
 -7.2102433e-01
  6.0941887e-01
 -1.3872699e+00
  6.2073219e-01
 -1.1142803e-01
 -6.8215567e-01
 -3.1002339e-03
  3.1549137e-03
 -1.1917256e-02
  1.4897229e-02
  7.8896275e-03
 -1.6824987e-02
  7.9250991e-01
 -2.8690844e+00
  4.3168934e-03
  5.1045343e-02
 -2.5475130e-04
 -4.1011684e-03
  1.0227891e+00
 -1.1093776e-01
 -8.6056087e-03
 -7.3758388e-01
  1.1019431e-02
 -2.5375135e+00
  1.0273933e+00
 -4.1635308e+00
  3.2908072e+00
  1.1074117e+00
  1.2636856e+00
  2.0884891e-01
 -2.7799186e-01
 -2.4870284e-01
 -2.5599401e+00
 -1.5807476e+00
  3.3084068e-01
  5.2224241e-02
 -1.3738875e+00
 -1.4343295e+00
  3.1398606e-01
  2.1535646e-02
  1.2467897e+00
 -1.2059271e+00
  1.0149155e+00
 -5.5611056e-01
 -6.7156345e-01
 -2.4709764e+00
  1.1935637e+00
 -2.4742539e-01
  3.7159731e+00
 -8.2346147e-01
  2.0819359e-02
 -2.8904721e-01
 -1.7320096e+00
 -4.6065426e+00
 -2.5121126e+00
 -1.0055503e-01
  7.9019690e-01
  5.9216410e-01
  2.0983150e+00
 -4.2573437e-01
 -3.1771210e-01
 -3.4231803e-01
 -7.6627654e-01
  1.2491264e+00
  2.3873224e+00
  8.7741628e-02
  4.7739783e-01
  3.2295966e+00
 -1.1864278e-01
 -3.9499155e-01
 -1.5108751e+00
  5.0974375e-01
 -6.5930851e-02
  6.6813266e-01
 -1.8437202e-01
 -3.1100991e-01
 -1.6134670e+00
 -4.7496855e-02
 -1.5318540e+00
  6.5218103e-01
 -2.4359351e-01
  1.4428895e+00
 -5.9173023e-03
  2.3849912e-02
  6.2033182e-01
 -1.0425225e+00
 -8.5148132e-01
 -5.4998498e-02
  5.4775697e-01
 -1.5237214e-01
 -5.4964102e-03
 -2.8003249e-01
 -1.2768917e+00
  4.6089196e-01
  6.1111029e-02
 -3.3543158e-01
 -2.7382116e+00
 -4.6809331e-01
  8.4424299e-01
 -4.2043123e-03
 -3.2513225e+00
  4.8205536e-04
  2.4671328e+00
 -2.2870541e-01
  8.6002606e-01
 -2.3093808e-03
 -4.3623513e-03
  5.3006780e-01
  9.5890999e-01
 -2.7056267e-02
  1.4777688e-03
  1.5403402e-02
  1.5957842e+00
 -1.0361397e-01
 -6.9988118e-03
 -1.8180780e-02
  8.8122586e-04
  2.8509982e-02
  2.5992659e-03
  6.3195237e-04
 -4.8123244e-03
  2.9615685e-04
 -2.7831045e-03
 -4.0929966e-02
 -9.6932031e-02
  3.1406365e-03
  5.6258850e-03
 -2.0432849e-03
  9.6354961e-02
 -7.2573917e-03
  1.0904253e-01
  1.6833282e-03
 -1.2446809e+00
  1.0687100e+00
  5.8812546e-03
 -1.0607405e+00
 -2.9681581e-01
 -4.4764128e-02
 -4.0033627e-02
  7.3876941e-01
  3.6656898e-01
 -4.3970773e-01
  3.7131786e-02
  5.9201658e-01
  2.2169930e-01
  5.2887672e-01
 -5.0882764e-02
 -3.1458637e-01
 -3.1193018e-01
  6.3758564e-01
 -1.3852757e-01
  2.9195392e-01
  4.1501533e-02
  9.6477620e-02
 -2.3811221e-01
 -3.7923362e+00
 -2.6956767e-02
 -2.8171062e-01
 -2.0864530e-02
 -1.4095055e-01
  9.1932362e-01
  8.3688933e-01
  4.0803244e-03
 -4.5268461e-03
 -9.4705188e-01
 -3.6793154e-01
 -6.7387092e-01
 -3.2610860e-01
  2.6830230e-02
  4.4904652e-01
  1.6401496e-02
 -1.4079044e+00
 -1.6946641e-01
 -2.7392324e-02
 -1.7129723e+00
  3.6653870e-01
 -2.7757886e-01
  2.5574543e+00
 -7.1697556e-03
  4.5208955e-01
 -3.5970250e-01
  6.5845144e-01
  1.4090579e+00
 -7.6198906e-01
 -6.7442775e-01
 -1.9307321e-01
 -1.0859611e-01
  3.1891298e-01
 -1.7208145e+00
  8.0242240e-01
 -6.6896893e-02
 -1.2725964e+00
  2.6465856e-02
 -4.0244799e-02
 -2.0283632e-02
 -5.7749920e-02
  3.0991355e-01
 -4.7042814e-01
  3.7395291e-02
 -7.8230709e-02
 -1.4917160e-02
 -5.1265280e-03
  1.5254393e-01
  8.3203989e-01
 -1.6561758e-02
 -1.2185882e+00
 -1.5755151e-01
  6.8790866e-03
  4.0482268e-02
  2.2520198e-01
  1.9011449e-02
 -8.5779754e-03
  5.7837278e-01
 -6.5440922e-03
  1.2527487e-02
  1.6319269e-02
  1.8428104e-02
  1.0245604e-03
 -1.5513580e-01
 -3.4170058e-01
  3.9888103e-03
 -6.3880892e-03
  2.9202076e-03
 -3.6723276e-03
 -1.2385674e-02
  1.2048388e+00
 -1.5192058e-02
  5.5641332e-04
 -1.5766740e-02
 -2.0884461e-04
 -3.5152838e-03
 -3.8051534e-01
 -1.3507041e-02
  2.9298443e-02
  1.6176553e-02
  1.5520633e+00
 -1.5943371e-02
  3.9692745e-02
 -1.2905972e+00
  1.5247776e-01
  5.8392954e-01
 -5.9663177e+00
  7.2955647e+00
  3.1680353e+00
 -1.5059827e-03
 -3.5901053e+00
 -4.9097147e+00
  5.5254235e+00
  1.4442996e+00
  8.3696157e-01
  2.5235704e-01
  7.3458141e-01
  4.0140626e-01
 -1.1652083e+00
  2.4152687e-03
 -1.3627148e+00
 -7.5871062e-01
  3.4777332e-02
 -1.1366553e+00
  1.4483091e+00
  7.0451284e-03
  1.0030259e-01
 -1.0121696e-01
  3.3828511e+00
  2.5072801e+00
  1.2012766e-01
  7.1240373e-02
 -1.3261706e+00
 -1.6023042e+00
 -3.4652376e-01
 -1.2291832e+00
  2.3786192e+00
  1.0211135e-01
  5.3143746e-01
 -5.8286506e-01
  4.5569509e-01
  5.4712021e-01
  4.0596190e-01
 -1.8677378e+00
  2.1281359e-01
  2.1318798e+00
 -2.0922326e-01
  5.9286505e-03
 -3.1730641e-02
 -1.6639361e+00
 -6.3091470e-03
 -3.8095929e-02
  1.7590477e+00
  2.1047574e-03
 -2.6611485e-02
 -1.0312078e-01
  4.6561058e-03
  2.3394513e-01
 -1.0680854e-04
  1.4766395e+00
 -1.4245563e+00
 -1.6836306e+00
 -4.9138145e+00
  2.7795805e-02
  3.8306230e-01
  1.1286912e+00
  5.6453240e-01
  9.8016880e-02
 -7.0779699e-01
  1.2006287e-03
 -1.0543762e+00
 -2.8831977e-01
 -1.7336529e+00
 -1.9964715e-02
 -7.4213010e-01
 -1.0547395e+00
  1.2576766e+00
  1.7393107e-02
  1.8836258e-02
 -1.2936053e-02
 -7.7957773e-01
 -3.3878028e-02
 -1.4816901e-02
  3.9186928e-02
 -3.2998480e-02
 -4.4817459e-03
  3.5959184e-02
 -9.5007746e-03
  1.0965906e-02
 -1.3582852e-02
  3.4086958e-03
  2.0783974e-01
 -1.8767419e-06
  8.7706465e-03
 -1.0896552e-02
  8.9396723e-03
 -2.3952317e-03
  4.7517501e-02
 -8.3934516e-03
 -1.0184725e-03
 -3.2454025e-02
 -1.1621652e-04
  8.0304155e-03
 -1.9653153e-03
  1.3765519e-02
 -1.3291253e-03
  3.1954932e-03
  6.2024849e-03
  5.5857771e-03
  2.1054250e-01
  3.0806670e-01
  1.3732554e+00
  3.3332515e+00
 -5.5257076e-01
 -1.2842678e+00
 -1.0216087e+00
  6.4938486e-02
  1.3831586e+00
  1.4994860e+00
  1.9733286e+00
 -2.6237836e-01
  7.6179177e-01
 -1.5551331e-02
  1.7590822e+00
 -1.1916778e-01
 -1.8078284e-03
 -1.6968821e-03
 -1.5717126e+00
 -5.5469680e-01
 -2.6304045e+00
 -3.7749705e-01
 -1.3457684e-02
 -3.3406250e-02
 -2.1897528e-01
 -6.6523395e-02
  8.9561427e-03
  1.3380892e+00
  1.3248460e+00
 -6.9348228e-01
  2.1362348e+00
 -2.8879719e+00
  1.5862203e-01
  1.5238132e-01
 -6.2062060e-03
  7.1240097e-01
 -1.4442543e+00
  2.5805749e-02
  1.4473475e-02
 -6.4856398e-01
  3.7471903e-03
  5.8091486e-01
  4.8415235e-01
  1.6821297e-01
  5.6502312e-01
  1.5230768e-02
 -9.2223525e-02
  6.5690655e-01
  3.4148669e-01
 -3.5016313e-02
 -7.6023173e-01
 -8.4081709e-01
  7.1959011e-02
 -7.0508581e-01
  1.8705513e-01
  1.1522217e+00
  6.9362032e-03
  8.0014640e-01
 -2.5006059e-01
  1.0779496e+00
  5.1226538e-01
 -1.9931316e-01
 -2.7328064e+00
 -1.0257326e+00
 -3.5535279e-01
  3.6174604e-01
  7.4991258e-04
  9.5826989e-01
  2.1213489e+00
 -5.4242343e-01
 -1.2875572e-01
 -2.0545529e-01
  9.7007459e-01
  1.1816617e+00
  1.6028031e+00
  9.9508567e-03
 -2.7038245e-03
  2.1332185e+00
 -9.9510071e-04
  7.4846065e-01
 -1.0312555e-02
 -7.3209502e-02
 -2.0038245e-02
  1.6929943e-02
  6.6903517e-02
 -7.3871905e-01
  3.0514270e-03
  1.0984174e-03
  2.6143186e-02
 -8.7786159e-03
 -1.5548873e-01
 -1.8651022e-02
 -5.8402196e-03
  5.0167819e-03
 -5.8227438e-02
 -4.1900882e-03
 -1.7575709e-02
 -6.1782869e-03
  9.4104018e-03
  1.4539255e-05
 -1.6567862e-03
 -2.8802037e-02
  6.4064401e-01
 -1.0158504e+00
 -3.7674950e-03
 -2.7162756e-04
  3.3966645e-03
  7.9581542e-03
 -7.8498159e-04
  2.5527138e-02
 -4.9095755e-03
  7.9121944e-03
  5.5989646e-04
  3.5010774e-03
 -3.2711579e-03
 -4.1789380e-03
  9.6670659e-03
  4.6371790e-03
  4.9078767e-03
  7.7334340e-03
 -2.3716217e-01
 -5.5390805e-02
 -1.8657668e-03
 -1.4731647e-02
  4.5470656e-03
 -2.4542624e-02
  1.5571304e-02
 -5.2291541e-03
  1.2286378e-03
  1.8062200e-02
  5.4323515e-03
 -3.5879892e-04
  2.6122851e+00
 -1.3397080e-04
 -1.1836186e-03
  2.8158948e-03
 -6.6695613e-04
 -1.5493901e-02
 -2.5729102e-01
 -3.7978967e-03
  8.9385621e-03
  4.9672094e-03
 -3.1815837e-03
  8.8136997e-03
  1.1158897e-02
  1.3308985e-03
  1.6477885e-02
  1.4907504e-02
 -2.5217384e-03
  9.3712937e-03
 -1.3620297e-02
 -8.7553496e-03
 -5.5696792e-03
 -4.8579411e-03
  2.5690970e-01
 -5.9472083e-04
 -9.1921706e-03
 -2.5371322e-03
 -4.0256819e-03
  2.2049916e-03
 -5.1842070e-01
 -1.5621663e-03
  3.5383285e-03
 -1.1938913e-02
  1.3325489e-02
 -5.6319069e-03
 -1.7793639e-02
 -9.8218734e-04
  6.7771479e-02
  1.7749943e-04
 -3.6727048e-03
 -3.0583513e-05
 -3.8735617e-03
 -1.3728443e-02
 -2.3222221e-02
 -2.6137740e-03
 -1.0721967e-02
  9.2695542e-02
  7.2118182e+00
  7.0819817e-03
 -1.0603889e-02
 -9.5429085e-03
 -6.3792486e-03
 -1.4748342e-02
 -2.8146177e-03
 -1.0936102e-03
 -8.9020431e-03
 -1.0325883e-03
 -4.8948894e-03
 -6.0905440e-04
 -4.9132449e-03
 -1.1503408e-03
 -4.0166229e-03
  3.3223909e-01
  9.4589647e-03
  5.5398891e-04
  7.4906913e-03
  8.5087004e-04
  4.9822628e-03
  2.9557792e-04
 -3.4662732e-04
  1.0699975e-02
  1.6967551e-03
  1.3100388e-02
 -4.9384916e-03
 -6.9730007e-03
 -6.7043803e-03
  6.4434116e-03
 -3.6209940e-03
 -1.8221172e-02
  1.2045927e-01
  4.9820733e-03
  6.3440660e-03
  1.4291385e-02
 -1.6443166e+00
 -1.7246103e-01
 -2.9901829e+00
 -8.4922224e-01
 -2.2329633e+00
 -2.0448222e+00
 -1.2938837e+00
  5.8019204e+00
  1.6239309e+00
 -7.2798305e+00
 -1.8578907e+00
  5.7144517e-01
  4.4093719e-01
  1.2755045e+00
  4.7280655e+00
 -2.1187768e+00
  7.9424113e-01
  2.9357472e-01
 -6.1407924e-01
  2.1438421e-01
  8.0505806e-01
  5.4076242e-01
 -4.0841645e-01
 -2.1088698e+00
 -1.5956335e-02
 -6.0824585e+00
  8.9754015e-01
  3.7206099e+00
  1.9678217e+00
 -3.5558890e-03
  2.6278627e+00
 -1.0704029e+00
  2.2621593e+00
  9.1678834e-01
  1.3423449e+00
 -1.2498661e+00
 -4.9094728e-01
 -1.1921842e+00
  1.2739006e-01
 -2.8198290e+00
 -6.0675831e+00
  1.2446637e-01
  1.5912540e+00
 -7.2465360e-01
 -7.8810465e-01
 -1.6850322e-01
 -6.0064726e-02
 -1.1505730e-01
  7.4711686e-01
  9.1351616e-01
  2.4493818e+00
  9.0190220e-01
 -4.5399451e-01
  1.1286399e+00
 -2.1370466e+00
 -2.1854694e+00
 -1.5986321e+00
 -2.9409009e-01
  2.2036448e+00
 -3.7335944e-01
  2.6248386e-02
  4.4417721e-01
  1.7050573e-01
 -4.7552340e-02
 -1.2521538e+00
 -8.7434953e-01
 -7.7970099e-01
 -1.9002782e+00
  2.5137532e-01
  2.7311951e-01
  7.3928207e-02
  1.4885503e+00
 -2.2232285e+00
  8.3365405e-01
  2.2252309e+00
  6.8770432e-01
 -4.7673255e-01
 -6.5499079e-01
  1.6221709e+00
 -3.6066494e+00
 -5.2550495e-01
  4.6469405e-02
 -3.1197010e-02
  2.1013373e-01
  4.4631201e-01
  2.8202137e-01
 -4.7691068e-01
 -8.6786175e-01
 -2.2955341e+00
  7.4749684e-01
 -2.2222815e-04
 -2.0883188e+00
 -9.8208559e-01
  3.7083158e-03
 -1.7490275e-02
  1.5993148e-01
 -1.5250761e-03
 -4.3529570e-03
  1.3272975e-02
  3.2741127e-03
 -6.2380626e-04
 -1.5043186e-02
 -1.8128348e-03
  5.1710505e-02
  1.1451163e-02
  7.4432349e-01
  5.1726126e-03
 -7.7018902e-02
 -1.1731544e+00
 -1.4271866e+00
  9.6121079e-01
  4.0506122e-01
  1.6216242e+00
 -7.5634956e-02
  2.7304187e-01
  1.0508682e+00
 -3.8586824e+00
 -4.2267232e+00
 -2.6673453e+00
 -7.9345211e-02
 -2.1511462e-01
  8.0183172e-01
 -1.8077701e-02
  1.1776155e+00
  5.9214097e-01
  2.5663471e+00
  6.0429794e-01
 -6.8210018e-01
  1.0717936e+00
 -1.3419074e+00
 -2.4352863e+00
 -1.6041273e+00
  2.6052433e-01
  4.6685520e-01
 -1.8861368e+00
  7.1367729e-01
 -4.1018324e-03
 -1.1910008e+00
 -1.2800767e+00
  9.0432692e-01
  2.4956374e+00
 -6.7884201e-01
  6.4843780e-01
 -2.6517587e+00
 -1.2162977e+00
  9.2793334e-01
  6.6457748e-01
 -1.2792077e+00
 -1.4028311e+00
  2.2130127e+00
 -1.6604596e-01
  5.8642430e+00
  4.6893813e-02
 -3.4226134e+00
 -2.8232801e+00
  3.5486481e-01
  3.9094460e-01
 -7.9851538e-01
  2.6339052e+00
  1.4751501e+00
 -1.1307185e+00
 -3.2124098e-02
 -1.7165970e+00
  1.1974109e-01
 -2.5376065e+00
  5.5235934e+00
 -8.4817763e-03
  2.1333704e+00
 -1.9028731e-01
  2.0073755e-01
  4.3401453e-01
  1.0177726e-01
  2.1188774e+00
  3.5276537e+00
  6.7052031e-01
 -3.4033689e+00
 -1.0107028e+00
  1.2787110e-02
  1.0278409e+00
  4.7241214e-01
 -2.9467425e+00
  2.7510574e+00
  3.7637979e-01
 -2.3304524e+00
 -1.6965988e-03
 -2.4692020e-03
 -3.6548681e+00
 -2.3177336e-01
  1.0006955e-01
  7.1812540e-02
  1.1422691e-02
  2.6802800e-03
 -1.0173523e+00
 -2.2685102e-01
 -3.3469579e-01
 -1.1320640e+00
  3.8332411e-03
 -3.3107705e-02
 -1.4557533e-02
  5.3333253e-02
 -1.6051490e-02
 -2.3067851e-01
 -3.1230940e-02
  4.0158346e-02
 -1.3045003e-04
  8.8286055e-03
  5.3970255e-03
 -4.4102366e-03
  6.2700018e-02
  2.2049402e-03
  4.3811605e-04
 -4.0184581e-03
  1.2920402e-03
  2.2405401e-02
 -9.7583240e-01
  8.4741637e-02
  1.8450309e-01
 -4.8473396e+00
  6.4506814e-02
  9.2084751e-02
 -2.1297033e-01
  4.2465541e-01
 -2.8213873e+00
 -4.2836586e-01
 -2.0227389e+00
 -3.6311634e-02
  3.5979712e-01
  4.1006007e-03
  2.3801748e-01
 -1.3618543e+00
 -2.4779312e-01
 -1.2030822e-03
  1.9999940e-02
  4.3837774e-01
  2.7967815e-03
 -1.4729704e+00
  7.1557522e-01
 -1.6559846e+00
 -1.1502739e+00
 -2.5368378e+00
 -4.5779161e-02
  7.4497587e-03
  2.6452575e+00
 -2.7825937e+00
 -1.1527276e+00
 -1.0523146e+00
  9.0830587e-02
  2.1396515e+00
 -3.8307116e-03
 -1.2748918e-01
 -2.7023940e+00
  1.4108495e+00
 -1.5804949e+00
 -6.4757282e-01
  2.6758064e-02
 -2.3727105e+00
 -8.6809093e-01
 -5.1117392e-04
 -8.7864840e-01
 -3.4766191e-01
 -7.8331143e-01
  5.9298760e-01
  3.6535926e-02
 -3.1520861e-01
  5.8342129e-01
 -9.9270046e-04
  3.3223593e+00
 -2.3491256e+00
  3.9361402e-01
 -1.0200813e+00
  1.1759567e+00
 -1.4272282e-02
  4.4858453e-01
  8.3595949e-01
  2.5880098e-01
 -2.6633367e-01
 -5.1790881e-01
  7.8801781e-01
 -7.0254243e-04
  1.3770559e+00
  7.1640372e-02
  1.5609032e-01
  8.1686437e-02
  4.6255007e-01
 -7.4669451e-02
 -6.5827770e-03
  9.1949880e-01
  4.4698173e-01
  7.1174935e-02
 -7.2263187e-01
  1.6716108e-01
  7.7513638e-03
  2.0399483e-01
 -1.6387978e+00
 -2.3186319e-01
  4.1567463e-01
  3.4960229e-02
 -3.1332275e-01
 -1.1945440e-03
  7.6091254e-01
  6.2545058e-03
  6.2800148e-03
  5.4008478e-01
  2.1050794e+00
 -5.4620075e-01
 -5.2640019e-03
 -1.2373740e-02
 -1.2935276e+00
  6.2466939e-03
 -2.0134926e-02
  2.5298810e+00
  2.4546974e-03
  6.4071896e-03
  1.9795658e-02
 -1.3413461e-02
 -6.2033445e-02
  2.6205899e-03
  6.6082753e-02
  1.6273153e-03
 -1.0639508e-03
  6.2992866e-03
 -5.9209549e-01
 -4.4008722e-03
 -3.9764455e-01
  8.3332980e-01
  2.3109077e-02
 -8.1904419e-02
  2.4348395e-01
 -4.3383949e-02
 -1.2004622e-02
  9.2302766e-03
  7.0402700e-01
  7.7100262e-02
  4.0704897e-01
  6.7898852e-01
  4.0935855e-03
  3.2789893e-02
  1.4893582e-02
 -8.6941756e-03
  1.6888986e+00
 -1.6987879e-02
  2.9657474e-01
  4.1124701e-01
  1.1129704e+00
  1.1659377e+00
 -2.4982810e-03
 -3.4996617e-01
  2.5934704e-02
  2.7246865e-02
  3.0908263e-03
  4.3595927e-03
 -7.2190613e-02
 -8.1156516e-01
  5.8924644e-03
 -3.7950322e-02
 -7.6751616e-03
 -8.1261319e-01
  3.0156124e-01
  4.0739428e-02
  6.8027794e-02
  4.1720375e-01
 -2.9425303e-02
 -1.6545103e+00
  2.8092671e-02
 -3.3499196e-01
  3.2310996e-03
  5.5322930e-04
  5.6521285e-01
 -3.5715353e-01
 -5.8977807e-01
  1.1753638e-02
 -2.1786469e-01
 -2.7724199e-02
 -3.1227696e-01
 -1.6709223e-01
  1.4897364e-01
 -9.5293045e-02
  7.7796958e-02
 -4.7304344e-01
  4.0115356e-03
 -3.2616730e-03
  1.4297874e-02
 -1.7202444e-02
 -9.9022365e-01
 -1.0584655e+00
  1.5396178e-02
 -1.4838457e+00
 -2.1988775e-04
  1.0235568e+00
 -1.5051316e-01
 -1.3382874e-03
 -8.1958555e-02
  3.2350594e-01
 -2.4050631e-02
  1.3142678e+00
  1.1460464e-02
  1.5256463e-01
  1.5716441e-01
  1.0133206e-01
  1.4739797e-03
 -3.8874100e-03
 -3.6054188e-03
  7.4135601e-03
 -1.2507163e-01
 -7.8457678e-03
 -2.7517816e-03
 -5.8902297e-03
 -2.2338778e-03
 -2.7952263e-02
  6.8605551e-03
  1.9365937e-01
 -5.6094434e-03
 -3.5378451e-03
  2.2252227e-01
 -1.4419510e+00
 -7.1059205e-03
 -3.6474098e-02
  8.0317752e-03
 -1.5788712e-02
  3.7480479e-03
  8.1254626e-03
 -6.2822727e-03
  4.4479715e-03
 -2.3775697e-03
  1.8211139e-02
 -2.4943769e-03
 -1.2847158e-01
 -1.1896606e-02
  5.9808314e-01
 -3.1778381e+00
 -3.5019650e+00
 -4.2875261e+00
 -7.9471648e-02
  1.5682666e+00
  5.4693241e-02
  9.1857010e-01
  2.5350146e+00
  6.7763239e-01
  3.1083995e-01
  1.9570041e-01
  1.6232103e-01
 -1.1930218e+00
 -4.8164502e-01
 -1.1976451e+00
 -1.9048465e+00
 -2.3002548e+00
  1.2096531e+00
 -4.5881134e-01
  1.1793119e-01
 -2.1737068e+00
 -1.0271347e+00
 -6.2347609e-01
  5.4680776e-02
  1.1030638e+00
 -1.2783335e+00
  2.8615034e-01
 -1.3055034e+00
  2.2553915e-01
 -4.6623311e+00
  8.7662190e-01
 -3.6126217e-03
 -9.9150276e-01
 -2.7968875e-01
  3.9458728e-01
  3.1840611e+00
  2.8802076e-01
 -5.4096144e-02
  4.8744163e-01
 -2.6653942e-01
 -1.3788028e+00
 -1.1653023e+00
  1.0163492e+00
 -2.7870145e+00
 -3.2469243e-01
  1.5771610e+00
  2.4509640e+00
 -8.4486198e-01
  1.5082906e+00
  2.4301322e+00
 -1.4866189e+00
 -4.6573644e+00
 -8.8145494e-01
 -1.2907366e+00
 -1.8966559e+00
 -5.4719353e-01
 -9.9745929e-01
  9.5679307e-01
 -1.4721394e+00
 -9.8484927e-01
  2.9832059e-01
 -1.1694326e-01
 -6.7719656e-01
  1.5596467e+00
  9.9268007e-01
  4.9423745e-01
  1.2151556e+00
  8.6123532e-01
 -6.2986118e-01
 -1.7594945e+00
 -8.2604092e-01
  5.7680368e-01
  1.1218625e+00
 -5.7938147e-02
 -2.0665474e+00
  2.7833286e-01
 -1.8172285e-02
 -4.5595035e-02
  9.1731411e-01
  1.7589662e-02
  9.3557969e-02
 -1.1353265e+00
  8.3554164e-03
 -4.1157925e-03
 -4.0981853e-01
  5.8089015e-03
  2.3621351e-02
  1.3064937e-02
  1.6719325e-01
  3.6887170e-03
  5.3061064e-02
  4.5914978e-02
 -1.1460389e-03
  7.8900653e-04
 -2.3711207e-03
  5.9726480e-03
 -3.0344017e-03
  1.4634728e-02
  1.0502430e-02
 -2.8697617e-02
 -3.4448835e-03
  2.1343334e-03
  2.3242718e-04
  3.3640213e-02
  3.0892947e-01
  2.2026191e-02
  1.9542143e-02
 -5.1790290e-03
  4.0738019e-03
  4.4972876e-01
  3.6762569e-02
  1.3643892e-02
  7.5176172e-02
  2.5475895e-01
  1.7906189e-02
 -2.0176912e-02
  8.6259866e-01
  3.1654756e-03
 -1.0912984e-02
 -2.5586335e-03
  1.7594408e-02
 -7.1774709e-01
 -1.0513350e-02
  1.8866129e-02
 -1.2146107e-04
 -7.9792034e-04
  1.2037010e-02
  1.0980747e-02
  6.6096992e-03
 -2.7005619e-01
 -1.2955979e-02
 -1.0460148e-03
  4.9457806e-03
 -4.9844957e-03
 -5.8707612e-04
  3.9081774e-03
 -1.9547923e-02
 -1.5665387e-03
  1.7615523e-03
  9.6578267e-04
 -9.5307231e-03
 -4.4087758e-03
 -2.0216347e-03
  5.4611167e-04
 -2.5509703e-03
  3.2228143e-03
  6.5400023e-03
  2.0039454e+00
 -5.8099763e-03
  1.4491669e-02
  1.4361423e-04
  1.4337569e-03
  4.0986948e-03
 -8.4849261e-03
 -5.8963047e-03
  3.1289619e-01
 -1.1835202e-02
  5.1638307e-03
 -4.4763935e-01
  2.7681062e-05
 -6.6714725e-03
 -4.7022547e-03
  1.8090156e-01
 -7.3285168e-01
  3.8689531e-03
 -1.1433050e-02
  2.2834261e-04
 -1.4297714e-03
 -1.2274929e-02
 -4.0804967e-03
 -3.2499230e-03
  1.1090077e-02
  1.7294332e-03
  1.3677686e-02
 -2.2298782e-03
 -9.4921272e-03
 -9.2290184e-03
  4.5302376e-02
 -8.1930039e-03
  1.0710829e-03
  2.1512406e-02
  1.7811708e-02
 -2.6129147e-03
 -7.6850811e-03
  3.6434489e-03
 -8.0838604e-03
 -1.3975489e-02
 -1.6566560e-02
  1.4636525e-02
  1.3057448e-02
  5.5376193e-03
  1.6748071e-02
 -4.7295154e-03
  1.7315599e-03
 -2.6967825e-02
  2.5728099e-02
 -1.1107275e-03
  9.2255939e-03
  1.8380515e-02
 -1.7174026e-02
 -8.3933510e-03
 -8.9884335e-03
  4.0333927e-02
 -1.1135029e-03
 -3.2253487e-03
 -3.7319740e-04
  1.7689001e-03
 -1.2688928e-03
  8.3434796e-01
  5.1558232e-03
  3.4941162e-03
  7.8748173e-01
 -3.4839683e-04
 -5.9413242e-01
  1.3970436e+00
 -4.3389127e-01
 -1.8358469e+00
  4.2349334e+00
 -2.0112805e+00
 -6.4451766e-01
 -2.4447120e-03
  1.8131545e+00
  2.5530658e+00
 -3.3987612e-01
  8.2803226e-01
 -5.5587973e-02
 -1.8253241e-01
  1.0803254e+00
 -1.9040209e+00
  4.8216882e-01
  6.8242723e-01
 -2.6295533e+00
 -1.5840799e-02
 -7.2768167e-02
 -6.7708939e-01
 -5.3734994e-01
  1.4880551e-01
 -2.0007460e+00
  3.7373838e-01
  1.1773121e+00
 -8.3501470e-01
  2.7558060e+00
  2.0850468e-02
 -2.7085240e+00
 -5.8621448e-01
  3.3850025e-03
 -1.0290624e+00
 -2.0583138e+00
 -6.9886845e-01
 -1.2033361e+00
  1.0920335e-01
  4.4460972e-03
  1.0482800e-03
  2.1282731e-02
  8.8489133e-01
  3.9900853e-03
 -1.6439560e-01
 -9.5523568e-03
  5.3689665e-01
  1.1037486e+00
 -1.3561125e+00
 -4.5213541e-01
  9.1558494e-02
  5.1119882e-03
  1.0295938e-02
 -1.2721974e-01
 -8.8143677e-02
 -9.5179891e-03
 -4.3013390e-02
 -1.5985812e+00
 -1.5341442e+00
 -2.9034314e+00
  3.3497295e-04
  6.4710669e-02
 -4.6917620e-01
  1.8217144e+00
 -1.5333319e+00
  1.3544613e-02
 -3.2242460e-04
 -3.6610225e-01
 -1.6196004e+00
 -3.9192325e-01
 -1.9057531e-02
 -1.0207506e-01
 -5.1638401e-01
  4.5441143e-02
 -1.0910119e+00
  2.1170017e-01
  7.0962110e-03
  8.1959561e-02
  5.4625436e-03
  7.7359136e-03
  1.2865611e+00
 -2.2149837e-02
 -6.5735704e-03
 -6.7367479e-03
 -5.4053850e-03
  2.0018566e-01
  7.1732523e-03
 -2.2371732e-01
  2.0823902e-03
  9.1852777e-02
 -2.9167119e-01
 -3.7187073e-02
  1.8308977e-02
  2.5959339e-03
 -8.2749296e-03
 -1.4434013e-02
 -1.6906973e-02
  2.0222474e-02
  8.4175626e-03
  4.3117488e-03
  8.4561054e-03
  1.3440386e-02
 -1.8735169e-02
 -1.6040782e+00
  9.5570693e-03
 -4.6109036e-02
  5.1508471e-04
  2.3774981e-01
 -7.4298228e-03
  4.2088028e-02
  2.1863531e-02
  3.7459567e-01
 -1.0477688e-02
 -4.3826117e-03
  2.1775931e-03
 -1.8904621e-02
 -1.1241785e+00
 -4.3581836e-03
 -4.8515069e-01
  2.7546345e-03
 -6.2382879e-04
  1.2071780e-02
  8.6292773e-01
 -6.6333893e-03
 -5.1874020e-03
  5.5527518e-04
 -5.1269006e-02
  7.2045991e-04
 -1.5357066e-03
  2.4714575e-03
  4.8841778e-03
 -5.2890301e-01
 -8.8354144e-03
 -4.5908171e-01
  4.7173323e-03
 -3.6899948e-03
  3.0102834e-01
  5.8858475e-04
  7.4034659e-05
 -4.1072290e-02
 -4.2012203e-03
 -1.0516491e+00
 -1.2800269e-04
  3.6192038e+00
 -6.2284456e-03
  7.1771429e-03
 -2.3737389e-03
 -1.2586334e-03
 -5.1148478e-02
 -2.0567738e-02
  4.2635080e-04
  1.4529535e-02
  4.1255802e-02
 -2.0137468e-02
 -7.7218376e-02
 -1.1670677e-01
 -4.0775653e-02
 -1.9766048e-02
 -1.0275519e-02
  1.5076385e-03
 -4.6938728e-03
  1.4433207e-03
  7.5127152e-03
  4.0281327e-03
 -6.3898939e-01
 -3.3628878e-01
 -3.9702384e-03
  2.0727655e-03
 -1.2876204e+00
  7.5527015e-03
  2.3939637e-02
  4.9831658e-03
 -9.4842250e-03
 -1.5609189e-02
 -5.3898442e-01
 -4.8314754e-04
  2.1960384e-03
 -9.1928160e-03
 -3.6461342e-03
 -2.0183371e-03
  2.6051698e-02
 -2.5591269e-01
 -7.2455755e-03
 -1.0877826e-02
  1.4167886e-02
  5.1571582e-03
 -2.5512500e-02
 -4.1857534e-03
  1.7539464e-02
  2.8415639e-03
 -1.1045204e-02
  2.1207279e-03
 -8.0661327e-03
  4.1328524e-03
  2.8506604e-01
  4.4623353e-03
 -1.6196582e-03
 -5.3642602e-03
 -1.5486188e-03
  6.5503372e-03
 -1.0786071e-02
 -1.9550530e-02
  6.4395708e-03
 -6.1378342e-01
 -1.0561861e-02
 -7.8127608e-03
  1.9015624e-03
 -3.5607191e-03
 -3.2189122e-04
  1.1105763e-02
  7.6898714e-03
 -5.6529613e-03
 -9.9800414e-01
 -9.8323543e-04
 -4.9495015e-01
 -7.3872745e-02
 -5.9294498e-01
  1.3174858e+00
  6.6902071e-01
  1.6353644e-02
  4.3384629e-01
 -1.2047900e+00
  7.5022347e-02
 -2.3296182e+00
 -7.7059910e-02
 -1.0255798e+00
 -1.8395785e+00
  6.2725030e-02
 -3.2058778e-01
 -2.1500444e+00
 -2.3524115e+00
 -1.2059313e+00
 -1.6828127e-02
 -8.4168816e-01
  3.0725637e-01
 -1.7027262e+00
  4.3868819e-01
 -2.8090838e-03
 -1.4730088e+00
  6.7185894e-02
  1.3600179e+00
 -1.2522669e+00
 -2.3385288e-01
  5.8648206e-02
 -1.1101789e+00
 -1.3618038e+00
  4.0874115e-01
 -2.2980455e-02
  6.8265468e-01
  1.1937740e-01
  5.8914192e-02
 -4.3467531e-01
 -1.0040316e-01
  4.9746701e-01
 -6.3375783e-01
  7.3776799e-01
  1.7394712e+00
 -1.6723163e-01
  1.0671551e+00
 -7.4438077e-01
  8.7840092e-01
  1.7316740e+00
  1.9794773e+00
  3.8016979e-02
 -2.6400747e+00
 -2.9628971e+00
 -4.5376860e-02
  1.2854117e+00
 -5.8773346e-02
  2.8671876e-01
  1.6486919e-02
  1.1053600e+00
  1.1147895e-01
 -6.7026025e-01
  4.6060169e-01
 -1.1691774e+00
 -2.9850438e-01
  1.6517898e+00
 -1.4712751e+00
 -6.3510519e-01
  1.1869858e-03
  1.3688109e-03
 -2.0220302e-01
 -1.3588415e+00
  6.8303502e-01
  1.4616032e-01
  4.3396500e-01
  1.6297245e-01
 -2.5956583e-01
 -7.5819105e-01
  5.6328720e-01
 -3.1991610e-01
  1.8335986e-01
 -6.2427088e-03
  3.9417049e-01
  4.7868122e-03
  8.8849049e-03
  2.1943736e+00
  9.8661333e-04
  1.2139849e-03
 -8.6952848e-03
  2.3699934e-02
  1.8388944e-02
  1.5340522e-01
 -3.4153292e+00
  7.2342688e-03
  8.6203702e-03
  1.3199512e-02
  3.6784485e-03
 -3.9351154e-03
  3.5019997e-01
  6.2004356e-03
 -2.7720316e-03
  8.3804745e-03
 -1.1639242e-02
  2.1173141e+00
  6.1938539e-03
 -5.6413142e-04
 -7.8320230e-04
  8.8173999e-03
 -5.4087138e-01
  1.1859177e-02
 -6.9694996e-01
 -4.6230116e-01
 -1.6047252e+00
 -3.0452881e+00
 -1.0826529e+00
  6.3525558e-01
  1.4118997e+00
  1.6281217e+00
  8.5520767e-02
 -5.8773839e-01
 -2.3232598e+00
 -5.0834000e-01
 -1.3780589e+00
  1.6453105e+00
  3.4506898e+00
 -2.8306836e-01
  6.3132322e-01
  2.6223382e-02
 -5.9897530e-01
 -6.7407265e-02
 -1.7902025e+00
  3.0574787e-01
  1.7013726e+00
  1.9990516e-04
 -6.2201762e-01
 -1.9505161e+00
  2.5727901e-01
  4.2767193e-02
 -2.0749356e-01
 -8.3006322e-01
  6.0974306e-01
 -2.6510088e+00
  1.0068210e+00
  1.3336949e+00
  4.2301136e-01
 -5.8323860e-02
  1.3722167e+00
 -7.8072280e-02
 -1.3766910e+00
  1.4135761e+00
 -2.0791062e-03
  2.4784679e+00
  2.9967070e+00
 -3.1013217e+00
 -1.5603697e+00
 -8.9346550e-02
 -8.7313682e-01
  1.1535397e+00
  1.3885572e-02
 -1.2580354e+00
  1.4862903e+00
 -2.3372079e-01
 -2.7822456e-01
  2.7536446e-01
  2.4484553e+00
  7.8338996e-02
 -3.7731588e-01
 -5.3920513e-01
  1.7245966e+00
  7.4419135e-01
  5.3661976e-02
 -1.0540318e+00
  2.9967975e-02
 -9.6287124e-02
  3.4431168e-01
  5.7118106e-01
 -5.0737733e-01
 -1.5262825e+00
 -3.8783497e-01
  6.2066764e-01
 -3.3326983e-01
 -1.5138137e-02
  1.3130587e-02
 -1.3756070e+00
  1.4520671e+00
 -9.2916429e-01
  6.1125326e-01
 -7.8041838e-03
  1.9680897e-02
  2.0640361e+00
  1.0672295e-02
  4.9066045e-03
 -9.6128257e-03
  3.6694573e-03
  2.2847712e-02
 -1.0274615e-01
  3.6414310e-01
 -7.1743995e-01
  5.0125319e-01
  1.8919450e+00
 -9.3473934e-02
  1.1496285e-02
  7.9663672e-02
  7.2669056e-03
 -4.1450467e-03
  1.0394778e-02
  2.4352418e-03
  3.0204361e-02
  4.9751890e-03
 -5.2356906e-03
  3.5783235e-02
 -1.0713062e-03
  1.4322787e-02
 -2.9966349e-02
 -6.6480599e-03
  3.3742407e-01
 -1.2297351e-02
  4.0635520e-01
 -3.9803727e+00
 -1.3487486e+00
 -1.5471905e+00
 -7.1603614e-01
 -1.1608701e+00
  1.4078704e-01
  7.9232031e-01
  9.2909378e-01
 -2.3127296e+00
 -9.3183464e-01
  1.1096234e+00
 -2.7163801e-01
 -7.7009983e-02
  7.6712631e-03
  3.1818822e-01
 -9.9745505e-03
  1.3506577e+00
 -6.4025164e-01
  1.7607859e+00
 -9.2499447e-01
  1.5889879e-01
 -3.2409322e-01
 -3.0010796e-01
  4.9366483e-01
 -4.0738344e+00
  1.9661410e-02
  5.5765128e-01
 -1.5437485e-01
  9.2245305e-01
  2.7146327e-01
  4.5440730e-01
  1.0217322e+00
  6.1347359e-01
 -8.9606082e-01
  9.2993319e-01
  1.0046768e+00
 -8.4129548e-01
 -3.4601986e-01
  4.4011411e-01
 -1.4361311e+00
 -1.6336805e-01
  2.6981325e+00
  2.4455355e-01
 -4.2337111e-01
  9.0332830e-01
 -2.9194176e+00
 -5.9702981e-01
  1.9546884e+00
  1.7561271e+00
  2.9524464e-02
 -3.3371553e-02
  5.2615091e-02
 -1.7063667e-01
 -8.3198369e-02
 -1.3278747e-01
 -2.6132575e-01
  2.9145019e+00
  6.2373072e-01
  3.8359997e-01
 -3.7500483e-01
  1.8314416e+00
  1.1940260e+00
  5.0724596e-01
  2.1269014e+00
 -6.7992523e-02
 -3.2011908e-01
 -1.6694937e+00
  8.0767006e-01
 -7.2286183e-01
 -1.0103359e+00
  1.3353422e+00
 -1.0196644e+00
  6.5874062e-03
  2.4965677e+00
 -1.0980592e+00
  1.1225315e-01
 -4.8597297e-01
  3.1717911e-01
 -5.7067693e-04
  3.1142899e-01
 -4.4557061e-03
  1.0470624e-01
  7.6256192e-01
 -9.7587155e-03
 -3.1678064e-03
  8.2376553e-03
 -2.0751102e-02
  7.6680666e-01
  1.5750009e+00
 -8.2859310e-04
  5.2453154e-03
  9.6331865e-02
 -9.7967023e-03
  5.6961193e-03
  4.9705054e-03
  6.3255131e-03
  3.5444140e-02
  7.6993026e-02
 -1.5535259e-01
  4.9590784e-01
  1.0785005e-02
 -2.8991010e-03
 -3.9069238e-03
 -2.5166252e-03
  1.1155050e+00
  3.4685123e-03
  2.5778961e-01
 -2.8645718e-01
 -7.5394318e-02
 -2.4023836e+00
 -9.9861566e-03
  7.0218623e-02
  1.0291111e+00
 -1.1732990e-02
  8.2349569e-02
 -1.0210489e+00
  7.0003992e-01
 -4.5579824e-01
 -1.2457877e+00
 -1.0645474e+00
  2.4795859e-01
  9.4492871e-01
 -2.3875086e-02
  9.2334783e-01
  1.9073035e-01
 -1.8559109e-03
  5.5939579e-01
  6.4940488e-01
 -2.6659372e-01
 -5.9247237e-01
 -1.9215796e+00
 -2.2861893e+00
 -4.2603809e-01
 -9.6935697e-02
 -1.9925922e+00
 -1.2910615e-03
 -9.4334519e-01
  2.6798213e-01
  1.6706202e+00
  2.0177874e-01
 -6.1412089e-02
  4.6863309e-01
 -1.0643701e-01
 -1.2158359e-01
 -5.5294609e-01
  3.8970691e-01
 -2.9250379e-03
  1.1618609e+00
 -2.3196372e-01
  9.1920853e-02
  1.0352005e+00
 -8.9949077e-01
  2.5767905e-01
  4.9199447e-01
 -1.0082743e-01
  4.8569316e-04
 -3.9929190e-01
  1.0716700e-01
 -3.7580207e-01
 -1.0158207e-01
 -1.8581256e+00
 -1.1327752e+00
 -1.0449500e+00
 -1.3904794e+00
  5.2026552e-03
  2.2133262e+00
 -1.5023063e+00
  1.0677833e-02
 -2.5954845e+00
 -1.3242526e-01
 -6.2679565e-01
  1.6476859e-01
 -1.1988344e+00
  2.0890570e-01
  3.2208049e+00
 -1.3811117e-01
  3.3957250e-03
  2.9690939e-01
  2.6475251e-01
  4.3520054e-01
  5.8088297e-01
  1.7691072e-02
  1.1368853e-03
  1.2836730e-02
 -6.1489968e-03
 -1.9561916e-03
  2.1081560e-03
 -4.7742059e-03
 -2.0675529e-02
 -1.9079432e-02
 -5.4920845e-02
  1.0822198e-01
  2.0220135e-01
 -9.6091721e-03
 -9.4053419e-03
 -1.8506222e+00
  3.0293824e-02
  5.2678706e-03
 -2.7068695e-02
  6.5788877e-04
  9.6861948e-04
  3.1264614e-02
 -1.4596099e-03
 -1.1636176e-03
  4.6394165e-03
  5.3855302e-03
  6.3611921e-03
 -2.4183935e-03
  5.5754860e-03
 -4.7027002e-04
  5.6834188e-03
  6.9857581e-04
  3.3853881e-02
 -5.1275278e-03
  2.1646686e-03
 -1.1807058e-02
 -5.2991927e-01
 -3.2964230e-03
 -2.3499438e-04
  1.0025089e-03
  1.7971326e-02
 -2.0626583e-03
 -2.5457721e-02
  3.6216059e-01
  1.1229015e-02
 -3.0985405e-03
  1.8111175e-02
 -3.4576423e-02
  2.9896670e-03
  9.0990467e-03
 -4.7453009e-03
  5.8120089e-03
 -1.3066050e-01
  2.0533958e-03
  1.9774351e-03
  2.1809787e-03
 -1.0839383e-01
  1.7184181e-02
  1.5091588e-02
 -5.5613988e-03
 -3.8820170e-04
  2.6563036e-03
 -1.0610435e-02
 -3.1494346e-02
  1.4963360e-03
  1.3617575e+00
 -1.2469279e-02
  4.2248541e-03
  6.0362918e-03
 -2.1709366e-02
  9.1922825e-04
  2.8934294e-01
 -2.6410599e-03
  2.3506950e-03
  1.9806583e-04
 -4.8040524e-03
 -8.0214525e-03
 -1.7226447e-03
 -2.1743698e-03
  2.3923761e-03
 -1.2349255e+00
  1.9314355e-03
  2.6887793e-03
 -4.0512864e-04
  3.3650049e-05
 -1.5163874e-02
  1.4800736e-02
  8.2479930e-03
  2.5683143e-03
  9.2342339e-04
  2.0880490e-03
  2.6974952e-01
 -3.6969634e-03
 -1.1368990e-01
  3.6298581e-03
 -1.7496717e+00
  4.0542957e-01
  5.2598934e-03
 -8.5510649e-03
 -2.5516474e-03
 -8.9629699e-04
  6.4607323e-03
  1.0110149e-02
  8.7603839e-04
  1.6121254e-03
 -3.5777306e-03
  7.4197561e-04
 -9.9143840e-04
 -5.5279797e-03
 -2.8687750e-04
 -2.4369562e-03
 -1.0773052e-02
 -1.4266059e-03
 -1.8859142e-03
 -1.1694310e-02
 -4.2517227e-03
  1.2697771e-03
  9.9536208e-03
 -5.7660132e-03
  6.1259107e-03
 -1.1061496e-02
  4.2565661e-03
 -4.1536647e-03
  2.3069043e+00
 -2.1201482e-03
  3.8172535e-04
  4.9055186e-03
  8.2205348e-03
 -2.6831750e-03
  4.7645569e-03
  9.8550459e-03
  9.3319680e-04
  7.2372393e-03
 -5.9850700e-02
 -9.3836850e-03
 -1.4402751e+00
 -4.6885647e-03
  9.2072580e-03
  1.1768476e-02
 -1.6139150e-02
 -8.8181030e-03
  9.4045503e-03
  3.1441293e-04
  9.5656240e-01
 -1.5114114e-01
 -1.0147595e-03
  8.3932909e-04
  1.4827115e-03
  7.1365419e-03
 -8.6705266e-03
 -2.1918321e-02
 -6.4516270e-01
 -1.6602754e-04
  1.8228783e-03
 -5.3996961e-03
  9.2972787e-03
  4.4835532e-01
 -1.9350526e-03
  6.4976312e-02
 -9.7888429e-03
  7.7151665e-03
  8.4374391e-04
 -6.1275903e-04
  2.4913714e-04
  3.6141924e-03
  5.4749879e-03
 -1.1930396e-02
 -4.3779956e-03
  1.2140970e-02
  7.2222450e-03
 -6.0639782e-03
 -5.8269912e-01
 -1.7499615e-04
  5.7365354e-03
  1.1732844e-01
 -3.9782869e-03
  7.2808755e-03
  1.2592496e-02
 -2.2530694e-02
  1.6884107e-02
  8.2158923e-02
 -4.0254849e-03
  6.6718725e-03
  3.6002011e-03
  1.0494112e-02
  1.7570433e-03
 -6.0486314e-03
  1.1396017e+00
 -1.2994369e-02
 -6.2431204e-03
  5.2547371e-03
 -3.6233911e-01
 -2.4153337e-02
 -2.7535388e-03
 -2.6716239e+00
  3.6594726e-03
 -2.0487009e-02
 -9.7584948e-03
 -1.1338216e-02
 -1.8683370e-03
 -1.2335646e-03
 -1.1347071e+00
 -1.7156822e-03
  1.3895038e-02
  3.2129972e-03
  3.2391425e-02
 -1.9758053e-02
  2.5019383e-02
 -5.0127357e-03
  8.0396961e-03
 -3.0035825e-02
 -5.0595580e-03
  1.9060217e-02
  2.5154534e-03
 -5.1056802e-01
  1.0468158e-03
 -1.2792943e-03
  7.9579768e-04
  2.8998172e-03
  1.1692007e-02
 -1.0498847e-02
 -3.8598932e-04
 -4.6191760e-03
  5.7905037e-03
 -1.3169821e-03
 -1.3211981e-03
  5.6509338e-03
 -2.5444222e-03
  4.1239290e-04
  8.6567849e-03
  5.2133286e-03
 -3.0965183e-03
  2.1218939e-02
  6.1988849e-03
  1.2130591e-03
  1.3509643e-03
  2.1556602e-03
  5.1271389e-03
  2.6315697e-03
  6.9029242e-02
 -1.2810355e-02
 -3.3737062e-03
 -9.2533072e-03
  2.7346738e-02
 -7.9921996e-03
  1.7423126e-05
  8.5572097e-03
  5.0062928e+00
  6.6111666e-01
  2.2842690e-01
 -2.3390217e+00
  1.9213684e+00
 -2.2266197e+00
  2.2738953e+00
 -1.6171166e+00
  2.5435069e+00
  9.3006015e-01
  1.4529067e-01
 -2.0589793e+00
  4.1345175e-02
  1.4875023e-02
 -1.8536394e-02
  1.0935093e+00
 -2.0054246e-03
 -2.9288581e-01
 -6.3759351e-01
 -1.3273103e+00
 -6.5317059e-01
  1.1674135e+00
 -2.6542008e-02
  1.0194790e-01
 -1.5008767e+00
 -3.2452124e-01
  1.5130524e-03
  7.7774304e-01
  1.9396332e-01
  1.9097374e-03
  2.1774517e-02
 -1.9176072e-02
 -9.7534232e-02
  1.8034799e+00
  4.8900009e-03
 -6.4732201e-02
  1.7591377e+00
 -1.6487862e+00
 -3.9179099e-01
  2.0320430e+00
 -3.6396116e-03
 -3.9504234e-02
  5.0534427e-01
 -2.7177197e-01
 -8.9913076e-01
 -1.1605217e-01
 -3.1577082e+00
  3.7720680e-01
 -5.9409368e-01
  2.6201944e+00
  4.7282374e-01
  2.1380544e-02
 -1.5878025e-01
 -1.9872159e-01
 -2.0817366e+00
  2.0014849e+00
  3.2333724e+00
 -3.6158857e-01
 -7.5605661e-01
  4.0238217e-01
  1.8440391e+00
 -1.0668560e-02
 -4.2003423e-01
  3.4452266e-01
  1.6547216e-02
 -1.0279171e+00
 -1.3530254e-02
 -5.2817810e-01
  7.7538127e-01
  3.5779813e-01
  5.8928870e-02
  2.6646717e-03
  3.3955070e-01
 -5.0870138e-01
 -5.0575453e-01
 -2.5003679e-02
 -3.6857193e-03
  3.4539453e-03
 -2.1322595e-02
 -4.7919807e-01
  1.2473882e-01
  1.7224250e-03
 -4.0086649e-02
  1.3175026e-03
 -4.1923923e-03
 -8.3288765e-01
 -1.1154479e+00
 -3.0191471e-03
 -1.4784352e-02
 -1.7442723e-03
  5.5622524e-03
 -7.1737776e-03
  1.0567845e-01
 -4.5548915e-03
  8.0713499e-03
  6.6430750e-03
 -2.0655364e-02
  1.5052332e-02
 -5.2925237e-03
 -4.6973000e-03
 -3.1568732e-02
  1.9904796e-03
 -1.0053822e-02
  2.2242131e-02
  4.4248709e-03
 -1.5300144e-02
 -4.4983593e-03
  1.1270108e+00
 -2.4161518e-03
 -9.0224868e-01
  7.5913900e-01
 -6.9937611e-01
  8.2359976e-01
  7.1877843e-01
  1.7861347e-01
 -3.9924175e-01
 -3.3292744e-01
 -8.3564174e-01
 -7.0304513e-01
 -3.4899697e+00
  1.7066272e-01
  1.3492573e+00
  3.0780263e+00
 -4.7038388e-01
  6.2366182e-01
 -1.1892408e+00
  2.0813169e+00
 -2.0223174e+00
 -9.8902869e-01
  7.3596644e-03
  5.6177685e-03
  3.2232016e-02
  1.9554634e+00
 -5.5933888e-03
 -8.3331835e-01
  2.3324080e-01
 -3.7809767e-02
  1.2162340e+00
 -4.9592569e-02
  1.6045678e-02
 -5.9455705e-01
 -1.3495005e-03
  3.2397586e-01
 -1.6818227e+00
 -3.5324863e-03
  2.0223230e-01
 -9.9696916e-01
 -1.1737100e+00
 -1.8640443e+00
  4.8925436e-01
  9.6444309e-01
 -1.3861736e+00
  1.4190831e-02
  1.4422928e+00
 -7.5852251e-01
  1.8287799e-01
 -1.0733902e+00
 -9.3514219e-02
 -7.4223198e-02
  1.1968811e+00
 -5.5914229e-01
 -2.3549588e-03
  1.7700031e-01
 -9.0125173e-01
 -3.0436513e+00
  5.3895041e-03
 -4.0809178e-01
 -1.3516404e-01
  3.8990119e-01
  9.5783794e-01
 -5.1762038e-01
  1.6428858e-02
  3.9583024e-02
 -1.8132896e-03
 -5.0204283e-01
 -9.9463052e-01
 -2.3782766e-01
  4.5292184e-01
 -3.4228462e-01
 -1.2151446e+00
  2.6700569e-02
  9.0797665e-03
  2.2142467e-01
  1.0344216e-01
  2.0281416e-01
 -3.4162171e-02
  1.2908877e-02
  1.2602088e-02
 -5.2477396e-03
 -1.8430471e-01
  1.2292052e-03
  3.2594201e-01
 -3.3104628e-01
  5.6576692e-02
  8.3714714e-03
 -1.5990822e-02
  3.5268787e-01
  4.7805421e-03
  1.2315319e-02
  8.6890894e-04
 -6.0662124e-03
 -7.5278315e-03
  1.1531069e-02
  6.2067620e-03
  3.8447727e-03
 -5.0122556e-03
  1.8104803e-02
  2.2216404e-03
  2.2159763e-02
  1.1691721e-03
  3.8659391e-03
 -1.2067358e-04
  1.3776511e-03
 -1.9632170e-03
  2.5021806e+00
 -2.3163401e-03
  5.2786611e-02
 -2.5535023e-01
 -2.6209399e-02
 -9.0414435e-01
 -3.6339097e+00
 -7.1468621e-01
 -2.0843683e-01
  2.2191869e-01
 -2.0439839e+00
  8.9370692e-03
 -3.2946464e-01
 -2.2735094e-01
  1.2687063e-02
  5.8338493e-02
 -1.1612769e+00
  7.9068271e-03
  7.7706605e-01
  2.8533889e-03
 -4.1066763e-01
 -9.1587472e-01
  9.5479861e-03
 -3.1030400e-02
  7.4892677e-02
  1.7793827e-01
 -1.5280624e-01
 -9.3803238e-03
 -1.6099691e+00
 -1.8239347e-02
  1.1387707e+00
 -1.1473921e-01
  1.8719763e-01
  9.7124177e-01
 -2.7688642e-03
  7.7859902e-01
 -1.1224626e-02
  1.1995978e-01
 -6.1182540e-02
  5.8978218e-01
  2.8237576e+00
 -2.4396485e-02
 -6.1032856e-03
 -9.9843562e-02
 -3.4085757e-01
 -2.3268312e-03
 -1.1147170e+00
 -5.5231786e-01
  1.0056549e-01
  2.5257447e-03
 -5.3371280e-01
 -5.9455945e-03
  4.1012326e-03
  1.3788770e+00
 -1.2684210e-04
 -2.4791081e-01
 -9.3722385e-01
 -2.3548934e+00
  1.0662760e+00
 -1.6090083e-01
 -7.8010909e-02
 -3.0991191e-03
  1.5568597e+00
  1.4795817e-01
  3.6642671e-02
  8.2023768e-03
  1.3798436e-03
  1.2192320e-02
  3.4832980e-02
 -5.6563002e-01
  3.8052657e-01
 -1.9108685e-03
 -5.9391361e-01
 -2.9444876e+00
  1.4666931e-02
  1.1958211e-02
  2.4351155e-02
 -1.3440838e-03
  1.2804938e-02
  1.0277511e+00
 -3.1005484e-03
 -3.1553251e-03
  8.0958471e-02
  7.1051377e-03
 -1.6665595e-02
  4.9778796e-03
  4.3528033e-03
 -1.4376028e-03
 -2.7548359e-03
 -5.7261980e-01
 -1.9020234e-01
  4.5717112e-03
 -3.2503572e-03
  1.0275606e-02
  5.1573827e-03
  6.2892145e-01
 -1.9193139e-02
  1.1929368e-02
 -1.6348304e-03
  2.2752720e-03
 -1.6335699e-01
  1.3999463e-03
  1.6659413e-02
 -6.5140431e-03
  1.3313005e-03
 -9.6530188e-04
  6.8940008e-03
  1.4264070e+00
  1.2864131e+00
  5.3044456e-01
  1.1080443e-01
  1.0447810e+00
 -1.7017853e+00
  9.8742658e-01
  2.2520065e+00
 -1.4566869e+00
  4.0397635e+00
  1.4171710e+00
  9.2269772e-01
 -2.3571289e-01
 -3.7163640e-03
 -3.1581957e+00
  2.1537878e-01
  6.1677307e-01
 -2.5771344e-01
 -2.4378655e+00
  9.3645525e-01
 -3.4805130e-02
  8.1749056e-03
  7.9774117e-01
  2.0066770e-02
 -2.2818115e+00
  1.3101069e+00
 -2.9176519e+00
  4.5739874e-01
  9.3056077e-01
 -2.0907855e+00
 -2.3556247e-03
 -4.8645586e-01
  6.2944996e-01
  4.6337858e-01
  2.9476616e-01
 -1.1924020e+00
 -2.4367917e+00
 -4.9773347e-01
  9.6571189e-01
 -4.9046490e-01
  7.4155051e-01
  1.4483113e+00
 -2.5094756e-01
 -9.2030293e-01
  1.3735231e+00
 -2.3279614e+00
  6.0418004e-01
  2.0335507e+00
 -4.7584093e-01
 -2.7393608e+00
 -3.5618281e+00
  1.4054641e+00
  1.6188526e+00
 -9.1888714e-01
  2.2397556e+00
  1.4573473e+00
  3.9960740e+00
 -4.4092522e+00
 -2.5256732e+00
  1.3345615e+00
  2.4086748e-01
  8.2019532e-01
  5.1967990e-01
  5.8884788e-01
  1.1597655e+00
  6.5080352e-02
 -2.4845629e+00
 -1.1906955e+00
  2.9943931e-01
  9.4350204e-02
 -5.9236377e-01
  1.2125056e+00
 -5.8085895e-01
 -1.2434452e+00
 -2.7762661e+00
 -9.2658287e-01
  6.4227843e-01
 -1.1302046e+00
  2.6957002e-03
  6.4535129e-01
  1.5416779e-02
  8.1598073e-01
 -4.3632641e-01
  6.4498097e-01
  2.5084205e+00
  1.2524478e-02
  5.6129581e-01
  9.9311340e-01
 -2.0739400e+00
  1.6962930e+00
 -5.9281081e-01
  3.2587945e-01
 -9.8336143e-03
 -1.0573350e-02
  8.9374071e-01
  7.2555225e-03
  1.3201521e-03
 -2.5733784e-03
  1.4113720e-03
 -2.0250242e-02
 -2.3814297e-04
  1.4813989e-01
  4.6017811e-02
  4.5524552e-02
  2.0941386e-03
  7.8859389e-01
 -8.7812999e-03
  4.9128048e-02
 -8.8751083e-04
 -7.7958860e-02
 -1.5234084e-01
 -9.8242215e-04
 -2.3387533e-02
 -3.4937281e-02
 -8.3077094e-03
 -1.0764652e-02
 -8.6399705e-05
  9.1661811e-02
  2.8174908e-03
 -7.9175067e-04
 -2.2544710e-04
 -1.0759560e-03
 -2.7962442e-04
 -6.1742868e-03
  3.9795466e-04
  2.2953869e-05
 -5.9804409e-03
  6.6551358e-01
  3.1150281e-03
 -3.2728496e-01
 -1.0881498e-02
  9.6583698e-04
 -3.9636726e-03
  4.6458323e-03
 -9.7778318e-03
 -3.7408345e-03
  1.9608955e-01
  1.7039383e-02
  2.7765015e-01
 -8.3941175e-03
 -9.1792783e-03
  2.9871415e-04
 -3.6218252e-03
 -4.4013639e-03
 -2.7605278e-02
  6.1009947e-02
 -3.6048021e+00
  6.9567442e-02
 -4.7855732e-01
 -4.2937631e-03
  1.9011910e-01
  5.5584878e-02
  2.1500109e-02
  1.6924167e-02
 -1.5524313e-03
  5.0588073e-03
 -1.4316270e-03
  1.0560592e-02
  1.9839885e-02
  5.6047842e-04
  7.1072444e-02
  7.9829311e-03
 -2.1685258e-02
  1.0388550e-02
  2.2362100e-01
  1.5351839e-03
  3.7870396e-02
 -1.8519336e-02
  1.2847919e-03
  6.1133343e-01
 -3.4897986e-01
 -2.6208700e-03
 -9.1215381e-03
  4.6034558e-03
  5.7669985e-03
  3.1978181e-03
  3.4695115e-02
 -4.7970947e-02
  1.6131688e-02
 -1.4374455e-03
 -6.3867886e-03
  6.6890591e-03
  5.2734166e-03
  2.1574979e-03
  5.0483942e-03
  5.7822214e-03
 -2.6259467e-03
 -1.8084390e-04
 -2.8318531e-04
  1.0768996e-02
 -3.7312675e-03
 -1.1195177e-03
  3.0088653e-03
 -9.3270856e-04
 -2.2290179e-03
 -1.4066894e-03
  2.6317766e-02
 -1.2596023e+00
 -9.3194908e-03
  3.2494627e-03
  8.6400649e-03
  1.9294748e-02
 -5.0923093e-03
  1.8509814e+00
 -2.9802125e-02
 -8.3057275e-03
  1.1745547e-02
  3.7697874e-02
  5.7744961e+00
 -9.0737464e-03
  2.3412593e-02
  8.2255518e-03
  7.2109425e-03
  1.5049721e-02
  3.1672165e-01
 -6.3537350e-03
 -5.4938835e-01
  3.0327978e+00
 -3.5884449e-01
  4.1396329e-01
 -2.9637365e+00
 -2.4531595e-01
 -2.3874679e-01
  1.1375806e+00
 -1.3873060e-01
 -2.6073977e-01
  7.6984906e-01
 -4.7380707e-01
 -1.6135948e+00
 -1.6039126e+00
 -3.9922741e-01
  7.8053407e-02
  9.6534997e-01
 -3.2507768e+00
 -1.8064341e-03
  1.7271225e+00
  1.7933683e+00
  2.6171801e+00
 -2.6976019e-03
  8.7690324e-01
  7.4912399e-01
 -1.5699525e+00
 -8.4004469e-02
  1.5895033e-03
  1.1508146e-01
 -1.2022184e-02
 -1.1642207e+00
 -2.5275648e-02
  6.1038092e-02
  2.1920312e-02
  2.0989637e+00
  2.7689555e-01
  6.2716269e-01
  1.9477238e-01
  1.5022457e+00
  7.5715595e-01
  1.2156311e+00
  1.5325328e+00
 -2.4238698e-01
 -1.6625742e+00
 -1.3474144e+00
  1.5304351e+00
  8.0387862e-03
 -4.1742530e-02
 -1.1621491e+00
  9.7371638e-01
  7.7147847e-01
  4.3801102e-01
 -8.2653373e-01
  1.1557091e+00
  9.8519370e-02
  9.0455949e-05
  2.8218305e-01
 -1.3298985e-01
  8.1308432e-02
  4.2447215e-01
  6.8220788e-01
  8.1149709e-01
  4.4094250e-02
  7.0190080e-02
 -1.6775963e+00
  9.0360761e-01
 -8.8870311e-01
  4.3424955e-01
  1.0495938e+00
 -1.3471207e-01
 -9.2372471e-01
 -7.7664375e-01
 -1.7474890e-03
 -3.2085735e-02
  7.7277370e-02
  2.3202026e-01
 -9.0211737e-01
 -9.9192029e-01
  1.8652782e-04
  3.6658228e-03
  2.1844415e-03
  9.3174833e-01
 -6.6347909e-01
  2.3944804e-02
  8.0546267e-02
 -4.8779234e-02
  8.4306216e-03
 -1.9941509e+00
 -3.6398660e-02
  9.4483430e-03
 -2.6142659e-02
 -2.3142450e-02
 -2.0285627e-02
  1.7737146e-02
 -1.3395014e-02
  1.8329894e-02
  2.3440922e-02
  7.0421421e-03
 -1.1835808e-02
  2.2729042e-01
 -1.4250047e-02
 -9.7483257e-03
  1.2059190e-03
 -2.7489752e-02
 -1.8742160e-03
 -1.4018816e+00
  2.0661120e+00
 -4.7396678e-01
  9.8998733e-02
  1.1465440e+00
  3.9532661e-01
  6.1772013e-01
 -7.2630650e-01
 -7.5488466e-01
  1.4406153e+00
 -2.2116177e+00
 -1.6813891e+00
 -3.3810167e+00
  6.1825481e-03
 -1.6456975e+00
  2.2890553e+00
  3.4558049e-01
  2.0465787e-01
  2.5416131e+00
  2.1086669e+00
  1.8728759e+00
  7.1884221e-01
  5.2948743e-01
  1.1492139e-02
 -2.5622439e+00
  4.5526099e+00
 -1.1936871e-01
  1.5918721e-01
 -5.5922198e-01
  4.3848436e-03
  1.8209574e-01
 -2.2612953e+00
  5.4413038e-01
  3.1746385e+00
 -8.2447898e-01
 -1.6107730e+00
 -2.6872826e+00
  1.5389837e+00
  2.7875407e+00
  1.6579713e+00
 -2.7325923e+00
  3.0166872e+00
 -6.1123097e-01
 -8.1171525e-01
 -2.8596649e+00
 -6.4525837e-01
 -1.2277598e+00
 -2.4048898e+00
 -6.0177776e-03
 -3.9144096e-01
 -3.7663829e+00
  8.6982578e-01
  6.3753819e-01
  1.5433094e-01
  2.0142100e+00
  2.1285088e+00
  6.6559899e-01
  2.0815165e+00
 -1.1221056e-01
  6.8997227e-02
 -1.4351019e+00
 -1.8404406e+00
 -5.5794734e-01
  1.6838676e+00
 -3.5489649e-01
  3.2314885e-05
 -1.0958936e-02
  1.5329237e+00
 -1.8918892e+00
  1.5233755e+00
  2.0368084e-02
  4.8620799e-03
  3.0295917e-01
 -8.1532252e-01
 -8.5358685e-01
  1.6036032e+00
  1.4860234e+00
 -5.9392112e-03
 -1.3975036e+00
  2.2860119e-02
  7.5576389e-03
  9.7438609e-03
  3.0399673e-03
  1.8461448e-03
  4.2267688e-02
  2.6782391e+00
  8.6657681e-05
  1.7868770e-02
 -5.8259451e-01
  2.9087013e-01
  8.1710011e-02
  7.5282082e-03
  1.0465895e-01
  8.0958166e-04
 -1.8168263e-03
 -7.2944395e-02
  1.0330315e-02
  2.5309538e-03
  2.2921639e-02
  5.6046103e-03
 -9.9392720e-03
  1.6927828e-01
  4.6641724e-03
  5.7692016e-03
  2.6489345e-03
 -1.0633950e-02
 -1.0696481e-03
 -1.6203221e+00
 -1.5910088e+00
  2.6600685e+00
  2.2968423e-02
 -4.3343425e-02
  6.8366915e-01
  3.0472594e-01
  6.3036627e-01
 -2.7174830e+00
 -2.3076409e-01
 -8.3850157e-01
  7.3851067e-01
  8.8098210e-01
  1.1786997e+00
  1.3489937e+00
 -6.1792904e-01
  4.6178974e-02
 -1.0422077e-01
  1.0682859e-01
  4.6890929e-02
 -3.9357987e-01
  4.9958891e-01
 -3.5509354e-01
 -4.5156774e-01
  1.7324611e+00
 -3.3143520e+00
  1.0635896e+00
 -1.9859964e+00
 -8.9875686e-01
 -7.4516952e-01
  2.2604609e+00
 -3.3700204e+00
  8.2864898e-01
 -1.2405221e+00
  1.3304455e+00
  4.7380197e-01
  1.8018479e+00
  3.3108153e+00
 -1.0507172e-01
 -3.7060957e-02
  8.7510800e-01
  2.2617404e-01
  1.7803893e+00
 -7.4625313e-01
 -3.1139219e+00
  2.9260762e+00
  2.4578003e-03
  4.7849346e-02
 -2.0275688e-01
  1.4147230e-02
 -6.2099153e-01
 -1.0442241e-01
 -1.3468424e+00
  7.3162658e-04
 -2.9684055e-01
  6.9848865e-02
  5.5308021e-03
  3.3368759e+00
  6.8492398e-02
 -2.7792403e-01
  5.3894937e-01
  8.8767052e-01
  9.6159685e-01
  1.2851113e+00
  7.8664017e-01
 -4.6175298e-01
  6.8851900e-01
 -7.6113760e-01
  9.8417029e-02
 -3.6319944e-01
  1.0996282e+00
  7.0628941e-02
 -2.9570177e-01
  5.1070291e-01
 -2.2421429e-01
 -1.2954903e-01
 -5.3164059e-01
 -5.9159136e-01
  3.5023654e-01
  3.1519594e+00
 -7.7970743e-01
  6.1108202e-01
  6.2373650e-01
 -3.5952017e-02
  2.5032346e+00
  7.2116181e-02
  5.1357993e-03
 -1.2542759e+00
 -7.7682459e-01
 -3.0487621e+00
  7.6725346e-01
  8.5345958e-04
  5.9698164e-01
  4.5219986e-03
  9.6076522e-03
  3.0361778e-01
 -2.2917829e-01
 -1.2024638e-03
 -3.3468499e-03
 -1.2454423e-03
 -4.9395382e-04
 -6.9335341e-01
 -1.8368557e-03
 -2.2732140e-03
 -7.1550515e-03
 -4.1300558e-02
  1.7121017e-02
 -4.4063143e-02
 -8.1610614e-01
 -1.0205905e-01
  1.1182401e+00
 -2.2661434e-01
 -2.1159003e+00
  7.7609020e-01
  2.1232070e-02
  2.1867630e+00
 -2.7833663e-02
  5.4713696e-01
  5.1525445e-03
 -3.7901139e-01
  1.2580243e-01
 -1.3373258e-02
  4.2450097e-03
  1.0626627e-03
  1.3273340e+00
 -8.0345158e-04
  1.5580539e+00
 -7.5855535e-01
 -3.6956433e-02
 -9.6716309e-01
 -1.8547930e-01
  2.0778354e-03
 -1.6498779e-03
  3.6974146e-03
  2.3867962e-01
 -1.5193449e+00
 -2.2019962e-02
  1.6786179e-01
  5.4114228e-01
  8.0469102e-03
  2.6550727e-02
 -3.3766186e-04
 -8.0985928e-01
 -2.2643779e-01
 -8.2343400e-01
  1.3029910e-02
  6.8839341e-01
 -2.7668959e-04
  3.7857518e-01
  8.7527752e-01
 -4.7840190e-01
 -2.1997866e-01
 -3.3323339e-01
 -1.0317693e+00
 -4.3060873e-02
  2.2349293e+00
 -2.9091555e-01
 -7.2146249e-01
 -1.2223032e-01
 -1.7776903e+00
 -2.0586441e-01
 -6.2693161e-01
 -8.1953239e-01
  3.0566287e-01
  8.1019532e-03
  1.0726120e+00
 -2.0950707e-02
 -3.6763206e-01
  2.2732353e-01
 -4.3062231e-04
 -5.9938103e-01
  3.0414471e-01
 -9.9368119e-01
  2.1422245e-02
  9.0020615e-01
  1.7926513e-01
  6.6880059e-01
  2.4625804e-01
  2.6295441e-01
  1.3084021e-01
 -1.6036636e+00
  8.9059889e-01
  3.7876555e-01
  2.0103659e-02
  2.1932699e-02
  3.5156738e-02
 -4.0278532e-02
  1.4432530e-02
 -1.5899078e+00
  1.6365469e-03
  4.4265902e-03
 -2.2775827e-03
  7.2912651e-01
  8.8679008e-02
  2.9409178e-02
 -6.5868855e-03
 -8.8690269e-01
 -1.6891370e-03
 -3.0240570e-03
 -5.9030502e-04
 -2.0723412e-02
 -1.2010361e+00
 -3.8029859e-03
  1.6675798e-02
 -5.4177111e-01
  3.0194216e-03
 -1.0466663e-02
 -2.3760451e-03
  1.1642925e-02
 -1.2172221e-02
 -4.9275877e-03
 -8.5183308e-03
 -2.8913082e-03
 -1.4680615e-03
  5.3165327e-03
  1.8199911e-02
  1.2304473e-01
 -1.2253677e-01
 -7.6807993e-03
 -4.8064045e-03
 -1.1073858e-02
  2.8584013e-02
 -3.2072302e-02
  1.8747887e-02
 -2.3291873e-02
 -3.9592022e-01
  4.6051349e-04
 -1.1269722e-02
  1.3125832e+00
 -2.3997417e-03
 -2.7242867e-02
  2.6059044e-03
 -5.0051003e-03
  6.8645645e-03
  2.4233060e-03
  1.2814531e+00
  3.8326564e-03
  9.0587894e-03
  4.5651374e-03
 -2.9563338e-03
 -2.4392297e-03
 -7.2755762e-03
  4.7410815e-03
  5.3287228e-03
  4.7777593e-03
 -3.5685755e-03
 -3.3692627e-03
 -2.5288342e-03
 -4.2028949e-03
 -3.7317851e-01
  8.1149451e-03
  7.3010153e-03
 -2.6042997e-03
  1.7012068e-03
 -1.6936379e-03
  4.2879924e-02
  1.3042934e+00
  4.0333620e-03
  7.2513801e-01
  7.9488475e-03
 -1.1778551e-02
 -1.8115720e-02
 -1.9624599e-03
  7.4784816e-03
  1.2449209e-03
  9.6336817e-03
 -5.0854045e-03
  5.2509129e-01
  8.7421155e-03
 -4.5521883e-03
 -1.0972824e-02
  3.5818317e-03
  5.2981838e-03
 -1.4635588e-05
  1.0561441e-03
 -2.0902988e-02
  8.8829547e-03
 -4.5520727e-02
  9.0184882e-03
  1.1173909e-02
 -1.1433684e-02
  2.9680524e-03
  1.9027865e-02
 -5.7502626e-03
  1.0314280e-03
 -5.2062154e-04
  3.0917979e-03
 -4.8559085e-03
 -9.3967058e-03
  2.9206239e-02
 -2.0380076e-03
  1.4646671e-03
 -1.1556620e-03
 -1.4758317e-02
  3.7315392e-03
  3.6804685e-03
 -1.8198682e-02
  1.0077337e-02
 -5.1294477e-04
 -1.0237182e-02
  1.8527588e-02
  8.0450073e-02
 -1.3693727e-02
  8.6181033e-03
 -7.5928746e-03
 -1.3637761e-02
  1.1033544e-02
 -3.6869454e-03
  4.1650482e-03
  9.0018874e-03
 -6.5878811e-03
  2.7036739e-03
 -1.4630167e-02
  7.6650292e-02
 -3.5867608e+00
  4.8854453e-03
  1.3686923e-03
 -2.4734666e-03
  7.7021825e-01
  3.0706776e-04
 -7.7715931e-03
  6.5060027e-02
 -1.5299619e+00
  8.3500421e-01
  2.8972834e-01
 -1.6283184e+00
  3.2372922e-01
  1.5559077e+00
  4.0212709e-01
 -2.6239264e-01
 -3.8585117e-01
 -1.8701125e+00
  1.1629136e+00
  3.2014608e-02
 -1.5255323e-02
 -4.8797936e+00
  2.1002262e+00
 -2.5950145e-02
 -7.0276773e-01
  5.4625845e-01
  1.4544447e-01
  2.7391994e-02
  3.2601205e-01
 -1.0195308e+00
 -3.8411517e-03
  1.2730968e+00
  1.8751816e+00
  1.6491006e-01
  2.2581164e-02
 -2.4583206e+00
 -2.9191196e-01
 -2.6317346e+00
  2.1562576e+00
 -1.1057473e+00
 -1.3389410e+00
  1.9417861e-01
  1.3560106e+00
 -5.0270939e-01
 -4.6871901e-02
 -9.5441931e-01
 -2.3926623e-01
  2.0408118e+00
  2.2281952e+00
  4.1837889e-01
  1.8804098e+00
 -1.0986756e+00
  9.5163369e-01
  3.4840119e+00
  2.3207333e+00
 -2.5467253e-01
 -4.5861956e-01
 -9.2159224e-01
  2.8972045e-01
 -1.0664977e+00
 -7.8753889e-01
 -2.3891690e+00
 -9.8145640e-01
 -1.2816496e+00
 -6.0780287e-01
 -2.8867212e-01
 -1.4156687e-02
 -3.9671388e-01
  1.4334928e-02
  7.5183833e-01
  1.6768981e+00
  2.2162115e-02
 -2.5611356e-01
  1.5149534e+00
  1.1932335e-02
  1.1699260e+00
 -6.5441474e-02
 -4.1736302e-01
 -9.3875754e-01
 -1.8274777e+00
  6.3687485e-01
  3.0110079e-01
  8.6112143e-03
 -2.3181955e-03
  4.6034258e-02
  8.9556053e-02
 -9.2066818e-01
 -6.5369713e-03
  7.1693391e-01
 -1.0247771e-01
  9.7038867e-03
  3.5778084e-03
  1.8030882e-01
 -1.9750653e-02
  8.8580966e-02
 -7.3975534e-03
 -2.5994761e-02
 -3.1675601e-03
  4.3296810e-02
 -1.2681185e-03
  1.0531128e-03
  1.0674301e-01
 -1.4497968e+00
 -6.5072146e-03
 -2.2791039e-02
  2.7698423e-03
  3.0723115e-04
 -1.4154854e-02
  3.3937463e-01
  8.9031989e-03
 -4.2621940e-03
  9.2328861e-03
  5.4114169e-01
 -1.2091948e-02
  1.9699593e-01
 -2.5807875e-01
 -3.9968878e-02
  1.3878942e+00
 -4.6762452e-01
  9.1636705e-01
 -3.8565106e+00
  1.4598202e-02
  6.3230908e-01
 -3.5637444e-01
  1.9106702e+00
  2.1695332e-01
  4.3066910e-01
 -6.9526345e-03
  4.1437504e-01
  3.6428192e+00
  8.6009920e-01
  9.9445164e-01
 -3.0419414e-03
  1.1449100e+00
  2.6350992e+00
  3.3248723e-03
 -4.4460244e-02
 -2.4803308e-01
  1.0599154e-01
  2.9317886e-01
  1.1854330e+00
  6.3096625e-03
  1.9265490e+00
 -3.8548935e-02
 -1.3966608e-01
 -3.4053934e-01
  2.1155789e-02
 -5.5628824e-01
  2.4859194e-01
 -7.3667538e-01
  7.7937973e-01
 -2.5322506e-01
  5.5962980e-02
  8.9040153e-02
  3.3799574e+00
  8.5589707e-01
  1.5313305e+00
 -1.9983524e+00
 -1.8625920e+00
 -1.8439837e+00
  2.8191143e-01
  1.5618784e+00
 -6.0146642e-01
  6.7867939e-03
 -1.9936717e+00
  2.4823967e-02
 -2.1274359e+00
 -1.5930720e-01
  2.2906952e+00
 -1.5659152e-01
 -2.0868499e+00
 -8.9644395e-02
  2.4329326e-03
  7.0131928e-02
 -2.3212822e-01
 -1.7947438e-03
  7.9885252e-02
  7.8632906e-02
  4.1036969e-01
  9.3990542e-02
 -1.6945038e+00
 -1.0717345e-02
 -1.2317111e+00
  4.9747771e-01
 -2.6471969e-01
 -1.8924990e-03
 -8.5897274e-02
  1.2146372e+00
  1.7211866e+00
  3.4450659e-01
 -3.7616822e-03
  1.6589401e-02
 -2.3356825e-03
  1.6468395e+00
 -7.9517573e-02
  1.0151409e-01
 -4.1527829e-01
 -4.7339790e-02
  7.5375253e-01
  6.5041855e-03
 -6.5278825e-03
 -1.6896008e-02
  1.9066674e-03
 -4.7269163e-01
  7.3824712e-04
 -2.9841617e-03
  4.8651514e-03
 -1.8847672e-02
  4.2378227e-03
 -1.3629793e-03
  8.6294962e-03
  5.9531773e-03
 -5.5799903e-03
 -3.0697340e-02
  8.0036826e-04
 -4.8512613e-04
 -2.1553205e-02
 -4.8537664e-03
  8.0698426e-04
  1.1810782e+00
 -4.2250678e-03
 -1.5397843e+00
 -2.2646110e+00
 -1.7817738e+00
  5.3228948e-02
 -2.4999316e+00
 -4.2119091e-03
 -3.9294314e-01
  9.4773255e-02
 -1.9164436e+00
 -1.3252001e+00
  3.7217394e-01
 -2.2019345e-01
  1.0525905e+00
 -8.7888217e-01
 -3.0698467e-03
  4.3979910e-01
  6.9231749e-01
  1.1502618e+00
 -2.7277479e-01
 -1.0772668e+00
  2.0506182e-01
 -6.1612029e-02
 -1.3616509e+00
 -4.2977955e-02
  6.7383164e-01
  8.7978798e-01
  1.8005946e-03
 -1.7943538e+00
  2.1091400e-01
  9.4450855e-01
  5.0069064e-02
 -2.2034893e+00
 -1.6524056e-03
  1.1857660e+00
 -4.4431823e-01
 -9.7830278e-01
 -1.9753107e+00
  2.7794659e-01
 -6.9540787e-01
 -6.2546629e-01
 -4.3831271e-01
 -1.0296318e-02
  1.0572930e-01
 -4.2883911e+00
  7.7429754e-01
  8.4429806e-01
 -3.0996704e-01
 -1.4930370e+00
 -5.9148765e-01
  1.8577254e-01
  2.9849112e+00
 -1.8431979e-03
  1.2408067e-01
  5.8669537e-01
 -1.2028846e+00
  5.2600956e-01
  1.0842067e+00
  1.0722927e+00
  3.2941077e-04
 -3.3200029e-02
 -2.6765518e-04
 -5.1461530e-01
 -1.4254560e+00
 -1.1058566e-01
 -1.7618670e-01
 -5.9601436e-03
  1.1167382e-01
  4.9970672e-01
 -8.6202192e-01
 -2.3435925e-01
 -1.0534115e+00
  1.1125015e+00
  1.3408262e-03
 -1.8475125e+00
  8.7284523e-01
 -3.6649825e-03
  3.2579888e-02
  6.0007572e-02
  4.4565592e-02
  2.5560391e-01
  1.2284485e-02
 -5.4987557e-02
  2.6738457e-03
 -2.7147648e-01
  2.2286303e-02
  4.6376944e-02
  2.3517478e-01
 -8.3844811e-02
  1.9170454e-02
  1.1241996e-02
 -6.5920682e-04
 -1.9763923e-01
  4.2285380e-04
  5.9662447e-03
 -1.6383694e-02
 -1.9770384e-02
 -6.0233738e-02
  1.0379810e-03
 -5.4175607e-03
 -1.4519602e-02
  1.7545419e-02
 -1.1117840e-02
 -1.6913062e-02
 -2.5742344e-04
  7.2203879e-03
  2.5474750e-02
  5.5120257e-03
  2.2842421e-01
  3.3814674e-03
  6.5292823e-01
 -4.5397587e-02
  8.1966668e-01
  1.6409177e-02
 -1.9764574e+00
  1.0680029e-02
  1.9461620e+00
  7.8155631e-03
 -2.9996483e-02
  2.6191577e-01
  2.1500114e-04
  4.5258543e-04
 -1.1155849e-01
 -5.9734937e-02
 -4.1471352e-03
 -3.8018331e-02
  1.3356771e-02
  1.7297111e-02
  2.7896075e-02
 -2.7927852e-01
 -7.3262816e-03
  7.0864484e-03
 -7.1161157e-03
 -9.2581473e-03
  2.8216983e-03
  7.0814049e-04
  2.3326522e-03
  4.4513890e-04
 -6.8456738e-04
 -1.8961100e-01
  4.9167206e-03
 -2.2474409e-03
 -7.4574113e-02
  5.2614729e-03
 -5.3296119e-02
  7.4334716e-04
  4.1644882e-02
 -5.2009849e-04
 -4.8344716e-01
 -1.0358615e+00
  5.7145674e-03
 -1.3787935e-02
  5.7458792e-02
 -1.9155294e-03
 -1.2164824e-02
  1.0460701e-02
 -5.1082755e-03
 -3.8146582e-03
 -9.3866987e-03
 -1.2639558e-02
 -3.9608348e-02
 -1.2421616e-02
  4.6857526e-03
 -1.1060983e+00
 -1.0597513e-02
  2.3275458e-03
  4.2144479e-03
 -4.4323528e-01
  5.1364996e-03
 -6.2283627e-03
  2.9732230e-01
 -1.8093333e-02
  1.5505767e-02
  7.6105576e-03
  3.2155272e-03
  4.5783487e-03
 -2.2149661e-03
 -4.5009516e-03
  3.5000982e-04
 -4.0501007e-03
  3.2404708e-03
  4.1230026e-01
  4.7073976e-04
  5.8412791e-04
 -2.6692951e-03
 -7.5169443e-03
 -4.3775816e-03
  2.5904779e-03
 -2.1651508e-02
  2.9770692e-03
  1.3700834e-02
  3.1770708e-03
 -1.1147870e-02
  5.9195153e-02
 -1.2117679e-03
 -5.8393292e-03
  1.8326996e-03
  2.6535718e+00
 -8.4328922e-03
 -2.0156294e-02
  1.1398219e+00
 -2.0394945e-03
  1.0473710e-01
 -1.6532503e-01
 -7.7619869e-04
  3.0588347e-03
  1.6701627e-03
 -8.4993709e-03
  9.7540021e-03
  7.7286661e-03
 -1.7009179e-01
  1.0554058e-02
  3.1206693e-04
  2.4912213e-03
  5.1366468e-03
  1.5006893e+00
  1.5478078e-01
 -1.2793828e-02
 -5.6634742e-01
 -4.3926056e-02
 -1.6017077e+00
 -3.3928923e-02
 -4.5864582e-01
 -1.1723625e-03
  6.9035816e-01
  1.3247832e+00
  5.3976279e-01
  7.2738864e-03
  1.5465198e-02
 -5.4101064e-03
  1.4700787e+00
  2.2184007e-02
 -8.3750580e-04
 -6.5459687e-01
 -1.0029575e+00
 -6.7039794e-01
  1.2213236e+00
 -1.2355301e+00
 -1.2596028e-02
  3.4626491e-02
 -2.8000975e-01
 -4.4473472e-01
  1.8860449e-01
 -1.0619148e+00
  1.0263188e+00
  1.0736890e+00
  1.9529791e-01
 -2.7079767e-01
 -1.3623660e+00
  1.3963304e-01
 -9.5908296e-01
 -2.3182876e+00
  2.8166422e-01
  1.7829642e-03
  6.2021452e-01
 -3.6382020e-01
  5.4333113e-02
 -4.5091126e-02
  1.1661676e+00
  6.8810523e-01
 -9.9929649e-01
  3.8717844e-02
  4.3418002e+00
  4.1099879e-01
 -1.2622033e+00
 -1.3432558e-01
 -2.2444731e-01
 -5.9986520e-01
  5.1438278e-01
  1.3276913e-02
 -6.5440065e-01
  8.8975839e-03
  7.4023855e-01
 -2.5649682e-01
 -4.5021507e-01
  3.2311738e-01
  1.8325251e-03
  1.1595722e+00
  1.8613067e+00
 -3.9041702e-02
  8.0530334e-04
  7.2744712e-03
 -1.4108725e-01
  8.4938461e-01
  3.2762700e-01
 -2.4065806e-03
 -1.0359810e-01
  9.6810497e-03
 -6.6446647e-02
 -8.4005448e-04
 -4.5777066e-03
  7.4228765e-03
  1.6840601e-01
 -2.2553239e+00
 -3.6700609e-01
  5.5354696e-02
  5.9010679e-01
  7.5390649e-01
  1.2700029e-01
 -4.5622620e-01
  1.6168315e-03
  6.8637863e-02
  8.7088978e-01
  2.0038013e-03
  3.8073726e-02
  1.0252647e-02
  1.0386918e-02
  1.2117745e-03
 -7.1292832e-02
  3.3193428e-02
  2.2418681e-01
 -8.1648715e-03
  2.9820646e-04
 -1.9456914e-02
  1.4806372e-03
 -2.7648288e-01
 -2.0671879e-04
 -7.4502290e-03
 -5.0456898e-04
 -1.7556190e-03
  7.9868839e-04
  7.3764711e-03
  1.6423221e+00
  1.3743154e+00
 -1.2199918e+00
  4.2536139e+00
 -8.4972391e-03
 -2.0174632e+00
 -4.5618236e-01
  1.3611764e-02
 -6.2168026e-01
  5.7272935e-01
 -9.0163797e-01
 -3.3257298e-02
  1.3846481e+00
  6.6747165e-01
 -6.4779818e-04
  1.5945354e-03
  3.2580554e-01
  1.6466700e-01
 -1.5399082e+00
 -5.0958903e-03
 -4.5574602e-04
  9.6915936e-01
 -1.6122539e-02
 -1.4891841e+00
  4.2512571e-03
 -3.1614357e-01
  1.6288456e-02
  3.7901723e-03
 -1.6380221e+00
  8.6501050e-01
 -7.1578288e-01
  4.3270321e+00
  8.5615681e-04
  6.9492811e-01
 -6.3676870e-01
 -2.8950199e-01
  1.4769912e+00
 -5.9383987e-03
  5.2185977e-01
 -9.3944299e-01
  2.3986077e+00
 -5.2147704e-01
 -5.6146756e-03
  6.8196267e-02
 -1.7856780e+00
  3.1316857e+00
  1.8519589e+00
  4.4349256e-01
 -5.4575726e-02
 -2.1924369e-01
  1.7856150e+00
 -8.5127282e-01
  1.5094015e-01
  1.7784135e-03
 -6.5989906e-01
  5.6417976e-02
  1.6688021e+00
 -5.3961593e-01
  8.0675390e-03
  7.4839538e-01
  1.5884916e+00
 -7.1614003e-01
  5.7230350e-03
 -3.1689277e+00
 -4.2445204e-01
  1.1778289e+00
  6.4717914e-04
  1.8127482e-01
 -1.5499322e+00
  7.5608230e-01
 -1.0397896e+00
  6.3066548e-01
  2.1526964e-01
  7.8713777e-04
  3.7334379e-02
  2.1085730e-03
 -6.8004732e-03
 -4.0918097e-01
 -7.4471414e-01
 -3.2404873e+00
  2.5049970e-02
 -8.2676741e-04
  1.0358364e-02
  3.4803450e-03
 -7.6595500e-02
 -1.5854207e-01
 -2.5314193e-02
 -2.8514462e-03
  9.6123917e-03
  5.4459584e-01
  1.1034853e-02
  4.6492273e-01
 -1.9319946e-02
 -6.9066868e-03
 -1.4610867e-02
  1.1421444e-02
  1.8196354e-03
 -5.1709461e+00
  9.9767651e-03
 -5.5045155e-03
 -2.1173399e-02
  1.4092530e-02
  6.8291277e-03
  2.1921818e-03
 -1.1511530e-02
  1.1063979e-02
 -3.1488722e-03
 -1.7595325e+00
  2.1506493e+00
  1.1526928e+00
 -1.4535012e+00
 -6.2933278e-01
 -3.8996623e+00
  2.8005652e+00
  2.5523520e-01
 -2.9452103e-01
  9.3223262e-01
  1.5873332e+00
  1.0687005e-02
  3.0567372e-01
 -2.5888493e-03
 -3.7981756e-02
 -1.7202450e+00
 -2.8809610e-01
 -5.0105262e-01
  1.7707062e-01
  5.5694547e-02
  4.4464287e-01
  5.9632182e-01
  1.3033885e-02
  9.5157421e-01
  5.0201184e-01
  6.4633036e-01
 -2.0062222e-01
 -4.0899840e-01
  7.3419726e-01
 -4.0757501e-01
  3.9807036e+00
 -1.7687706e+00
 -4.4752650e-02
  3.7409142e-01
 -7.7800333e-02
  2.1427238e+00
 -3.8327870e+00
  1.7731713e-01
 -2.1031873e-01
 -9.9839158e-03
 -3.2536127e-02
  2.2760653e+00
 -1.4893340e-01
  1.8459556e+00
  3.7736514e-01
 -3.9823347e-01
  4.6241304e-01
  9.8151565e-01
 -1.6897868e-01
  6.6996223e-01
  1.9076917e+00
 -7.2490698e-01
 -1.5949571e+00
  4.1770145e-02
  7.6406324e-01
 -1.8326219e+00
 -2.1995527e-01
 -3.0546799e+00
 -1.2493269e+00
  6.9757324e-01
  1.8267604e-02
 -1.9381404e-02
  9.2576426e-01
  1.5125793e+00
 -1.3716737e+00
 -2.8727913e-02
 -1.7304067e-03
  2.8816579e-02
  4.1611338e-01
  3.8984458e+00
  2.5283405e-01
  2.2062033e-03
 -2.9890988e-02
 -4.0312543e+00
 -1.5580276e+00
  5.0095958e-03
  5.7130194e-01
 -1.4400392e-02
 -5.0550845e-02
  1.4493942e-02
  1.2874395e-03
 -1.3039794e-03
 -6.4240261e-03
 -1.8463167e-03
  1.0980370e-01
 -7.1981194e-04
  9.6177004e-02
  6.6694432e-01
 -8.4201284e-03
 -8.4023243e-01
 -5.4394570e-03
  1.0660521e-02
 -2.1313658e+00
 -4.4654603e-03
  1.1200968e+00
 -1.2930582e-03
  2.4797525e-02
 -1.0835781e-03
  1.5952874e-03
  2.7004429e-03
  4.2685384e-01
 -2.7754980e-03
  1.0626849e-02
  3.9368598e-03
  7.4779578e-03
  3.5835654e-01
 -2.5006132e-02
  4.3373342e+00
 -1.2058380e-02
  3.5089687e-01
 -4.5005456e-01
  6.7295569e-01
  6.7825621e-01
  1.3531685e+00
  3.5558054e-03
 -7.6513284e-01
  1.4416699e+00
 -8.7242037e-01
  2.1696341e-01
  2.1917014e+00
 -1.8681926e-01
 -2.9602832e-01
 -9.5938914e-02
  3.3677319e-01
 -4.3331324e-03
 -6.8087630e-02
  2.0675967e-02
 -1.3237139e+00
  1.3007423e-02
 -9.9143338e-01
 -1.8256136e+00
  8.1437826e-03
  1.6514382e+00
 -8.7210298e-02
  8.7472785e-01
  1.2748187e+00
 -4.1970488e-01
 -2.9036242e-03
  3.9921403e-01
  9.5774986e-02
  9.9175751e-01
  2.6880270e-01
  7.8779119e-01
 -3.9530005e-02
 -4.2859282e+00
  4.6087340e-01
 -5.0368624e+00
  1.5255122e-01
  1.7245948e+00
  7.6597929e-02
  1.1686662e-01
  1.2396156e+00
 -1.0643903e-02
 -7.1871138e+00
  6.8314284e-01
  6.0137504e-01
  1.1087031e+00
 -1.5362536e+00
  1.0513598e+00
  9.9364460e-01
  6.6515476e-01
  1.7094716e+00
 -2.0496755e+00
 -1.2346947e-01
  2.7054398e+00
 -2.2979233e+00
 -5.1773769e-01
 -2.5360426e-02
  9.1463365e-03
 -1.3548809e+00
 -1.4131199e+00
  1.6874893e-01
  9.0562361e-01
  3.1524715e+00
 -1.5482579e+00
 -3.0442685e-01
 -1.6286291e-01
 -5.8006769e-01
 -1.8366965e-02
  1.0360509e+00
 -5.3156066e-01
 -1.1608557e+00
  1.1145907e-01
 -7.8886390e-01
 -5.4495562e-02
 -1.6990632e-01
 -5.6064463e-01
 -4.8943032e-02
  6.5207529e-01
  1.0241427e-01
  5.4095898e-02
  5.2004140e-03
  1.5404884e+00
  1.0434259e-01
  3.7686462e-03
 -9.6516079e-01
 -8.6920583e-05
  1.5842346e-02
  4.5536417e-03
  1.6594013e-02
  4.7689700e-03
 -6.5972893e-03
 -1.7142730e-02
  1.5704557e-03
  7.8800129e-04
  3.7481152e-02
 -5.6916131e-03
  1.2060092e-03
 -2.7752891e-03
 -1.1167834e-04
  8.4113935e-03
 -2.3432849e-03
 -7.3196217e-03
 -2.6791841e-02
 -3.8464889e-01
  2.2940773e-01
 -1.3484180e-04
 -5.0548351e-01
 -1.0431374e-01
  1.6378069e-01
 -6.9528246e-01
  5.2971608e-04
 -2.1323755e-03
 -2.4674810e-03
  3.8670200e-01
  2.2192879e-02
  1.2228813e+00
  4.9269620e-01
  1.8733275e-01
 -1.1656531e+00
  3.0405145e-02
  1.4973037e-01
 -6.3473929e-04
 -2.2544804e+00
 -4.3055929e-02
 -2.7667940e-01
  3.0048706e-02
  3.3496961e-03
  1.4547014e-01
  2.1522535e-02
  1.6296490e-01
 -5.0046747e-03
 -6.5560058e-02
  1.8379155e+00
  8.4863134e-02
  6.6998148e-01
  8.2288717e-04
  8.7191790e-02
 -3.7934736e-04
 -6.8382907e-01
  5.5435938e-01
 -2.2861832e-01
  3.1863591e-01
 -6.1364031e-01
  8.2523513e-01
  7.6462841e-01
 -8.2242179e-05
 -2.5276801e-01
 -1.1596485e-03
  1.2785810e-02
 -5.1912111e-01
  1.0565755e+00
 -2.3457415e-01
 -5.6381428e-01
  1.8845024e-02
 -6.2800235e-01
  3.2336798e-01
  2.4903039e-03
  2.8589224e-02
 -1.4862545e-03
 -7.4222364e-02
 -7.4286544e-01
  8.8159945e-03
 -3.6325422e-01
 -5.4494586e-02
 -1.9384082e-01
  3.1222640e-02
 -5.4104018e-01
 -2.6391726e+00
  4.7638011e-04
 -1.5838997e+00
 -5.2762892e-02
 -3.1197975e+00
  1.0430328e-02
 -5.4416135e-03
 -6.8136126e-01
  1.0268523e-03
 -1.8572143e+00
  8.8208904e-03
 -5.3637978e-03
  6.7812473e-02
 -3.0775440e-03
 -4.4537522e-03
 -4.7283876e-01
  7.0184241e-03
  8.1784453e-04
  8.9313293e-01
  1.1210822e-02
 -4.6479266e-02
 -2.9114148e-02
  2.3861232e-03
 -9.4590094e-03
  3.6089923e-03
  1.0065987e+00
 -3.6097872e-03
  1.3881658e-03
  1.9830797e-02
  2.8259459e-01
 -8.3317915e-03
 -6.9272310e-01
 -2.9847722e-03
 -1.4737973e-03
 -2.8365564e-03
  5.9908484e-03
 -6.6524219e-05
  3.6693728e-03
  1.9838128e-03
 -4.0557471e-01
  3.9110254e-03
 -5.3496519e-03
 -6.6887573e-03
  1.5134451e-02
  3.2547331e-01
  3.0490957e-02
  7.8073782e-01
  1.1377473e+00
 -1.1079550e+00
 -5.8617508e-01
 -6.7639120e-02
 -4.2580929e+00
  4.6752577e+00
 -2.8550695e-03
  8.2413822e-01
  4.6840471e-01
 -5.6981448e-02
  1.4703469e+00
 -8.0489659e-01
  7.0002880e-03
  6.8720806e-01
 -8.1692797e-01
  4.8415802e-02
 -1.1202197e+00
  1.0040766e+00
  7.6696295e-03
 -1.4472429e-01
 -2.3745239e-01
 -1.0104004e-01
  1.3396639e-01
  2.7277851e-01
  1.0449560e+00
  8.5294194e-04
 -2.4056835e-02
 -1.0328990e+00
 -7.4397549e-02
  7.7304542e-01
 -5.2753407e-01
 -6.7307274e-03
 -1.6693921e+00
  1.5217836e+00
 -1.3280739e-01
 -3.9709654e-02
 -1.0604217e+00
 -1.5563473e-01
  1.3983765e-03
 -2.9016947e-02
  7.0527971e-02
  2.0577837e-02
 -1.6409734e+00
  1.3019194e-01
 -3.2421353e-03
 -1.0974265e-01
 -1.4515921e-01
  7.8849923e-03
 -3.5367734e-03
  2.1611173e-01
  5.8735043e-01
 -2.2808836e-01
  1.0842911e-01
  8.4789477e-02
 -2.9782462e-01
 -1.6307427e-02
  3.7601255e-03
  5.5935541e-03
 -1.6670136e+00
  4.8687333e-01
 -6.6654757e-03
  2.0200049e-03
 -1.3518501e-02
 -2.9531967e-02
 -3.9267666e-03
 -1.3659068e+00
  1.6769047e-01
 -1.0272164e-02
  8.6007833e-01
  6.1248225e-01
  1.8935672e-03
  2.4010139e-03
  6.2276120e-03
 -3.5752910e-01
 -5.2937597e-01
  1.5894825e+00
 -4.5988530e-02
 -4.3701152e-03
  4.9839955e-04
  5.2497564e-03
 -3.4401191e-03
 -2.4890683e-03
 -4.1575315e-03
  1.7188063e-03
  3.1578217e-02
 -1.6659422e+00
  7.5477296e-03
  4.4628950e-03
  5.9205741e-03
 -3.4442854e-03
 -1.2053968e-03
 -1.0529487e+00
  1.5946167e-02
  1.3548705e-03
  6.1100435e-01
 -6.9127390e-03
 -3.1737220e-01
  3.9250208e-03
 -8.7282248e-03
 -2.5415357e-02
  8.1386017e-03
 -1.0799109e-05
 -4.4365776e-01
  8.2164776e-01
  1.6775517e+00
  9.4311255e-01
 -2.9154456e+00
  8.6340427e-01
 -2.6946275e+00
 -1.3868854e+00
 -1.2186992e+00
 -1.6371619e+00
  2.6731482e+00
  2.9777291e+00
 -3.0957961e-03
 -5.1468259e-01
  9.7663021e-03
  5.4160538e-03
  3.8619292e+00
 -1.3917004e-01
  2.9737496e-01
  2.1047653e-01
 -4.5922163e-01
  8.7041211e-01
 -3.4001839e+00
 -7.2725937e-03
  4.8216379e-01
  3.4995222e+00
  2.4492524e+00
 -1.5201597e+00
 -2.2750817e-01
  2.6442282e-02
  2.0661721e-01
  1.7583646e-01
  6.2603968e-01
 -1.2310047e+00
  1.7281007e-02
 -2.5224309e+00
  3.9858874e-02
 -5.6215698e-01
 -1.1066149e-02
  1.4765329e+00
 -5.9026521e-02
  3.4943089e-01
 -2.1338089e+00
 -4.2369065e-01
  4.3741301e-01
  1.8685207e+00
 -2.2806264e-03
  1.0861582e-01
 -1.7604991e+00
  5.8329459e-03
  4.6271682e-03
  3.3239084e-03
 -1.1096953e-01
 -1.1660999e+00
  7.3596678e-04
 -2.1838095e+00
  1.0943055e+00
  6.6842818e-01
  1.9591255e-01
 -2.0362216e-01
 -3.0105916e-01
  1.9599018e+00
  8.9706457e-01
 -6.2274426e-01
 -2.8921419e-01
 -1.7663773e+00
  4.8453715e-03
 -1.5135862e+00
 -3.3859112e+00
 -1.1666408e+00
 -2.9808211e-01
  2.4790817e-03
  2.9270015e+00
 -5.2402075e-02
 -1.3695952e+00
  1.0874201e-04
 -2.1768686e-01
  9.9634016e-03
  2.4347790e-02
 -1.7970352e-01
  1.1717776e+00
  7.7961847e-02
 -1.6858701e-02
  2.1354868e-03
 -4.3822486e-02
  1.8473210e-02
 -1.8561279e-03
 -9.7797237e-02
  8.0286413e-01
 -5.5875205e-02
  3.4874776e-01
 -3.2007745e-03
  2.9889707e-02
 -3.9579421e-02
 -2.9591033e-03
  2.5594628e-03
  1.5944950e-02
 -1.6361583e-03
  2.5977867e-03
  5.2448129e-03
  3.1732495e-03
  8.7437332e-03
 -4.6952254e-01
  7.5592935e-01
  5.0227609e-03
 -3.6143726e-03
 -1.1725962e-01
 -1.9965872e-04
 -1.2528843e+00
 -5.4498643e-01
  9.6713787e-01
  9.9902565e-04
 -4.5428750e-01
  1.9874545e+00
  2.9397364e+00
  5.2483314e-01
  3.9662206e-01
 -1.8929796e+00
 -3.5520761e+00
  1.3294731e+00
 -1.2545258e-01
  2.1254015e-03
  3.4622587e-03
 -3.5893255e-01
  2.5193281e+00
  6.3151300e-01
 -4.5480419e-02
  1.2785409e-01
 -2.8151959e-01
 -1.5456897e-01
 -9.6471444e-02
 -1.1475993e+00
 -2.7873288e-03
 -8.5187424e-03
  3.4290472e-01
  1.6246412e-02
  2.7629695e+00
  1.1309097e+00
 -1.4575376e-01
 -7.2146997e-02
  8.1613916e-01
  1.8153870e-01
  1.0897355e+00
  1.0851630e-02
 -4.1519171e-01
 -2.8477937e-02
