nep4 1 C 
cutoff 4.2 3.7 98 56
n_max 10 15
basis_size 10 15
l_max 4 2 1
ANN 100 0
 -2.0634058e+00
 -1.7173507e+00
 -1.4150887e+00
 -1.1379789e+00
 -3.9630542e+00
  3.5374253e+00
 -2.6150668e+00
  1.1957945e+00
  2.7568960e+00
 -8.8861191e-01
 -1.2839619e+00
 -1.5606766e+00
  3.8874631e+00
 -1.9132960e+00
 -4.4252363e-01
  1.4476788e+00
  7.2462821e-01
  3.4354849e+00
 -1.1082082e+00
 -1.5060116e-01
 -2.1695395e+00
 -1.6303941e+00
  2.0193107e+00
 -3.1960943e+00
 -4.7076602e+00
 -3.2130754e+00
  4.8557549e+00
 -1.7728744e+00
  1.9646159e+00
  2.0978811e+00
  1.5708248e-01
  1.5575380e+00
  1.8994412e+00
 -2.0716858e+00
  2.3258896e+00
 -1.3758037e+00
 -4.4323936e+00
  2.6669893e-01
 -1.9226396e-02
 -7.3485261e-01
  1.1882637e+00
 -4.9650404e-01
 -1.2430278e+00
  1.3683536e+00
 -3.1955488e+00
 -3.2911593e-01
 -3.2763870e+00
  1.3597004e-01
  3.0018410e-01
  9.6153639e-02
  1.7058282e-01
  3.9429276e+00
 -1.0490274e+00
 -3.7000768e+00
  5.2134675e-01
  7.5805199e-01
  7.4463144e-02
 -1.1202401e+00
  2.4134350e+00
 -1.0216327e+00
  2.9525080e+00
 -8.3320580e+00
  6.3618696e-01
  1.0662904e+00
 -3.0400196e-01
  5.7298422e-01
 -4.0775111e-01
  3.1763875e+00
  2.7588162e-01
  4.5830446e-01
 -3.1002140e-01
 -5.7296222e-01
 -6.1363935e-01
 -7.9966050e-01
  3.4757588e-02
  2.1114976e+00
  1.2213891e+00
  2.9833207e+00
  3.1578755e+00
 -8.5687006e-01
  4.8984507e-01
 -7.5635535e-01
 -3.4550264e-01
  2.5515594e+00
 -3.0916500e+00
  1.3351619e-01
  1.4993522e+00
  2.1753333e+00
 -3.1327662e-01
  2.9945319e+00
  2.2819448e+00
 -4.7119474e-01
  5.5988169e-01
 -2.1921897e+00
 -4.8800316e-01
  1.9911140e-01
  2.2615373e+00
  6.7729247e-01
 -1.0887204e-01
  3.8779044e-01
 -4.3250999e+00
 -9.6521330e-01
 -5.6226399e-02
  1.0289521e+00
  3.8156488e+00
 -5.9785384e-01
  5.5397660e-01
  2.5037267e+00
  5.3742428e+00
 -9.0117925e-01
  3.4302852e+00
 -1.0006063e+00
  6.1237961e-01
 -1.3145075e+00
  6.5238559e-01
 -5.8787358e-01
 -2.3473091e+00
  7.1736872e-01
  6.9595343e-01
  6.5997288e-02
 -9.5237929e-01
 -1.0834345e+00
 -8.2550347e-01
  7.7030510e-01
  1.7532822e+00
 -2.0879641e+00
 -4.4858551e-01
  1.6414866e+00
 -8.2517993e-01
  4.6663766e+00
 -8.7514794e-01
 -1.9115514e-01
 -5.3212862e+00
 -2.7782922e+00
 -3.7279828e+00
 -1.4694086e+00
 -3.5293381e+00
 -2.8674066e+00
  2.8587985e+00
  1.7957869e-01
 -1.7966927e+00
 -4.5710902e+00
  2.8543069e+00
 -4.3466988e-01
 -9.1391605e-01
 -2.4012542e+00
 -1.2344513e+00
  1.7574801e+00
  7.1916652e-01
 -2.0571568e+00
 -3.8048697e+00
  6.8279785e-01
  3.3837638e+00
  3.2488462e-02
  2.6124258e+00
 -1.7970003e+00
  1.1018713e+00
  2.5434170e+00
  8.0976514e-03
 -1.7317489e-01
 -1.3051041e+00
 -1.5706030e+00
  6.9443488e-01
  9.3724877e-01
  7.2757691e-01
 -1.5414732e+00
  8.1534043e-02
  2.6002374e-01
 -2.2861943e-02
 -3.4653690e+00
  3.8281920e+00
 -1.3340100e+00
 -2.3166485e+00
  1.2130364e+00
 -2.4985726e+00
 -1.3401316e-01
 -4.0028068e-01
 -7.9262400e-01
 -5.2229996e+00
 -2.5166738e+00
  1.9180058e+00
  6.1448073e-01
 -7.0032370e-01
 -1.1463065e+00
 -3.4860039e-01
  5.4767448e-01
  7.1726024e-01
 -1.4554495e-01
  1.2041057e+00
  1.2111630e+00
 -1.9292636e+00
  7.0427352e-01
  1.4039761e+00
 -1.5538958e+00
  7.8287017e-01
  1.3143556e+00
 -8.1644017e-01
  7.8348339e-01
  4.5658849e-02
 -2.5759668e+00
 -2.2053390e+00
 -3.9526277e+00
  1.6894019e+00
 -2.4613996e+00
 -2.0148947e+00
 -4.5671612e-01
  2.3690498e+00
 -6.5272460e+00
  1.2520730e+00
 -7.1061447e-02
 -2.0529790e+00
  4.6376041e-03
 -3.2201667e+00
 -1.8829525e-01
 -1.9048686e+00
  6.8530941e-01
  2.2053453e-03
 -1.6952825e+00
  2.1685233e+00
  2.1684797e+00
 -8.4460640e-01
 -9.5606667e-01
 -2.8239557e-01
  4.0215049e+00
 -2.0388918e+00
 -2.0706029e+00
 -7.4786105e+00
 -5.3441906e+00
  4.7595248e-01
  4.6192527e+00
 -5.0394955e+00
 -4.0989274e-01
  7.7748930e-01
 -2.1093643e+00
  4.8061812e-01
 -2.9931173e+00
 -1.2522897e-01
  1.9588060e+00
  1.9925516e+00
  1.6389586e+00
 -5.1707834e-01
 -2.2430704e+00
 -1.4454224e+00
 -3.4623362e-02
 -4.9966936e+00
 -3.5992882e+00
 -7.2001152e-02
  1.1307474e+00
 -3.2684511e-01
 -1.0721360e+00
  3.1595578e+00
  5.7973653e-01
  1.2086884e+00
  1.4142069e+00
  1.0550907e+00
 -3.4578755e-01
 -6.9000405e-01
  3.8623471e+00
  4.5453215e+00
 -7.5709066e+00
  1.0417334e+00
 -3.0176592e-01
  2.7586911e+00
  9.6517783e-01
  3.6791655e-01
  2.0761709e-01
 -2.9666493e+00
 -3.5888340e+00
 -8.0039660e-03
 -4.9261332e-01
 -2.5180519e-01
 -4.4459641e-01
 -3.5126257e-01
  1.2068417e+00
 -2.9895244e+00
  1.2933057e-02
  2.0111771e-01
  1.6552943e+00
 -9.0408635e-01
 -1.0897317e+00
 -3.4280303e+00
  1.0072645e+00
  1.7733523e+00
  3.5811429e+00
 -1.1243336e+00
  1.4442415e+00
 -5.0544965e-01
 -1.1704701e+00
  1.1535343e+00
 -2.9167686e+00
 -6.1089683e-01
  2.2503377e-01
 -2.4429464e+00
  7.0619230e+00
  4.7452607e+00
 -2.3637612e+00
 -4.4382863e+00
 -2.0037039e-01
 -2.9642348e+00
 -1.2734582e+00
  3.7964540e+00
 -7.1443695e-01
  3.4637718e+00
 -4.1088204e+00
 -4.3852987e+00
 -8.0210686e-01
  1.7849992e-01
  7.2931617e-02
  1.3984847e+00
  5.8420241e-01
 -6.3730258e-01
  3.4876350e-01
  2.8033771e-02
  8.9680338e-01
  4.1510785e-01
  6.8193704e-01
  1.5461429e+00
 -8.5899371e-01
  3.7293088e-01
 -1.5251148e-01
 -7.1617579e-01
  4.1038075e-01
  1.4980170e+00
 -9.1513562e-01
  2.4188840e-01
  8.0196530e-01
  2.4269891e+00
  6.8929482e+00
 -9.3987411e-01
 -1.1432128e+00
 -3.2056587e+00
 -1.3007882e+00
  1.6836357e+00
 -5.3474969e-01
 -7.0171368e-01
  2.1041989e+00
  3.2672911e+00
  4.5160592e-01
 -8.4521151e-01
 -2.4466784e-01
 -4.7852807e+00
  1.4511976e-01
  3.2060170e+00
 -1.4704105e-01
 -4.5788064e+00
 -1.5506916e+00
 -7.4466121e-01
  1.1369255e+00
 -2.1707859e+00
  1.7481056e+00
 -1.3685772e+00
  1.8265190e+00
  2.1811128e-01
 -2.4147127e+00
  6.7620425e+00
  3.1174552e+00
 -3.0162883e+00
 -1.5812963e+00
 -4.6753254e-02
  2.5847584e-01
  2.8457010e+00
  1.9124714e-01
  3.0729351e+00
 -1.5139157e+00
 -4.9981382e-01
  7.8765714e-01
 -1.6665781e+00
  1.9673291e-01
  1.0300730e+00
 -8.5435517e-02
 -4.9859041e-01
  1.8823309e+00
 -7.3847979e-01
  2.1946881e+00
  1.3399434e+00
  3.7364650e+00
 -9.6665144e-01
  1.7248311e+00
  1.7159560e+00
 -1.8789226e+00
  2.2236207e+00
 -3.8555768e-01
 -1.4417408e+00
  2.4342127e+00
  3.4589991e-01
  3.0020449e-01
  4.7736961e-01
  2.1155095e+00
  1.0337194e+00
  8.8740277e-01
  1.2734522e-01
 -1.7691163e+00
  3.8502511e-01
 -1.4144218e+00
 -2.8295765e+00
  4.3038744e-01
  1.1409072e+00
  1.1732479e+00
 -1.3166831e+00
 -6.4241421e-01
  1.3537509e+00
  4.0608928e-02
 -7.1646881e-01
  5.7669348e-01
  3.8549922e+00
 -1.2032957e+00
  3.0024874e+00
 -1.0322870e-01
  6.1145067e-01
 -1.8978626e+00
 -1.9852296e+00
  2.0117475e-01
 -1.0327383e+00
  2.6701615e+00
 -5.1485453e+00
  4.7520512e-01
  2.6442838e+00
 -1.6302463e-01
 -1.9747717e+00
 -6.0153931e-01
 -1.7644444e+00
 -1.0248085e+00
 -6.3247806e-01
  2.5437197e-01
 -2.8647372e-01
 -4.3328562e-01
 -1.0914018e+00
  3.1617832e+00
 -1.4014806e+00
  9.9244857e-01
  3.1566105e+00
  5.9114971e+00
  2.2166024e-01
 -1.9215892e-01
  6.1368972e-01
 -3.7901015e+00
  2.6176655e+00
 -8.0180645e-01
  3.2932878e-01
 -5.4306774e+00
  4.7721237e-01
 -1.0588039e+00
  5.7171367e-02
  8.0889463e-01
 -9.0354759e-01
  2.6088503e-01
  2.6201439e-01
  3.1698573e-01
  1.0161251e+00
 -3.6054894e-01
  1.6304407e+00
 -3.8889511e+00
  6.4233971e-01
 -4.6897902e+00
  2.0584323e+00
 -4.4100496e-01
  7.4503827e-01
  4.3557337e-01
 -6.7212594e-01
 -1.0029532e+00
 -2.1179037e+00
  3.6741633e+00
 -4.9797902e+00
 -4.5037360e+00
  4.9960089e+00
 -5.4907836e-02
  1.5585847e+00
 -2.3275466e+00
 -9.6070009e-01
 -1.1992992e+00
  1.8925851e-02
  1.9752917e+00
 -1.0787482e+00
 -1.0432885e+00
 -3.3083274e+00
 -2.1006732e+00
 -3.3605890e+00
  2.6488612e+00
 -3.5790674e-02
  2.7751794e+00
  8.4533924e-01
 -9.3588990e-01
 -5.7139153e+00
  9.6966738e-01
  2.8889813e+00
  1.2747861e+00
 -1.8562237e+00
 -8.7666923e-01
  6.3389969e-01
 -1.4888816e+00
 -2.8602691e+00
 -2.5283065e+00
  1.4894109e+00
 -1.2366799e+00
 -1.4224812e+00
  5.1701576e-01
  1.3336978e+00
 -2.8566593e-02
  1.0250130e+00
  1.1407909e+00
  1.7963466e-01
  2.4785993e+00
  3.1290812e+00
 -4.7485963e-01
  3.9962626e-01
  1.6807590e+00
 -1.2925003e+00
 -2.1167648e+00
  5.1909170e+00
  1.7805746e+00
 -1.0577862e+00
 -1.9952270e+00
  8.9373785e-01
 -1.4657359e+00
 -8.8274956e-01
 -2.4156320e+00
  2.5554238e-02
 -4.1394072e+00
  2.2397518e+00
 -1.9719747e+00
 -1.5133487e-01
 -9.8934621e-01
  1.7198963e+00
  1.2091128e+00
  6.8620151e-01
 -1.6196134e+00
  9.3378156e-01
  4.1692272e-01
 -5.6908410e-02
 -2.5576824e-01
 -8.1655717e-01
 -1.4104964e+00
  2.3134214e-01
  6.6386199e-01
 -4.0762112e-01
  9.3787104e-02
  2.6014974e+00
 -6.4991933e-01
  2.3981001e+00
  6.8918401e-01
 -1.6493864e+00
 -4.1614643e-01
 -5.0401363e+00
  1.3040037e+00
  1.9601537e+00
  4.1299510e+00
  1.6946454e+00
  1.0892203e+00
  1.8918048e-01
 -3.1423151e+00
  1.0869609e+00
  1.1872563e+00
 -2.0129745e+00
 -1.9726175e+00
  1.3772335e+00
  1.0889311e+00
  2.0407681e+00
 -2.9101425e-01
  2.7381480e+00
  1.8183733e+00
  2.9915495e+00
 -2.2687585e+00
 -1.5036806e+00
  3.9285761e-01
 -1.1282040e+00
  2.1003297e-01
  4.9778944e-01
 -7.5271174e-02
 -1.8669963e+00
  1.5122207e+00
 -2.7270148e+00
  4.0248404e+00
  9.7125185e-01
  8.1818402e-01
  2.8433819e+00
  1.3195072e+00
  4.9357290e+00
 -9.5111859e-01
 -5.0380147e-01
 -2.0403790e+00
 -4.4703532e-02
  1.8771946e+00
  1.6234105e+00
 -3.3879834e-01
  2.4417505e+00
 -3.8224795e+00
  4.5283079e+00
  2.6077914e-01
 -7.9317927e-01
  1.8726406e+00
  1.3628557e+00
 -1.4638019e-01
 -8.9107275e-02
  1.6298605e+00
  1.2768562e-01
 -6.7509717e-01
  3.0222410e-01
  2.4320619e+00
  1.7678905e+00
 -1.4998525e-01
  1.1774555e+00
 -1.7351125e+00
 -2.0219612e-01
 -2.6644905e+00
  1.9007308e+00
  2.7902970e+00
  1.2953156e+00
 -3.6397880e-01
 -9.6598303e-01
 -2.3007925e+00
  6.3827169e-01
  3.3852774e-01
 -8.8441801e-01
  2.9531980e+00
 -3.3050380e+00
 -2.1138830e+00
  3.1435028e-01
  1.5356337e+00
  2.6080108e+00
 -5.9332328e+00
  1.5586271e+00
  9.8448403e-02
  8.1675225e-01
  4.1700931e+00
  6.4942498e+00
 -6.1507815e-01
 -8.7086357e-02
  1.5521351e-01
  2.2000615e-01
  1.7600444e-01
 -1.0146215e-01
 -3.6668424e-02
 -1.3463664e-01
 -2.8077996e-01
  5.9949864e-02
 -1.6451228e-01
 -2.1452980e-01
 -3.9637861e-01
  1.1340973e+00
 -1.5892794e+00
 -2.3043261e+00
 -2.4812803e-01
 -4.7731042e+00
 -6.4421004e-01
  3.1113575e+00
 -2.8830104e+00
  3.3925948e-01
 -1.5007508e+00
  8.7847042e-01
  1.4021335e+00
  5.5164576e-01
  2.8414783e+00
  2.2700570e+00
 -4.2032990e+00
  1.8208657e-01
 -2.0409627e+00
 -2.8441427e+00
  4.1904764e+00
  1.4936881e+00
  4.2781734e+00
 -2.6346173e+00
 -3.0610251e-01
  6.7528129e-01
  1.1908280e-01
  1.3383509e+00
 -3.1415703e+00
  2.3860188e+00
 -6.0780735e+00
 -4.4033137e-01
 -1.2570943e+00
  1.1427994e+00
  1.6950572e-01
  1.6457486e+00
 -1.3911895e+00
 -1.8720795e+00
  1.7938892e+00
 -3.9494643e+00
 -2.8317317e-02
 -9.6484196e-01
 -2.0691261e-01
  4.5292802e+00
 -2.5699239e+00
 -2.2921909e-02
 -9.7881484e-01
 -1.0305235e+00
  2.5777085e+00
  3.7894645e-01
 -5.2640991e+00
 -3.9832470e+00
 -9.8473281e-01
  8.1452215e-01
 -6.8127787e-01
  4.8798192e-01
 -9.8772186e-01
  1.8222845e+00
 -2.7756518e-01
 -4.0429611e+00
 -3.6352828e+00
 -1.5877938e+00
  1.5749427e+00
  4.0627339e-01
 -9.3685591e-01
  1.3128351e+00
  1.1521497e+00
 -1.9066061e+00
 -5.7535535e-01
 -8.5310704e-01
  3.8660130e-01
 -9.3594098e-01
 -7.3570216e-01
 -4.4904330e-01
 -2.8942466e-01
 -1.6019650e+00
  2.5253978e+00
 -1.3863591e+00
  2.3524215e+00
  1.5497276e+00
  1.4879159e+00
 -2.5044649e+00
  1.5849822e+00
 -4.9228510e-01
 -7.1103919e-01
 -7.5277752e-01
 -1.1261350e+00
 -4.5910645e-03
 -2.4497628e+00
  1.2587439e-01
 -3.2474494e+00
  5.0263220e-01
  6.0375735e-02
  1.1935847e+00
  2.5069648e-01
  9.0375662e-01
  1.0998244e+00
  1.0065804e+00
  1.6786637e+00
  2.3329718e+00
  3.6148980e+00
 -1.1332269e+00
  2.0661338e-03
  4.6220994e-01
 -3.6253431e-01
 -1.7053057e+00
  1.5644425e+00
 -5.2249330e-01
  7.7888709e-01
  1.1500362e+00
  6.5100437e-01
 -3.6887267e-01
 -1.4544947e+00
 -7.7007449e-01
  2.4083424e+00
  1.8282915e+00
  2.3696668e+00
 -4.7834542e-01
  2.1058791e+00
 -6.7903662e-01
 -3.6891097e-01
  2.0943148e+00
 -7.5279272e-01
 -2.4426155e+00
  4.3756071e-01
  1.6066678e-01
  3.2926233e+00
  3.9389971e-01
  4.1456822e-01
 -1.1053336e+00
 -1.3054603e+00
 -2.8489532e-02
  6.1551696e-01
  1.4279392e+00
 -1.7716829e+00
  2.2516222e-01
  4.3090248e+00
 -6.9979792e+00
 -4.4677825e+00
 -1.5324684e+00
  2.8334570e+00
  5.6744969e-01
  2.4036267e+00
  4.0406707e-01
  1.3190551e+00
 -9.1536653e-01
 -2.3172774e+00
 -4.2748337e+00
  4.1710382e+00
  4.6779305e-01
 -9.2483717e-01
  1.4998749e-01
 -3.7297213e+00
  1.9199471e-01
 -1.8766428e+00
 -1.5943407e+00
 -2.3625660e+00
  3.4153063e+00
 -1.0572119e+00
 -3.3303964e-01
 -3.2708983e+00
  3.4874117e+00
 -3.1477425e+00
 -1.1316724e+00
  3.8967514e+00
 -3.5374510e+00
  1.2749970e+00
 -8.1516922e-01
 -1.2026035e+00
  3.7654557e+00
  5.5053964e-02
 -2.7820184e+00
  4.0287268e-01
 -3.7028520e+00
 -4.2611212e-02
 -3.5505018e+00
  3.1128934e-02
 -1.4268902e-01
  4.3959925e-01
 -2.9748635e+00
  9.1974151e-01
  8.9638460e-01
 -1.3385383e+00
 -1.6920015e+00
  9.5061100e-01
  4.2713919e+00
  3.7235212e-01
  3.7467688e-01
 -1.5237635e+00
 -4.0029234e-01
 -7.5887567e-01
 -6.2428851e+00
  1.2520143e+00
  5.9165204e-01
 -8.7395436e-01
  3.0027565e-01
 -2.2439342e+00
 -5.9075105e-01
  7.6966095e-01
  1.4527055e+00
 -1.8446820e+00
 -1.9835995e+00
  6.2711030e-01
  4.4312370e-01
  2.2427966e-01
  1.2824523e+00
  1.0856879e+00
 -1.1000447e+00
 -1.6134881e+00
 -8.3019012e-01
 -4.4501945e-01
  7.8029048e-01
 -1.0215539e+00
 -3.3900622e-01
  5.1335537e-01
  1.2787548e+00
 -3.2680061e-02
  3.1984374e-01
  2.4950197e-01
  2.6035547e-01
 -3.4688830e-01
  5.1369083e-01
 -2.2065051e-01
 -9.6995521e-01
 -8.2072127e-01
 -2.5138645e+00
  2.3885281e-01
 -3.3395079e-01
  1.1076295e+00
 -1.4953047e-01
 -1.7759198e-01
  1.8695157e+00
  5.7818151e-01
  3.0052133e+00
  1.3151159e+00
  3.5373514e+00
 -3.9933705e-01
 -2.1292300e+00
 -2.2685902e+00
  5.4849801e+00
  3.5884187e+00
 -8.3099449e-01
  1.7722808e+00
  3.8667127e-01
 -5.5894175e+00
  1.3969647e+00
  4.4577680e+00
  7.3582923e-01
 -3.4674823e+00
  1.3024013e+00
 -3.0099728e+00
  4.0083197e-01
  1.3919445e+00
  6.4194602e-01
  3.5719040e-01
 -1.0845617e+00
  3.3761094e+00
  8.6286664e-02
  4.3336611e+00
 -1.3503353e-01
 -1.2841130e-02
 -5.7350796e-01
  5.0540102e-01
 -2.0941766e-01
 -2.8295374e+00
  2.9510942e+00
  1.7447621e+00
  2.3299255e+00
 -7.9532081e-01
  2.9297954e-01
 -8.7936781e-02
  2.5968685e+00
  8.3258855e-01
  3.6080296e+00
 -2.0575356e+00
 -9.9200338e-01
 -3.9647310e+00
 -1.2350599e-01
 -2.2702749e+00
 -9.4837852e-02
 -7.5251102e-01
  1.1718894e+00
 -1.8767942e-01
 -9.9945194e-01
 -6.3409060e-01
 -1.6428747e+00
  2.8435278e+00
  7.8398746e-01
  4.7172308e+00
  1.3241202e+00
  6.7417103e-01
 -2.5091082e-01
  8.3688848e-02
 -1.1051460e-01
  1.1671927e+00
  1.8827963e+00
  2.7238801e-01
 -8.7605357e-01
  1.6973515e+00
 -2.2420511e-01
  2.5621896e+00
 -1.2726094e+00
  1.5935068e+00
  2.0447936e+00
 -2.7028394e-01
 -5.6742563e+00
  1.0242044e-01
  8.7445635e-01
  1.1304945e+00
 -1.3047737e-01
  6.3654655e-01
 -5.6388396e-01
 -3.9249936e-01
  8.7563699e-01
  8.9590234e-01
  4.5869434e-01
  2.3661957e+00
 -5.3074107e-02
 -6.3166674e-03
 -4.8906084e-02
 -2.5956920e-01
  3.6803744e+00
  2.0555545e-01
 -3.6963687e+00
 -3.9727998e+00
  1.5119187e+00
 -1.1184576e+00
 -2.1096969e+00
 -8.3261959e-02
  2.5644735e-01
 -1.2986946e+00
 -2.1146584e-02
  7.2765237e-01
  1.1810491e+00
  1.9549532e+00
 -9.5542347e-01
 -1.8743851e+00
  5.3554854e+00
  6.5072864e-01
  2.9439586e-01
  5.1191396e-01
 -8.7881541e-01
 -4.8391747e-01
  1.0947430e+00
 -3.0763498e-01
 -8.3494246e-02
 -2.8487113e-01
  1.5496230e-01
  1.1179886e+00
  1.0743346e+00
  3.4724920e+00
 -3.2718575e-01
 -9.3752198e-02
  1.1405441e+00
  7.0821591e-02
 -2.4026783e-01
 -2.9405281e-01
  3.0670633e+00
 -7.6621366e-01
 -1.9065376e-01
  3.3099744e-01
 -4.7763872e+00
 -6.7310464e-01
 -9.8304415e-01
  1.9328113e+00
 -8.6129200e-01
  2.3222380e+00
 -4.0770531e+00
  2.0592253e+00
  5.2524197e-01
 -1.8411350e+00
  1.9929805e-01
  2.7145374e+00
  2.6450652e-01
 -1.0570836e-01
 -9.0369171e-01
 -6.9572783e-01
  1.3208953e+00
  1.1767308e-01
  2.2330944e-01
  7.3252367e-03
 -3.6791433e-02
 -8.9364833e-01
  1.8749720e-01
  1.1387599e+00
 -1.9368571e+00
  7.5636142e-01
  2.1737106e+00
  2.0064600e+00
 -3.2688859e+00
 -2.5868291e-01
 -1.1771094e+00
 -2.0677567e+00
 -1.9254347e+00
 -1.6375751e+00
  5.6679034e-01
  5.3990424e-01
 -1.1765755e-01
 -6.2448502e-01
 -3.3362147e-01
  2.2560616e+00
  8.4744200e-02
  7.2655934e-01
  1.5837214e+00
 -1.2849902e+00
  9.5720178e-01
  2.5331125e-02
 -7.4228281e-01
  3.6156267e-02
  4.5425248e-01
 -1.1511509e+00
  1.2508858e+00
 -2.0366459e+00
  2.1947916e+00
  3.7719744e-01
 -2.3006169e-01
 -1.3602449e+00
 -3.1079128e-01
  2.0272806e+00
  2.1435022e+00
 -7.2930938e-01
 -1.4848323e+00
  4.3769744e-01
  5.4925215e-01
  9.2791075e-01
  3.2230265e+00
 -2.5891137e-01
  2.1823609e+00
  8.6323321e-01
  7.1690118e-01
  2.6545498e+00
 -2.3888192e+00
 -1.3227808e+00
 -3.3741799e-01
  8.0368465e-01
  5.1387997e+00
  3.5258737e-01
  7.3832935e-01
  1.0215786e+00
  2.7821524e+00
  4.0153587e-01
 -6.4980394e-01
  3.1319797e-01
  6.4259809e-01
 -2.3140607e+00
 -8.5287547e-01
  2.0994022e+00
  5.9636895e-02
  3.7680447e-01
  6.8599057e-01
 -1.6945459e+00
 -9.1800861e-02
  6.5787470e-01
  7.2093606e-02
  1.6505564e+00
 -2.0385287e+00
  2.4044311e+00
  5.0706859e-04
 -5.0379723e-01
 -9.1101922e-02
  1.2316455e-01
  8.9190066e-02
  1.4596025e+00
 -2.3316386e-01
  1.8422921e+00
  2.5328204e-02
  3.7686321e-01
 -1.6269954e-02
 -3.0745086e-01
 -1.2878094e+00
 -2.6976156e+00
 -2.0207973e+00
  2.3221948e+00
  2.5266182e+00
 -1.3511910e+00
  1.5715045e+00
 -1.6561466e+00
 -1.1646621e+00
  1.0584377e+00
 -1.2319865e+00
 -2.1952491e+00
 -1.0744677e+00
  7.9425800e-01
 -3.5941452e-01
 -3.1915767e-04
  3.7939245e-01
 -1.3974543e+00
 -1.2923760e+00
 -2.3724711e-01
 -1.9621034e+00
 -3.9768491e-02
  1.2834427e-01
 -1.5740846e+00
 -1.6417158e+00
 -1.1857884e+00
 -4.9323857e-01
 -2.2163168e-01
 -1.0032200e+00
  6.1921257e-01
 -1.5817046e+00
  5.0761175e-01
 -1.6427064e-01
 -6.1733609e-01
 -9.4062066e-01
  2.7469609e+00
  1.5395029e+00
  1.0675403e+00
 -1.5957289e+00
 -9.9552453e-01
  2.1117291e+00
  3.1942391e+00
  9.2530620e-01
  1.5684187e+00
 -1.8434029e+00
  1.2887146e+00
 -5.8752857e-02
  1.7091488e+00
 -8.2523078e-01
  1.4828316e+00
  4.7037578e-01
  2.0341505e-01
  1.5784277e+00
  4.4377279e+00
  2.8777092e+00
  3.1784914e+00
 -1.9021732e+00
 -3.7540159e+00
 -1.9363763e+00
 -1.0246890e+00
 -2.0022225e-01
  1.5579098e-01
  6.4461410e-01
 -1.5226532e+00
 -1.3201468e-01
 -3.4426942e-02
 -1.7234579e+00
  7.0006485e+00
 -1.8790841e+00
 -2.9785655e+00
 -7.5092781e-01
 -2.5563576e+00
  1.3193644e+00
  2.1296391e+00
 -1.4548316e+00
  2.1561239e+00
  1.2987041e+00
 -8.4633458e-01
  6.3835555e-01
 -2.1422615e+00
 -1.8462031e-01
 -1.0817014e+00
  1.3742522e+00
 -1.7943566e+00
 -1.8051008e+00
 -1.8658148e+00
  1.1651803e+00
  1.1069953e+00
 -1.3154255e-01
  6.7191547e-01
  1.2010071e+00
 -7.2208929e-01
 -1.8757511e+00
  2.3850970e+00
  1.9249476e+00
  1.0242652e+00
  6.0860138e+00
 -6.9084346e-01
  1.2098620e+00
 -1.3621384e+00
 -2.6841256e-01
 -3.5327268e+00
 -1.2427704e+00
 -1.1141902e+00
 -1.4577104e+00
 -1.6812042e+00
 -2.6949450e-01
 -1.1935246e+00
  1.9673935e-01
 -1.3965106e+00
  2.7884340e-01
  1.0894345e+00
 -1.0324707e+00
  1.2949034e+00
  1.1887273e+00
 -3.8837683e-01
  5.2548486e-01
 -3.6597083e+00
 -1.0553607e+00
  3.8518375e-01
 -1.9696027e+00
  1.1478755e+00
  7.0338077e-03
  3.4229510e+00
  9.5902759e-01
  2.9228172e+00
 -1.9769160e+00
  1.1751684e-01
 -2.6130011e+00
 -1.0495473e+00
 -1.3388369e+00
  2.1408710e+00
 -2.0116019e+00
 -1.3961369e+00
  1.1888393e+00
 -2.1835110e+00
 -1.4160557e+00
 -5.8274174e-01
 -2.0805064e-01
 -6.1600524e-01
  1.4737871e+00
 -1.4364486e+00
  4.4661501e-01
  4.5237355e+00
  2.3745325e+00
 -1.1891495e+00
  3.7439033e-01
  2.1374218e+00
 -3.5772425e-01
 -3.6271721e-01
 -9.7497874e-01
  1.6109862e+00
  1.1089113e+00
 -1.4949397e+00
  2.7257380e+00
  1.8664783e+00
  1.5477103e+00
 -1.4646908e+00
 -3.1171370e-02
 -2.6039386e+00
 -1.1495532e-02
  5.7435007e+00
  1.4101610e+00
 -1.5424730e-01
  1.7587465e+00
  4.3848858e+00
  3.5763259e+00
 -5.9885585e-01
  5.2490311e+00
 -3.6289850e-01
  1.4335701e+00
  9.2158651e-01
  2.5737360e+00
 -2.7066487e-01
 -7.4218690e-01
  5.6253231e-01
 -6.5742749e-01
  5.7501841e-01
 -4.4883761e-01
  2.5163817e+00
  3.7958944e-01
 -1.3679191e+00
  2.3118653e+00
  2.5594563e+00
 -5.1523652e+00
  1.1011864e+00
  8.9503068e-01
  7.6915014e-01
 -6.6680306e-01
  1.9879475e+00
 -3.8879817e+00
 -3.8442865e-01
  1.4042913e+00
  3.9706280e+00
  3.0574018e-01
 -3.8381541e+00
  1.9539021e-01
 -1.4529587e+00
  7.8401341e+00
  6.3594490e-01
  9.6787584e-01
  1.0417426e-01
  1.0064123e+00
 -2.1262589e+00
 -9.7878706e-01
 -3.8165644e-01
 -1.7883513e+00
  2.7628219e+00
 -7.0563191e-01
  5.0316924e-01
  2.9580121e+00
  4.0065479e+00
  2.3170640e+00
  1.5901673e+00
  1.6364493e+00
 -3.8779700e-01
  1.4719242e+00
  6.7528665e-01
  4.0157473e-01
 -5.4446840e+00
  1.1522888e+00
  2.3169603e+00
  2.8165829e+00
  5.8434058e-02
  1.9212394e+00
  1.3326581e+00
  8.6907029e-01
 -1.2253575e+00
 -5.5010688e-01
 -2.0393233e+00
 -5.1700468e+00
  9.0739375e-01
  9.5309913e-01
  5.0206738e+00
 -6.6044587e-01
 -9.4534266e-01
  2.6990557e+00
 -2.3484592e+00
 -2.2124207e+00
 -2.3334346e+00
  2.7520633e+00
  2.1171393e+00
 -1.2371955e+00
 -1.0938524e+00
 -2.7589993e+00
  1.0417349e+00
 -9.1469514e-01
 -2.1101307e-02
  1.0008093e+00
  1.8165436e+00
 -3.3075723e-01
  4.8584512e-01
 -5.2280970e+00
 -2.1014071e+00
  2.2056029e+00
  3.0768314e-01
 -9.7895139e-01
  2.9610634e+00
 -1.2985634e+00
 -2.1599250e+00
 -1.3915057e+00
 -2.8684077e+00
  8.9837730e-02
 -1.2667309e+00
 -3.0235953e+00
 -1.0268593e+00
  5.0693817e+00
 -8.0101937e-01
  1.7188518e+00
  3.7817821e-01
 -6.3801169e-01
 -2.4451716e+00
  1.0366910e+00
 -4.2368595e-02
 -4.0071213e-01
 -7.4892884e-01
  5.1109213e-01
  2.1777993e-01
  4.0776858e-01
  8.6840785e-01
 -1.7520295e+00
  6.6843152e-01
 -1.4729077e+00
 -1.3408912e+00
  6.6108012e-01
  2.6415071e+00
 -2.7268491e+00
 -5.9226364e-01
 -1.2580937e+00
  3.8266027e+00
 -2.3731687e+00
 -1.3838218e+00
  1.5337706e+00
 -4.3711252e+00
 -4.4548650e+00
  4.1444221e-01
 -1.1989834e-01
  3.0572772e+00
  3.4257206e-01
 -1.5610543e-01
  4.3194995e+00
  1.5001856e+00
 -2.2972684e+00
  1.5281003e+00
  1.9250675e+00
  1.4038851e+00
 -1.3991661e+00
 -1.8698254e+00
  4.2658501e+00
  1.5049453e+00
 -1.9710763e+00
  4.0897207e+00
 -5.9921247e-01
 -1.7968183e+00
  7.7957235e-02
  1.0675866e-01
 -1.9244263e+00
 -3.2600421e-02
 -1.3464358e+00
  3.7019439e+00
 -2.8542155e-01
 -2.2996476e+00
  6.5724593e-01
  1.0526364e+00
  2.5822029e-01
  2.2022684e+00
  2.7118239e-01
 -1.8285923e-02
  5.4915552e+00
  1.4849529e+00
  3.5980499e-01
 -9.8039424e-01
  1.5603367e+00
 -1.8339740e+00
 -9.2914331e-01
 -4.1469588e+00
  1.1036171e+00
 -2.7822874e+00
  3.2013920e-01
  1.0110185e+00
 -9.6133822e-01
 -4.3637538e+00
  2.3304467e-01
 -6.7609653e+00
 -8.6532891e-01
 -1.1318319e+00
  1.9285479e+00
  5.0116754e-01
 -2.7977588e+00
  4.3258986e-01
 -2.5374788e-01
 -2.3462362e+00
  1.5656140e-01
  2.7406070e+00
 -1.3260491e+00
  8.5067666e-01
  2.0462726e-01
  1.5355815e+00
 -1.5591683e+00
  2.4492447e+00
  1.8674161e+00
  2.5630574e+00
 -2.0811852e-02
  1.3381305e-02
  2.7954855e+00
 -3.7164140e-01
 -1.5145591e-01
 -6.5021694e-01
 -1.2610421e+00
  2.2286296e+00
  1.0720121e+00
 -1.2985162e-01
  1.4320542e-01
 -1.5780582e+00
 -5.8347583e-01
 -1.6492194e+00
 -2.0756994e-01
 -4.0482700e-01
 -2.0038388e+00
  2.3511999e+00
 -3.3485986e-02
  7.7180791e-01
  1.4433132e-01
  8.2444930e-01
  3.5379794e-01
 -9.9751037e-01
  2.6334193e+00
  1.7122377e+00
 -3.8425138e+00
 -1.4252134e-01
 -3.8482327e+00
  2.9728884e-01
 -7.1132731e-01
 -3.0239053e+00
  9.4543993e-01
 -1.2535980e+00
 -2.6706874e+00
 -1.3088684e-01
  1.1524820e-01
 -1.9277555e+00
  1.7122178e+00
 -1.6975580e+00
 -3.0217006e+00
  1.6362060e+00
  1.8510720e+00
 -5.6696582e-01
  9.4287717e-01
 -7.6039088e-01
  1.4042309e-01
  4.9124506e-01
  7.8549016e-01
  5.7639855e-01
  1.9023776e+00
 -2.4465039e+00
 -1.1390374e+00
  4.2153141e-01
 -4.5153692e-01
  2.8787687e+00
  3.4978039e+00
 -2.5290887e+00
 -1.3968769e+00
  3.9941290e-01
  1.0067221e-02
  1.0402527e+00
  4.1673379e+00
  3.6311604e-02
 -1.7165993e+00
 -5.0329685e-02
 -5.4040927e-01
  1.2455841e+00
  4.6736569e+00
 -8.9088005e-01
 -7.3419821e-01
 -1.4207159e+00
  3.1065655e+00
 -1.7769930e+00
  1.3126616e+00
 -1.1803882e+00
 -5.7317572e+00
 -1.7873994e+00
  6.1832350e-01
  3.7560853e-01
 -1.2582823e+00
  1.4208894e+00
 -5.8324814e-01
  1.7361294e+00
 -8.7561095e-01
 -2.1079915e+00
  6.3464230e-01
  3.9877775e+00
  1.6148471e+00
 -1.5293419e-01
 -6.8260795e-01
 -2.9264772e+00
 -2.3341534e+00
  1.9823215e+00
 -6.8807328e-01
 -2.7621343e+00
  1.0304963e-01
  2.8413622e+00
 -6.3281245e+00
  1.0896595e+00
 -8.9481074e-01
 -1.2976606e+00
  4.8461217e-03
  1.7099844e+00
  2.3395184e-02
  6.3110691e-01
 -5.1535237e-01
  1.9999833e-01
  8.2355887e-02
 -2.3154707e+00
 -1.3226132e-01
 -1.6142437e+00
 -1.3524210e+00
  5.6882477e-01
  1.2232773e+00
 -1.5691148e+00
  3.2192166e+00
 -7.4682456e-01
  1.4989023e-01
 -2.1938853e+00
  5.3798324e-01
  3.0902627e-01
 -1.3534671e+00
  2.4285424e-01
  1.3812298e-01
  4.0949960e+00
  5.1555943e-01
 -1.2983638e+00
  1.8029211e-01
 -2.7949920e+00
 -1.7894246e-01
 -1.1026943e+00
  4.5379618e-01
  1.4853971e+00
 -1.5283947e+00
 -4.3779212e-01
  5.7705679e+00
 -1.0116080e+00
 -2.7967748e-01
 -2.7204583e+00
  1.0344104e+00
  1.0607179e+00
  7.4502599e-01
 -1.3501204e+00
 -4.5596939e-01
  3.3349164e+00
  9.3321227e-02
  9.9535841e-01
  1.0205926e-01
  2.8517306e-01
  4.7561666e-01
 -4.3932810e+00
  1.0165844e+00
  6.1739588e-01
 -2.3861618e+00
  2.6449962e+00
  1.1877096e+00
  1.4472303e+00
  3.3093932e-01
  7.4760318e-01
 -1.6797104e+00
  3.7502978e+00
  7.4894369e-01
 -8.3773392e-01
  1.3927842e+00
  1.9434793e+00
  1.7800167e-01
  1.9190708e+00
  6.3826448e-01
 -1.3832359e+00
  1.5142871e+00
  5.4661877e-02
  2.4667218e+00
  4.7108924e-01
  1.3487129e+00
  2.7092040e+00
  6.9326989e-02
  2.9390261e+00
  9.9072599e-01
 -7.3537999e-01
  1.0964960e+00
 -3.7036133e-01
  8.8360137e-01
 -4.3414530e-01
 -2.3958592e+00
 -2.8542972e-01
 -1.2991358e+00
 -4.0245572e-01
 -1.3081023e+00
 -9.3227386e-01
 -1.6131600e+00
  4.6473932e-01
 -7.9748052e-01
 -8.8977540e-01
 -2.6319294e+00
 -2.6233083e-01
 -1.9870306e+00
 -8.0625004e-01
 -1.5547959e-02
 -2.0382063e+00
 -7.7630973e-01
  6.9395924e-01
  9.9216789e-02
 -3.9251618e-02
 -3.8750550e-01
  1.1857384e+00
 -3.6471212e-01
 -4.4897790e+00
  6.8769598e-01
  1.2733687e+00
 -1.5492444e+00
 -5.5784398e-01
  1.3646698e+00
 -7.1603209e-01
  6.2357366e-01
 -7.0876718e-01
 -6.3087457e-01
  1.6016351e-01
 -6.2919921e-01
 -2.7120838e+00
 -2.1916051e+00
  1.3207353e+00
  2.0455465e-02
  5.4016149e-01
  7.5221556e-01
 -1.0471725e+00
 -1.9530765e+00
  3.2889149e+00
 -2.7408037e-01
  3.6947119e-01
  3.6049259e-01
 -1.3927525e-01
 -5.0425977e-01
  9.4688958e-01
  9.9505389e-01
  7.9192352e-01
  1.2911924e+00
  1.5907806e+00
  7.4685138e-01
 -4.5726854e-01
 -1.5174339e+00
 -6.6993326e-01
 -4.5459499e+00
  2.7815670e-01
 -1.7488315e+00
  2.6575170e+00
 -5.8933115e-01
  3.2337520e-01
  5.6606060e-01
  2.0132953e-01
 -9.0474325e-01
  6.6064179e-01
  1.5459325e+00
  8.8724202e-01
 -9.8636174e-01
 -2.0844858e+00
 -3.6349139e+00
 -1.9887503e+00
  9.0255570e-01
 -4.3214315e-01
  1.5521357e+00
  2.9443831e+00
  1.5433249e+00
 -1.3583255e+00
  6.3391224e-02
 -8.1053424e-01
  9.2050600e-01
  2.2567470e+00
 -1.9444332e-01
  7.8498721e-02
 -1.8465322e+00
  2.5029966e-01
 -1.4371564e+00
 -1.5693986e+00
  1.9066288e+00
 -3.6455762e+00
  1.4276148e+00
  3.5084507e+00
  2.6264480e-01
  2.9270468e+00
 -2.5708449e-01
 -2.7601874e-01
  1.9672436e-01
  1.1519274e+00
  1.8251760e+00
  1.4783347e+00
 -5.5446136e-01
 -1.6722463e-01
 -5.6946423e-02
 -1.1890279e+00
 -3.9034793e-01
  4.2865639e+00
 -2.0712848e-01
 -2.4790439e-01
  3.1297547e-01
  6.1459965e-01
 -2.6402804e-01
  2.0256618e-01
  1.9026315e-01
 -9.9358994e-01
  5.0956156e-02
 -3.8492647e-03
  2.4918053e+00
  1.4986044e-01
  3.8271412e-01
 -2.7944592e-01
  2.4303844e+00
  5.5763167e-01
 -1.9725747e+00
 -1.9961548e-01
  1.9603024e+00
 -7.9002333e-01
 -3.9389670e+00
  8.2041245e+00
 -7.8412658e-01
  6.5740861e-02
  8.6352557e-01
  3.3692792e-01
 -6.0950029e-01
 -6.3353187e-01
 -5.7272726e-01
  8.3713256e-02
  2.0032980e-01
 -4.5438433e-01
 -3.4094110e-01
  2.7919316e-01
 -9.7403443e-01
 -1.2438751e-01
  6.1959390e-02
  1.1850810e+00
 -2.5403237e+00
 -2.7877288e+00
  1.3503267e+00
  2.2420801e-01
  1.2093192e+00
  6.4650124e-01
  3.3867067e-01
  3.2958226e+00
  6.6137481e-01
 -4.8951226e-01
  9.4356787e-01
 -5.2122355e-01
  7.8933781e-01
 -1.1429828e-01
 -6.4865035e-01
  1.4732213e+00
 -1.8448219e-01
 -5.6374615e-01
  1.6503197e+00
  2.4629278e-01
  3.8917246e+00
 -2.2208874e-01
  9.3821388e-01
 -1.2736870e-02
 -1.6855717e+00
 -9.1554064e-01
 -2.9597195e-02
  2.3185158e-01
 -9.5822714e-02
 -1.3722590e+00
 -2.2065246e+00
  2.5530832e+00
 -4.8322192e-01
 -1.4326863e-01
  6.5875322e-01
  5.2204859e-01
 -6.4428735e-01
  6.9507666e+00
 -1.3780905e-01
 -4.9164787e-02
  1.5416233e-01
  1.7098175e-01
 -2.1587399e-01
 -9.2455995e-01
 -5.7053143e-01
  7.5693107e-01
  2.2329285e+00
  2.0526132e-01
  2.5096180e+00
  1.0453032e+00
  3.2184911e-01
  1.8202467e-01
  3.7097569e+00
 -3.4600277e+00
 -4.4419920e-01
 -2.7168453e+00
  1.0589640e+00
  2.5278306e-01
 -1.1235268e-01
 -4.8859933e-01
 -1.6425318e-01
 -2.2745046e-01
  1.2156994e-01
  4.0371060e-01
  3.8993583e+00
 -1.7755357e+00
 -5.6833929e-01
  7.4753828e-02
  1.2341442e+00
 -1.9658270e+00
  3.9747533e-01
 -1.3495835e+00
 -8.2035053e-01
 -5.0269914e-01
 -1.0415103e+00
  5.7806253e-01
 -1.4598237e+00
  1.0347080e+00
 -5.7348466e-01
  5.7472098e-01
  1.4209089e-01
 -2.6784091e+00
 -4.8308083e-01
  2.0031905e+00
 -7.0380366e-01
 -1.2099688e+00
  1.2046793e+00
  3.0587879e-01
  2.2707145e+00
  8.1746310e-01
  1.0729299e+00
 -8.7139630e-01
 -2.3947395e-01
  5.9007835e-01
  8.1455523e-01
 -9.5842415e-01
 -6.2253648e-01
  2.1725248e-01
  1.8275961e+00
  2.7477512e+00
 -1.6094259e+00
  1.0478906e-01
  4.7158468e-01
  2.2529382e-01
 -1.2808044e+00
  1.3968553e-02
 -4.0169847e-01
 -1.3468215e+00
  3.2872634e+00
  9.7080424e-02
 -3.6007878e-01
  1.2661346e+00
 -1.4260881e-01
  3.0874237e-01
  1.4384203e+00
 -2.8189414e+00
  1.3371575e+00
  8.5467273e-01
 -1.6704102e+00
 -1.7591188e-02
 -3.5413933e-01
  6.2022328e-01
 -1.6557261e-01
  1.4215606e+00
 -4.0741581e-01
 -4.2027879e-01
  2.7932401e+00
 -1.6233875e+00
 -2.6155879e+00
  9.7001058e-01
 -3.8928027e+00
  3.3854027e+00
  3.0197632e+00
  1.4607518e+00
  1.3454039e-01
 -3.8326094e-01
  3.6111343e-01
 -2.2298002e+00
 -1.5371805e+00
 -6.2337524e-01
  8.1525379e-01
  1.2544678e+00
 -2.4600644e+00
  1.0078330e+00
  3.5307860e-01
  1.8474095e+00
 -2.4183495e+00
  3.7091753e+00
 -4.2736735e-02
 -1.9748488e-02
 -2.8409624e+00
  1.7972794e+00
 -6.7603260e-01
  3.8910656e+00
 -1.2136170e-01
  1.2171532e+00
 -1.7278680e+00
 -1.0997381e+00
 -5.0118041e+00
 -3.1006989e+00
  7.0170397e-01
  1.6698521e+00
  3.1783853e+00
 -1.3183506e-01
 -8.2102895e-01
  1.9273909e+00
  1.6570889e+00
 -5.8819723e+00
  1.9019225e+00
  1.9470392e+00
 -4.8294643e-01
  1.5780659e+00
  5.1958032e+00
  1.5499005e-01
 -1.4768220e+00
 -1.4600961e+00
 -1.8432404e-01
 -9.5290446e-01
  2.8962198e-01
 -1.0126109e+00
 -3.5092801e-01
 -5.9966260e-01
  8.6770105e-01
 -8.7845242e-01
  2.4898176e-01
 -1.1984169e-01
 -1.1418709e+00
 -1.1938295e+00
  4.0827789e-03
  7.2688967e-02
  7.8887081e-01
 -5.7226616e-01
 -3.3325163e-01
 -4.2445246e-02
 -2.1298623e+00
  8.1453109e-01
  9.6165800e-01
 -2.3954952e+00
  2.2794075e+00
 -1.2659793e-01
 -1.1215969e+00
 -2.5029075e+00
  3.3828110e-01
 -9.5753437e-01
  7.7403225e-02
 -4.1496968e+00
  1.2720065e-01
  4.3128347e+00
  2.3612947e+00
  9.0244812e-01
 -6.9062030e-01
  2.0096328e+00
  2.8178720e+00
  4.6230750e+00
  2.7171593e+00
  9.7691083e-01
 -4.3221445e+00
 -1.6195933e+00
 -1.0758936e+00
  1.2690839e+00
 -5.0583571e-01
  8.8018817e-01
  1.2338855e+00
 -9.9610239e-01
  8.4053892e-01
 -1.0802180e+00
 -1.1991320e+00
 -1.1984318e-01
 -7.7622908e-01
  6.5623611e-01
  2.7983377e+00
  1.3206993e+00
  7.5346732e-01
  3.1164336e+00
 -1.4984980e-01
  7.7496342e-02
 -4.1665936e-01
 -1.2508424e-01
  2.6025288e+00
  3.3738121e-01
 -7.5595939e-01
  2.0566301e-03
 -7.2723931e-01
 -1.3896379e-01
  8.6930448e-01
 -1.0188287e-01
  1.1431820e-01
 -2.0269400e-02
 -2.0512738e+00
  4.8182068e+00
  8.5738772e-01
 -4.3242928e-01
  7.1030122e-01
  9.2617822e-01
 -3.2693666e-01
  5.6180453e-01
  4.4302580e-01
  7.1701443e-01
 -1.6911801e+00
 -4.3796575e-01
 -4.2658463e+00
  4.5083147e-01
 -2.9942942e-01
 -1.1998768e+00
 -6.4075303e-01
  1.5446365e+00
  1.3244427e+00
  2.3272989e+00
  2.1034489e+00
 -3.8544948e+00
  7.2648776e-01
 -9.7121251e-01
  1.6148897e+00
  1.0947199e+00
  1.3168257e+00
 -7.0025313e-01
 -2.3167474e+00
  3.2704575e+00
  5.1907676e-01
  1.0875514e+00
  4.3476042e-01
  1.9460404e+00
  1.7864529e+00
  1.9121401e+00
 -1.4229083e-01
 -1.7438357e+00
  8.8849056e-01
  1.5093588e+00
 -4.1973176e+00
  1.2741023e+00
 -4.0126732e-01
 -1.9691876e+00
  3.6490710e+00
  1.1540622e-02
  6.2581563e-01
 -3.8985658e-01
  3.9366549e-01
  4.9619183e-01
  5.7593471e-01
 -3.4067132e-02
 -4.1395220e-01
  2.5663847e-01
  9.3136191e-01
  8.5365361e-01
  5.3937955e+00
 -2.9483750e+00
 -2.0879616e-01
  3.8563520e-02
  3.5733107e-01
 -2.8017330e+00
  2.2813592e+00
  4.5645118e-01
 -1.0377650e+00
  2.9194047e+00
  7.5706822e-01
  6.3908249e-01
 -2.4028453e-01
  1.1400301e+00
 -2.3986225e+00
  5.0941173e-02
  7.5684559e-01
 -9.2112213e-01
  3.3127147e-01
  1.3817570e-01
  7.4090886e-01
 -1.1785851e+00
 -3.7482166e-01
 -7.5152868e-01
  5.5264336e-01
 -4.1807100e-01
 -4.5303145e-01
 -1.7490079e+00
 -7.6621902e-01
 -6.4922519e-02
  5.5633074e-01
 -6.4516969e-02
  1.3542161e+00
  3.8144931e-01
  3.0970618e-01
  2.0167878e+00
 -1.6111150e-01
  4.3885338e-01
 -2.8897119e-01
 -5.9545267e-01
  4.4344861e-02
  1.2632409e+00
 -8.3360004e+00
  9.0942955e+00
  2.9341550e+00
 -9.1277696e-02
 -4.1783047e+00
 -5.2137427e+00
  4.1424103e+00
  7.4535197e-01
  1.6213094e+00
 -3.6689797e-01
 -5.3304797e-01
  1.4555722e-01
  6.7195535e-01
  2.2829986e+00
 -4.4802370e+00
  1.1472299e+00
  1.3270556e+00
  3.1625116e-01
  4.3632165e-01
  6.7808205e-01
  2.3226880e-01
 -1.1858011e+00
  6.0961876e+00
  1.1015105e+00
 -2.6617181e-01
  6.6386141e-02
 -4.5747423e-01
 -3.5802453e+00
  3.2871076e-01
 -1.9442414e-01
  1.5734942e-01
  7.8124321e-01
  2.5662787e+00
  1.7063463e+00
 -3.2643846e-01
  7.7517116e-01
  3.7787001e+00
 -5.8993917e+00
  1.6998801e+00
  2.3834305e+00
 -1.2995052e-01
  6.9792074e-01
 -4.6155400e+00
 -4.9662867e+00
 -1.3804075e-01
 -3.1578221e+00
  2.0583899e+00
  2.4907651e+00
 -1.5459305e-01
 -6.6460671e+00
  4.9496987e-01
  9.6336156e-01
 -1.0942045e+00
  9.3433309e-01
 -2.1239939e+00
 -2.6408973e+00
 -5.4192820e+00
 -1.2890624e-01
  4.8073168e+00
  4.1847366e-01
  1.6802350e-01
  2.1749759e+00
 -1.0421228e+00
 -1.8686510e+00
 -1.0759485e-01
 -1.0993537e-01
 -3.2760580e+00
  1.5585561e+00
 -2.0340297e+00
 -1.8226484e+00
  1.5513768e+00
  9.7461998e-01
 -7.4820101e-01
 -1.5385387e+00
 -1.3940514e+00
  3.9221734e-01
 -6.4301115e-01
  1.2269599e+00
  4.8737752e-01
  4.3712254e+00
  5.3704017e-01
  3.5612632e-02
 -2.3732919e-01
  3.4161437e-01
 -1.7018656e+00
  7.8894901e-01
  4.0482574e+00
 -5.9497174e-02
 -1.5911051e+00
 -6.0653514e-01
 -1.4286907e+00
 -7.2414821e-01
 -5.1245207e-01
  1.7588187e+00
  2.1861536e-02
 -8.5506058e-01
  1.1482431e+00
 -2.1303487e+00
 -1.5319787e-01
  2.9423037e+00
 -6.3449061e-01
 -3.5751745e-01
  6.4869678e-01
 -3.5104752e-01
 -1.7013172e+00
  1.2711933e+00
  3.6264920e+00
 -2.2416062e+00
 -1.5568366e+00
 -1.2565267e+00
 -4.9588463e-01
  1.2166523e+00
  2.5461047e+00
  2.0491548e+00
  2.5021760e+00
  6.7193782e-01
 -3.0748969e-01
  4.2965934e-02
  2.7549869e-01
  2.2953064e+00
  1.2550441e+00
 -1.5326699e+00
 -4.0703979e+00
 -3.0097144e+00
 -4.8141295e-01
  1.4726613e+00
 -2.2179370e+00
 -2.1936820e+00
 -7.7122927e-02
  9.9743265e-01
  4.5388670e+00
  2.3116968e+00
 -3.0521061e+00
  6.5664387e-01
 -3.6342573e+00
  2.2578213e+00
 -2.3909520e-02
 -7.8756160e-01
  3.6806412e+00
 -2.4017420e+00
 -2.2297373e+00
  3.9825574e-01
 -5.5724306e+00
  5.3982908e-01
  9.0318233e-01
 -3.7855273e-01
  9.0571821e-01
 -2.1123903e+00
  3.6902726e-01
  9.7216934e-01
 -4.7832194e-01
 -6.4926678e-01
  2.4887986e+00
  1.0130837e+00
  6.0929781e-01
 -6.6839105e-01
 -1.5533013e+00
  2.5357177e+00
  4.1016743e-02
  3.1140694e-01
  1.9575986e+00
  7.1370500e-01
  3.2936120e+00
 -1.6984268e-01
  6.3578588e-01
 -3.2352080e+00
 -2.0879933e-01
 -6.5116346e-01
 -3.8898811e+00
 -6.4482927e-01
  1.6339375e+00
 -7.7248609e-01
  2.1443252e-01
  9.4846383e-02
 -3.0139515e-01
 -1.3632796e+00
  1.8439527e+00
  3.6659222e+00
 -6.4146507e-01
 -2.2666605e+00
 -9.1509782e-02
  2.3397498e+00
  2.2668777e+00
 -1.2804776e-01
 -6.2245715e-01
 -9.7239941e-01
  1.1227392e+00
  6.5986997e-01
  2.6382247e-01
  2.4896262e+00
  8.8167596e-01
  6.3984886e-02
 -3.8933215e-01
 -3.0726567e-01
 -9.2014313e-01
  1.7375995e+00
 -2.1185892e+00
 -2.1692911e-01
 -7.9441833e-01
 -1.3528954e+00
 -8.2104844e-01
 -1.0550472e+00
 -3.2424116e-01
  8.3278075e-02
 -1.1852356e+00
  1.1142619e+00
 -1.6525959e+00
  1.5730648e+00
  3.8453811e-01
  8.6893344e-01
 -1.4000549e+00
  2.0732614e-01
  8.7840176e-01
  1.9277328e+00
  3.9228482e+00
  4.7363269e-01
  3.0052667e+00
 -2.5636749e-02
 -1.7305804e+00
  4.1046110e-01
  4.5204246e-01
 -4.9926105e-01
 -1.6231340e-01
  1.6491318e-01
  6.1562574e-01
 -1.0919470e+00
  4.2392874e-01
  1.5581093e+00
  1.6737258e+00
  3.1118864e-01
  1.4206094e+00
  7.2666603e-01
  6.9580503e-02
  4.0356687e-01
 -5.4883137e+00
  2.4436862e+00
 -1.5413971e-01
  1.3957272e+00
  1.7945534e+00
  1.6385263e+00
  1.3185886e+00
 -2.9667327e-01
  6.1201960e-01
  2.9785207e-01
  3.6138907e-01
  6.3654071e-01
  1.0022572e+00
  9.7467184e-01
 -2.7402878e-01
  2.7988074e+00
 -5.3894037e-01
  7.1771318e-01
 -1.0270393e+00
 -3.7776017e+00
 -5.5966216e-01
  2.6610571e-01
  1.3620721e+00
  8.7331600e-02
 -1.5797216e+00
  1.6348213e+00
  1.0696526e+00
 -3.9877164e-01
  2.2949097e+00
 -8.0917567e-01
  2.8136983e+00
  1.4987901e+00
  2.3292279e+00
  1.6111492e+00
  1.1507117e+00
  1.2691152e+00
 -1.2280105e+00
 -1.0840480e+00
  6.4592284e-01
  9.5749319e-01
 -3.5636085e-01
 -8.2422996e-01
 -6.4685351e-01
  1.3750379e+00
  8.7210266e-03
  1.5156601e-01
 -2.3157950e-01
  7.4743476e+00
  2.1323879e-01
 -6.8421364e-01
  1.3541156e+00
  3.1183928e-01
  8.2848328e-01
 -1.9756148e+00
  4.0605366e-01
 -1.2957859e+00
  1.5266560e-01
  5.0469983e-01
 -1.2862363e-01
 -6.8015134e-01
 -1.1804988e+00
 -2.3624411e-01
  1.1218526e+00
 -1.4355533e+00
  1.0056587e+00
  5.4273836e-02
  7.4986303e-01
  1.4090033e+00
  2.5467661e-01
 -1.6288377e+00
 -1.9127487e+00
 -3.9001045e-01
  3.7198477e+00
 -5.3186488e-01
  5.0033098e-01
  2.4310844e+00
 -2.3751049e+00
  5.6580663e-01
  1.4249525e+00
  8.5523009e-01
 -6.1043507e-01
 -4.1495144e-01
 -7.2732091e-01
 -1.4748421e+00
  2.0203704e-01
 -3.3371861e+00
 -7.1563858e-01
 -2.2973297e+00
 -2.8113689e+00
 -1.2872381e+00
  6.2076068e+00
  2.0646994e+00
 -7.5741758e+00
 -1.9574398e+00
 -3.1031361e+00
 -1.9775212e-01
  3.3864343e+00
  5.4191208e+00
 -1.5980116e+00
  4.2811117e+00
 -3.5813466e-01
  6.8908578e-01
 -1.1633173e+00
  1.2141552e+00
 -4.2926228e-01
 -1.6107422e+00
 -8.8708407e-01
  6.5186596e-01
 -7.6159358e+00
  1.9019015e+00
  4.1277938e+00
  3.7984676e+00
  1.1342753e+00
  2.7579634e+00
 -1.2711704e+00
  3.6115532e+00
  6.7118913e-01
  1.2106674e+00
 -6.6952205e-01
 -1.2438875e+00
 -3.2611215e-01
 -3.4615523e-01
 -3.9563122e+00
 -6.7783775e+00
  7.5264961e-01
  3.0664279e+00
 -3.4187579e-01
 -1.8424143e+00
 -5.0072551e-01
  2.7826899e-01
  4.8257884e-02
 -4.4068816e-01
  1.6936455e+00
  2.6040919e+00
  1.3822126e+00
 -5.4673576e-01
  6.8465096e-01
 -1.1242342e+00
 -3.7268937e+00
  1.2974815e+00
 -1.1331489e+00
  1.4034487e+00
 -5.5324191e-01
 -5.7925653e-01
 -2.2769150e-01
 -1.3903305e-01
 -4.8740575e-01
 -3.2887356e+00
 -1.6427307e+00
 -3.6527824e-02
 -4.3302050e-01
  5.6340617e-01
 -1.0732478e-01
  2.5908679e-01
  3.1659527e+00
 -8.0068547e-01
  7.3200047e-01
  2.4405746e+00
  2.0869083e+00
 -5.8968341e-01
 -2.1041965e+00
  3.0944934e+00
 -5.4117208e+00
 -1.4514687e+00
  2.5997245e+00
  5.9373099e-01
  1.4138639e+00
  2.5429818e-01
 -2.6894385e-01
 -1.5449252e+00
 -1.8415194e+00
 -4.9514656e+00
 -9.4895229e-02
 -5.1524532e-01
 -2.1679914e+00
 -4.9957970e-01
  7.3633659e-01
 -5.5211043e+00
 -1.8322531e+00
  1.5240483e+00
  8.0027741e-01
  1.4075344e+00
  6.2346303e-01
  5.7446557e-01
  1.9704057e-01
  5.1610392e-01
 -3.9909485e-01
 -1.6387590e+00
 -2.9074021e-02
  1.8602073e+00
  2.4379337e-01
 -1.9783870e+00
 -1.3263837e+00
  9.9981308e-01
 -9.8342523e-03
  1.6040531e+00
 -1.1324939e-01
  4.2052668e-01
  1.0024416e+00
 -3.9475114e+00
 -4.1617980e+00
 -4.0660815e+00
 -3.8968432e-01
  2.8167450e+00
  1.5887347e+00
  7.0997059e-01
  1.3668172e+00
  2.7367857e-03
  2.5808556e+00
  1.7847190e+00
 -2.1505778e+00
  2.3528094e+00
 -2.7417192e+00
 -2.6396804e+00
 -1.8730527e+00
  2.0198217e-01
  1.5069733e+00
 -2.0664382e+00
  1.4093539e+00
 -1.5973819e+00
 -3.8260087e-01
 -1.0010935e+00
 -7.0981428e-02
  2.4638138e+00
 -9.1648132e-01
 -6.0181797e-01
 -3.2410102e+00
 -3.6618731e+00
  1.5095905e+00
  2.0659980e-01
 -1.0558043e+00
 -1.9662682e+00
  3.2807844e+00
  1.5256329e-02
  5.7733741e+00
  2.6521540e+00
 -3.5669739e+00
 -2.7697775e+00
  2.5450429e-01
  3.2895896e-01
 -8.9502448e-01
  4.8851533e+00
  1.7031722e+00
 -2.6626873e-01
  1.1622082e+00
 -2.2901130e+00
 -3.6705071e-01
 -2.6808174e+00
  5.2955370e+00
 -5.5772179e-01
  1.1541433e+00
  3.9315877e+00
  1.2637527e+00
  5.9137464e-01
 -1.9904797e+00
  2.7659640e+00
  3.4209397e+00
  2.3548453e-01
 -3.5649531e+00
 -5.4550081e-01
 -7.9954910e-01
  2.2689061e+00
  1.0426282e+00
 -2.9992092e+00
  3.7598805e+00
  8.1672207e-02
 -3.8786232e+00
  1.6250237e+00
  1.2777692e-01
 -8.2318735e+00
 -9.1436303e-01
  1.1929290e-01
  9.8708652e-02
 -4.8693272e-01
 -4.6071935e-01
 -1.4074304e+00
 -3.7944844e-01
 -3.0474024e+00
 -5.1602750e+00
 -2.3177483e+00
 -6.0742736e-02
 -5.4044254e-02
 -1.2394903e-01
 -6.9081807e-01
 -2.0831823e+00
  7.8153729e-02
 -1.8008639e+00
  4.0546113e-01
 -1.3613012e+00
 -6.9052893e-01
  4.9654219e-01
  1.7986386e+00
 -8.4036613e-01
 -2.2143667e+00
 -7.5491071e-01
 -4.4532168e-01
  3.8575259e-01
  1.5407670e+00
  1.1429493e+00
 -5.3561503e-01
 -5.4886312e+00
 -3.5277898e+00
 -1.8832126e+00
  1.8220835e+00
 -1.4735467e+00
 -2.7475414e+00
  3.4017515e-01
 -3.9701018e+00
 -5.5593753e-01
 -3.8204035e-01
 -8.5353351e-01
 -1.0479755e+00
 -7.0001662e-01
  1.6174399e+00
  1.0352523e+00
 -1.5437633e+00
 -1.5902419e+00
 -1.7402947e+00
 -1.6840255e+00
  8.7084436e-01
 -1.6635280e+00
  3.8699695e-01
 -4.8827302e-01
 -2.0104578e-01
  2.8169113e-01
 -1.1754184e+00
 -5.8785743e-01
 -2.8824635e+00
  1.3344294e+00
  3.4372155e-02
  1.7513629e+00
  1.2066680e+00
 -9.6808106e-01
  8.8727497e-02
  3.3793373e+00
 -1.0064061e+00
 -2.0380538e+00
 -1.6787951e-01
 -2.0697238e+00
 -8.7364954e-01
  7.6871806e-01
 -2.4920926e+00
  6.2121964e-01
 -1.2496343e+00
  3.2089925e-01
 -1.1319561e+00
 -1.0585007e-01
 -5.0335765e-01
  6.8480533e-01
  4.5892361e-01
  2.5142677e+00
 -1.1719676e+00
 -6.8405008e-01
  2.0910296e+00
  3.2509720e+00
  5.6059951e-01
  5.8657879e-01
 -1.7674285e+00
 -9.0691930e-01
  5.8799016e-01
  1.1578662e-02
  5.4634374e-01
  3.3193474e+00
  4.8905988e+00
 -5.0433558e-01
  4.2614675e-01
 -1.7213984e-01
  6.1503623e-02
 -2.8533646e-01
  1.6479549e+00
 -7.6935709e-01
  1.9245844e+00
 -8.4769601e-01
 -3.0529451e-01
 -1.5855833e+00
  1.8637693e+00
 -4.0083237e+00
  7.0057797e-01
  2.4541593e+00
 -3.1196535e-01
  1.6511470e+00
 -6.0837370e-01
 -2.2571046e+00
  1.3538806e+00
  1.4555573e+00
 -6.5776855e-01
 -3.3527070e-01
  6.9853759e-01
  1.4188080e+00
 -6.9412184e-01
 -8.0818802e-01
 -7.5064641e-01
 -8.1629425e-01
  2.4367113e+00
  7.4909753e-01
 -5.1739120e-01
 -2.6069021e+00
  1.8915670e+00
 -6.4068067e-01
 -1.3757081e+00
 -1.4734422e+00
  2.5967321e+00
 -1.2132782e+00
  3.0828063e+00
 -1.6362484e+00
  3.9615501e-02
  8.4824717e-01
  1.7118249e+00
 -4.8209965e-01
 -1.8125454e+00
  5.0972921e-01
  6.3713640e-01
  2.2737975e+00
 -4.9704986e+00
  1.9847885e-01
 -2.7705612e+00
  9.7264326e-01
  9.7977102e-01
  1.7409395e+00
 -4.2806959e-01
 -7.1075141e-01
 -8.0478418e-01
  2.1892648e+00
  1.9002606e-01
 -1.9848834e-01
 -8.9351106e-01
  1.4947886e+00
  1.0308127e+00
 -1.7582436e-01
 -2.3359710e-02
 -7.2756127e-02
  1.4038765e+00
  2.1101549e+00
  1.1434480e+00
 -4.6374214e-01
  6.9330913e-01
  1.0734079e-01
 -3.9134723e-01
 -1.5191778e+00
 -9.4444299e-01
 -4.0544078e-01
 -2.3834784e+00
 -4.6448760e-02
 -1.5997012e+00
 -2.9058206e+00
 -3.4306638e+00
  2.4568826e-01
  1.1441066e-01
  1.8660077e-01
 -2.8277286e-03
 -2.5038221e-01
 -8.2452047e-01
 -1.2575715e+00
  5.3983055e-02
 -1.3133125e+00
 -1.6370492e-01
 -2.2443086e-01
  3.7137565e-01
  2.0495737e+00
  7.9751760e-01
 -5.6727076e-01
 -1.3555448e+00
  1.4328022e-01
 -5.2157736e-01
 -1.2256842e-01
 -7.6158208e-01
 -1.8026203e+00
 -1.5412192e+00
 -7.0008683e-01
 -4.3073883e+00
  1.3512305e+00
  3.7024314e+00
 -1.0271708e+00
  5.8823977e-02
 -1.7044778e+00
  7.6181734e-01
 -2.2832050e+00
  2.0171161e+00
 -3.9970431e-01
  2.2108771e-01
  3.4042006e+00
 -6.9427091e-01
  9.1891897e-01
  7.3595762e-01
  1.9613212e+00
 -8.6209893e-01
 -1.8275614e+00
  2.6824148e+00
 -1.5640775e+00
 -1.2707846e+00
 -1.8701895e+00
  4.2788598e-01
  1.7778412e+00
  1.2312708e-01
  4.1183704e-01
  7.0989382e-01
 -1.3785702e+00
 -1.0902406e-01
  6.9041705e-01
  1.3107653e+00
 -3.7473926e-01
 -2.1987414e+00
  5.8494282e-01
  8.8448721e-01
 -1.4350981e-02
  2.3312967e+00
 -1.3811883e-01
 -1.9067652e+00
  2.3998063e+00
  1.5340127e+00
 -9.4671279e-01
  9.0802562e-01
 -3.1918490e+00
 -3.1344845e+00
 -4.1264291e+00
  2.5729984e-01
  3.5026939e+00
  1.3132088e-01
  1.4500403e+00
  2.2029147e+00
  1.2054799e+00
  4.4420525e-01
 -1.2597456e+00
  8.1241205e-02
 -2.7108505e+00
  2.0110878e-01
 -8.7935336e-02
 -2.3948014e+00
 -5.1208234e+00
  4.6512046e+00
 -1.1297463e+00
  1.2198703e+00
 -1.0191234e+00
  4.2030159e-01
 -2.0800644e-01
 -3.5194248e-01
  1.5478669e+00
 -5.8379893e+00
  3.1231244e+00
 -4.1327705e+00
 -2.3930745e+00
 -4.2989311e+00
  1.2011216e+00
 -1.4500165e+00
 -1.9139527e+00
  2.2737515e+00
  1.7767885e+00
  3.0440447e+00
 -1.0192090e-01
 -3.1025123e-02
  5.4453868e-01
 -8.3490920e-01
 -1.8215495e+00
 -3.1805679e-01
  2.3500502e+00
 -2.4273343e+00
  1.2992878e+00
  1.7207363e+00
  2.4668224e+00
 -3.6276853e+00
  1.3661662e+00
  3.1274531e+00
  3.0704987e-01
 -4.9799490e+00
  2.9854316e-01
 -2.7157483e+00
 -4.7094193e+00
 -4.5682374e-01
 -1.2611084e+00
  1.4556639e+00
 -2.6886425e+00
 -3.9915878e-01
 -7.9435468e-01
  2.7501354e-01
 -4.9512541e-01
  2.0984423e+00
  1.3485652e+00
  1.7095627e-01
  4.1253114e+00
  3.1951627e-01
 -7.9520172e-01
 -2.3188317e+00
 -1.4022800e+00
  8.3571500e-01
  1.5392052e+00
 -1.4974770e-01
 -1.3363304e+00
 -9.8372304e-01
 -1.9835261e-01
 -3.7320063e+00
  2.2069135e+00
  8.3790618e-01
  1.0963168e+00
 -3.7917364e-01
  2.5891113e-01
 -5.7173047e+00
  2.4100599e+00
  4.5693774e+00
 -1.1341119e-01
 -1.6043842e+00
  2.1001596e+00
  1.5710630e+00
 -2.5180029e-02
 -1.9594315e+00
  9.0582961e-01
 -6.1375344e-01
 -1.4376241e+00
 -1.1640300e+00
  4.0538728e-01
 -5.4323636e-02
  6.3726068e-01
 -1.3041687e+00
  3.6355400e-01
 -4.9231043e+00
  8.3735746e-01
 -3.9207447e+00
 -1.9695936e+00
  1.3727056e-02
 -2.5525584e+00
  1.6892420e-01
 -4.2388183e-01
 -7.7030219e-02
 -1.5353234e+00
  5.2435410e-01
 -1.4652489e+00
  2.4939370e+00
 -1.1540998e+00
  8.1521988e-01
  3.8459051e+00
 -1.1931429e+00
 -1.3241115e-01
  2.8259918e-01
 -3.2960463e-01
 -1.8397748e-01
 -1.4746578e+00
  3.1704661e-01
  9.2942524e-01
  3.3939536e+00
  2.0562211e-01
 -3.3398869e+00
  1.2040036e-01
 -4.1318545e-01
  1.9564335e+00
 -1.2514033e+00
 -5.4253328e-01
 -1.9863788e+00
 -8.3502895e-01
  5.5104667e-01
 -9.4661653e-01
  5.7804340e-01
 -1.4470370e+00
 -6.7074299e+00
  1.9126627e+00
 -3.5088137e-01
  2.7021408e-01
  1.7502664e+00
 -7.0654899e-01
  8.0760282e-01
  1.1769077e+00
  2.8554318e+00
  6.4262378e-01
 -2.9682210e-02
 -2.8961763e-01
  1.5323969e+00
 -2.9998118e-02
 -8.0275124e-01
  9.4665849e-01
  1.2277662e+00
  2.7098083e+00
  3.2024863e+00
  1.4935308e+00
 -1.9848663e+00
  2.4251692e+00
  1.4339907e+00
 -9.2261606e-01
  2.9282799e+00
 -5.5789900e-01
 -1.1284823e+00
  1.1870699e+00
  6.4888746e-02
  6.1307847e-01
 -3.5330853e-01
  2.4270587e-01
  1.4946188e-01
  3.4250343e-01
  2.7250330e+00
  8.3630896e-01
 -1.3007172e+00
 -1.1851505e+00
  1.8954408e-01
  1.6877858e-01
  1.2823199e+00
 -1.8226285e+00
  4.5079058e-01
 -4.4393978e-01
  6.4250833e-01
  1.2649630e+00
 -3.1573267e+00
  4.2783895e+00
 -7.1276510e-01
  3.7835714e-01
  1.3860062e+00
 -1.1500503e+00
  9.2295682e-01
  5.2225721e-01
 -2.2220511e+00
  8.5570478e-01
  1.6845270e+00
 -1.3251158e+00
 -3.1917884e+00
 -2.1591196e+00
  7.5677949e-01
 -1.2273220e-01
 -1.3500824e+00
  2.9320097e-01
 -3.5354018e-01
 -8.5894036e-01
  6.8959922e-02
  2.3886836e+00
 -4.2613206e+00
  8.3316678e-01
  2.6545453e-01
  3.5642519e+00
  1.0045438e-01
 -4.1608137e-01
  1.2301322e+00
 -2.3961468e+00
 -1.2942810e+00
 -2.5542073e+00
 -3.1899083e-01
 -1.2068834e+00
 -6.7712337e-01
 -2.9352260e-01
  1.7483224e-01
  3.8774829e+00
  9.7737513e-02
  1.9107604e-01
  2.5135629e+00
 -1.6302997e+00
  1.9834805e-01
 -2.6632118e+00
  2.1487837e-01
  1.2068936e+00
 -2.6254761e+00
 -6.2354451e-01
 -1.1711159e+00
 -6.8901169e-01
  1.4669679e+00
  4.5440102e-01
 -1.9390298e+00
  1.0218842e+00
  3.6273162e+00
 -1.5153885e+00
  1.6207410e+00
 -1.1454086e+00
 -2.9869595e+00
 -1.2238759e+00
 -2.3741606e-01
 -2.3618188e+00
  6.0793817e-01
 -2.8552182e+00
 -1.3367368e+00
  3.2480666e-01
  1.2259303e+00
  1.5602424e+00
 -5.4232246e-01
  9.4051552e-01
 -3.7282503e+00
  5.1546395e-01
 -5.0553340e-01
 -1.4465410e-01
  3.0455866e+00
 -1.1555265e+00
  2.3132792e+00
  9.2808080e-01
 -9.7653382e-02
  5.2730471e-01
 -3.8538054e-02
 -6.3911378e-01
 -2.1479039e+00
 -1.7053361e+00
 -1.3052880e+00
 -1.9507068e+00
 -2.5719287e+00
 -1.1544025e+00
  2.0345569e+00
 -2.0694535e-02
  3.6800761e+00
 -1.1534905e+00
  1.3002684e+00
 -2.0120542e+00
  2.7423818e+00
 -7.0078069e-01
  7.9998380e-01
 -2.0192763e-01
 -8.0593717e-01
 -6.5231931e-01
 -8.1781548e-01
 -2.0111780e+00
  1.1723508e+00
 -2.0194514e+00
  9.3477178e-01
  2.8361897e+00
  2.9838696e-02
 -1.4436159e-02
  9.0456146e-01
  2.1224168e-01
  2.2321002e+00
  8.3380818e-01
  6.2193424e-01
  9.0768397e-01
 -4.8599222e-01
  4.6512234e-01
 -1.8531913e+00
 -1.1143587e+00
 -6.6080588e-01
 -2.4381013e+00
  9.7913408e-01
 -4.5545537e-02
 -2.0346773e+00
  1.3325181e+00
 -1.7711792e+00
 -6.1362910e-01
 -6.6180959e-02
 -2.6238218e-01
  2.1398473e+00
 -4.4804960e-01
 -1.7687908e+00
  3.3624434e-01
  1.4119943e+00
 -2.9105422e-01
  6.0496461e-01
 -1.0300649e+00
  4.0064158e+00
  5.5394697e-01
 -2.1130611e-01
 -4.9666014e-01
  1.2801185e+00
  6.5538704e-01
 -2.2317399e-01
 -2.8115377e+00
 -1.1329418e+00
  1.5085288e+00
 -8.6798996e-04
 -2.1269605e+00
 -2.1884804e+00
 -6.3590932e-01
 -3.4711197e-01
 -4.2382929e-01
 -2.8747182e+00
 -1.7998322e+00
 -1.7860267e+00
 -1.9594604e+00
  3.5337253e+00
  1.4900825e+00
  7.4726957e-01
 -1.7520617e+00
 -2.3513624e-01
 -8.4250849e-01
 -3.6394721e-01
 -1.8679746e+00
 -4.2124850e-01
 -4.4994691e-01
 -1.7887027e+00
  4.9847570e-01
  4.0119061e-01
 -1.0009067e+00
  4.0563531e+00
  7.7365297e-01
 -1.0180576e+00
  3.0670244e-01
  1.6051552e+00
 -3.6793855e-01
 -7.0128220e-01
 -3.1073558e+00
  5.7240093e-01
  1.1938038e+00
 -2.2920499e+00
  5.6408674e-01
 -8.6261302e-01
 -1.5555945e-01
 -4.3824620e+00
 -7.2009051e-01
 -3.3944306e-01
 -1.0379403e+00
 -3.1820980e-01
  7.0471841e-01
  3.2148910e+00
 -3.0910200e-01
  1.5218515e+00
  1.5844482e+00
 -8.0609381e-01
 -1.3502454e+00
 -7.6735482e-02
 -1.3011767e+00
 -1.4976387e+00
  2.3514254e+00
 -2.8686380e-01
  1.2498049e-01
 -2.4292420e-01
  6.3733712e-02
 -1.0178689e+00
  8.6596930e-01
 -6.7611265e-01
 -2.6813536e+00
 -9.6338862e-01
  1.4690933e+00
 -5.0041795e-01
 -8.9683145e-01
 -1.1880190e+00
  1.1661627e+00
  3.0987027e-01
 -2.4597790e+00
  1.0404873e+00
 -4.5235026e-01
  3.1626110e+00
  1.0849961e+00
  1.4736989e+00
  1.1699222e+00
  3.4059796e-01
  7.7278095e-01
  1.0831467e+00
 -3.9319980e-01
  3.5011468e+00
 -5.1352787e-01
  3.5281378e-01
 -1.1744841e-01
 -2.7129922e+00
 -1.3404137e-01
 -1.5278711e+00
  5.8146793e-01
  1.6131420e+00
  2.0635793e+00
 -5.7516553e-02
  3.1944218e+00
  7.1152657e-01
 -2.4423161e-01
  5.6029886e-01
 -1.3666944e-01
  4.9036768e-01
  9.3594122e-01
  1.9504175e+00
  1.5407982e-01
  1.5514598e+00
 -9.3752056e-02
 -5.6082314e-01
  4.3996295e-01
 -3.3797419e+00
  4.9108574e-01
 -1.3903762e+00
 -5.7246953e-01
 -2.2541633e-01
  1.2712616e+00
 -2.4188485e+00
 -1.6183738e+00
  4.8871100e-01
 -2.2602114e-01
  2.2721514e-01
  1.1424981e+00
 -2.5533330e+00
  1.2182218e-01
  3.6851878e+00
  1.4179649e+00
 -1.7673891e+00
  5.9823757e-01
 -7.6930285e-02
  3.5379210e-01
 -4.2823922e-02
 -1.4814495e-01
 -4.3157868e+00
  1.5855856e+00
  2.5652549e+00
  1.6272396e+00
 -1.9363323e+00
  7.2394741e-01
 -6.1392730e-01
 -6.9164485e-01
  4.5421758e-01
  1.2897755e+00
  7.7789426e-01
  1.7065368e+00
 -2.0277717e-03
  1.8371023e+00
  6.6601825e-01
 -9.3926865e-01
  8.1117988e-01
  1.1882457e+00
  3.1050774e-01
 -2.7230721e+00
 -3.8796122e+00
  1.7794110e-01
  1.9394841e+00
  1.8704134e-01
 -1.7962803e-01
 -3.9490315e-01
  6.2216383e-01
  2.1819597e-01
 -1.5188437e+00
 -1.3842490e+00
 -2.2339237e+00
 -8.4981549e-01
  9.2738551e-01
 -1.5376444e+00
 -3.8295254e-01
 -6.1105835e-01
  1.9453597e+00
  3.8223505e-01
 -1.1031436e+00
  2.9236186e-01
 -5.3538394e-01
  2.3784634e-01
 -3.3879504e-01
 -2.1377285e+00
 -7.9954493e-01
  7.7809057e+00
  1.3079565e+00
 -3.6355919e-01
  4.8091388e-01
  4.9503169e+00
  1.0892352e+00
  2.3212464e-01
  1.9563131e+00
 -1.6597258e-02
 -3.2484356e-01
 -6.7935508e-01
  1.4272057e-01
  4.8143391e-02
  1.5549532e+00
 -4.4570913e+00
  1.5538760e+00
  3.7438989e-01
 -1.6231669e-01
 -3.8286152e+00
  1.5013461e+00
 -3.8038003e-01
  2.8548501e+00
  2.8695223e-01
  1.4733555e+00
 -1.0144732e+00
  2.6405039e+00
  1.5925976e+00
  1.4035776e+00
 -3.0753131e+00
  3.4186190e-01
 -4.8232961e-01
 -2.1489713e-01
 -1.0921324e+00
  1.2960994e-01
 -3.6599462e+00
 -2.8710334e+00
 -2.5664556e+00
  2.4024849e+00
  1.5531774e+00
  1.9984218e+00
  2.9974248e+00
 -4.1720590e-01
 -2.2362218e+00
 -3.4575120e-01
 -2.4456003e+00
  2.0463121e-01
  4.7359877e+00
 -1.9684178e+00
  3.3636281e+00
 -2.4471488e+00
 -2.5411189e+00
  2.3063505e+00
 -2.4688191e+00
 -1.6284728e-01
  9.5668083e-01
 -1.1699097e+00
  1.4046090e+00
 -1.0799557e+00
  3.5667837e+00
 -1.9885132e+00
  4.0563673e-01
 -2.0856388e+00
 -1.3340449e+00
 -3.0889604e+00
  1.8138494e-01
  2.0751023e+00
  1.2183514e+00
  4.8584467e-01
  2.1396616e-01
  1.1363083e+00
 -1.3733680e+00
  1.3608968e+00
  7.3386079e-01
  3.9314313e+00
  2.3408830e+00
 -3.2261624e+00
 -2.6605189e+00
  4.7774240e-03
  1.0129945e+00
  1.3866912e+00
 -3.7888905e-01
 -2.1946055e-01
  9.4238192e-02
 -1.1622014e+00
  2.8188360e-01
 -1.2610492e+00
  5.1202006e+00
 -1.6979441e-01
 -1.9581980e+00
  1.1796388e-02
  1.3784301e-01
 -2.3680966e-01
  6.4669091e-01
 -2.4137966e-01
 -2.0140015e-01
 -6.1896616e-01
  2.4031653e+00
  1.9179925e+00
  6.8789721e-01
  4.1129875e-01
  4.2234504e-01
  1.7814642e+00
 -5.6738257e-01
  9.8478043e-01
  7.8928077e-01
 -2.2718256e+00
  1.0919340e+00
  1.4729598e+00
 -1.7910578e+00
 -1.2925544e+00
  3.1023133e+00
  1.5450587e+00
 -1.4119211e+00
  4.4415154e+00
  1.5942812e-01
 -6.0207063e-01
 -1.0480183e+00
  2.4370482e-02
  2.5473285e-01
 -4.1536613e+00
  4.9319349e-02
  4.4394121e+00
  5.9215885e-01
  1.2518055e+00
  8.1814373e-01
 -8.5275936e-01
  3.7127924e-01
 -9.5227055e-02
 -2.0893145e+00
  1.3623971e+00
 -9.7292745e-01
 -1.3852952e+00
  3.3350415e+00
  1.9334054e+00
  2.3387726e-02
 -1.1217907e-02
 -2.4577131e+00
  1.6148615e+00
 -9.4863212e-01
  4.6206552e-01
 -5.3899965e+00
 -2.0537586e+00
 -1.4950283e+00
 -3.2580936e-01
 -1.0814662e+00
  3.5137844e-01
  2.3692698e+00
  1.5509318e+00
 -2.7447217e+00
 -1.1149552e+00
  1.2284418e+00
 -2.3606536e+00
 -9.4887727e-01
  5.8125699e-01
 -9.0330750e-01
 -6.9997102e-02
  3.9988663e+00
  9.6698225e-02
  5.5964942e+00
 -8.6836547e-01
  1.6932559e+00
  2.9534197e-01
 -1.5755852e+00
 -8.2336754e-02
 -4.3767462e+00
  3.9981925e+00
  5.6603491e-01
  1.6784172e+00
  4.4957118e+00
  2.2530105e+00
  2.1967893e+00
 -5.2534090e-03
  3.0111912e-01
  6.5754384e-01
 -2.6368573e-02
  1.1317563e+00
 -1.1492826e+00
 -1.2025567e+00
  1.7629480e-02
 -4.0057435e+00
 -8.0186307e-02
  2.3725691e+00
 -5.0473946e-01
 -1.1573268e+00
 -1.9351413e+00
 -4.7337403e+00
 -5.9691578e-01
  1.6917607e+00
  4.7808337e+00
  4.6534508e-01
  4.9494475e-02
 -6.5440696e-01
  2.8681719e+00
 -1.1483240e+00
 -6.0713142e-01
  3.2028762e-01
  5.2546239e+00
  1.2998370e+00
  2.3082230e+00
  4.7113363e-02
  3.5039399e+00
  1.5476975e-01
  2.9168246e+00
  3.5405910e-01
 -1.2608058e+00
 -1.0903306e+00
 -1.3621683e+00
  4.8979127e-01
 -1.2807562e+00
  1.0716306e+00
 -5.4071790e-01
 -6.3546503e-01
 -5.7358730e-01
  1.6153018e+00
 -4.4867811e+00
  1.5352048e-02
 -5.9983677e-01
 -8.1376094e-01
 -2.9544766e+00
  1.1973467e+00
  1.1901267e+00
  4.5340304e+00
 -6.6308397e-01
  1.3517663e-01
 -1.0523765e+00
  5.6568551e+00
  5.6580592e-02
 -3.9516005e-01
  4.2021880e+00
 -2.1281021e+00
 -8.3502841e-01
  5.6905669e-01
 -2.9099718e-01
 -7.2099644e-01
  1.7402823e-01
  7.6104510e-01
 -1.0369664e+00
  3.8669462e+00
 -1.3801318e+00
 -3.3257091e-01
  3.7721822e+00
  1.7170712e-01
 -1.8253820e+00
 -3.1717683e-03
  7.1682459e-01
 -1.1460308e-01
 -4.4438592e-01
  1.5188327e-01
 -2.2844925e+00
 -2.8648589e+00
 -1.2394648e-01
  1.3143440e-01
 -4.4755107e-01
 -1.7237695e+00
  5.6500769e-01
 -1.7114081e+00
 -6.6456217e-01
 -9.3358621e-02
  5.6455839e-01
 -5.1846075e+00
  1.8143957e+00
  9.2622328e-01
  3.6113453e-01
 -3.6324067e+00
 -1.6761363e-01
  1.6992210e-01
 -1.7745677e+00
  6.8701535e-01
  9.3302768e-01
 -2.1237996e+00
  4.9331111e-01
  2.4613860e-01
 -5.9579933e-01
 -5.0508332e-01
 -2.7062685e+00
 -1.5048318e-01
 -1.3082950e+00
  3.1328431e-01
  1.8037039e+00
 -6.5450341e-01
 -4.9603868e-01
 -9.8009980e-01
  2.8805866e+00
  3.4179184e-01
  1.7006699e+00
  2.1215391e+00
  7.3277563e-02
  1.6466489e+00
 -7.1809649e-01
  1.2413876e+00
  2.9550183e+00
 -1.4010125e+00
  6.7456996e-01
 -1.0356133e-01
 -1.5337564e+00
 -1.6383448e+00
  1.3431336e+00
  1.0904151e+00
  1.2290795e+00
 -3.3842260e-01
  6.5872771e-01
 -1.4698309e+00
  1.9057542e-01
  3.2838735e-01
  2.3466218e-02
  3.8973329e+00
 -3.9261100e-01
  4.4053438e-01
 -2.1154680e+00
 -1.2106349e-01
 -4.5420665e-01
 -1.4137444e+00
  4.2930385e-01
  9.6601620e-03
  2.0502677e+00
 -2.3892813e+00
  2.0271597e-02
  1.5316879e+00
 -6.2709165e-01
  3.6634352e+00
  8.8300908e-01
  7.5287122e-01
  2.8554907e-01
  1.2758585e+00
 -1.3705193e+00
  8.9161746e-02
  6.8682647e-01
  2.8779340e-01
 -7.4261296e-01
  1.4808112e+00
  7.4897242e-01
 -3.6811745e+00
  2.3519309e-01
  2.3270392e+00
 -1.0724508e-01
  1.0925828e+00
 -1.6265526e-01
  3.6384112e-01
 -2.5067684e-01
  2.7992484e-01
 -2.7561551e-01
  2.8237379e-01
  6.4912915e-01
 -5.9716374e-01
  1.2450827e+00
  1.5433747e+00
  1.2204311e+00
 -1.1589572e+00
  1.1204989e+00
 -1.3950732e+00
 -2.2731334e-01
  1.4069958e-02
  4.0972802e-01
  2.7002382e-01
  1.0977665e+00
  6.3726664e-01
 -1.9942546e+00
 -7.0965514e-02
 -5.7440078e-01
 -1.8428482e-01
 -1.1006433e+00
 -3.1061754e+00
  2.0641038e+00
 -1.1681953e-01
 -1.2643076e-01
 -2.4637153e+00
 -8.0798453e-01
 -4.8961803e-01
  2.6334168e-02
  1.2885351e-01
  1.4422096e+00
 -1.6044344e-01
  6.8631458e-01
  1.8368587e-01
  2.4252529e+00
  1.6006938e+00
 -9.6597570e-01
 -1.6176938e+00
 -1.0109303e+00
 -1.2946847e-01
  5.3000993e-01
 -4.7933636e+00
 -3.0151274e+00
  9.2878687e-01
  3.2141706e-01
  3.3965557e+00
 -3.0465144e-01
 -3.1258917e+00
 -9.9305496e-02
  3.5446176e-01
  7.4657273e-01
  9.5675573e-02
 -5.8636623e-03
 -1.9125462e+00
 -4.0735673e-02
  1.4952860e+00
  7.3117846e-01
  2.3884649e+00
 -3.9189884e-01
 -8.0987088e-02
 -2.8234937e+00
 -9.4468161e-02
  8.2439429e-01
 -3.5911742e-01
 -9.8910189e-01
 -6.1455166e-01
  7.6606315e-01
 -2.7134204e-01
  6.5607256e-01
 -1.1543023e-01
 -2.3520036e+00
 -1.4816254e+00
  1.2741182e+00
 -2.0242863e+00
  3.2161999e-02
 -1.3481605e+00
  2.0804493e-02
 -1.5856435e+00
 -5.6222647e-01
 -1.6042143e+00
  7.1425986e-01
 -7.4856780e-03
 -9.3680270e-02
 -1.3044808e+00
 -3.0874380e-01
 -1.9376695e+00
  3.3855718e-01
  6.3954824e-01
 -1.0269146e-01
 -8.6839998e-01
 -8.3925915e-01
  5.4847729e-01
  1.7551330e+00
  5.6175435e-01
  1.2149078e-01
  7.5390548e-01
  6.8730825e-01
  9.8596829e-01
 -1.2817528e+00
 -3.8329756e-01
  9.7719312e-02
  8.8947408e-02
  1.1712563e+00
  3.1217537e+00
 -2.1852560e+00
 -7.0441341e-01
 -1.8669915e+00
  6.9925618e-01
  1.0825226e+00
 -3.5765246e-01
  2.4795948e-01
  2.7306041e-01
  4.9273530e-01
 -2.6630214e-01
 -5.4891390e-01
 -2.8517532e+00
  2.5343692e+00
 -1.2955117e+00
 -2.9813915e-01
 -1.7998473e-01
  5.6851679e-01
  1.1175115e+00
  3.5544875e+00
  1.8075255e+00
  9.8873156e-01
 -7.5171787e-01
 -1.8217195e+00
  1.1113909e+00
  1.3338584e+00
  7.4572092e-01
  5.9523044e+00
  3.0166963e-01
  7.3659956e-02
  4.0420344e-01
 -1.3027748e+00
 -8.3173651e-01
  1.4804411e+00
  7.9291165e-01
 -2.2411397e+00
  1.0987382e+00
 -3.0010885e-01
 -1.7571464e-01
  1.3215311e+00
 -1.0535965e+00
  3.1637418e-01
 -3.2987633e+00
  1.5051438e+00
  3.5695699e-01
 -1.6014066e-01
  7.2845243e-02
  5.6691796e-01
 -3.4177452e-02
 -2.2356732e+00
 -7.5123036e-01
  1.4320286e-01
  1.2450364e-01
 -8.9749080e-01
  3.7652764e-03
 -8.0201715e-02
  3.6387950e-01
  1.0475214e+00
 -2.0672233e-01
  5.2501667e-02
  1.6612973e+00
  1.3574475e+00
  1.1376902e+00
  1.7794674e-02
  1.0078273e+00
 -1.0738330e+00
 -8.2516700e-01
 -3.1569891e+00
 -2.1839654e-01
  6.2096757e-01
 -9.9733359e-01
 -3.5466895e+00
  4.7238705e-01
  2.7190411e-02
 -6.1464226e-01
 -1.3441198e+00
 -2.6280491e+00
 -2.1078758e+00
 -1.0137346e+00
 -1.4353795e+00
  2.7102070e+00
  6.5412617e-01
 -8.5149324e-01
 -1.9773947e-01
  4.1302744e-01
  1.6064866e+00
 -1.8673165e+00
 -4.3955499e-01
 -4.3663102e-01
 -1.3258700e+00
  3.1348062e-01
 -1.9756299e+00
  4.5370042e-01
  1.1068859e+00
  2.3749037e+00
  3.9481694e-01
 -8.6178583e-01
  8.7575537e-01
  1.7582746e-01
  2.9616964e+00
  2.2638540e+00
  1.0637400e+00
 -9.9016041e-01
 -8.8006145e-01
  7.6522231e-01
 -9.8327881e-01
  4.8992357e+00
 -9.9875528e-01
 -1.0573405e+00
  8.2142949e-01
 -7.9183185e-01
 -2.1052208e+00
 -1.6752400e+00
  3.7608835e-01
 -1.4063068e-01
 -7.3549926e-01
  2.3326769e+00
 -3.2211518e+00
  5.8873093e-01
  1.2078072e+00
 -1.0366992e+00
 -1.8291292e+00
 -2.4641869e+00
 -5.6530339e-01
  5.1347823e+00
  1.9876795e+00
 -7.7693981e-01
 -2.5327375e+00
  2.9716914e+00
 -1.4674569e+00
  2.2808917e+00
 -3.3786184e-01
  4.3015766e+00
  1.5780569e+00
 -4.0123887e-02
 -5.4237491e-01
  2.7158460e-01
 -5.6975615e-01
  2.1486938e-01
  1.8785921e+00
  2.8028986e-01
 -9.2629671e-01
  5.6697458e-01
 -2.4434245e+00
 -1.4963552e+00
  5.6017499e+00
  2.2238951e+00
 -1.0877442e+00
 -4.2980072e-01
  1.2928965e+00
 -2.8336027e+00
 -1.7023149e-01
  3.1518233e-01
  4.9036571e-01
 -1.5552653e+00
 -4.5875052e-01
 -1.0804808e+00
  1.8101684e+00
 -1.0741730e-01
 -9.6519545e-02
  6.4259386e-01
 -3.0712426e+00
  1.2506871e+00
  1.0494800e+00
 -1.1811351e+00
 -1.7993836e-02
  1.4840385e+00
  6.6370946e-01
 -2.5610571e+00
  2.6804919e+00
 -4.2300987e+00
  4.3997902e-01
  6.4314246e-01
 -3.5105377e-02
 -1.2216256e+00
 -2.8889720e+00
 -8.3472770e-01
  4.4323662e-01
 -5.9585719e+00
  1.0386271e+00
  6.3875589e+00
  1.0232685e+00
  6.6727236e-02
 -1.2175905e+00
  1.4678249e+00
 -1.5329018e-01
  1.4134522e-01
  6.4008307e-01
 -2.7827400e-01
 -2.1711707e+00
 -1.6105862e+00
 -1.6951915e+00
  1.3853753e+00
  1.8999760e+00
  8.7873548e-02
 -1.4070228e+00
  1.3772556e+00
 -6.3330543e-01
 -4.5734054e-01
 -4.3426648e-02
 -1.8369211e-01
  1.5154247e+00
 -1.9254477e+00
 -3.5512164e+00
 -3.3598504e+00
 -5.6178153e-01
 -4.6811530e-01
 -6.5145856e-01
  1.7433769e+00
 -1.3394753e-02
 -2.6009226e+00
  2.7610371e+00
 -2.5186795e-01
  1.9485580e+00
  3.1046698e+00
  5.7130575e-01
  7.7029860e-01
  1.2160029e+00
  5.4975861e-01
  9.6738684e-01
 -1.9722997e+00
  2.5011761e+00
  6.9024545e-01
  1.8482062e+00
 -7.2177964e-01
 -3.1300539e-01
  5.6794845e-02
  7.9941607e-01
 -1.0013849e+00
 -2.6899102e+00
 -9.7513962e-01
  6.4374059e-01
 -3.1672809e-01
 -2.7769530e+00
  7.8138661e-01
 -1.1151811e-01
  4.7810662e-01
  7.8774965e-01
  7.8075725e-01
 -1.0349511e+00
 -2.3746914e-01
 -2.7656585e-01
 -1.5447924e+00
 -2.8515022e+00
  3.0846658e-01
  1.1712203e+00
  3.8336215e+00
  3.3112123e+00
 -3.6960282e+00
 -3.5849351e-01
  3.0990317e-01
  1.1638057e+00
 -6.3742124e-02
 -2.2834933e+00
 -2.4329529e+00
  1.3639189e-01
  2.9248581e+00
 -2.5661523e+00
 -4.7540154e+00
 -2.2791252e-01
 -5.0227690e-01
 -2.8191370e-01
  2.9744220e-01
 -4.7818401e-01
 -1.5896221e+00
  1.3120645e+00
  3.3656356e-01
 -2.8035319e-01
 -5.0351280e-01
  3.5418468e+00
  8.0638987e-01
 -7.4551918e-02
  2.2206102e-01
  5.0695813e-01
 -1.4012069e-01
 -2.4644985e+00
  1.4750071e+00
  1.6613126e+00
 -1.3997229e+00
  1.6757495e+00
 -9.2842557e-02
  2.2676460e-01
  8.7979168e-02
 -2.6082236e-01
 -9.4781935e-01
  5.5224890e-01
 -3.0871642e-01
 -1.3409178e+00
 -2.7978618e+00
  1.5202775e+00
  2.2057804e-01
 -3.3945540e-01
 -1.2224509e-01
  1.3001598e+00
 -3.5004210e-01
  2.2042987e+00
  1.2862651e+00
  2.7859679e-01
  3.6812839e-01
 -1.1499544e+00
  8.6912966e-01
  2.7991092e+00
  9.8664671e-01
  5.4789186e-01
  1.0051168e+00
  2.6967037e+00
  4.7816631e-01
  4.8858829e-02
 -1.6350324e+00
 -5.2606624e-01
  4.0979750e-02
  2.4174657e-02
  1.0718471e+00
 -2.4340668e-01
  1.6664280e-01
  2.1512337e+00
 -4.8484495e-01
  4.1983858e-01
  6.2095767e-01
 -5.5211830e-01
 -3.9619269e+00
 -2.8411995e-03
  3.2809260e-01
  1.1152931e-01
 -1.3080113e-01
 -8.6228922e-02
 -2.2668946e+00
 -7.8882641e-01
  1.0695144e+00
 -5.1359808e-01
 -2.8208113e+00
  6.9768089e-01
 -8.7738132e-01
  7.2549403e-01
 -8.5510939e-02
 -2.7776510e-01
 -4.8135617e-01
 -1.8344764e-02
  4.6825809e+00
 -9.5857584e-01
 -2.6106026e+00
 -6.1861682e-01
 -2.9532223e+00
  1.6168885e+00
 -4.2955489e+00
 -1.2250758e+00
  5.0735927e-01
  7.5641582e-03
 -3.3800063e+00
  7.2329468e-01
  2.1577062e-02
 -3.6019742e-01
 -1.6435410e+00
  2.7039525e-01
 -4.2462330e+00
 -7.8640687e-01
  2.2383341e-01
 -8.7781978e-01
  2.5804263e-01
 -3.6488216e+00
  9.8366457e-01
  3.2099845e+00
  2.4800267e+00
  5.5957067e-01
  3.4302181e-01
 -2.4318628e+00
 -8.3677632e-01
 -4.2489760e-02
 -7.7816617e-01
 -2.4654299e-01
  3.6118947e-02
  2.5881729e+00
 -8.6203091e-02
  3.0427125e-01
  2.3055455e-02
 -9.8619628e-01
 -7.8019649e-01
 -8.0647522e-01
  2.9990396e+00
 -1.4390328e+00
 -1.3900417e+00
  1.1717062e+00
 -1.0503385e+00
  4.3841773e-03
 -1.9442468e+00
  5.0883822e-02
  9.6544158e-01
  8.0760187e-01
 -1.0313727e+00
  2.4903183e-01
 -1.2439023e+00
  2.8914509e-02
  4.8123160e-01
  1.9152999e-01
 -1.0427382e+00
 -1.9305911e+00
  1.2100194e+00
  1.0819460e+00
  2.8696641e-01
 -8.7588334e-01
  1.8115627e+00
  2.0358639e+00
  2.4000396e-01
  7.8073257e-01
 -4.6250746e-01
 -5.2354348e-01
  1.2581733e+00
  3.1894453e+00
 -1.8277359e-01
 -3.3059621e-01
 -2.5605887e-01
 -3.4151661e+00
  1.4951334e+00
 -1.2425225e+00
 -1.5238411e+00
  3.7499923e-01
  2.7463911e+00
  5.1092386e-01
  1.1109114e+00
 -1.9946367e+00
  1.7061014e-01
 -8.4522605e-01
 -1.0056636e+00
 -8.1582481e-01
 -3.7120643e+00
  7.3413104e-01
  1.1288515e+00
 -3.0018761e+00
  6.5568995e-01
  3.2965052e-01
  9.9185508e-01
 -9.9755156e-01
 -9.0573114e-01
  8.1246692e-01
 -8.4956892e-02
 -2.4393237e+00
  3.2796843e+00
 -2.0204525e+00
 -7.0193672e-01
  3.7534368e-01
  5.4889476e-01
 -9.5157546e-01
  1.2690404e-01
 -1.4461763e+00
  5.8768159e-01
  1.2687048e+00
  1.4774040e+00
  3.8199249e-01
 -2.1393719e-01
  8.3112031e-01
 -1.1900144e+00
  7.2164953e-01
  2.9069140e+00
 -1.6189939e+00
  4.1255136e+00
  1.4057329e+00
  6.4798194e-01
 -7.7213854e-01
 -1.1296824e+00
 -4.7126789e+00
  1.0983159e-01
  9.4395608e-01
 -1.2684005e+00
 -4.3007426e+00
 -1.1375540e+00
  1.0264418e+00
  6.1449558e-03
  2.9664943e+00
 -4.5587611e-01
 -2.3563135e+00
  1.3630949e+00
 -3.0982709e+00
  1.2890389e+00
  1.7249216e+00
 -2.7542763e+00
 -4.8445687e-02
 -3.4206226e-01
  1.0751385e-02
  6.3057154e-01
 -1.1588277e+00
 -1.2709368e+00
 -3.4672716e+00
 -6.5486205e-01
 -4.4915247e-01
 -3.5802245e-01
  1.2749251e+00
  1.3374342e+00
 -2.3394568e-01
 -5.4004270e-01
  2.9465777e-01
 -1.8520612e+00
  8.8596064e-01
  2.0703120e+00
 -7.4535376e-01
 -2.5406919e+00
 -4.0776720e+00
  1.8753957e+00
  1.7448707e+00
 -1.8940485e+00
  2.6867123e+00
  1.7851002e+00
  3.7493947e+00
 -4.4197659e+00
 -2.5878317e+00
  1.3655289e+00
  1.7890327e+00
  2.6140909e+00
  1.0019571e+00
  5.3986204e-01
  1.5448869e+00
  1.3820430e+00
 -3.1059687e+00
 -1.3520060e+00
 -3.6732972e-01
  4.6276224e-01
 -7.2009683e-01
  8.2873076e-01
 -5.1052988e-01
 -1.1945447e+00
 -2.7047043e+00
 -4.8197393e+00
 -2.2807064e+00
 -3.0199370e+00
  8.7983257e-01
 -6.2132210e-01
 -4.6711212e-01
  2.6705813e+00
 -1.4488205e+00
  1.8549617e-01
  2.2113702e+00
  2.5091264e+00
 -2.8135624e+00
  2.9557426e+00
 -3.1292436e+00
  1.1357976e+00
 -2.1072040e-01
  2.8680471e-01
  5.2618730e-01
 -3.6523947e-01
  3.1680679e-01
  2.3091614e+00
 -4.3512955e+00
  1.1114619e+00
 -1.4333670e-01
 -2.6887521e-01
  7.5578982e-01
 -2.3232601e+00
  3.2019573e-01
  1.0607415e+00
  1.8933487e-01
  2.9995108e+00
  1.1687292e+00
  2.6065636e+00
 -7.9267365e-01
  2.3157418e+00
  6.0463185e+00
 -4.0664247e-01
 -2.4001694e+00
 -2.8927749e-01
  3.6791201e+00
 -7.4374050e-01
  7.2727150e-01
  3.4774446e+00
  1.1786940e+00
  2.3830023e+00
  2.4111845e+00
 -8.7406790e-01
 -2.0736203e+00
 -2.1658478e+00
  7.6976103e-01
 -1.4209165e-01
 -9.7304124e-01
  5.8092362e-01
  7.9160106e-01
  3.7549883e-01
  8.0363274e-01
  1.6487681e+00
  3.6563909e-01
 -9.0935636e-01
 -3.0835545e-01
  2.7601463e-01
 -5.5267042e-01
 -1.7409930e-01
 -1.5468252e-01
 -8.8187382e-02
 -3.3619182e+00
 -8.3362842e-01
  7.7729708e-01
  7.1123463e-01
 -1.1692194e+00
 -2.1015081e+00
 -4.3857174e+00
  1.2825907e+00
 -2.4914205e-01
  1.0459430e-01
  7.4202836e-01
  4.1036761e-01
  3.5149413e-01
  1.2140319e+00
 -1.1156205e+00
  2.8215981e-01
  1.1666914e+00
  3.5796851e-01
  1.3449596e+00
 -4.2890906e-01
  9.9874437e-01
  2.2980642e+00
  5.4580614e-02
  1.5831995e-01
 -3.4521017e+00
 -2.6747617e-01
 -1.4725377e-01
 -2.5064197e+00
 -1.8460782e-01
  1.0174495e+00
  6.2197447e-01
 -5.6365138e-01
 -7.1545321e-01
 -1.7340653e-01
 -2.5904021e-01
 -3.8028698e+00
  2.3192728e-01
  1.2172333e+00
  2.5523868e+00
 -9.9496663e-01
 -3.9986484e+00
 -7.2914493e-01
  3.3253893e-01
 -5.7344609e-01
 -9.9529088e-02
 -9.8675936e-01
 -1.7691807e+00
 -6.3438630e-01
 -5.9651196e-02
  2.1864396e-01
  7.5263560e-01
  3.0805528e+00
  6.4240968e-01
 -7.1271890e-01
 -1.3214343e+00
  6.7470336e-01
  5.6666267e-01
 -1.4325358e+00
  5.7961005e-01
  3.3584133e-01
 -4.1787344e-01
  4.2713296e-01
  7.2453392e-01
  4.6556444e+00
 -1.8760949e+00
 -1.4363551e+00
  6.6037148e-01
  1.6004214e-01
  6.0840149e+00
  1.1999509e+00
 -7.1316548e-02
  4.9795586e-01
 -2.1970234e+00
  1.9331820e+00
  6.7182583e-01
  1.6812377e+00
  2.2690831e-02
  2.7413988e+00
  1.7114842e+00
  3.7799728e-01
 -2.8747644e+00
 -6.5965831e-01
 -5.3803909e-01
  1.6478199e+00
 -5.1115423e-02
 -4.5472375e-01
 -2.8620813e-02
  1.3067546e-01
 -7.8468692e-01
 -1.2609220e+00
  2.3618324e+00
 -6.1803079e-01
  8.5647190e-01
 -2.6642416e+00
 -2.6962629e-01
  7.9276860e-01
  4.1683316e+00
  2.9916613e+00
  8.1516877e-03
 -1.0875973e+00
  3.3998556e+00
 -2.6983631e+00
  4.7935683e-01
 -2.2794838e+00
  1.0937549e+00
 -1.7549615e-01
 -1.3465405e+00
  7.7792203e-01
 -3.0189881e-02
  1.1330812e+00
  2.6903372e+00
 -8.2035154e-02
  1.6594544e-01
 -1.2355660e+00
  4.8687384e-01
  3.7432742e-01
  1.7552688e+00
  1.5231739e+00
  1.1575230e+00
 -4.5051202e-01
 -9.3270558e-01
  2.9490793e-01
 -5.9985739e-01
  8.4407054e-02
 -4.9033533e-03
 -1.1123838e+00
  6.3819808e-01
  1.5041131e-01
 -4.8462656e-01
 -2.0163003e-01
 -1.5692831e+00
 -5.9362642e-02
  1.4005450e+00
 -6.2083465e-01
 -7.3646259e-01
 -3.3052489e-01
 -2.2899422e-01
  1.3279194e+00
 -2.5351921e-01
 -1.1117076e+00
 -1.7485808e+00
  1.0991941e-01
 -7.1704346e-01
  3.5655147e-01
  4.6350664e-01
  6.4464813e-01
 -1.7653669e+00
 -1.1194348e+00
 -1.3461596e+00
 -9.8695320e-01
  6.4828956e-01
 -3.7251538e-01
 -7.8988725e-01
  8.4660411e-01
 -4.4664912e-02
  4.5216835e-01
  2.1285713e+00
  3.2823079e+00
  6.0476857e-01
  1.2396865e+00
 -3.8152170e-01
  1.9125938e+00
 -1.4548279e+00
 -2.3949800e+00
  2.5177422e-01
  9.1496295e-01
  4.0150967e-01
  2.4598868e-01
  9.4204023e-02
 -2.5509582e+00
  4.8539028e-01
  5.6453508e-01
 -2.6126266e-01
  1.0187684e+00
 -1.6297321e+00
 -1.5958498e+00
 -9.5386702e-01
 -8.6909348e-01
 -1.7668250e+00
 -2.6587641e-01
 -4.5583346e-01
 -1.9674265e+00
  2.4836318e+00
 -6.9490820e-01
  2.4322240e-02
  2.7397799e+00
  1.2306194e+00
  4.0328836e-01
 -1.5176487e+00
 -1.4051137e+00
  1.0667012e+00
 -2.5307715e+00
 -2.6020811e+00
 -4.9166517e+00
 -5.1464885e-01
 -3.0728943e+00
  2.4352305e+00
  3.8753438e-01
  9.9516332e-02
  1.7992347e+00
  2.6808379e+00
  2.6708024e+00
  2.0658493e+00
  5.4917729e-01
 -4.8452392e+00
 -3.8971953e+00
  7.2648759e+00
  3.7067369e-01
 -5.8506858e-02
 -3.8550746e-01
 -4.4525412e-01
  3.0044448e-01
 -1.9990009e+00
 -5.6485480e-01
  3.3097415e+00
 -1.4696555e+00
 -1.2592118e+00
 -1.9452870e+00
  1.5897006e+00
  3.4727571e+00
  1.6565431e+00
 -2.5988810e+00
  2.9737146e+00
 -5.8015919e-01
 -1.9197458e+00
 -2.6292124e+00
  4.6620655e-01
 -4.9287879e-01
 -2.8368268e+00
  3.1301716e-01
 -9.8024714e-01
 -6.0803261e+00
  1.8092526e+00
 -1.1592127e-02
 -5.1510644e-01
  1.9070662e+00
  2.0941923e+00
  4.1897455e-01
  2.3333354e+00
  3.5289399e-02
 -7.6665735e-01
 -1.8041828e+00
 -3.6450207e+00
 -4.6577579e-01
  1.3168590e+00
  1.9572805e+00
  3.8988832e-01
 -1.6166164e+00
  8.2485545e-01
 -9.1714239e-01
  1.9393066e+00
  1.1901265e+00
  3.6000562e-01
  3.5124359e-01
 -1.1456927e+00
 -4.9108112e-01
  9.6525490e-01
  7.0058012e-01
 -2.4304540e+00
 -4.4322297e-01
 -1.0663884e+00
 -1.2923196e-01
  1.7010745e+00
  5.2449208e-01
  3.1815431e+00
 -1.6253009e+00
 -1.4285069e+00
  1.2652873e+00
 -1.3893789e-01
  1.1923864e+00
  9.0598099e-02
  2.1256273e+00
  3.6013600e-01
 -3.5945337e+00
 -3.1760290e+00
  2.1251257e-01
 -1.1220241e+00
  1.6043502e-01
 -1.0233431e+00
 -4.6140990e+00
 -4.8959270e-01
 -7.8824836e-01
  3.3308508e+00
 -8.6027956e-01
  3.5056725e-01
  4.6613938e-01
 -5.5241603e-01
  2.5001633e+00
 -1.3317695e+00
 -2.8519270e+00
  2.6940610e+00
 -7.9955354e-02
 -6.5902913e-01
  3.3361325e-01
  2.5362229e-01
  2.7604587e+00
 -1.5167073e+00
  1.2037923e-01
 -6.8209630e-01
  5.2363521e-01
  1.7893832e+00
  9.1752160e-01
  1.4264169e+00
 -2.0214481e+00
 -2.2294298e-01
 -2.4012420e+00
 -7.3334265e-01
  1.1253773e+00
 -3.9093176e-01
 -2.4696157e+00
 -2.2503453e-01
 -1.7791586e+00
  5.0022426e+00
 -4.5000496e+00
 -4.9391877e-02
 -1.0330371e+00
  3.5733402e-01
 -1.1461660e+00
  2.0925350e+00
 -2.9100471e+00
  1.5799594e-01
 -1.0221221e+00
  9.3944597e-01
  2.6046758e+00
  2.6233557e-01
  2.8189046e+00
  2.8112512e+00
  9.1618484e-01
  1.9827269e+00
  1.1520984e-01
  1.8493280e+00
 -8.2915133e-01
 -3.8414767e+00
  5.4077256e-01
  2.2519343e-01
  7.8518435e-02
 -1.5637189e-01
  6.6692269e-01
 -2.2794415e-01
  2.1554117e+00
 -2.0258253e+00
  4.0878975e-01
  5.4827851e-01
 -3.3574535e-03
 -1.1846702e-01
  3.8224456e+00
  1.0531865e+00
 -4.6974543e-02
 -1.1328909e-03
  1.0835952e+00
  1.1042230e+00
  1.1582905e+00
  1.0954630e+00
  7.8873914e-03
 -3.0435604e-01
  9.9802613e-01
 -2.2956705e-01
 -7.1994036e-01
  3.2578170e-01
  1.4855744e+00
 -5.7045472e-01
  1.8340337e+00
  1.2280673e+00
  5.8610998e-02
  2.0406868e-01
  3.0278864e+00
  4.7872396e+00
  1.3409042e+00
 -2.2296703e+00
 -5.4669070e-01
 -1.8622972e+00
  3.1479645e-01
  5.4035217e-01
 -1.0959754e+00
 -1.8651459e+00
 -9.2957777e-01
 -1.6972182e+00
 -3.1042781e+00
  3.6617240e-01
 -1.2366349e+00
  1.0569413e+00
 -1.0275724e-02
  5.4789990e-01
  1.7156569e-02
 -8.5911304e-01
 -6.8657172e-01
  1.7320586e+00
  1.7224439e+00
 -1.7622720e+00
  4.6652288e+00
 -4.8009324e-01
 -1.3990880e+00
 -8.8253844e-01
  2.3141013e-01
  3.6324191e+00
  2.0482455e-01
  5.5264688e-01
 -5.9478241e-01
  1.3276504e+00
  1.0406092e+00
 -4.6156219e-01
 -4.6239278e-01
  1.7470158e+00
  1.4305911e+00
  1.3782156e+00
  3.1244624e-02
 -9.8052251e-01
  4.0378901e-01
  5.4640752e-01
 -7.4084455e-01
 -1.6447637e+00
 -1.3100839e-02
  1.6447922e+00
 -5.2769750e-01
  2.3230641e+00
 -1.9194825e-01
  6.0855114e-01
 -1.0571889e+00
 -2.3854271e-01
  2.0911496e+00
  9.0859897e-02
  4.8290509e-01
  1.7022680e-01
 -8.4091198e-01
  6.5305161e-01
  2.1157005e+00
  1.5752177e+00
  1.2669294e+00
  1.5189526e+00
  5.5429471e-01
 -7.7121252e-01
  1.9895710e-01
 -1.8569720e-01
  6.0085154e-01
  2.7934474e-01
  1.1374185e+00
 -1.8719773e+00
  3.7415075e+00
 -2.2653530e+00
 -2.9079673e+00
 -9.0579934e-02
 -1.1468695e+00
 -3.2634765e-01
  2.1595464e+00
  1.8634380e+00
  1.5545997e-01
 -2.8569684e+00
 -7.4357623e-01
 -2.0966058e+00
  2.0855670e+00
 -7.5719702e-01
 -3.5724905e-01
  2.6718459e+00
  9.8545551e-01
  1.2838675e+00
 -1.2123564e+00
  3.9860007e-01
  4.1783386e-01
  3.8787913e-01
  1.4907565e+00
 -4.5724171e-01
 -2.2381170e+00
  3.8282603e-02
 -2.1051919e+00
 -1.2249568e+00
  7.9520172e-01
  1.6700441e+00
  4.0290087e-01
  3.1395793e-01
  6.1899776e+00
 -1.0827218e+00
 -1.3762653e-01
 -3.2542962e-01
  9.6748048e-01
 -5.5436808e-01
  4.5854399e-01
  2.8570861e-01
 -1.4939486e+00
 -1.1615269e+00
 -1.3745221e+00
 -1.5199983e-01
  1.1661096e+00
  1.3363670e+00
 -3.1091452e-01
  6.8356723e-01
 -3.7032297e-01
  3.8105825e-01
  4.3060321e-01
  3.3409338e-02
 -2.9069169e+00
 -8.2478386e-01
  2.0537705e+00
  2.3128235e-01
 -8.0927420e-01
 -8.6157250e-01
 -9.6157968e-01
  5.3698593e-01
 -1.7044487e+00
  8.9766169e-01
 -2.4606591e-01
 -1.1094965e+00
  6.9499254e-01
  5.2579391e-01
 -8.0458266e-01
  1.7123669e-01
 -2.6422882e-01
 -8.0082703e-01
 -1.3803726e-01
  1.5377892e+00
 -1.8291192e+00
 -7.9235893e-01
  3.9676884e-03
  9.9325496e-01
  4.0705085e-01
 -4.1722825e-01
 -1.4157321e-01
  4.2241597e+00
  2.0548935e+00
  1.3149269e+00
 -2.2964256e-01
  5.4892427e-01
 -1.5620408e+00
 -8.6373693e-01
  2.4799683e+00
 -1.6649902e+00
 -6.8720514e-01
  2.0585766e-01
  8.0983436e-01
 -4.2360637e-01
  1.2209592e-01
 -6.2251574e-01
  8.4143269e-01
 -1.2322377e-01
  9.5253497e-01
  2.4718493e-01
 -8.3919001e-01
 -1.3113037e+00
 -3.5326070e-01
  1.3286884e+00
 -2.6964750e+00
  1.2547635e+00
 -2.0887437e-03
 -3.7161864e-02
  4.7642666e-01
  1.3221694e+00
  6.7811245e-01
 -1.5924740e-01
  4.4251060e+00
 -5.5478579e-01
 -1.6496238e-01
  1.8343015e+00
  1.9171990e+00
  3.5048522e-02
 -9.2005140e-01
  3.5604164e-01
  2.6358733e+00
  1.0767885e+00
 -2.3626462e-01
  2.2691424e-01
  6.1294740e-01
  5.7819217e-01
 -2.1815668e-01
  3.7135753e-01
  2.8166893e-01
 -4.6616249e-02
 -4.3042964e-01
 -3.0804008e-01
 -2.5294051e-01
  1.2997090e+00
  4.7549036e-01
 -6.2938285e-01
  1.6436192e-01
 -3.8218981e-01
  1.5219502e+00
  2.7435284e+00
 -5.9458601e-01
 -1.8652120e+00
 -1.3024136e+00
  3.3571985e+00
 -9.7216174e-02
  1.2304439e-01
 -2.0906656e+00
 -8.9402163e-01
  3.7769657e-01
  1.3275473e+00
  1.7213684e+00
  7.3628491e-01
  1.6957406e+00
 -2.0507092e+00
  1.0720769e-01
  7.9745436e-01
  5.0176859e+00
  9.1341935e-02
 -2.3163308e-01
 -1.5404606e-01
 -5.7733423e-01
  9.7048616e-01
  2.1545393e+00
 -1.1238739e-01
 -2.6912580e+00
 -1.2191430e+00
  5.8764356e-01
 -4.0717278e+00
 -3.2026041e-01
 -1.2127466e+00
  3.2813075e-01
  1.2365661e+00
 -1.7802083e+00
  1.3620754e+00
  3.3712368e-02
  1.2238985e+00
  1.9470003e+00
  4.8034069e-01
 -1.5329399e+00
  1.5096298e-01
  1.9200377e+00
  2.1337686e-01
  8.5221738e-01
  6.2302250e-01
 -1.8497407e+00
  5.9221262e-01
  4.1506237e-01
 -2.4020380e-01
 -5.6159635e+00
  1.2619789e+00
  1.6848758e+00
 -1.7609451e+00
  1.7976786e+00
 -2.5869465e+00
  2.4849584e+00
 -2.8547487e-01
  1.6258818e+00
  1.5870892e+00
  1.9591049e+00
  3.5459814e+00
  1.6698658e+00
 -5.8790839e-01
 -1.3079140e-01
  3.1556395e-01
 -1.8977640e+00
  4.4964666e+00
 -6.6629987e+00
 -3.1989467e+00
  5.4109859e-01
  2.1775398e-01
 -7.2199172e-01
 -6.7030162e-01
  4.3552004e-02
  2.8684133e-04
  5.6183106e-01
  2.7569799e+00
 -6.5002489e-01
  1.9842322e+00
  1.5647866e-02
  4.2284921e-01
  3.5050082e+00
  2.9441519e+00
  3.9995596e-01
 -4.9021667e-01
 -1.7653490e+00
  1.1533892e+00
 -1.5557238e+00
  1.4479521e-01
 -1.0750927e+00
 -1.5092772e+00
 -1.3303229e+00
 -8.5790437e-01
 -2.4882932e-03
 -3.5315830e-01
 -3.5623753e-01
  4.4582060e-01
  7.4948347e-01
  1.4573262e+00
  2.0064130e-01
  3.1437662e+00
 -3.4709696e-02
 -1.2938679e+00
  1.5045481e+00
  1.3854510e+00
 -4.0176725e-01
 -2.8777599e+00
 -4.9886880e+00
  1.5677887e+00
  8.4005989e-02
  9.1406897e-02
  7.2887701e-01
 -4.0769309e-01
 -1.2387649e-01
 -9.5816821e-02
 -1.4177135e+00
  1.0000998e+00
  2.4181600e-01
  5.9296441e+00
 -4.3478899e+00
  2.3421946e+00
 -6.5269965e-01
  1.2749265e+00
 -3.5182565e-01
  6.4465762e-03
 -2.5309455e+00
 -1.5727874e+00
 -2.7621588e-01
 -4.6277776e-01
 -7.6058811e-01
  1.1240515e+00
  6.8164390e-01
  7.0451164e-01
  4.0633523e-01
 -4.0617940e-01
 -4.4123210e-02
  2.1397176e-01
  1.1540439e+00
 -3.7106714e-01
  4.1834567e-02
 -2.0970549e-01
 -1.4552516e+00
  9.9760264e-01
  2.0575757e+00
 -1.5914822e-01
  1.6200696e+00
 -6.4279777e-01
  1.8456323e+00
 -4.9178529e+00
  2.3063169e+00
  1.4810630e+00
 -1.5263684e+00
  2.2842610e+00
  1.6702391e+00
  5.3723842e-01
 -5.9621340e-01
 -9.7662574e-01
  7.3453341e+00
  1.1572020e-01
  1.3999063e+00
 -7.4930829e-01
 -1.1223474e+00
  3.7299700e+00
  9.6246704e-02
 -2.4872246e-01
 -7.4531698e-01
 -1.1700309e-01
  1.1494068e+00
  1.9754967e-01
  2.6801989e+00
  5.5941945e-01
 -8.1151831e-01
  4.5315388e-01
 -3.2068393e-01
  1.8974481e+00
 -1.2637044e+00
  2.0537741e+00
 -1.0112464e+00
 -1.3631805e+00
 -3.3485284e-01
 -6.3149321e-01
  7.3248345e-01
  4.9106913e+00
  4.6401075e-01
  1.8376145e+00
 -3.4459612e+00
 -4.0076003e+00
 -2.7899055e+00
  8.8784760e-01
  2.4197936e+00
 -1.6468115e+00
 -2.0731907e+00
 -2.0764604e+00
  1.9448045e-01
 -6.6443890e-01
 -1.9267100e-01
  3.0193706e+00
 -1.1402859e-01
 -2.1048367e+00
 -3.3794674e-01
 -1.7169899e+00
  6.2574691e-01
 -1.0515790e+00
 -3.0976383e-02
  6.1366439e-01
  8.5284668e-01
  6.6643554e-01
 -3.9933038e-01
 -9.6724075e-01
  1.8417890e+00
 -1.8403226e+00
 -3.4907362e-01
  4.6849385e-01
 -4.6871176e-01
 -2.8149037e+00
  2.9729912e+00
  1.3163459e+00
  1.7517750e+00
 -8.7806439e-01
 -3.5398155e-01
  3.6182191e+00
  4.9812727e+00
  5.3894854e-01
  6.0385501e-01
  2.0557177e-01
 -3.6974549e-01
  2.2731464e+00
  1.9299104e+00
 -5.1225621e-01
 -1.1619214e+00
 -3.4440558e+00
 -2.0875545e-01
  3.8217744e-01
  1.2856567e+00
  8.7221593e-02
  8.1240796e-02
  5.4248708e-01
  6.8497223e-01
  8.3245963e-01
  1.7741977e-01
  2.8697208e-01
  7.2937822e-01
 -1.1286469e+00
  1.2813610e+00
  2.6812848e-01
  3.1855581e+00
 -5.0714517e-01
  4.4163927e-01
  1.0840434e+00
 -9.9553400e-01
  3.0254892e-01
 -1.9657080e+00
 -7.4112162e-02
 -2.4808095e+00
  2.6461473e+00
 -1.2809850e+00
 -2.0719360e-01
 -3.4297903e+00
 -3.7874002e-02
  1.0446923e+00
  6.6564715e-01
 -2.1546887e-01
  5.2546626e-01
  1.1177233e+00
  2.2947356e-01
  2.8214374e-01
  2.2892408e+00
  1.2424360e-01
 -1.6538738e+00
  9.8818702e-01
  1.1653927e-01
  1.2607423e+00
  4.8209438e-01
 -6.2377185e-01
 -8.5464799e-01
  1.5965319e+00
 -2.1953256e+00
 -3.6043572e-01
  9.4278127e-01
 -3.0661759e-01
  1.7908099e-01
  4.9722531e-01
 -1.2241973e+00
  1.7314515e+00
  2.5261834e-01
 -1.7320269e+00
 -1.5814185e+00
 -5.2977908e-01
 -5.9622413e-01
 -2.0484843e+00
 -1.8206633e+00
  2.7699926e+00
 -4.9405003e+00
  1.6461693e+00
  1.1291497e+00
 -9.8902708e-01
 -3.8911450e+00
 -7.6138586e-02
 -1.0232270e+00
  1.9574353e+00
 -1.1476922e+00
  3.6152259e-01
  5.0972896e+00
 -1.5906667e+00
 -3.6742127e-01
 -1.8155197e+00
  2.8987162e+00
 -6.4112753e-01
 -3.9052041e+00
  3.8444015e-01
  4.5037001e-01
 -3.2593260e+00
  1.3103899e+00
 -1.0652014e+00
  2.8999424e-01
 -2.1840072e+00
  1.7599071e+00
 -6.9623703e-01
  1.1562588e+00
 -1.8730393e-01
  2.3991890e-01
 -2.0004089e+00
 -2.3474464e+00
 -1.6179723e-01
  6.0216775e-03
  1.7276644e+00
  5.0003076e-01
 -1.4003594e+00
  2.8376496e-01
 -1.8349104e-01
 -4.5048398e-01
 -7.4745965e-01
 -1.7805645e+00
 -2.3644307e+00
 -2.4783251e-01
  2.2177763e+00
  2.5200683e-01
 -2.2170258e+00
  1.6492599e+00
  2.3391387e+00
 -6.8519838e-02
  3.7466416e-01
  8.7562025e-02
 -5.1668070e-02
 -7.4132127e-01
  6.5600044e-01
 -3.3377380e+00
 -7.0972979e-01
 -8.6115444e-01
 -1.3131750e-01
 -9.6328056e-01
  2.8254735e-01
 -2.1296632e+00
  1.0489626e+00
  8.8106848e-02
  4.3190306e-01
  2.2828424e-02
 -2.3932295e+00
  1.7477895e+00
 -5.6872952e-01
  1.9267148e+00
 -6.3219979e-02
 -2.6848750e+00
 -6.2688327e-01
  2.2591860e+00
  1.5023146e+00
  1.4478540e+00
 -1.2555256e+00
 -3.2110551e-01
  1.1633759e+00
  1.2609873e+00
  8.0653065e-01
 -5.8073932e-01
  1.4208357e-01
  4.6355285e-02
  2.1226981e+00
  3.6480212e-01
 -6.6805100e-01
  6.6124588e-02
  2.7394247e-01
  6.7374933e-01
 -2.7204452e+00
  1.8192128e+00
  3.4737005e+00
 -1.4253742e-01
 -2.2529711e-01
  2.9881990e-01
 -3.1093383e+00
 -1.9045563e+00
  1.5153427e-01
  1.2303033e-01
  4.6049228e-01
 -1.3154607e-01
 -8.3953071e-01
 -9.1520727e-02
 -3.1384313e-01
  5.8503095e-03
 -1.6936915e+00
  7.7003306e-01
 -1.6631976e-02
  3.5035777e+00
 -9.9863994e-01
  1.5017941e+00
 -2.3937409e+00
  1.4597965e+00
 -1.9348419e-01
 -1.9130096e+00
  3.9102632e-01
 -4.0182602e-01
  6.3549864e-01
  9.5928878e-01
 -2.1740537e+00
 -1.6434302e+00
  2.2702289e+00
 -6.3797963e-01
 -7.0392728e-01
 -2.8100564e+00
  2.8898859e+00
 -1.7673331e+00
 -5.5693417e+00
  6.8569750e-01
 -2.1441471e-02
  6.2227923e-01
 -3.8882382e+00
 -1.9620949e+00
 -7.8881514e-01
 -1.3076020e+00
  1.5596884e-01
  4.7404587e-01
  7.3242581e-01
  2.8877215e+00
 -3.5690956e-02
  1.2134260e+00
 -7.9242897e-01
 -4.2419940e-01
 -1.5549909e-01
 -2.0042671e-02
 -1.4472617e+00
 -1.0442340e+00
 -2.6189813e-01
  1.4858794e+00
 -1.4782021e+00
  6.2808698e-01
  1.9103755e-01
  1.6299687e-02
  2.5096998e+00
 -7.9729281e-02
  5.8377165e-01
  3.3718405e+00
 -2.0963835e-02
  1.4033333e+00
  3.4602210e-01
  4.5165998e-01
  2.9594282e-02
 -2.9552379e-01
  1.2860492e+00
 -2.6554528e-01
 -2.3895685e-01
 -2.5389320e-01
 -1.4568782e-01
 -3.3119878e-01
  1.1888125e+00
  4.4689092e-01
  1.3238827e+00
 -1.2211752e-01
  6.8518054e-01
 -1.8630949e-01
  1.3028930e+00
 -1.9547225e+00
 -6.6512346e-01
  9.7062625e-02
  2.1130509e+00
  1.6683869e+00
  1.7970973e+00
 -4.8431423e-02
 -1.3310131e+00
 -6.0638458e-01
  4.4579840e-01
  1.4693373e+00
 -2.1849883e-01
 -1.1740482e+00
 -3.6390257e+00
 -1.1756300e+00
 -2.1861005e-01
  1.3280645e-01
  2.2101293e+00
 -3.4934521e+00
  1.6761390e+00
  2.2315493e-01
 -2.8907847e-01
  2.7401531e+00
  1.4764831e+00
  3.0165033e-02
  1.3044354e+00
 -5.2577245e-01
  4.9659291e-01
  2.9278045e+00
 -1.4734909e-01
  2.3067883e-01
 -1.0280772e+00
  1.8170841e-01
  6.9797939e-01
 -7.5210571e-01
  3.0529389e+00
  3.3957401e-01
 -4.8897842e-01
 -1.1163647e+00
  9.0133011e-01
 -2.6880455e+00
 -4.4731387e-01
  6.0131521e+00
  2.2359207e+00
 -2.7508119e-01
 -9.2503911e-01
  4.3234086e+00
 -7.8346372e-01
  3.2668898e-01
 -1.6612034e-02
 -1.6396945e+00
  1.0365272e+00
  3.4013665e+00
  6.3025385e-01
 -1.6123983e+00
 -1.4954839e+00
 -3.0263236e-02
 -9.8410994e-01
  1.4136846e+00
  3.9684796e+00
  3.3243601e+00
  3.2687396e-01
 -2.7189797e-01
 -2.1184234e-01
  2.0788622e+00
 -1.4282773e-01
  2.1714292e-01
  1.0108566e+00
  1.6301515e+00
 -2.0836625e+00
 -1.8674923e-01
 -1.1144732e+00
 -1.1669999e+00
 -2.1932933e+00
 -1.2364377e+00
  2.4347711e-01
  1.7907156e+00
  1.5926220e+00
 -2.7223358e-01
 -7.4630819e-02
 -5.0575967e+00
 -3.7055165e-01
  2.0239632e+00
 -4.8401136e+00
  1.0926241e+00
  3.7420580e+00
 -2.5726122e-01
 -1.2702245e+00
 -1.1817527e+00
 -8.5595387e-01
 -2.3093694e-01
  6.4292528e-02
 -1.4057542e+00
 -3.6300835e-01
  3.5932532e-01
  1.1037113e-03
  1.1110839e+00
 -1.4796257e+00
  8.4411748e-02
 -7.3873687e-01
  2.7715805e-01
 -1.4240347e-01
  2.2274008e+00
  1.4812956e+00
 -2.1896467e+00
  4.3292670e+00
  8.7151580e-02
 -2.5309515e+00
 -8.1737459e-02
  1.7479573e+00
 -2.7232792e+00
  1.4312484e+00
 -9.4762480e-01
 -2.6483384e-01
  1.9708983e+00
 -9.4600543e-02
  2.7629027e+00
 -2.3668435e+00
  1.5931317e+00
  9.1484016e-01
 -1.1004378e+00
  3.3455047e-01
  4.3138154e-02
  1.7581556e+00
 -4.7827259e-01
  2.5300684e+00
 -2.4153560e-01
 -2.7686055e+00
 -2.0714653e+00
 -4.3785664e-01
 -4.2424655e+00
 -5.6009018e-01
 -1.1017064e+00
  7.2099648e+00
 -1.0855755e+00
  2.6906002e+00
  1.0448139e+00
  2.7026349e-01
  1.4123772e-01
  2.7401862e+00
 -5.3214121e-01
 -2.0554394e-01
  3.6919048e+00
 -3.7037110e+00
  3.8595860e+00
  8.2664765e-02
 -2.1609685e+00
  6.8366132e+00
  1.7737337e+00
  3.7599900e-01
 -2.9695398e-01
 -5.2485716e-01
  4.5895247e+00
 -3.9826974e-01
  2.9336521e-01
 -5.9186703e-01
  2.0194256e+00
 -2.2393627e+00
  1.6944898e+00
 -3.5340577e-01
  1.5691011e-01
  7.9778755e-01
  2.8711209e+00
  1.1408892e+00
 -8.5043538e-01
 -4.7961793e+00
 -5.7807076e-01
 -2.3322251e-01
 -4.4805875e-01
  6.4745903e-01
 -2.6572690e+00
  2.6160319e+00
 -1.3456448e+00
 -1.5183611e+00
  1.0875804e+00
  8.1840217e-01
 -8.6569798e-01
 -1.0686347e+00
  4.1229808e-01
  1.3771860e-01
  4.4712276e+00
 -1.9748212e+00
  1.0030285e+00
  1.0374521e+00
 -3.8344190e-01
 -1.5957730e-01
 -1.1152600e+00
  4.9846083e-01
  5.5243027e-01
 -9.8458016e-01
 -4.8325479e-01
  6.7785430e-01
  9.5688879e-02
  1.7006214e-01
 -7.4968600e-01
 -1.9124370e+00
 -8.6250472e-01
 -8.7081683e-01
  1.2896760e-01
 -5.2951107e+00
  5.3396744e-01
 -1.4067483e+00
  2.5325251e-01
  2.1066084e+00
  7.4221158e-01
  4.3595915e+00
  6.5533650e-01
  1.0321726e+00
  2.4912970e-01
 -1.8316933e+00
  1.6897130e+00
  1.8742225e-01
 -2.3051965e+00
 -2.3882973e+00
 -4.6412282e+00
  3.7939487e+00
  1.1778138e+00
 -6.3497937e-01
  1.7531606e+00
  1.5905290e+00
  2.5175476e+00
  7.0076102e-01
  5.7157493e-01
  6.6629219e-01
 -2.2986093e+00
  1.3055209e+00
 -1.4676005e+00
  9.8919457e-01
 -2.1598620e+00
  2.2231665e+00
  4.6896294e-01
 -2.2663920e+00
  1.0448731e+00
  1.9503511e+00
  5.6274939e-01
 -1.9600946e+00
 -1.1045539e+00
 -1.0170734e+00
 -1.0904841e+00
  4.0580277e+00
 -2.7942781e+00
  2.1120267e+00
  1.0740921e+00
 -1.1484982e+00
  9.4686019e-01
 -3.9319484e+00
  2.0205932e+00
  6.0092223e-01
  3.2091484e+00
 -1.4498426e+00
  3.2046168e+00
 -1.4767350e-01
  2.3062882e+00
 -1.8634838e+00
 -2.4394214e+00
  1.3926499e+00
  1.1976411e+00
 -1.4989093e-01
  2.1689394e+00
  1.9949727e+00
 -6.7942381e-01
 -1.7293911e+00
 -1.3115284e-01
  1.6790254e+00
 -1.3414798e+00
 -2.6546556e-01
 -2.9050038e+00
 -1.3390452e+00
  2.9838128e+00
 -4.4145495e-01
  1.5444947e+00
  1.0678927e+00
  1.5165877e+00
 -4.0361485e+00
 -3.2504480e+00
  2.8951150e-01
  5.4253882e-01
  2.9427283e+00
  5.5850821e+00
  1.1161708e+00
  6.7650652e-01
  1.2997173e-01
 -6.5186768e+00
 -1.0718739e+00
  1.1076197e-01
  1.2924842e+00
  5.7022494e-01
 -1.5744592e+00
 -2.9128107e-01
 -1.8122909e+00
  1.9235076e+00
 -8.4222674e-01
  3.0755012e+00
  3.0776067e+00
 -9.1415751e-01
 -5.9898174e-01
 -1.6129571e+00
 -2.8032452e-01
 -5.6524187e-01
 -1.8505700e+00
  1.2791500e+00
 -2.4974422e+00
 -3.8408673e-01
 -1.7697613e-01
  1.8468460e+00
  5.1063114e-01
 -1.2088504e+00
 -1.8390743e+00
  1.1607596e-01
  1.3461121e+00
 -5.3591412e-01
 -8.6429453e-01
 -6.1024648e-01
 -9.1631162e-01
  6.6886091e-01
 -2.2034078e+00
  4.2730551e+00
  2.1782434e+00
  2.7222434e-01
 -5.8937424e-01
  9.8822343e-01
  1.9534843e+00
  1.4165578e+00
  2.8482828e+00
 -1.3484222e+00
  1.2597902e+00
 -1.0134302e+00
 -8.5212600e-01
  6.8870747e-01
  1.5491718e+00
  2.4617167e-02
  1.9753264e+00
 -3.4522927e-01
 -1.2862403e+00
 -2.6913674e+00
  4.7618327e-01
 -3.3814526e+00
  6.5135133e-01
 -2.8981326e+00
 -1.0071027e-02
 -1.0148996e+00
  1.5641174e+00
  8.6685902e-01
  1.4309139e+00
  3.0794613e+00
 -1.7375327e+00
 -6.3203526e-01
 -1.1468099e-01
  1.8775621e-01
  8.4415203e-01
 -9.6729052e-01
  9.4434440e-01
  1.0232618e+00
 -6.6178465e+00
 -3.3395059e+00
 -5.0202446e+00
 -7.6727229e-01
  1.0343256e+00
  2.3333377e-01
 -5.3836457e-02
  1.0696617e+00
 -2.2163515e+00
 -1.0320647e+01
  7.9000413e-01
  3.6421171e-01
  2.3552494e+00
 -1.1786506e+00
  4.8737521e+00
  1.5915719e+00
  1.6210340e+00
  1.1130474e+00
 -1.6118023e+00
  1.9168526e-01
  2.9503245e+00
 -1.9391247e+00
 -8.7977350e-01
 -1.4641849e+00
 -1.2726802e+00
 -9.4654673e-01
 -2.3157065e+00
 -5.2874023e-03
  9.3399078e-01
  3.8088386e+00
 -3.7101933e-01
 -7.9320931e-01
 -1.3335340e+00
 -7.9601669e-01
 -9.8766983e-01
  1.4334978e+00
 -5.1486003e-01
 -2.1722476e+00
  1.2433820e+00
  6.3491531e-02
  7.3562600e-02
 -4.4078550e-01
 -9.4248551e-01
 -2.7435629e+00
  1.2978984e-01
 -1.2481964e+00
  7.1521938e-01
  9.6128696e-01
  4.6074358e-01
  5.1774360e-02
 -2.7244768e-01
 -8.7126839e-01
 -1.3217607e+00
 -1.3961511e+00
 -5.4853195e-01
  7.9299098e-01
 -3.1568293e-02
 -2.6268432e+00
 -4.0499726e-01
  1.4342780e-01
 -1.0581610e+00
  7.1485454e-01
  2.7402787e+00
  1.2784833e+00
 -2.1461302e-01
  6.1193764e-01
  5.2156764e-01
  6.2881607e-01
 -2.9855299e-01
 -2.9752078e+00
  2.5274189e+00
  3.9158998e+00
 -4.5229620e-01
  8.5157597e-01
 -1.8996753e+00
 -1.5331779e-01
  5.0418168e-01
 -1.5860367e+00
  9.9332327e-01
 -8.6412501e-01
  7.4527961e-01
 -3.6142368e+00
 -7.0314449e-01
  5.7782167e-01
  7.6861727e-01
 -1.1683922e+00
  1.5732017e+00
  1.9990925e+00
 -1.8170673e-01
 -1.5279205e+00
 -1.2269588e+00
  1.8734272e-01
 -1.5385312e-01
  2.0453978e+00
  7.7335024e-03
  1.3654031e+00
 -3.1665128e-01
  3.9639121e-01
  8.0493504e-01
  2.0480757e+00
 -2.4368948e-01
  4.3158481e-01
  9.0109193e-01
  1.3319856e-01
 -8.1808442e-01
 -3.2855427e-01
  1.9523136e-01
  1.0029678e+00
 -1.1129237e+00
  7.8011948e-01
  2.5628219e+00
 -7.9432857e-01
 -8.2390189e-02
  1.3898869e+00
  1.9243895e+00
 -3.7686455e-01
  1.5416477e+00
 -8.8308764e-01
 -4.2526084e-01
 -5.9454584e-01
 -4.5935735e-01
 -6.2939370e-01
  1.0787350e+00
 -2.1997724e+00
  1.0658206e+00
  4.4974333e-01
 -2.3020754e+00
 -3.9898221e+00
  3.3174932e+00
 -9.4632500e-01
  5.5255920e-01
  6.3658792e-01
  2.5627869e-01
  1.6745286e-01
 -4.8844323e+00
 -1.8463391e+00
 -7.3751219e-02
 -4.3349648e-01
 -3.2094145e+00
  6.3872689e-01
 -1.6366869e+00
  5.2112955e-01
 -3.4378162e-01
 -9.0149289e-01
  3.6676052e+00
 -9.6179092e-01
 -3.9536450e+00
  1.1744762e-01
  2.9678695e+00
  1.7181466e+00
  1.2426578e+00
  9.2137533e-01
 -8.6113527e-02
 -8.8325411e-01
 -1.5155110e-01
 -3.4705501e+00
 -5.3672080e+00
  7.2426301e-01
 -1.1116040e-01
 -2.2130628e-01
  1.4309590e+00
  2.3129802e+00
  1.2635827e+00
  7.7531058e-01
  5.7172275e-01
 -1.6706499e+00
  6.5103269e-01
  5.4201372e-03
  4.3983984e-01
 -8.3528566e-01
 -2.9483659e+00
  8.4028669e-02
 -1.3581166e+00
 -1.3715433e+00
 -2.7946112e+00
  5.9451419e-01
 -5.8269548e-01
 -2.1062222e+00
 -9.4882858e-01
  1.3692490e+00
 -8.0115926e-01
  2.6507768e-01
  8.9224678e-01
 -1.5149589e+00
 -2.8352942e+00
 -3.2575018e+00
  1.7142648e+00
 -1.6098770e+00
  3.6524677e+00
  7.0208125e+00
 -3.1517348e-01
  2.2244105e-02
  1.2238307e-01
  1.5885576e+00
  8.6411160e-01
 -6.5158054e-02
  1.7126971e+00
  4.1116828e-01
  3.6338475e-01
  9.5357054e-01
  2.4370792e+00
 -8.3524305e-01
  5.7465291e-01
  4.1547576e-01
  5.4508674e-01
 -1.4495507e+00
  1.6447917e-01
  1.7406092e+00
 -1.3766955e+00
 -2.2155035e+00
  1.2862188e+00
  2.0414765e+00
 -2.2216947e+00
 -1.6620899e+00
 -1.0295901e-01
 -1.4473928e+00
 -4.1278437e-01
 -6.7231292e-01
  6.5447330e-01
  5.6335354e-01
  1.4174961e-01
 -1.2182696e+00
  1.2468213e+00
 -2.1314452e+00
 -1.1883587e+00
 -3.4168252e-01
 -1.7155266e+00
 -1.3595363e+00
  5.1147157e-01
  3.0193260e+00
 -4.5705792e-01
  3.2272965e-01
  7.9702115e-01
 -6.4232841e-02
 -1.0649002e+00
  5.4429865e-01
 -2.7405182e-02
 -8.1744939e-01
  4.9551943e-01
  3.5199034e-01
  4.9261597e-01
 -1.1074698e+00
 -3.1255414e+00
  1.0301398e+00
 -2.5867083e+00
 -4.7614563e-01
 -1.4785954e-01
  1.2435038e+00
 -3.1024752e+00
  2.2137980e-01
  7.4062139e-01
 -2.0452671e+00
  2.8706899e-01
  9.0531170e-02
 -1.2858602e+00
 -9.8895061e-01
  1.3551900e+00
  4.1439134e-01
  2.7785625e+00
 -2.4634321e-01
 -2.7355039e+00
 -4.1537645e-01
 -6.4740576e-02
 -6.5900856e-01
  6.6132277e-02
 -4.0417475e-01
  2.0414166e+00
  4.9180121e+00
 -1.8839068e+00
 -8.0953753e-01
  2.8885186e+00
  1.6639204e+00
 -1.0114572e+00
  6.4122691e+00
 -4.8064246e+00
  3.9381771e+00
  1.3073695e+00
 -1.0535876e+00
 -3.1694651e-01
 -1.9932172e+00
  6.8965906e-01
  3.2767409e-01
 -2.0407953e+00
 -7.9236798e-02
  1.5048790e+00
  7.1579957e-01
 -1.4454653e-02
 -3.2489400e+00
  3.5500734e+00
 -3.5020168e+00
 -1.7135023e+00
 -7.5516862e-01
 -1.9053195e+00
  4.9330406e+00
  2.7960331e+00
 -2.6597026e-01
  2.6720092e+00
 -9.0465957e-01
 -1.5896276e+00
  2.8418818e+00
  6.8242818e-01
  1.1653587e+00
 -3.0802268e-01
 -1.7165087e+00
 -1.4038910e+00
 -4.3178802e+00
 -6.9683868e-01
  2.4069451e-02
  2.5800843e+00
  4.3898807e+00
 -1.2627769e+00
  2.0610015e+00
 -3.3551097e-01
  7.5264186e-02
  2.9244496e-02
  3.0386519e+00
 -7.9744357e-01
  9.1052920e-01
  2.3028499e-01
 -1.7769703e+00
  1.7686231e-01
  1.3122116e+00
 -1.7122289e+00
  8.0551159e-01
 -4.2407729e-02
 -5.6027613e+00
 -3.3017852e+00
 -2.2504158e+00
  2.7816408e+00
 -1.1663784e+00
  8.5612491e-02
 -1.8965471e+00
  6.9090676e-01
 -3.3625627e-01
  1.6965510e+00
  3.3382964e+00
 -2.3295732e+00
  2.3369679e-01
 -4.1814885e+00
  8.9146727e-01
 -1.3630287e-01
 -1.5730104e-01
 -1.0853238e+00
  1.1909328e-01
  7.1907055e-01
 -2.2817875e-01
  2.4117813e-03
 -4.5503458e-01
 -3.1038671e+00
 -1.8613864e+00
 -3.9605308e-01
  4.4076580e-01
 -8.1095886e-01
 -7.4834418e-01
  1.9580450e+00
  3.3990505e+00
  6.3195243e-02
 -1.9111028e+00
 -1.7421060e+00
 -9.3834907e-01
  1.8940041e-02
  2.1340146e+00
 -3.8314965e+00
  9.1582127e-02
 -7.0423588e-02
  5.5413115e-01
  3.1326303e-01
 -1.3795553e-03
  8.4444505e-01
 -2.6372750e+00
  7.7871621e-01
  1.5509232e+00
  6.6866648e-01
 -5.2534800e-02
  1.0048574e+00
  5.5456204e+00
 -2.1219598e-01
  2.4828994e+00
  2.4251680e+00
  4.6101149e-02
 -1.7059211e+00
 -2.9144445e-01
  1.9261256e+00
  6.3768560e-01
  9.0248090e-01
  3.0539310e-01
  4.0978994e+00
 -1.8717333e+00
  1.8069277e+00
 -4.5543775e-02
 -1.1276067e+00
 -2.3210137e+00
 -1.9659312e+00
  1.3249371e+00
  2.9374614e-01
 -1.2631536e+00
  1.2079585e+00
  3.1851361e+00
 -9.8757416e-01
 -2.0740259e+00
 -3.3865640e+00
 -3.8223295e+00
  2.6704843e+00
 -1.3551228e+00
 -1.8640417e+00
 -1.2703028e+00
 -1.0661592e-03
  1.6023474e+00
  9.8021615e-01
  5.9708679e-01
 -1.3383474e+00
 -1.1391670e+00
 -2.5444382e-01
 -9.1858882e-01
  9.3231887e-01
 -1.3416448e+00
  3.1407325e+00
  1.3883049e+00
  4.9110234e-02
  2.9703808e+00
 -4.9641997e-01
  1.5789734e+00
  8.5472459e-01
  1.0756153e+00
 -9.3016215e-02
  2.0412562e+00
 -6.7019951e-01
 -4.7366211e-01
 -1.6648582e+00
