nep4 1 C 
cutoff 4.2 3.7 98 56
n_max 10 15
basis_size 10 15
l_max 4 2 1
ANN 100 0
 -2.1159751e+00
 -1.6845062e+00
 -1.6279165e+00
 -1.1185519e+00
 -2.3260324e+00
  3.1690493e+00
 -2.5584254e+00
  1.0523244e+00
  1.8382893e+00
 -1.3641320e+00
 -1.3114301e+00
 -9.2573023e-01
  4.3877645e+00
 -1.9239150e+00
  1.4603819e-01
  7.0325965e-01
 -3.6462538e-02
  3.3547890e+00
  1.1266468e+00
 -4.8564586e-01
 -2.0151298e+00
 -1.7000490e+00
  2.9247856e-01
 -2.4333472e+00
 -4.8659616e+00
 -2.6225121e+00
  3.4082863e+00
 -1.0205448e+00
  1.7343425e+00
 -1.1355371e+00
 -9.7539067e-02
  1.8472687e+00
  1.5362401e+00
 -1.8275576e+00
  1.5971248e+00
 -7.8405237e-01
 -4.3243551e+00
 -1.9829649e-01
  1.8011941e-01
 -1.1425854e+00
  1.5128105e+00
 -1.8600376e-01
 -5.7608229e-01
  6.5173775e-01
 -2.9782109e+00
 -7.5231057e-01
 -2.5314300e+00
  7.1279973e-02
 -3.4755863e-02
  5.7026047e-01
  7.4288067e-03
  3.6949048e+00
 -8.4851378e-01
 -2.2738268e+00
  6.5976781e-01
  2.5464737e-01
  2.4998705e-01
 -6.2631375e-01
  1.9818256e+00
 -1.4546531e+00
  2.7793088e+00
 -5.2257743e+00
  3.3643773e-01
  8.6925101e-01
 -8.9197415e-01
 -2.5448555e-01
 -3.0505806e-02
  1.8375701e+00
  2.0849322e-01
  3.2472831e-01
  2.6027375e-01
 -7.0161498e-01
 -4.8068109e-01
 -7.9977012e-01
  1.9153458e-01
  1.5043226e-01
  1.3442224e+00
  2.7634468e+00
  1.3881334e+00
 -7.8331643e-01
 -4.8576757e-02
 -8.2799149e-01
  1.1333641e-01
  3.4818935e-01
 -3.0041292e+00
 -6.9932997e-01
 -9.7299182e-01
  4.6676323e-01
  6.7534113e-01
  3.5123329e+00
 -7.5546399e-02
 -3.9045799e-01
 -1.0084238e-01
  1.9406985e-02
 -1.6354518e-01
  1.4666903e-02
  1.1214110e-03
  2.8682605e-04
 -3.3008207e-02
 -1.4426510e-01
 -9.3283303e-02
  1.4927511e-01
 -1.6223626e-01
 -2.2943419e-01
 -1.4246438e-01
 -2.0488442e-01
  1.3404897e-01
  2.6980746e+00
  4.7132616e+00
 -6.4084339e-01
  3.3528538e+00
 -4.1981012e-01
  2.6023990e-01
 -1.1348174e+00
  4.9943107e-01
 -7.1447891e-01
 -1.9727734e+00
  7.2934562e-01
  7.2429672e-02
 -1.1097454e+00
 -8.0748051e-01
 -5.6040257e-01
 -1.0784165e+00
  1.3614467e+00
  1.1882319e+00
 -7.4616337e-01
  6.3079558e-02
 -5.2619141e-01
 -1.1203411e+00
  3.1051176e+00
 -1.9569342e+00
 -5.7126775e-02
 -3.9038415e+00
 -2.2263622e+00
 -2.4212811e+00
 -1.0253102e+00
  1.3241667e-01
 -2.8234000e+00
  2.7669883e+00
  2.4306579e-01
 -1.1421833e+00
 -2.6248891e+00
  2.4857485e+00
 -1.6451864e-01
 -1.5881603e+00
 -8.1371456e-01
  4.3760180e-01
  1.4888259e+00
  5.6490701e-01
 -2.0617933e+00
 -3.4199231e+00
  4.8062068e-01
  2.8258426e+00
 -8.0832681e-03
  2.4747674e+00
 -1.2619553e+00
 -2.6086473e-01
  2.9491940e+00
  9.3366790e-01
 -2.4633929e-01
 -7.9199129e-01
 -2.3211861e+00
  4.1949007e-01
  1.1160160e+00
  8.7596166e-01
 -2.0013230e+00
  1.3255504e+00
  6.5086108e-01
 -1.6450146e-01
 -3.4683974e+00
  3.5591173e+00
 -9.4874918e-01
 -1.1654865e+00
 -6.0118127e-01
 -1.5607462e+00
  1.3230656e-01
  6.0589582e-01
 -4.7590730e-01
 -1.3790017e+00
 -2.4744830e+00
  1.7884011e+00
  5.7168704e-01
  1.4418272e-02
 -1.5854305e+00
 -1.0357990e+00
 -1.2427168e+00
 -2.8940123e-02
 -1.0217451e-01
  1.0404149e-01
  8.0766535e-01
 -1.1474946e+00
 -7.1697704e-02
  2.9810138e-02
 -3.2102636e-01
 -2.5367588e-01
  2.3407508e-01
 -6.5238196e-01
 -2.7250480e-02
 -2.3999290e-01
  1.2206745e+00
 -1.6583385e+00
 -2.4812408e-01
  3.8248945e-02
 -1.2002351e-01
 -5.9670702e-02
 -8.6348720e-02
  1.1142207e-01
  1.4135541e-01
 -6.4445130e-04
 -1.7802885e-02
  1.6684185e-01
  3.8126141e-02
 -2.9466189e-02
 -1.9915147e-01
 -1.9539515e+00
  9.6985066e-01
  1.0889668e-01
 -1.8517325e+00
  1.3421452e+00
  2.4209983e+00
 -8.4023762e-01
  3.1982625e-01
 -4.6987996e-01
  3.8424606e+00
 -1.9439700e+00
 -1.8206992e+00
 -4.0045462e+00
 -1.7518092e+00
  5.0934565e-01
  3.2554886e+00
 -5.7396984e-01
  1.8308469e+00
 -1.1141667e+00
  1.1932799e-01
 -1.1876155e-01
 -2.9910138e+00
  6.4354494e-02
  2.2320123e+00
  1.3633710e+00
  1.7420275e+00
 -2.3228242e+00
 -1.3845577e+00
 -9.4107419e-01
  1.6435713e-01
 -4.7282152e+00
 -3.2383592e+00
  5.2092731e-01
  1.0108175e+00
 -4.5486483e-01
 -1.6614044e+00
  2.6700287e+00
  7.9185796e-01
  1.5157799e+00
  3.9257753e-01
  2.1678064e+00
 -3.8024211e-01
 -6.8556798e-01
  3.7128961e+00
  3.4795856e+00
 -4.5122914e+00
  2.6665512e-01
 -3.2394981e-01
  2.3784654e+00
  7.0719808e-01
  3.9778084e-01
 -6.7334449e-01
 -3.2165079e+00
 -3.0982983e+00
 -6.3651854e-01
 -5.4309201e-01
 -3.3760457e-03
 -4.5276546e-01
  9.1874319e-01
 -2.1220565e-01
 -2.9267068e+00
 -1.4262886e+00
  5.1739275e-01
  1.5421672e+00
  1.8200482e-01
 -1.2516720e+00
 -3.7416053e+00
  4.0122595e-01
  1.4955654e+00
  8.3904421e-01
 -2.1507309e-01
  9.7765529e-01
 -6.2005883e-01
 -4.3613192e-01
  4.8097730e-01
 -5.2655071e-01
 -1.1848577e+00
  1.4747446e+00
 -4.9540651e-01
  5.1289268e+00
  3.4932449e+00
 -1.6640480e+00
 -2.0815096e+00
 -7.0677954e-01
 -3.8486284e-01
 -2.3961141e+00
  1.2398990e+00
 -1.1047579e-01
  1.5807047e+00
 -3.1934552e+00
 -9.2817128e-01
  1.9306178e-01
  4.2206477e-02
  9.9394798e-02
  1.7685893e-01
  1.0211955e+00
  2.3012581e-01
  2.4071760e-01
 -1.6179837e-01
  6.7229521e-01
 -6.7936651e-02
  1.4611158e-01
  7.3468024e-01
 -3.4072250e-02
  6.3455321e-02
  2.5521770e-01
 -7.8663349e-02
  6.8615377e-01
 -3.4816089e-01
 -1.7543322e+00
  2.8727207e-01
  5.0746286e-01
  2.0327814e+00
  6.9377675e+00
 -1.7014958e-01
 -1.1035033e+00
 -1.0068387e+00
 -1.0239702e+00
  9.1873333e-02
  1.1584713e-01
  6.4203009e-02
  2.8031278e+00
  2.3165500e+00
  1.5308721e+00
 -5.4800604e-02
  1.5166782e-02
 -1.7337614e-01
  2.6412356e-01
  8.5670906e-01
 -7.6654404e-03
 -7.8900135e-01
 -6.4544089e-02
 -1.6375924e+00
  1.6802804e+00
 -1.7817912e+00
  1.2970380e+00
  1.2062885e-01
  1.5705507e-01
 -7.4211001e-02
 -3.8783617e-02
  2.3965003e+00
  2.3011518e+00
 -1.9632533e+00
 -7.8331017e-01
 -9.7460163e-01
 -9.8146245e-02
  1.4087263e+00
  3.4973365e-01
  2.9300129e+00
 -9.7558039e-01
 -4.8300225e-01
 -3.8716117e-01
 -6.0005748e-01
  5.4165238e-01
  1.1994605e+00
  1.1070641e+00
 -1.7904718e-01
 -7.4443431e-03
 -3.5490002e-02
  2.5826895e+00
  2.5285682e-02
  1.9739275e+00
 -6.6263892e-02
  1.3952370e+00
  8.1639069e-01
 -3.4109858e-01
  8.3765304e-03
 -1.7355528e-01
 -2.8340137e-01
 -3.1223673e-01
  1.5930685e+00
  2.7654496e-01
 -2.2921046e-02
  1.1244455e-01
  7.4479487e-03
 -9.4589755e-02
 -2.9672331e-01
 -5.4076129e-01
 -1.0353942e+00
 -6.3872558e-01
 -5.6145042e-01
  5.1879048e-02
  1.6685035e-02
  2.1735722e-01
  1.4456169e-02
  1.3128300e-01
  2.6827781e+00
 -7.3564671e-02
  5.1164724e-02
 -1.1967319e-01
 -1.9204496e-01
  1.8304740e-01
 -9.4731702e-03
 -4.6679261e-01
  1.5932451e-01
 -2.3607142e-02
 -3.6653340e-01
 -5.3814985e-02
 -3.7946332e-01
  7.2659507e-02
 -1.5158204e-03
  1.4708824e-01
 -4.4512786e-03
  5.7159699e-02
 -8.1482101e-03
  1.9862702e-01
 -1.8828711e-01
  8.4395178e-02
  1.3027999e-01
  1.2041774e-01
  1.5123144e-01
  6.4253223e-01
 -4.4632605e-01
  5.3257059e-02
 -1.5399837e+00
  1.4176127e+00
  2.8156633e+00
  6.0877142e+00
  1.0515261e+00
 -1.0269063e+00
  5.3650957e-02
 -3.9123580e+00
  1.9207221e+00
 -1.4275179e+00
  5.6821531e-01
 -2.9109893e+00
  4.8181182e-01
  3.2834876e-02
  3.8037828e-01
  2.5865896e+00
  4.9559169e-02
  5.3432989e-01
 -1.0255720e-01
  9.5070377e-02
  1.9116822e+00
 -9.1922358e-03
 -2.1766543e-03
 -1.8568653e+00
  5.8496714e-02
 -3.7091002e+00
  1.5880607e+00
 -1.2094272e+00
  1.1397307e+00
  1.2355728e+00
 -1.4640775e-01
 -1.4182268e+00
  1.8049291e+00
  2.5240803e+00
 -9.5021039e-01
 -1.8317491e+00
  9.4020915e-01
  9.1280770e-01
  1.0324113e+00
 -2.2243838e+00
 -1.4862044e-01
 -1.1835228e+00
  1.2092158e-01
  1.9608396e+00
 -7.6673865e-01
 -4.0170234e-02
 -2.8791325e+00
 -1.7861228e+00
 -2.1270363e+00
  2.5119212e+00
  4.7769424e-01
  4.0036659e-03
  1.6899851e-01
 -6.4046258e-01
 -3.5083261e+00
  7.3343229e-01
  1.6453179e+00
 -1.8146758e-01
 -1.4249751e-02
  4.5227182e-01
 -3.1485614e-01
 -1.0061508e+00
 -1.9487745e-01
 -1.9091452e+00
  6.1985546e-01
 -8.7693095e-01
 -1.7041187e+00
 -1.2035998e+00
 -4.0866172e-01
  2.3164812e-01
  6.3340768e-02
 -6.3175038e-02
  7.4143660e-01
  2.1566875e+00
 -1.0333665e-01
  3.1926952e-02
  8.2283042e-02
  1.5019378e-01
  4.1004352e-02
  1.0600383e+00
  3.0783861e+00
  9.2375517e-01
  4.7803143e-01
 -2.6703247e-01
  2.2647893e-01
 -3.1941333e-01
 -1.1924963e+00
 -2.1473093e+00
  5.2277839e-01
 -8.2068175e-01
 -8.2984358e-02
 -1.0549451e+00
 -1.3094305e-01
 -5.5057596e-02
  2.3562875e-02
 -1.1820669e-02
  3.9392006e-01
 -2.0300243e-02
  2.8180635e-01
  6.7388821e-01
 -1.3994685e-01
 -1.9199772e-02
 -3.4348220e-02
  9.3077280e-02
 -1.7013979e-01
  7.7990472e-02
  1.8772571e-03
  2.8065014e-01
  1.6879659e+00
  1.0518334e-01
  2.6310587e+00
  1.4539156e+00
 -1.9031601e+00
 -8.2746726e-03
 -4.0265069e+00
 -1.9512454e-01
  2.7152865e+00
  3.9880910e+00
  1.2128033e-01
  2.3760302e+00
 -3.6947814e-01
 -3.0287943e+00
  4.5591170e-01
  1.4885736e+00
 -6.2132877e-01
  1.0498365e+00
 -1.3126457e+00
  1.0955019e+00
  1.7148421e+00
 -2.1725972e-01
  2.8787460e+00
  1.2098761e+00
  2.2232602e+00
  4.0549356e-01
  3.8837243e-02
 -3.2787627e-01
  4.5788452e-01
  4.7918701e-01
 -1.8070772e-02
  5.8861029e-01
 -6.2651819e-01
  7.3271883e-01
 -1.1628532e+00
  2.7261939e+00
 -2.1833366e-01
 -2.1259166e-01
  1.9147829e+00
  2.1426071e-01
  4.6228080e+00
 -2.1493500e-01
 -2.4480762e+00
 -1.2223859e+00
  3.1990439e-01
  1.9853477e+00
  1.2619723e+00
 -1.1116297e+00
  1.5553601e+00
 -1.4520264e+00
  6.7876220e-01
  3.3318359e-02
  3.5044093e-02
  8.5547870e-01
  1.1063128e+00
 -4.5132399e-01
  1.9382326e-02
  9.6531004e-01
 -3.5718670e-01
 -4.5190114e-01
  4.8666349e-01
  2.4325008e+00
  1.7538198e+00
  1.2407728e-01
  3.1963506e-01
 -1.2116805e+00
 -1.1408931e+00
 -1.6366872e+00
  4.7729235e-02
  5.7613766e-01
 -2.8741428e-01
  5.1562411e-01
 -8.5185331e-01
 -1.6153723e+00
 -8.9303595e-01
  1.8759669e+00
 -4.2633981e-02
 -5.0549321e-02
 -2.3051043e+00
  3.6660273e-02
 -2.2964154e-01
  1.8905274e+00
  1.3361882e-01
 -3.5524464e+00
  1.0230807e-01
 -6.8836254e-03
 -2.6252215e+00
  3.4962683e+00
  4.4084396e+00
 -1.4990904e-02
  4.8572566e-02
 -1.5679251e-01
 -3.4507692e-02
 -1.3363850e-03
 -6.2583629e-03
  1.5022975e-01
  1.6926511e-01
  2.8169328e-02
 -2.4136163e-01
  1.0918090e-01
 -3.0938455e-01
  5.2169543e-02
  1.9773892e-01
 -1.3329532e-03
 -2.2956347e-01
 -4.8900293e-03
 -4.6857781e+00
 -1.1897827e+00
  3.3466940e+00
 -2.5952225e+00
  3.2636661e-02
 -2.2130322e+00
  9.8494893e-01
  1.0276774e+00
  5.9604627e-01
  2.3718638e+00
  2.3942547e+00
 -2.3469932e+00
 -3.0853170e-01
 -9.8143923e-01
 -2.0048883e+00
  4.5501041e+00
  1.1226442e-01
  1.5632269e+00
 -1.8977510e+00
  2.4969237e-01
  3.4271917e-01
  2.5415692e-02
  3.4583651e-02
 -3.4770730e+00
  2.9537015e+00
 -4.0950933e+00
 -1.6106762e-01
 -9.6147603e-01
 -1.7087843e-01
 -9.4912704e-03
  1.7617339e+00
 -1.5677795e+00
 -1.0889378e+00
  1.1671661e+00
 -2.4574893e+00
  1.8371756e-01
 -7.0710325e-01
  1.1218460e+00
  2.5957851e+00
 -6.0589182e-01
  5.1239026e-01
 -9.8549885e-01
 -6.4374071e-01
  1.7702302e+00
  5.3175622e-01
 -3.3238775e-01
 -2.9492264e+00
 -8.0022550e-01
  9.9609333e-01
 -1.2845589e-01
 -1.1553813e+00
 -5.1748749e-02
  2.0911808e+00
 -1.3863000e+00
 -3.5792694e+00
 -3.3937700e+00
 -1.4657679e+00
  1.5147980e+00
  3.5645053e-02
  5.4244585e-02
  8.3153683e-01
  2.3515877e-01
 -1.7133386e+00
 -5.6747818e-01
 -2.1705022e-01
 -8.0453378e-01
 -2.7917895e-02
 -5.2654866e-02
  2.3393215e-01
 -2.2764692e-01
 -1.4719346e+00
  1.5761595e+00
 -2.0876696e+00
  2.0963876e+00
 -3.9690450e-02
 -1.8222803e-01
 -7.8770489e-01
  6.6293049e-01
 -1.4138882e-01
  8.6478597e-01
 -6.6337764e-02
 -1.5409418e+00
 -1.3688036e-02
 -2.6631755e-01
  1.3134205e-01
 -4.9844372e-01
  2.0360474e-01
 -1.8744427e-01
 -7.8171045e-01
 -2.1430007e-01
 -3.2982647e-01
  3.9018843e-02
 -5.7198208e-02
 -2.0919822e-01
  1.7525612e-01
  8.2203299e-02
 -9.1259129e-02
  3.4870964e-02
 -9.5421337e-02
 -2.7304468e-01
 -5.5752601e-02
  1.4571783e-01
 -2.7090779e-01
 -3.9458242e-01
  3.2683112e-02
 -1.1709541e-01
 -3.1188351e-01
 -1.0197787e+00
 -1.2361725e-01
  2.5413377e+00
  1.7879961e+00
  2.0759978e+00
 -5.3868271e-02
  2.1388113e+00
 -6.2365979e-01
  1.4143117e-01
  2.1898892e+00
 -7.4627924e-01
 -1.5409584e+00
 -6.5047354e-01
  9.0597503e-02
  4.5672493e+00
  6.6456127e-01
  2.0813519e-01
 -1.2295605e+00
 -9.1337436e-01
  4.5589663e-02
 -1.2747647e+00
  3.2858244e-01
  2.9416937e-02
 -6.0451537e-01
 -7.4069321e-02
 -2.8004611e+00
 -3.4175823e+00
 -1.7002758e+00
  3.7631764e+00
  1.3703669e+00
  2.3218303e+00
  2.4989693e-01
  1.2384726e+00
  2.3476146e-01
 -3.4368646e+00
 -2.6952355e+00
  3.1167276e+00
  1.5283271e+00
  2.9411593e-01
 -2.9657036e-01
 -2.6252635e+00
  2.5577062e-01
 -1.0309896e+00
 -2.3140740e+00
 -1.4898200e-01
  2.9238260e+00
 -1.0455781e+00
 -2.4572931e-01
 -3.6508462e+00
  8.4421194e-01
 -2.4771855e+00
 -4.6106543e-02
  3.7634516e+00
 -1.3028584e+00
  1.0136083e+00
 -1.4252192e-01
 -6.0019612e-01
  3.6096852e+00
  2.1091355e-01
  1.9340148e-02
 -1.9207468e-02
  8.0836341e-02
 -1.1755519e-01
 -3.3038404e+00
  3.6044132e-02
  4.0277386e-01
  4.2654145e-01
 -2.4422951e+00
  8.7394899e-01
 -3.7438828e-02
 -3.3020762e-01
 -1.2554437e+00
 -1.7911455e-01
  3.2177436e+00
  5.2434188e-01
  2.5754347e-01
  1.4472972e-01
 -8.7552750e-01
 -3.4347320e-01
 -4.0778203e+00
 -7.0594266e-02
  2.6796257e-01
  7.7919173e-01
  3.8424140e-01
 -3.0243909e+00
 -8.4567761e-01
  7.7869102e-02
  1.7205429e+00
 -6.8627679e-01
 -1.7005593e+00
  2.0224284e-01
 -6.8933293e-02
 -4.6922844e-02
  6.9124840e-02
  5.9378669e-02
 -2.6786730e-01
  1.3546588e-01
 -1.7453184e-02
  1.0041697e-01
  1.1074965e-01
  5.1784202e-02
  2.6980901e-02
 -2.7873579e-01
  6.2245023e-02
 -1.6849384e-01
  1.6674052e-01
 -1.5204118e-01
 -3.2091558e-02
  1.7316453e-01
  1.5720154e-01
 -1.0880837e-01
 -9.1618699e-01
 -1.7202118e-02
 -3.0024137e+00
 -1.3057629e-02
  1.6455974e-01
  8.9796543e-01
 -2.6610288e-01
 -1.7706180e+00
 -1.9213904e-01
  5.6587315e-01
  2.8363597e+00
  2.3948560e+00
  2.9646261e+00
 -2.6429811e-01
 -1.8315129e+00
 -1.6439879e+00
  4.8129773e+00
  2.4743173e+00
  4.8692545e-01
 -1.4645584e-01
 -6.1588889e-01
 -3.9528117e+00
  1.5502214e-01
  3.9423628e+00
 -8.6582460e-02
 -2.5314316e-01
  1.7460670e+00
 -3.1228483e+00
  7.1067148e-01
  1.5370384e+00
  8.3418798e-01
 -1.4198893e-01
 -1.1443632e+00
  2.2297416e+00
 -2.0188313e+00
  3.0428982e+00
 -1.1099127e-02
 -3.1666929e-01
  6.5191824e-05
  5.5504638e-01
 -1.1429873e+00
 -4.3306056e-02
  1.3308764e+00
  1.2832745e+00
  1.2894218e+00
 -2.3413034e-01
 -3.0481193e-02
  8.9556301e-01
  2.1976182e+00
  1.7716850e-01
  2.4560254e+00
 -4.4855106e-01
 -1.0762980e+00
 -3.8574495e+00
 -3.1500611e-01
 -2.3142529e+00
  1.2626353e-01
  1.9310668e-01
  8.2609189e-01
 -7.3026985e-01
 -4.8055223e-01
 -1.9426624e-01
 -2.3289356e+00
  1.5473818e+00
  3.7584749e-01
 -3.8298500e-01
  1.2607625e+00
 -6.1488193e-02
  8.7549949e-01
  6.7326164e-01
 -2.5610819e-01
 -8.8670906e-03
  1.3118144e+00
 -3.7338413e-02
  1.1510873e-01
  1.5765500e+00
 -4.8830339e-01
  1.2449516e+00
  1.6467294e-01
  4.5008519e-01
  1.2718995e+00
  4.5908415e-01
  1.2321267e-01
 -7.4169949e-02
  1.4085582e-02
  1.6385286e+00
 -5.7762548e-02
 -3.1110004e-02
  3.1069610e-01
 -1.6958575e-01
 -8.1901498e-02
  1.1575994e-01
 -1.9716464e-02
  6.0272474e-02
 -5.7462998e-02
 -1.4467911e-01
  1.0383787e-01
 -1.8976294e-01
  4.2852876e-03
  5.7037264e-02
 -1.3787426e+00
 -2.1221018e+00
  2.2679263e-01
 -3.7677073e-01
 -7.8045309e-01
 -2.0297273e-01
 -3.0377138e-01
 -6.6212821e-01
 -2.4140544e-02
  7.7444220e-01
  2.5029523e-02
  8.8687873e-01
 -1.8715501e-01
 -1.5077915e+00
  3.0295708e+00
  8.3007717e-01
 -2.9069531e-01
  6.7597944e-01
  1.4528656e-01
  1.9309668e-01
  2.6847734e+00
  7.6695681e-02
 -1.1363515e-01
 -3.3152249e-01
 -7.6842803e-01
 -8.4496325e-01
  5.9275110e-03
 -5.2885020e-01
 -4.0214164e-03
 -7.4584484e-02
 -4.1570219e-01
 -1.3017341e+00
 -3.8023254e-01
  7.4188709e-01
  1.9789050e+00
  2.8282121e-01
 -1.2832650e+00
 -1.0429031e+00
 -2.4213715e+00
 -2.0571187e+00
 -2.1129945e-01
  2.1286847e-01
  4.7197189e-02
  1.5697026e+00
 -3.7976127e+00
  1.0487205e+00
  7.5650150e-01
 -6.5772647e-01
  7.9374343e-01
  2.1634588e+00
 -6.7437071e-01
  3.6724666e-01
 -7.7554107e-01
 -6.1445510e-01
  1.8414961e-02
 -1.3705803e+00
 -2.1105412e-01
 -3.0364960e-01
 -4.2197534e-01
 -8.2628489e-01
 -6.0901755e-01
 -4.5705013e-02
 -7.8118706e-01
  1.5191583e-01
 -1.9760272e-01
  3.0941169e+00
 -1.1544688e+00
 -3.7874159e-01
  7.8577316e-01
 -2.3544903e-01
  1.9527274e-01
 -2.2860165e+00
 -9.4107705e-01
  2.8922403e-01
  9.0406430e-01
 -1.3086198e-01
  6.9841094e-02
  3.4508677e-03
 -3.6704510e-02
 -2.9817364e-01
 -2.0266213e-01
  4.4135264e-01
 -9.2912245e-01
  4.4655216e-01
 -8.3523132e-02
  4.9452192e-01
 -5.5637717e-02
  1.0206239e-01
 -1.1958783e-02
  7.7120699e-03
  2.2880839e-02
 -3.3475634e-01
 -1.3460347e-01
 -8.4615648e-02
  1.5815979e-01
  6.9371229e-01
  1.8732606e-02
 -5.1848716e-03
 -2.8756401e-01
  1.7035803e-02
 -6.7523085e-02
  6.6977486e-02
  8.4335886e-02
  3.2636788e-02
 -4.2076454e-02
  8.8367321e-02
  8.0394410e-03
  5.6459062e-02
  1.7210359e-02
 -1.2637098e+00
  8.0884971e-02
 -1.9164512e-01
  3.8101315e+00
  1.1349628e+00
  1.0612059e+00
  4.9141932e-01
  8.7708354e-01
 -3.0341947e-02
 -2.6694421e-02
  1.8917928e+00
  4.7289997e-01
  9.6245092e-01
  8.7103277e-02
 -7.4462086e-01
  9.9935001e-01
 -9.7419523e-02
  6.5699220e-01
 -1.9380724e+00
 -4.4439852e-01
  1.1938598e+00
  1.8294068e-01
  1.8836664e+00
 -2.2820663e+00
 -3.5186961e-02
 -1.7326016e-02
 -1.6030679e+00
  6.1608183e-01
 -5.1214531e-02
  1.8283221e-01
 -1.2919906e-01
 -6.6504784e-02
  7.9934287e-01
 -3.4917089e-01
  1.5871647e-01
 -1.9354510e+00
 -2.5482309e-01
  2.4479380e-02
 -1.1006064e+00
 -1.0860549e-01
  1.1932164e+00
  2.0743327e+00
 -8.3716208e-01
 -3.9781052e-01
 -4.9973193e-01
  6.4629948e-01
 -3.1914193e-02
  5.5391085e-01
 -5.4630555e-02
  1.3930713e-01
  6.0925595e-02
 -1.8928663e-03
 -2.8000241e-02
 -1.7099319e-01
 -2.1854931e-02
  5.6743407e-01
  3.6384308e-01
 -4.2745754e-02
  8.7221467e-01
  6.0214724e-02
  2.5212583e-01
 -1.0686847e+00
  5.3278542e-01
  5.1585764e-02
  3.1039980e-01
 -5.5777933e-02
 -2.0185106e-01
 -1.4833477e-01
 -1.0202391e-01
  3.7483248e-01
 -7.9783738e-02
  2.3106267e-01
  7.2931491e-02
  1.6791721e-01
 -1.3428009e-01
 -4.1268414e-01
 -7.5527102e-02
 -1.3627936e+00
 -8.4535427e-02
  3.5132208e-01
  2.2688498e+00
  6.3307233e-02
  9.8770559e-02
  7.4712791e-02
  1.6797293e+00
  4.0087577e-02
 -6.2836930e-02
  5.8412034e-02
 -9.8111004e-02
 -1.1066069e-01
 -1.0554166e+00
  1.2721229e-01
 -4.8831563e-02
 -1.7020246e+00
 -1.8615927e-01
  2.0448761e-01
  1.7649293e-01
 -3.3122946e-02
  2.6626499e-02
  8.0047643e-01
 -3.0980685e-01
 -1.7937948e-01
 -1.7527465e-02
 -2.2624242e-01
 -1.0241064e-02
 -1.9307520e-02
 -5.3961925e-02
 -1.9886365e-02
 -8.3950597e-01
 -1.2480907e-01
  9.1642421e-01
 -1.7310420e+00
  9.1263972e-02
  1.3202329e+00
 -1.7634363e+00
 -5.9915078e-01
 -3.3176026e-01
 -7.7093977e-01
 -1.1209443e+00
 -3.8911086e-02
 -1.4961892e+00
  9.2222825e-02
 -1.3362557e-01
  1.6867697e+00
  1.8875746e+00
 -1.6595450e-03
 -1.1465788e-01
 -5.9865338e-01
  1.4430360e+00
  1.1353405e-01
 -2.0379499e-01
  1.9666919e-01
  1.7737027e-02
  2.4994686e+00
 -1.3743550e-01
  5.7240069e-01
 -6.7799234e-01
  2.9508233e-01
 -4.0387211e+00
 -9.0169203e-01
 -3.4006184e-01
 -5.5511463e-01
 -8.5622020e-02
 -2.4904348e-01
 -1.3718496e-01
  2.1019830e-01
  4.2737968e-02
  6.9585130e-02
 -1.2808166e-01
 -2.5146201e-01
  1.0590518e+00
  1.9596848e-01
 -1.1913510e-01
  2.6457366e-01
 -8.4081316e-01
 -5.2981681e-01
 -3.7925881e-01
 -5.1382810e-01
  7.9981709e-01
  1.7178029e-01
  2.9113808e+00
  1.0890082e-01
  9.6485841e-01
 -2.1745516e-01
  7.0194535e-02
 -3.1305900e+00
 -3.9953291e-01
  3.2063049e-01
  9.9475199e-01
  5.4111704e-02
 -1.0149915e+00
 -3.6551629e-03
 -1.4307576e-01
 -3.1985185e-01
 -6.0332751e-01
 -1.2399693e+00
 -7.3989481e-02
  7.2687340e-01
 -1.6155985e-01
  1.8979147e-01
  1.8320835e+00
  1.5860946e+00
 -5.9252250e-01
  1.8941425e-01
 -1.5263596e-01
 -1.1344914e-01
 -4.6032064e-02
 -4.7640879e-02
  1.4064531e+00
  3.2871507e-02
  5.6712449e-02
 -2.3286450e-01
  3.9318468e-02
 -2.7607551e-02
 -1.1157081e-01
 -1.1237235e+00
 -6.8977930e-02
  2.8070885e-01
  1.9366238e-01
  1.1931881e+00
  1.2189332e-01
 -1.6678646e-01
  1.9508736e-01
  3.1420453e+00
 -2.2744699e-01
  5.2742343e+00
 -1.2773944e-01
  5.7456958e-01
 -6.8978697e-02
 -3.9424974e-02
 -2.4243909e-01
  6.8162195e-02
  1.3060038e-01
 -5.2196691e-03
 -8.6618137e-01
 -3.0203229e-01
  3.6285579e+00
  6.1484378e-02
 -1.3250853e+00
  2.6146235e+00
  4.0285438e-01
 -5.1448145e+00
  2.1156492e+00
  8.3141321e-01
  8.9469093e-01
 -7.4848235e-01
  1.4961569e-01
 -5.4699450e+00
 -4.0133837e-01
  2.8802216e+00
  3.2265778e+00
  3.1434825e-01
 -2.5602682e+00
  2.3099799e+00
 -5.0308585e-01
  6.4933395e+00
 -6.8810038e-02
  1.3455964e+00
 -2.0601757e-01
  2.6340458e-01
 -1.9334749e+00
 -6.1733806e-01
 -1.4331533e-01
 -1.9116302e+00
  7.2004843e-01
 -1.4138283e+00
  5.1169932e-01
  2.7058738e-01
  4.2787004e+00
  2.7216762e-01
  1.0575986e+00
  1.3940272e+00
  1.3939415e-03
  2.9317968e+00
  8.3209920e-01
  2.4979915e-01
 -5.3541360e+00
  2.2213149e+00
  1.9431300e+00
  2.0804334e+00
  1.2636116e+00
  2.1895542e+00
  1.3965986e+00
  1.2257954e+00
 -1.4154630e+00
  1.2754710e-01
 -2.9797805e-02
 -5.1446939e+00
 -3.5894923e-02
  5.5574078e-02
  1.1313161e+00
 -5.0500333e-01
 -8.0136216e-01
  1.2560655e+00
 -6.4628965e-01
 -1.5936118e+00
  3.7572819e-01
  2.4556143e+00
  1.6311487e+00
 -2.3429134e+00
  4.8353335e-01
 -8.2816070e-01
  1.8585531e-01
 -8.1405210e-01
  3.4952125e-01
 -1.2071797e+00
  7.5172287e-01
 -1.3755268e+00
  5.5083770e-01
 -5.3093767e+00
  7.3229454e-02
 -1.4131631e-01
  2.5510415e-01
 -1.3854522e+00
  2.7623158e+00
  2.0657735e-01
 -3.2611828e-02
 -1.7376163e+00
 -6.0687798e-01
  6.8584494e-02
  4.2639067e-03
 -1.5344397e+00
  2.2889409e+00
 -8.3478950e-02
 -2.1944385e+00
 -1.4802536e-02
 -2.0427208e-02
  2.3777205e-02
 -7.5751774e-02
  7.3352829e-02
  1.6359794e+00
  1.1453485e+00
 -5.3007680e-01
  4.2791413e-03
  1.2155246e-01
  2.2273354e-01
  1.5158463e-02
 -1.9444227e-01
 -3.5454564e-02
 -1.0513692e-01
  2.4106507e-01
 -1.0852180e-03
  2.6504841e+00
 -7.7187592e-01
 -7.1015082e-02
 -1.2644006e+00
  1.0783232e+00
 -1.8994248e+00
 -1.2848321e+00
 -1.5684332e-01
 -1.5900337e+00
 -4.6657662e+00
  1.7909737e-01
 -6.0848522e-01
  1.8039986e+00
  1.9419432e-02
 -6.2284219e-01
  3.9700499e+00
 -2.5465217e-01
 -5.0032720e-02
  3.7278064e-02
  2.4477977e-01
 -7.7629405e-01
 -1.2199898e+00
 -7.0255429e-01
  3.4137371e-01
  1.5271131e+00
 -7.2023904e-01
  1.3996824e+00
  5.9416366e-01
 -2.3062596e+00
 -2.3090056e-01
  1.6710415e-01
 -1.8160539e+00
  4.0257856e-02
 -9.3495715e-01
  2.0834528e-01
  1.5922513e-02
 -1.3489485e+00
 -9.7244692e-01
 -3.1857993e-02
  2.7367070e-01
 -6.1432618e-01
  1.4436284e-01
 -5.7070547e-01
  4.6580467e+00
  4.2540428e-01
 -5.9002038e-02
 -6.4505339e-01
  1.4979209e+00
 -5.4688960e-01
 -5.9137565e-01
  7.8781970e-02
  9.6036576e-02
 -2.1022785e+00
 -7.7358872e-01
  4.1514732e-02
 -5.2200848e-01
 -3.2082591e+00
  6.0535524e-02
 -3.5757966e+00
  1.0898449e-01
  1.0200176e-02
  1.9817372e-01
  2.7459413e-01
 -3.2406695e+00
 -5.1397644e-02
  2.3776138e-02
 -2.1224399e+00
 -8.3649582e-01
  2.1843641e+00
 -1.1243728e+00
 -9.4057620e-03
  3.0770503e-02
 -3.5415702e-02
 -9.8961997e-01
 -1.4386065e-01
  4.2451486e-02
 -2.4494837e-01
 -2.3531934e-02
 -3.7093464e-02
  1.0119298e+00
 -9.2713885e-02
 -6.9081776e-02
 -2.7875978e-01
 -1.6992866e-01
  1.1004187e+00
  3.5114866e-01
  1.4117028e-01
 -5.1164955e-02
  6.9349475e-04
  3.1632239e-01
 -2.5967002e-01
 -4.0794387e-01
 -1.8013718e-02
 -9.6127965e-02
 -1.0059333e-01
  2.1822564e-01
  5.8576602e-02
 -1.3642496e-01
 -4.3672508e-01
  6.8769515e-02
 -2.8308328e-02
 -8.8893268e-03
  2.7915828e-02
 -8.4216129e-03
 -8.3345585e-02
 -3.7012938e-02
 -1.2803108e-01
 -5.0918669e-01
 -1.6982861e+00
  1.9767781e-01
 -1.0746907e+00
 -1.8896471e+00
  4.7338513e-01
  1.1517648e-01
 -1.2838399e+00
  1.9997895e+00
 -1.7047015e+00
 -3.1252232e+00
  5.8622908e-02
  2.0643260e+00
 -2.8979212e-01
  4.4151828e-01
 -4.9919596e-01
  2.4009243e-01
 -1.2710901e-02
 -4.2861348e-01
 -2.4324016e-01
  4.3262118e-01
 -3.2508349e+00
 -1.0124404e+00
 -3.3140594e-01
 -2.4524084e-01
  2.4377093e+00
  4.1389933e+00
 -1.1433455e+00
  2.9998311e-01
  4.0046996e-01
 -9.6121788e-01
  4.6166810e-01
  4.0742731e+00
 -3.3233139e-01
 -6.5132195e-01
 -2.4970633e-01
 -2.2330314e-01
  3.3125755e-01
  2.7654934e+00
 -1.2548643e+00
 -1.3592852e+00
 -2.0547676e-01
  4.3299308e-01
 -6.4018995e-01
  1.3506246e-01
 -1.6032406e+00
 -2.8034618e+00
 -1.5394392e+00
  4.5045581e-01
  2.1482090e-02
 -9.6484566e-01
  1.9858085e+00
 -5.7203764e-01
  3.2696208e-01
 -1.0722446e+00
 -1.0030798e+00
  6.0018128e-01
  4.2489200e+00
  7.3893005e-01
  5.4360038e-01
 -4.5040697e-02
  7.8449540e-02
 -2.6431034e+00
  1.8185931e+00
 -3.1032971e-01
 -2.5636883e+00
  1.7572591e+00
 -2.2968802e-01
 -4.9568915e+00
  1.6381746e-02
 -4.3582210e-01
 -7.1948957e-01
 -1.0461363e+00
  1.2062298e+00
  4.5918557e-01
  4.2838091e-01
 -4.4650361e-01
  6.1847590e-02
  1.7037453e-01
 -4.5234343e-01
 -3.6484796e-01
 -8.2840167e-02
  3.5538360e-02
 -5.9095576e-02
  7.0732869e-02
  2.5823048e-01
 -6.5475307e-02
 -2.6714709e-01
 -2.4881265e-01
 -5.6768820e-02
  5.3123331e-01
  2.4860147e-02
 -7.7125795e-02
  4.1565895e-02
  1.4351441e-01
  3.1087968e+00
 -2.0355730e-01
 -3.0879863e-02
 -2.2206408e-01
 -5.8620781e-01
  1.9315144e-02
 -5.6453061e-01
 -5.4809920e-02
 -2.8451222e-01
 -1.4679350e-01
 -1.5911721e-01
  6.0603819e+00
 -7.5966068e-02
 -5.1356214e-01
 -1.0070990e+00
  9.9678850e-01
 -2.5619289e-01
  6.2636837e-02
 -1.1375024e+00
  6.8760365e-02
  3.0518045e+00
  8.8141091e-02
  3.9233178e-01
  1.2215486e+00
 -2.8399691e-02
  5.1250577e-01
 -6.0324317e-01
  1.7426463e+00
 -1.0515060e-01
  3.7236872e-01
  1.9785842e+00
 -1.2744440e-01
  2.5535760e-02
  1.7038781e-02
  6.5574843e-01
 -1.9148701e+00
  6.6976482e-01
  6.1584103e-01
 -2.9646635e+00
  1.3714744e+00
  6.2688321e-01
  8.4118837e-01
  1.5149839e+00
  5.4029101e-01
  3.6311317e-02
  1.6355476e+00
  9.4772309e-01
  4.8074311e-01
  7.2441131e-01
  4.9707973e-01
  7.5013965e-01
 -5.7842106e-01
  2.4374554e+00
  1.2511303e+00
 -1.3068465e+00
  1.7997587e+00
 -3.6969155e-01
  2.5408480e-02
 -4.6926361e-01
 -1.7394028e+00
  8.9311469e-01
 -3.0058563e-01
  5.3474154e-02
 -6.5265095e-01
  4.1942531e-01
  7.4266627e-02
  1.6580735e-01
  1.5706311e-01
  3.1434479e-01
 -1.0096939e+00
  4.8376705e-02
 -2.5834885e-01
 -1.3206209e-01
  7.8928435e-01
 -4.8025241e-01
 -7.3753989e-01
 -1.6579600e-02
 -1.7759907e+00
 -6.5567470e-01
  3.7558213e-01
  1.5740876e+00
 -6.1633319e-02
 -2.2511858e-02
  3.3528128e-01
  8.3309573e-01
  2.5151122e-02
 -2.8537014e-01
 -1.5769967e-01
 -1.0947295e+00
  1.3910942e-01
 -5.1337112e-02
 -1.1847073e+00
  4.6965636e-02
  1.0105551e-02
 -2.9501381e+00
  4.2787932e-02
  1.0036602e+00
 -2.5825050e-02
  1.2749285e+00
 -1.9380216e-02
 -5.6845284e-01
 -4.4677725e-01
  2.9267175e+00
 -1.1552731e-02
 -3.2996394e-02
 -2.6352450e-02
 -3.8244665e-02
  9.9646544e-01
 -9.7410046e-02
  9.9184543e-01
 -1.0158040e-01
  1.7463213e-02
  2.7357787e-01
  1.6232871e-01
 -8.9709938e-02
 -1.0849142e-02
  2.7209293e-02
  9.0992399e-02
 -9.3261838e-02
 -6.3482769e-02
  1.1825611e-01
  2.3276307e-01
  1.4358310e-01
  3.0819213e-01
 -5.3856784e-01
  1.6856372e-02
  3.5133924e-02
 -3.6895655e-02
  6.0793471e-01
 -1.8200423e+00
  2.7588097e-02
 -4.0034723e-01
 -1.4843078e-01
  4.5359239e-02
 -7.2762519e-02
 -4.2507451e-02
  8.6189628e-02
  4.3407500e-02
 -3.2234412e-01
  1.1284981e-02
 -4.7206333e-01
  1.4154941e-01
  2.1351673e-01
 -2.4048801e-01
 -5.1922959e-01
 -3.1748060e-03
 -9.6572775e-01
 -1.9026750e-01
 -4.1593307e-01
  2.5824574e-01
 -2.5226228e+00
  5.6031194e-02
  4.0854150e-01
 -4.4269770e-01
 -3.5658870e-02
  2.3051304e-01
 -8.6678108e-03
 -3.2857154e-02
  4.7416314e-02
 -3.4276381e-01
  1.3658485e+00
  9.3950875e-02
  7.7394165e-02
  1.7007327e-01
  1.3636657e-02
  4.9842529e-02
  1.9992907e+00
  1.4671025e-01
  3.2906439e-02
 -7.4694864e-02
  2.5764104e-02
 -7.1483530e-04
  2.6146546e-02
  7.1637189e-01
  8.7552471e-03
  4.0760824e-01
  1.3601480e+00
 -1.7294914e-02
  2.9907878e-02
  1.3473617e-01
  4.7765259e-02
 -3.9701518e-02
 -3.8723108e-01
 -7.3268318e-01
 -1.1173414e-02
 -1.0381842e+00
 -7.9335809e-02
 -5.5812478e-01
  1.2192594e+00
 -3.2434049e-01
  1.6338147e-01
 -2.2100089e-01
 -1.6645585e-01
 -6.5397792e-02
 -2.8809402e-03
  3.7892975e-02
  1.1162680e-01
  4.7774658e-02
  6.6534512e-02
  2.5374889e-01
  6.6803955e-03
  1.5650383e-01
 -2.1440748e-02
 -8.9409567e-02
  7.2940521e-02
 -2.4613036e-01
 -5.0385084e-02
  3.4036404e-01
  3.7776327e-01
  1.7901814e-02
  1.4813569e-01
  1.7299002e-01
  9.7738169e-02
  5.5072259e-02
  7.1404047e-02
  6.8982631e-02
 -6.6543303e-02
 -1.2655100e-01
 -2.3167248e-01
  3.1311902e-01
  2.3123777e-01
  1.2835954e-01
  3.1417176e-02
 -2.5019754e-02
 -1.0354205e+00
  5.8874065e-01
 -1.2746948e+00
  7.3995364e-01
 -3.6073896e-01
 -1.6136702e+00
 -4.3445878e-02
  3.8147399e-01
 -5.5477601e-01
 -2.3964366e-01
 -1.1627790e-01
  1.4897814e-01
  1.9711399e+00
 -5.5954570e-01
  2.0683777e-01
 -1.1260922e+00
  1.5936498e-02
  9.5261025e-01
  1.3025241e-01
  8.7660187e-01
 -4.6041352e-01
 -5.0285918e-01
 -4.9887878e-01
  5.0306874e-03
  1.4418830e-01
 -4.3507200e-02
  3.5138816e-01
  2.3923817e+00
 -6.5858966e-01
  2.2659059e-01
  6.4124254e-04
 -7.9436427e-01
  1.2746471e+00
  3.0058150e+00
 -5.2046192e-01
  1.5539989e-01
 -1.3761799e-01
  3.4439471e-02
 -5.0448394e-01
 -1.2259674e-02
 -9.8341785e-02
  1.1801485e+00
  1.5106797e+00
  4.4823742e-01
  9.0375566e-01
  1.3398671e+00
 -6.7665935e-02
 -6.0950840e-01
  1.3231460e+00
  4.1179535e-01
  2.0606308e-01
 -1.0421135e+00
  6.1858624e-01
  1.6397463e-01
  1.6172971e+00
 -2.0886394e-01
  1.5391101e-02
 -7.8636295e-01
  1.0151210e+00
  2.5418460e-02
 -2.3819052e-01
  8.0046856e-01
  1.9224645e+00
  1.1520531e-01
  7.5850397e-01
  8.0859756e-01
 -5.0703454e-01
 -1.1972433e-01
  2.5097418e+00
  4.4881070e-01
 -4.9761057e-02
 -6.2697417e-01
 -4.7320056e-01
  1.5455130e-01
  1.0364070e-01
 -1.6472654e-02
 -1.3184957e-01
  1.5569099e+00
  4.5569113e-01
  3.8948555e-02
 -4.5423731e-01
 -7.5453717e-01
  2.5381470e-02
 -9.3689358e-01
  2.1991532e-01
  9.4407909e-03
 -9.5153421e-01
  5.4425672e-02
 -1.3833730e+00
  6.1109799e-01
 -3.1026380e-02
 -4.4483989e-01
  2.3662975e-01
  1.6658204e-02
  3.5565607e-02
  1.1920194e-01
 -6.3158162e-02
  4.7743272e-02
  8.2258505e-01
 -2.8821661e+00
 -2.8590554e-02
  4.8994964e-01
  4.3098520e-02
 -5.3849440e-02
  9.8495442e-01
 -4.4332881e-02
 -1.8844056e-01
  3.0257264e-02
  2.7485484e-01
 -2.5277357e+00
  9.6206969e-01
 -4.1674743e+00
  3.2874579e+00
  1.5870906e+00
  1.3933768e+00
  1.9933248e-01
 -2.7848497e-01
 -3.0611464e-01
 -2.5566752e+00
 -1.5834414e+00
  4.5886937e-01
  2.8698318e-02
 -1.7457925e+00
 -1.9067698e+00
  6.0557902e-01
  6.9926724e-02
  1.4129342e+00
 -1.3226259e+00
  9.5854777e-01
 -5.5331481e-01
 -9.8923403e-01
 -1.4568580e+00
  1.0273020e+00
 -3.0951071e-01
  3.7807901e+00
 -8.0875123e-01
 -1.1662177e-01
 -3.6904964e-01
 -1.2554966e+00
 -5.0099626e+00
 -2.6878133e+00
  7.1661942e-02
  1.0448399e+00
  1.0221381e+00
  2.1208482e+00
 -5.4372334e-01
  2.0487475e-01
 -8.9952961e-02
 -9.1609699e-01
  1.4389307e+00
  2.2912760e+00
  1.3759053e-01
  7.6956099e-01
  3.7176421e+00
  3.7550285e-02
 -6.5060341e-01
 -1.5634714e+00
  4.0104821e-01
 -2.1894875e-01
  4.9282390e-01
  2.9428283e-02
 -3.5022002e-01
 -1.7625374e+00
  2.0548314e-01
 -1.5612930e+00
  8.2641661e-01
 -3.0304521e-01
  1.5331705e+00
 -4.3634631e-04
 -1.3994716e-01
  3.9132759e-01
 -3.9755818e-01
 -8.3411759e-01
 -7.7448227e-03
  1.6733634e-01
 -3.8798100e-01
 -3.8701552e-01
  5.3496726e-02
 -1.7360460e+00
  7.8863746e-01
  4.6843212e-02
 -6.4861161e-01
 -2.7375190e+00
 -1.3494711e+00
  9.3017459e-01
 -8.0814876e-02
 -3.2867656e+00
 -3.1905849e-03
  3.4719923e+00
  4.0917061e-02
  5.2793431e-01
  2.7269828e-01
  7.4256174e-02
  1.0858024e+00
  5.2268970e-01
  9.4811559e-02
  7.4137285e-02
 -2.9433036e-01
  1.7622272e+00
 -2.7362871e-01
  4.1174769e-01
  1.6948438e-01
  5.4571159e-02
  3.1722564e-02
 -1.5189154e-01
 -4.9212754e-02
  1.6221870e-03
  3.5864809e-01
 -1.1671517e-01
 -4.9637067e-01
 -5.7431806e-02
  1.0603270e-01
 -1.4843257e-01
 -1.5029475e-01
  1.2090889e-01
  1.1337085e-02
  1.5141448e-01
 -7.2906762e-02
 -1.3248614e+00
  1.3989873e+00
 -2.8308624e-01
 -1.5470737e+00
 -3.1497192e-01
 -1.0473008e-01
 -6.2287070e-02
  6.4391887e-01
  2.9189748e-01
 -4.0977561e-01
  1.6576797e-01
 -8.8289945e-04
  1.5893248e+00
  4.2922243e-01
  1.9445110e-02
 -5.2327263e-01
 -3.3848467e-01
  4.0354691e-02
 -5.2213509e-02
  3.8961565e-01
  5.3054452e-01
 -9.5588970e-01
 -2.2028539e-01
 -3.9382746e+00
 -6.5961756e-02
 -4.0283060e-01
 -1.2240981e-02
 -3.2933544e-02
  4.8073649e-01
  1.0307235e+00
  1.9351557e-01
  4.1811392e-02
 -1.1835730e+00
 -1.2605724e-01
 -1.0477228e+00
 -6.2659949e-01
  9.6458741e-02
  1.2316627e-01
  2.0329468e-01
 -1.5699401e+00
 -4.4296365e-02
  2.2697739e-01
 -1.7244425e+00
 -4.0350921e-02
 -1.6262788e-01
  2.6271324e+00
  4.4108599e-02
  5.5866963e-01
 -9.8222576e-02
  4.9913174e-01
  1.4077872e+00
 -1.0869538e+00
 -1.4109045e-01
 -8.4317168e-03
 -6.5962628e-02
  3.4139627e-01
 -1.9987910e+00
  8.2017446e-01
 -4.6210778e-01
 -8.3542562e-01
 -2.3326963e-02
 -1.7972812e-01
 -1.2621673e-02
 -2.0134756e-01
  2.4198976e-01
 -6.7317754e-02
 -1.6959615e-01
  2.9408309e-01
 -2.0895766e-01
  1.4172246e-01
  1.3864423e-01
  1.1662837e+00
 -1.2030780e-02
 -8.5634005e-01
  8.8942908e-02
  1.2038470e-02
  3.3298683e-01
  1.9585440e-01
  1.3157821e-01
 -2.7749276e-02
  7.0864528e-01
  1.8815470e-01
 -2.5132669e-02
  3.4570137e-01
  1.5914263e-02
 -1.0285486e-01
 -1.2004853e-01
  2.7937839e-02
 -2.9064435e-01
 -2.5815375e-02
  3.9691370e-02
 -2.1774186e-02
  1.7156964e-02
  6.1145109e-01
 -4.2551957e-02
  6.0826313e-02
 -1.4419401e-01
  3.8577471e-02
  4.1331906e-02
 -5.1583904e-01
  1.8766558e-01
  1.4189800e+00
 -1.0423756e-01
  2.0045924e+00
  1.8469563e-01
 -3.9424993e-02
 -9.5166224e-01
  1.0458010e-01
  8.0467415e-01
 -6.7013855e+00
  8.5316343e+00
  3.4615469e+00
  1.1137874e-01
 -3.6123736e+00
 -5.2360468e+00
  5.1908245e+00
  2.0242076e+00
  1.2510161e+00
  1.7206322e-01
  6.9828397e-01
  4.7290966e-01
 -9.8964018e-01
 -6.7027532e-02
 -2.8455389e+00
 -7.7901435e-01
  6.2201109e-02
 -1.2147319e+00
  1.2733438e+00
  1.6830470e-01
  2.3659423e-01
 -1.2147729e-01
  3.5237296e+00
  2.4850123e+00
  2.0968157e-01
  1.2470058e-01
 -3.1840229e-01
 -1.9163215e+00
 -3.3006901e-01
 -1.4948326e+00
  2.2927094e+00
  1.3491942e-01
  1.6060624e+00
 -8.3332844e-02
  6.5232301e-01
  6.3189119e-01
  1.2410619e+00
 -2.5870640e+00
  5.7750469e-01
  2.1142440e+00
 -1.1525191e-01
  6.2454980e-02
 -2.0275118e+00
 -2.5182154e+00
 -9.2990287e-03
 -1.4283736e-01
  1.8296572e+00
  2.1447735e-01
  1.1873439e-01
 -6.3423508e-01
 -1.9853160e-01
  2.5199652e-01
 -5.9793249e-02
  1.4598570e+00
 -1.3865782e+00
 -1.9196361e+00
 -5.1625257e+00
  9.2393495e-02
  8.8327718e-01
  8.0098695e-01
  7.4428785e-01
  4.6616292e-01
 -7.0875859e-01
 -2.3225905e-01
 -1.5841610e+00
 -7.6102912e-02
 -1.8538162e+00
 -6.5507188e-02
 -9.4141918e-01
 -1.4717321e+00
  1.4211920e+00
 -6.2732816e-01
 -1.2018134e-01
  1.0807873e-01
 -9.1121399e-01
 -1.0354204e+00
 -1.4538122e-03
  4.7968931e-02
 -7.2821029e-02
  7.0414335e-02
  1.9046880e-01
  2.8811067e-02
 -1.7754139e-02
  5.9959974e-02
  2.2277493e-02
  7.5986013e-02
  1.4747292e-01
  5.9588946e-02
 -2.1370312e-02
 -1.2406496e-01
 -3.8779238e-01
 -2.7375418e-01
 -7.7211565e-01
  6.4524770e-02
  2.3387571e-01
  1.2116169e-01
 -8.1332214e-02
 -7.1496777e-02
 -1.4422878e-02
 -1.4227605e-01
 -4.3915417e-03
 -2.0048793e-01
 -1.0780606e-01
  1.8316299e-01
  6.2995628e-02
  1.1660908e+00
  3.4422083e+00
 -8.1983018e-01
 -1.3853388e+00
 -9.8866516e-01
  1.0810636e-01
  1.4216385e+00
  1.5914050e+00
  2.0043247e+00
 -2.8414565e-01
  7.2286296e-01
  3.9046779e-03
  9.9668103e-01
 -3.1184715e-01
  2.8558078e-01
  9.6829510e-01
 -1.5337664e+00
 -1.0639964e+00
 -2.6786923e+00
 -2.2633146e-03
 -5.9914362e-02
 -9.3057737e-02
 -5.7221788e-01
 -3.5285780e-01
  3.6502102e-01
  1.8387251e+00
  1.3994652e+00
 -3.1730814e+00
  2.2198265e+00
 -3.1201658e+00
 -2.9636351e-02
  7.6615028e-02
  2.6762351e-01
  1.0144786e+00
 -1.3464426e+00
  1.8251464e-01
  4.4259079e-02
 -9.7870523e-01
  4.5461148e-02
  6.5747118e-01
  8.4982890e-01
  5.7934451e-01
  4.4242159e-01
 -3.4377885e-01
 -6.8060704e-02
  8.2811999e-01
  3.3519283e-01
  1.5896109e-01
 -9.7739363e-01
 -1.0791533e+00
 -5.0756896e-01
 -8.4400177e-01
  4.7366205e-01
  1.4228604e+00
  4.7631811e-02
  9.5088553e-01
 -1.8454087e-01
  1.3581458e+00
  4.9019420e-01
 -4.6668953e-01
 -3.4653130e+00
 -8.6925310e-01
 -2.0375918e-01
  4.0655658e-01
  5.0536200e-02
  1.7539268e+00
  2.1202438e+00
 -3.3026639e-01
 -1.4916033e-01
 -8.8471919e-02
  8.1880975e-01
  1.1828843e+00
  2.5497861e+00
 -2.4327027e-02
  2.0466730e-02
  2.2846186e+00
  2.6917467e-02
  1.8417369e+00
 -1.9520987e-02
 -1.4788540e-01
 -2.1633682e+00
  1.0681290e-01
  1.7606448e-01
 -3.4103650e-01
  1.2183105e-01
 -4.5407914e-02
  1.8549465e-01
 -4.0199149e-02
 -3.7187889e-01
 -3.9979003e-02
 -2.0577291e-01
  1.0937990e-01
  1.2152600e+00
  9.4632760e-02
 -9.6675701e-02
 -1.5892687e-01
 -1.8114392e+00
 -4.6356896e-01
 -6.5113574e-01
 -4.7139999e-01
  6.7819858e-01
 -9.9997145e-01
 -5.7343218e-02
  2.0607188e-01
  1.6872273e-01
 -4.0554445e-02
 -5.6894771e-03
  5.9339769e-02
  2.5051516e-01
 -1.2913583e-01
  4.9530242e-02
 -1.3058775e-02
  3.1840116e-02
 -7.1325816e-02
 -1.1738162e-01
  1.9163966e-01
 -4.9566850e-02
 -2.1758358e-01
 -6.7666543e-01
 -5.0313450e-02
  1.3498911e-01
 -2.9129684e-02
 -3.3899009e-01
  5.9941953e-01
 -1.5054533e-01
 -1.6283607e-01
  6.5302387e-02
 -1.2040036e-01
 -3.7008482e-03
 -5.6872357e-02
  2.6215363e+00
 -5.8042165e-02
  1.0433134e-01
 -3.5307199e-02
 -1.5263152e-01
 -9.7748600e-02
 -2.1828802e-01
  3.5641175e-02
 -1.9710302e-02
  1.0214610e-01
 -8.6381972e-02
  1.1005018e-02
  4.2915136e-01
  9.2928141e-02
 -7.4351877e-02
 -2.7768475e-01
  7.1793079e-02
 -9.9210717e-02
 -9.8384626e-02
 -3.4082592e-01
 -4.2987303e-03
 -9.7200885e-02
  2.5582540e-01
 -2.5418290e-01
 -5.8879007e-02
  1.3248216e-01
 -2.2422287e-01
  5.6287926e-01
 -7.0146298e-01
 -1.5084104e-01
 -1.4375363e-01
  2.2843900e-01
  8.5165106e-02
 -2.8473619e-01
  6.6234819e-03
  3.6189850e-02
  1.1120700e-02
 -7.4128143e-02
 -1.3643081e-01
  1.1759871e-02
 -3.0024409e-01
  8.3298944e-02
  7.3000276e-03
 -1.8640468e-01
  4.5192175e-02
 -1.8512867e-02
  7.2119660e+00
 -1.7478400e-01
 -4.5100841e-01
  1.0613449e-01
  7.0056938e-02
 -6.1647898e-01
  7.2498438e-03
 -3.1418927e-02
  8.2694478e-02
  1.6845239e-02
  1.0963790e-02
  1.5402201e-01
 -2.6703155e-02
  2.3201950e-02
  1.3147545e-01
  3.4279433e-01
 -2.4554728e-01
 -2.1857317e-01
 -2.8952646e-01
  1.6880070e-01
 -1.3783008e-01
 -2.5252396e-01
 -4.1205548e-02
  9.7953137e-03
  6.4126842e-02
 -4.5418777e-02
  2.2351953e-01
  1.2338147e-02
 -1.4137480e-01
 -2.6177801e-03
 -5.4573469e-02
  2.5076860e-01
  1.0825205e-01
 -9.9991672e-02
  3.5316578e-01
 -1.6605324e-01
 -1.7489123e+00
 -3.0505197e-02
 -3.0467677e+00
 -7.9924577e-01
 -2.4564645e+00
 -2.0608697e+00
 -1.2967006e+00
  5.8634415e+00
  1.9408278e+00
 -7.2968850e+00
 -1.9081837e+00
  1.3322866e-01
  6.2458408e-01
  2.2191873e+00
  5.1666365e+00
 -2.0456169e+00
  1.5811996e+00
  2.2461623e-01
 -7.1273100e-01
  1.2371828e-01
  9.2046416e-01
  2.3579843e-01
 -9.1396528e-01
 -1.9787819e+00
 -2.7190758e-02
 -6.7119603e+00
  5.8596289e-01
  4.1734500e+00
  2.3998709e+00
 -8.7065794e-02
  2.6268895e+00
 -1.1423699e+00
  2.5891294e+00
  4.2875484e-01
  1.7093806e+00
 -1.2632458e+00
 -5.1230335e-01
 -1.3364800e+00
  2.1627770e-01
 -3.8836958e+00
 -6.2847867e+00
  2.7709579e-01
  2.1971021e+00
 -7.5494695e-01
 -1.0190362e+00
 -6.5563178e-01
  2.5524682e-01
 -6.6495068e-02
  7.0007569e-01
  9.8116374e-01
  2.4187799e+00
  8.1217587e-01
 -4.4030127e-01
  1.3316711e+00
 -2.1173730e+00
 -2.3614409e+00
 -9.0502357e-01
 -4.1525492e-01
  2.4880419e+00
 -3.2835233e-01
  3.9242029e-02
  4.2380574e-01
  1.6859974e-01
 -1.2219235e-01
 -1.8733069e+00
 -8.7449616e-01
 -8.8553870e-01
 -1.8648283e+00
  3.8264450e-01
  5.6641757e-01
 -2.8326136e-01
  1.8307446e+00
 -2.0264277e+00
  8.0913174e-01
  2.3481860e+00
  1.9508128e+00
 -3.4606865e-01
 -1.7218736e+00
  2.5995049e+00
 -3.8510215e+00
 -2.1033063e+00
  3.4907943e-01
 -1.1418611e-01
  4.3877892e-02
  7.4961847e-01
  2.6122931e-01
 -1.9355880e-01
 -7.9939109e-01
 -2.2869768e+00
  3.1071758e-01
  1.5091400e-01
 -2.1109898e+00
 -9.3845606e-01
  2.4482471e-01
 -2.6699030e-01
 -7.5910322e-02
  4.3382218e-01
 -1.3450881e-02
  3.1410199e-01
  2.5431752e-01
 -6.4612322e-02
 -4.6029489e-02
 -3.3256285e-02
 -2.0373635e-02
 -3.2615647e-04
  1.3656816e-01
  1.1531847e-02
  1.9547113e-03
 -1.1432676e+00
 -1.4226376e+00
  1.0172254e+00
  6.1240506e-01
  1.6193333e+00
 -8.1570834e-02
  2.8718385e-01
  9.2761642e-01
 -3.9550095e+00
 -4.2130122e+00
 -2.6601152e+00
 -1.0994535e-01
 -5.8167791e-01
  1.2776414e+00
  1.3824406e-01
  1.3635695e+00
  1.8457757e-01
  2.9570842e+00
  1.3587741e+00
 -8.8416302e-01
  1.3358413e+00
 -1.5764816e+00
 -2.4465709e+00
 -1.9783421e+00
  2.6380277e-01
  7.4059755e-01
 -2.1122546e+00
  5.7647228e-01
 -1.8585602e-02
 -1.0554070e+00
 -1.2677802e+00
  9.4988960e-01
  2.9006307e+00
 -7.2152537e-01
  3.0176800e-01
 -2.9660006e+00
 -1.6864774e+00
  1.3108209e+00
  6.6982907e-01
 -1.4654104e+00
 -1.5763583e+00
  2.8641264e+00
  5.3247731e-02
  5.9885449e+00
  9.1047531e-01
 -3.4254482e+00
 -2.8458464e+00
  2.8915775e-01
  1.8270871e-01
 -1.0383452e+00
  2.5902989e+00
  1.6002946e+00
 -7.7463394e-01
 -1.4154351e-02
 -1.7303003e+00
  1.2623743e-02
 -2.5797281e+00
  5.7607632e+00
 -8.5299723e-03
  1.9220928e+00
  7.8148103e-01
  6.2937754e-01
  4.8685178e-01
  3.9280638e-02
  2.4085574e+00
  3.6330347e+00
  1.2062715e+00
 -3.4502378e+00
 -1.3939459e+00
 -2.0768005e-01
  1.3413596e+00
  5.2437901e-01
 -3.0268197e+00
  2.7692709e+00
  5.6442297e-01
 -2.8756795e+00
  4.6329383e-02
 -1.3964802e-02
 -4.6319909e+00
 -6.9543111e-01
 -2.7020471e-02
  2.2039974e-01
 -1.6678311e-01
 -2.9697157e-03
 -1.7132270e+00
 -2.3396741e-01
 -8.5301733e-01
 -3.3636277e+00
 -1.0941691e-01
 -4.5573127e-01
 -7.8305200e-02
  3.4812281e-03
 -7.9822652e-02
 -4.5674050e-01
 -2.4990648e-01
 -8.0153555e-01
  3.6261559e-01
 -1.3685054e-01
  9.0985462e-02
  3.0197768e-02
  1.5500887e-02
 -1.5281987e-01
  2.7765401e-02
 -5.6995716e-02
  9.0188198e-03
  1.5770969e-01
 -9.8647928e-01
  6.3439623e-02
 -1.3028592e-02
 -5.0897999e+00
 -5.8801603e-02
  1.2782295e-01
 -1.4314219e-01
  5.3647894e-01
 -3.0773289e+00
 -3.9994875e-01
 -2.1342914e+00
  2.8633264e-01
  3.6502916e-01
 -1.4706506e-02
  2.4420498e-01
 -2.0761676e+00
 -1.7700221e-01
  1.2381706e-01
  8.2561150e-02
  1.4110887e+00
 -2.0409314e-01
 -1.2113355e+00
  5.3770816e-01
 -1.7624656e+00
 -1.0151088e+00
 -2.6155069e+00
 -3.5952997e-01
 -1.2112471e-03
  2.6110940e+00
 -3.0032969e+00
 -1.1856213e+00
 -1.0354575e+00
 -2.2130597e-01
  2.1674809e+00
 -3.0202585e-01
  5.8107805e-02
 -2.6957052e+00
  1.2324420e+00
 -1.8592167e+00
 -6.4064145e-01
  5.4067675e-02
 -2.4491098e+00
 -9.9509478e-01
 -8.7637439e-02
 -3.0909124e-01
 -1.7832364e-01
 -8.7105250e-01
  3.8265082e-01
 -1.6187137e-01
 -3.4382886e-01
  3.3085313e-01
  9.4715254e-03
  3.1533778e+00
 -2.3625569e+00
  6.1178511e-01
 -9.4551122e-01
  1.2054142e+00
  1.4828357e-01
  9.2400157e-01
  6.7016393e-01
  7.4374413e-01
 -6.6273773e-01
 -3.4656289e-01
  9.3980867e-01
 -2.1300184e-02
  2.1142032e+00
 -1.9219606e-01
  1.8052366e-01
 -2.4670982e-01
  4.7694868e-01
 -1.0243019e-01
  1.6798055e-02
  1.4424822e+00
  4.7921002e-01
 -5.9926253e-02
 -1.9686604e-01
  3.5991275e-01
  2.1772182e-01
  9.0201151e-01
 -3.0401371e+00
 -4.7410145e-02
  1.8872501e-01
 -2.9037569e-02
 -4.2489979e-01
  2.3614179e-02
  2.7224961e-01
  4.2664689e-01
 -2.9012609e-01
  6.5815993e-02
  1.5091393e+00
 -1.8525733e-01
  2.5432903e-01
 -3.6688421e-02
 -1.4170587e+00
 -4.2349543e-02
 -1.3276370e-01
  2.5597343e+00
 -9.3213737e-02
 -1.1564966e-01
 -4.0538430e-01
  4.9044099e-02
 -9.7294584e-02
 -5.0948016e-02
  5.7861049e-02
 -8.0913961e-02
 -6.7849942e-02
  3.0572682e-03
 -9.4247621e-01
  1.3339800e-01
 -1.8273035e-01
  8.2866323e-01
  2.2981463e-01
 -8.1153655e-01
  2.6207200e-01
  1.0463885e-01
 -1.2356197e-01
 -1.6782664e-02
  7.9513443e-01
 -5.4835010e-02
  1.0565171e-02
  4.4545388e-01
  3.7174946e-01
  2.4230598e-02
  2.0452085e-01
  2.2247609e-01
  1.7011440e+00
 -1.8468964e-01
  4.8524615e-01
  2.2600469e-01
  1.1268474e+00
  1.7675060e-01
  5.4757446e-02
 -6.0770667e-01
 -6.5348148e-01
 -9.7343966e-02
 -1.6422369e-01
 -8.1752354e-01
 -3.7227504e-02
 -8.1167185e-01
  1.7931286e-02
  3.6739786e-03
 -1.8875886e-02
 -1.1971656e+00
  2.5544524e-01
  6.3412726e-02
 -1.2683769e-01
  8.7521203e-02
 -9.1926709e-02
 -1.7366260e+00
  4.2071375e-01
 -3.5929841e-01
 -3.3331312e-02
 -1.0065941e-01
  5.2931511e-01
 -4.5426947e-01
 -5.5233616e-01
  7.6558940e-02
 -3.7521414e-02
 -1.4159814e-01
 -2.2678459e-01
  2.4419112e-02
  1.6245600e+00
 -2.3567171e-01
  1.0849445e-01
 -2.5208020e-01
  4.4572983e-02
 -1.3420941e-01
 -5.1217079e-01
 -1.6690284e-01
 -1.1798229e+00
 -1.4208133e+00
 -5.4562263e-02
 -1.4633470e+00
 -5.3328401e-01
  5.3638220e-01
 -1.4731315e-01
  8.9981899e-02
 -2.5793102e-01
  5.6760448e-01
 -1.5925950e-01
  1.1273441e+00
 -5.3734656e-02
  1.1357840e-01
  2.6373379e+00
  9.9598177e-02
  7.5881429e-02
 -3.4692407e-02
 -5.4397807e-02
 -3.8905159e-02
 -3.2838443e-01
 -9.1582045e-02
 -1.3334960e-01
  2.2549650e-01
  5.4804280e-02
 -3.4399197e-01
  1.7788924e-02
  8.8192485e-02
  1.0018453e-01
  3.2601368e-02
  8.8841850e-01
 -1.4392198e+00
  2.3710246e-01
  3.2484889e-01
  7.3245078e-02
  5.8501111e-03
  4.8057701e-02
 -1.0328128e-03
 -1.4580792e-01
  1.0107682e+00
  5.5968367e-02
 -2.2098821e-01
  6.0135108e-01
 -1.4796716e-01
 -9.4264507e-02
  5.9432656e-01
 -3.2014883e+00
 -3.4861515e+00
 -4.2986021e+00
 -1.1446091e-01
  2.2980196e+00
  5.5162206e-02
  1.5333574e+00
  2.6289535e+00
  9.1830087e-01
  3.5135230e-01
 -7.3914325e-01
  2.7342495e-01
 -1.5050958e+00
 -1.1040096e+00
 -6.5033269e-01
 -2.0963695e+00
 -3.0063548e+00
  2.6302159e+00
 -2.5222570e-01
  2.9688338e-02
 -1.9860620e+00
 -9.7921640e-01
 -5.9157556e-01
  2.9666431e-02
  1.0904247e+00
 -1.2286019e+00
  6.2790120e-01
 -2.0759780e+00
  1.3453971e-01
 -4.6552534e+00
  9.7812557e-01
  1.1960604e-01
 -1.2787300e+00
  9.3234068e-01
 -3.1319380e-02
  3.2316778e+00
  1.7226321e-01
  8.1776059e-04
  2.9247338e-01
 -4.9855387e-01
 -1.3995374e+00
 -1.3105953e+00
  1.4344485e+00
 -2.8023298e+00
  5.5201226e-01
  1.5678971e+00
  2.4385331e+00
 -1.5429087e+00
  1.4844199e+00
  2.4687443e+00
 -1.6279027e+00
 -4.9184093e+00
 -7.6911932e-01
 -1.7596374e+00
 -2.2317390e+00
 -6.4546657e-01
 -1.0387014e+00
  1.0435681e+00
 -1.6307216e+00
 -9.1864318e-01
  1.3776611e-02
  5.2054841e-03
 -6.6523361e-01
  1.5619400e+00
  1.0439429e+00
  4.1749578e-02
  1.3139788e+00
  7.4485296e-01
 -8.0998313e-01
 -1.7548342e+00
 -6.0393459e-01
  8.5777390e-01
  1.2468011e+00
 -2.6582164e-01
 -2.8824446e+00
  1.5401985e-01
 -4.8516473e-01
 -6.1231536e-01
  1.3620706e+00
  9.2006043e-02
  2.1464336e-01
 -1.1127013e+00
 -1.6745093e-01
  1.7481543e-02
 -2.3875768e-01
  1.2231872e-02
 -2.5878273e-02
  4.3749756e-01
  1.1505888e+00
  3.8683970e-02
  2.6670430e-02
 -1.1232305e-01
  8.0601849e-02
 -1.3451453e-02
 -1.2591383e+00
 -1.4410998e-01
  2.0833356e-02
 -2.7077818e-01
 -1.5863748e-01
 -5.9432399e-02
  1.1542111e-01
  3.4824654e-02
  3.0904761e-01
 -1.5950933e+00
  6.8144774e-01
  8.5522957e-02
  1.9706687e-01
  4.4293758e-03
 -1.1498076e-01
  3.8345265e-01
  9.5109843e-02
  2.8776276e-01
  2.5369090e-01
  5.2886671e-01
  7.6373510e-02
 -7.2652102e-02
  1.2502007e+00
  8.4227353e-02
  1.4395778e-01
  2.1211598e-02
 -7.2230607e-02
 -1.0576512e+00
 -1.9425986e-02
  2.9106465e-01
  1.9367532e-01
 -1.0105765e-01
  2.7290350e-01
 -3.0965836e+00
  1.0667427e-02
 -4.3672764e-01
 -1.7905836e-01
 -3.2820642e-01
  4.5759838e-02
 -2.3635970e-01
 -5.3934956e-01
 -1.7152091e-02
  6.9113769e-02
  7.6133855e-02
  6.1524104e-02
 -2.3700420e-02
  8.4213279e-03
 -2.1978735e-03
  4.5160487e-01
  3.9528140e-01
 -1.5005520e-01
 -2.6498014e-01
 -2.1584611e-01
  2.2580104e+00
  5.0088161e-01
  1.5430428e-02
 -6.5234922e-02
 -9.3790472e-02
  1.6354740e-02
 -9.3652442e-02
 -3.2940456e-01
  9.0451634e-01
  7.6434314e-02
  1.2189652e-01
 -4.6954343e-01
 -3.8387218e-01
  2.4512987e+00
  7.0592254e-02
  1.7043808e-01
 -7.4974763e-01
  2.4933416e-01
 -8.4541567e-02
  1.7906317e-01
 -1.7405185e-01
  4.4958416e-02
  1.4825954e-01
 -6.5416522e-02
 -2.5782678e-02
  4.9501818e-01
 -1.4972162e-01
  7.1638817e-01
 -1.3137315e-02
 -1.4611994e-01
  8.5744366e-02
  3.8414657e-01
  1.3833894e-01
 -3.2004073e-02
  1.1699633e-01
 -2.2668277e-01
 -2.4444824e-01
  8.5274316e-02
 -2.3104845e-02
  9.6312933e-02
  1.1585011e-01
 -8.8146202e-02
 -6.8357354e-03
 -1.2012664e-01
  1.5213652e-01
 -5.4735318e-03
 -1.2899064e+00
  2.9090565e-02
 -2.1130438e-01
  8.8367629e-01
 -2.2758534e+00
 -2.4905810e-01
  2.5631759e-01
  1.5485972e-01
  3.6946569e-02
  3.8848388e-01
 -5.0115082e-02
  2.0677915e-01
  2.1212138e-03
  1.2117920e-02
  4.3136869e-02
  8.3507454e-01
  1.2826489e-01
  1.1187299e-01
  7.3331177e-01
  1.5691705e-02
 -4.9288812e-01
  8.1206566e-01
 -9.9991870e-01
 -2.1533184e+00
  4.5309973e+00
 -2.0056305e+00
 -5.3546363e-01
  3.3246171e-01
  1.5410661e+00
  2.8030839e+00
 -3.1613615e-01
  8.1600916e-01
 -2.2109303e-01
 -7.8456439e-02
  1.3082211e+00
 -1.8948741e+00
  4.8429713e-01
  1.9865003e-01
 -2.6270521e+00
  2.9870111e-03
  1.1098482e-01
 -2.5454123e-02
 -2.1007836e-01
  8.3996642e-01
 -2.0378761e+00
  3.7992221e-01
  9.2121893e-01
 -1.2379225e+00
  2.5514560e+00
 -4.0998992e-02
 -3.5685177e+00
 -5.7461947e-01
  1.4608987e-01
 -1.1577710e+00
 -1.4233092e+00
 -6.0086095e-01
 -1.4742485e+00
 -1.8106817e-01
  9.3427652e-01
  1.8411897e-01
  5.8274049e-02
  9.4119209e-01
 -4.5545977e-02
 -6.9092566e-01
 -1.0909623e-01
  4.8593611e-01
  1.7278180e+00
 -1.3600107e+00
 -3.4539783e-01
  1.3141519e-01
 -1.0301869e-01
 -2.4007630e-01
 -3.4962165e-01
 -1.4423302e-01
  3.8924359e-02
 -6.3727427e-01
 -1.6035928e+00
 -1.7255412e+00
 -2.9032619e+00
 -9.7783811e-02
  3.1415164e-01
 -1.4823649e+00
  2.4503322e+00
 -1.6515855e+00
 -6.5934181e-02
 -3.5771623e-01
 -7.3087618e-02
 -1.6080278e+00
 -1.0145315e+00
  4.1238874e-01
  1.5351939e-01
 -5.4247534e-01
  3.5428765e-01
 -1.5947802e+00
  1.2145162e-01
 -5.0907230e-01
  1.1562791e-02
 -5.6772955e-02
  4.5934498e-01
  9.9829823e-01
 -3.2929641e-01
 -1.2895329e-01
 -1.1394131e-02
 -2.7323103e-02
  6.3973254e-01
 -2.2976389e-02
 -5.6042266e-01
 -1.0478288e-01
 -1.4653510e-01
 -4.2177913e-01
  1.6724618e-01
 -4.0811729e-03
  4.0292285e-02
  7.3652372e-02
 -1.7465924e-01
 -4.6268803e-01
 -9.5273130e-02
 -2.9272916e-02
  5.2878731e-01
 -8.5885294e-02
  8.7817185e-02
  3.1575710e-02
 -1.6516352e+00
 -4.1916139e-02
  3.5367501e-01
 -2.4467541e-02
  3.3439308e-01
  3.2753550e-02
  4.5123935e+00
  3.9017084e-01
  6.2810361e-01
  7.3101781e-02
 -9.9639103e-02
  5.2097820e-02
 -7.9094805e-02
 -1.1563065e+00
 -2.4282552e-01
 -7.9452628e-01
  6.1392799e-02
  9.9828467e-02
  1.5187710e-02
  8.0447686e-01
  3.0117473e-01
  5.7155907e-02
  1.3065663e-01
 -8.3006203e-02
 -3.0366945e-01
  1.3758978e-01
  6.4258641e-01
  3.9881888e-01
 -2.7253038e-01
  8.2730748e-02
 -4.5214236e-01
 -6.8062082e-02
  6.4910904e-02
  3.4742716e-01
  1.1201090e-01
  2.8980246e-01
 -1.4232920e-02
 -2.8173757e-01
 -1.0263637e+00
  7.5784996e-03
  3.6747797e+00
 -6.0572386e-02
 -1.6355908e-02
  9.0067618e-02
 -1.1688436e-01
  1.7868756e-01
 -2.0526409e-01
 -1.3314631e+00
  1.2811358e-01
  1.1088010e-01
 -4.9478084e-02
 -2.1889780e-01
 -6.9472194e-01
 -1.9666725e-01
 -5.2777510e-02
  1.1979198e-01
  7.9199910e-02
 -4.8402527e-01
  3.0673061e-02
 -9.7668841e-03
 -1.2381726e-01
 -9.3173903e-01
 -2.8548586e-01
  7.8645991e-03
  3.7145510e-02
 -1.2687895e+00
 -4.3803610e-02
  6.9746381e-01
  7.9909777e-03
 -3.6962265e-01
 -1.5667149e-01
 -5.8768058e-01
 -3.1270298e-01
 -1.7788854e-01
  5.2933618e-02
  4.4329137e-02
  2.0858295e-02
  1.4570700e-01
 -3.6839721e-01
 -5.4896411e-02
  2.9750362e-01
 -3.5519209e-02
 -2.5787091e-01
  3.0353695e-02
 -9.4390690e-01
 -8.7996691e-02
 -5.4141255e-03
  3.1782353e-01
 -8.6268139e-01
  8.5336693e-02
  4.6343568e-01
  2.8109977e-01
  2.2211020e-01
 -1.5350890e-01
 -1.4885141e-01
  8.0311611e-02
 -7.8853354e-02
  2.9215114e-02
 -3.2385044e-02
 -2.2207899e-01
 -1.8920513e+00
 -3.3249881e-02
 -1.2788251e-01
 -2.8840759e-01
  1.4016946e-01
  1.0227720e-01
  3.4885064e-01
  1.4208379e-01
 -5.7100646e-02
 -9.6307015e-01
  5.7133865e-02
 -9.3976390e-01
 -9.1333292e-02
 -4.2620319e-01
  1.5656785e+00
  6.8371153e-01
  5.4797167e-01
  1.6195762e-01
 -1.1527884e+00
  7.4255630e-02
 -2.6102531e+00
  2.9698110e-01
 -1.0774475e+00
 -1.8563230e+00
  3.5467198e-01
 -3.6556160e-01
 -1.8545645e+00
 -2.5820835e+00
 -5.4123360e-01
 -4.5730814e-01
 -3.5294431e-01
  1.4152771e-01
 -2.0105934e+00
  3.4657505e-01
  2.2292553e-01
 -1.4377527e+00
  3.7109244e-01
  8.5738468e-01
 -1.3883983e+00
 -2.1645796e-01
  8.8688135e-02
 -8.6806029e-01
 -1.4354627e+00
  4.9437580e-01
 -1.3545759e-01
  8.4655833e-01
  2.5492927e-01
  5.2554041e-02
 -6.6903001e-01
 -2.3600926e-01
  5.0977850e-01
 -6.9384784e-01
  6.1832595e-01
  1.7605050e+00
 -3.9534479e-01
  1.3326402e+00
 -9.1339260e-01
 -5.5968076e-01
  1.6631833e+00
  1.9314139e+00
 -1.4157449e-02
 -2.6862702e+00
 -2.9883480e+00
  3.1522270e-02
  1.2949653e+00
  5.5261207e-01
  2.7438769e-01
 -1.1192067e-01
  1.5730861e+00
  3.2425591e-01
 -6.7524868e-01
  1.3648847e-01
 -1.3139510e+00
 -2.9248849e-01
  1.4757380e+00
 -1.4871682e+00
 -7.2498655e-01
  7.7932127e-02
 -2.7897058e-02
 -3.0925888e-01
 -1.6422887e+00
  5.8871430e-01
 -5.2734811e-02
  7.0605457e-01
  1.0325211e-01
 -5.1130694e-01
 -9.6000475e-01
  3.1400368e+00
 -4.5502415e-01
  9.4797236e-01
  2.5120992e-02
  3.8529986e-01
  1.6168112e-01
 -1.4452473e-02
  2.1707373e+00
 -4.3299255e-01
  6.8896890e-02
 -7.2586820e-02
 -2.8780570e-02
  1.0361005e-02
  1.5204917e-01
 -3.5838213e+00
  1.2355424e-01
  3.8850659e-01
 -1.4924502e-02
 -3.8869214e-01
 -2.8961008e-02
  7.3561221e-01
  1.4992338e-01
  9.8922551e-02
  9.0354808e-02
  1.1829219e-01
  2.3378971e+00
  2.2106055e-02
 -3.1461733e-04
 -8.7979868e-02
  1.8361799e-01
 -5.3671527e-01
 -1.1410517e-01
 -7.2336555e-01
 -4.4630149e-01
 -2.0082328e+00
 -3.0932429e+00
 -1.6299747e+00
  6.8657881e-01
  1.4405974e+00
  2.3923757e+00
  6.1754143e-01
 -7.7548838e-01
 -2.3231471e+00
 -7.3010099e-01
 -1.7694077e+00
  1.3290325e+00
  4.4121838e+00
 -3.5396290e-01
  1.1968181e-01
  4.1196364e-01
 -6.5822756e-01
 -2.8005065e-02
 -1.7726269e+00
  5.9296727e-01
  1.7601216e+00
  5.2717525e-01
 -3.5461798e-01
 -1.9454551e+00
  5.5646640e-01
  5.1378723e-02
 -3.9376998e-01
 -9.3969756e-01
  3.7293765e-01
 -2.8350925e+00
  9.5858800e-01
  1.0532755e+00
  2.3008437e-01
 -4.7830630e-02
  1.0743817e+00
 -1.6534823e-01
 -1.1837050e+00
  1.3281794e+00
 -8.0214724e-02
  3.4977994e+00
  3.2214170e+00
 -3.1173871e+00
 -2.0616772e+00
 -4.8929393e-02
 -9.0629834e-01
  1.1829230e+00
  5.8964148e-02
 -9.6233028e-01
  1.5209556e+00
 -2.2614238e-01
 -1.3535877e-01
 -6.3506201e-02
  2.9682331e+00
 -1.9895379e-01
 -9.2823613e-01
 -5.2432436e-01
  1.6510738e+00
  4.0812415e-01
  4.7193054e-02
 -9.2255872e-01
 -7.2624177e-02
 -1.6667376e-01
  7.0164216e-01
  6.5809417e-01
 -4.0808043e-01
 -1.1179368e+00
 -3.0496854e-01
  9.8881227e-01
 -4.8819384e-01
  6.6633388e-02
  5.8072075e-02
 -1.6374199e+00
  1.4697534e+00
 -1.0507119e-01
 -6.5878909e-03
 -1.1334462e-02
  4.3638015e-01
  2.4090283e+00
 -8.2002550e-02
 -2.8793266e-01
  5.0525054e-02
  2.1228898e-01
  1.0628283e-01
 -6.6921371e-01
  6.5682572e-01
 -5.3303033e-01
  1.7056741e-01
  2.5802438e+00
  3.6267087e-02
 -3.0965695e-02
  1.8252084e-02
 -3.4503528e-01
  9.2759514e-03
 -1.8111169e-01
 -3.1751610e-02
  9.1077313e-02
 -1.2205932e-01
  2.4004166e-01
  3.7441427e-01
  1.9323674e+00
 -1.8494809e-02
  5.4686815e-01
  1.5817699e-01
  1.0719781e+00
 -6.5939995e-03
  4.5740047e-01
 -4.0253663e+00
 -1.4302032e+00
 -1.5070297e+00
 -7.5792962e-01
 -1.1586105e+00
  3.2670131e-01
  1.0783582e+00
  1.2359700e+00
 -2.3676684e+00
 -9.2715102e-01
  1.4532079e+00
 -1.1153357e+00
 -7.8088336e-02
 -3.0282298e-01
  3.2271546e-01
 -7.5921573e-02
  2.2534330e+00
 -5.7201218e-02
  1.6494427e+00
 -7.8449434e-01
  4.1903383e-01
 -1.0170541e-01
 -3.5173190e-01
 -1.6473414e-01
 -4.0826788e+00
  4.5099038e-01
  8.2055891e-01
 -1.0498170e-01
  1.2253579e+00
  5.5516332e-01
  4.6597919e-01
  8.0236799e-01
  8.9047539e-01
 -1.0914141e+00
  7.9519880e-01
  1.3965079e+00
 -1.1528652e+00
 -2.6912254e-01
  3.7633750e-01
 -1.8668720e+00
  7.4968375e-02
  3.4034493e+00
 -3.4378302e-01
 -4.3849716e-01
  1.0271192e+00
 -3.6430485e+00
 -6.0165876e-01
  2.4322565e+00
  2.4881432e+00
  8.5258596e-02
 -4.2500383e-01
 -1.3045609e-01
  4.3387738e-01
  1.0126879e-02
 -1.5295035e-01
 -1.0899770e-01
  3.8394823e+00
  7.5012362e-01
  7.9238504e-01
 -6.3591397e-01
  1.8161210e+00
  1.2738833e+00
  1.4479119e+00
  2.2795703e+00
 -7.6477247e-01
 -2.8107348e-01
 -1.3821145e+00
  1.1477963e+00
 -8.2097208e-01
 -1.0196409e+00
  1.3553947e+00
 -9.2655534e-01
 -1.1157093e-01
  2.9482224e+00
 -2.0646276e+00
  1.1234551e-01
 -1.0674427e-01
  4.0873262e-01
 -9.3355730e-02
  4.4932276e-01
  3.3451445e-02
  1.6506685e-01
  7.4616331e-01
 -3.4526113e-01
 -2.8875419e-01
  8.5645122e-03
 -1.8621646e-01
  9.8781288e-01
  2.9326584e+00
 -5.2533984e-01
 -9.6164383e-02
  1.2761982e-02
 -7.5411603e-02
 -9.5952917e-03
 -8.3547181e-01
  1.7887851e-02
 -1.5925781e-01
 -1.0216958e-01
 -1.1948562e-01
 -1.7531054e-01
  1.6391462e+00
  4.4113364e-02
 -1.1625693e-02
  2.9097387e-01
  8.5896367e-01
 -1.5594922e-01
  2.1474689e-01
 -3.9743236e-01
 -1.7421532e-01
 -2.4421885e+00
  2.8853177e-03
  1.0546759e-01
  1.0399235e+00
 -3.4425381e-01
  1.9100049e-01
 -6.0992837e-01
  7.7740580e-01
 -7.1387434e-01
 -1.4864100e+00
 -1.2046885e-01
  6.3164574e-01
  1.2634372e+00
  1.3761936e-01
  4.0905997e-02
  1.7176352e-02
 -6.8003380e-01
  7.5180334e-01
  1.2331307e+00
 -2.9121213e-02
 -8.6510819e-01
 -1.9337922e+00
 -3.1069865e+00
 -7.8982919e-01
  4.2979602e-02
 -1.9541270e+00
 -4.4642814e-02
 -9.2247814e-01
  2.6195344e-01
  1.6297679e+00
  3.8777077e-01
  1.1853433e-01
  2.6392633e-01
  1.1568525e-01
 -2.2035468e-01
 -7.6422161e-01
  4.2934078e-01
  7.4690700e-02
  1.5625399e+00
 -6.7513734e-01
  2.3374590e-01
  1.5517014e+00
 -6.7527330e-01
 -8.1940740e-02
  4.3454501e-01
 -1.4084634e-02
 -5.8904063e-02
 -2.1555287e-01
  1.8092169e-01
 -5.4730964e-01
  2.1047363e-02
 -1.9618957e+00
 -1.2275476e+00
 -1.2996624e+00
 -1.4488369e+00
  4.2023966e-01
  2.2945766e+00
 -1.4112365e+00
 -4.5125682e-02
 -2.5438221e+00
  9.0632718e-03
 -3.6037126e-01
  1.3801697e-01
 -5.7745296e-01
  9.5824227e-02
  3.2486610e+00
 -3.3776885e-01
 -3.2626307e-01
  3.7823504e-01
  4.8715350e-01
  4.9680915e-01
  7.9399729e-01
 -1.0713593e-01
  5.5836868e-02
  1.0431797e-01
  5.2615494e-02
 -5.8341998e-01
  4.9589120e-02
 -2.0774576e-01
 -4.6540197e-02
 -3.0393371e-01
 -5.0328214e-02
 -7.5458162e-02
  9.8167971e-02
 -3.7964143e-02
 -4.0440630e-02
 -1.6226233e+00
  6.3241646e-02
 -5.0013340e-03
 -4.0231904e-01
  4.6002856e-03
 -9.9086754e-02
 -2.2134297e-02
 -1.1227935e-02
 -1.2387642e-01
 -8.0759965e-02
  1.4877157e-01
  2.6671764e-01
 -1.8111418e-01
 -5.7630576e-02
 -5.8534447e-02
  5.6857198e-02
 -1.0910204e-01
  7.1331330e-02
  1.2480696e-02
 -1.9168331e-01
  7.6967865e-02
 -6.9465762e-01
 -1.9851087e-01
 -1.2992543e-01
  8.6140977e-03
  1.9295898e-01
 -1.2849791e-01
  1.6287100e-01
  3.8447767e-01
  1.6787437e-01
  3.1851376e-03
 -6.6281267e-02
  6.8234749e-02
  2.1070361e-01
 -1.4778228e-02
 -1.4497736e-01
 -5.4314908e-02
 -9.7817414e-02
 -5.9521962e-02
  1.2307982e-01
  5.5450089e-02
 -1.4269324e-01
  1.3221924e-01
 -2.4697046e-01
 -8.5481934e-02
 -1.6880773e-02
  1.5038152e-02
  1.0076291e-02
 -1.6141731e-01
  5.6703007e-03
  1.4972571e+00
 -4.7832146e-02
 -5.5879984e-02
  4.1908294e-02
  6.5208882e-02
  6.5059580e-02
  2.8907585e-01
  1.3791771e-01
  7.6853368e-03
 -1.9067076e-01
  8.3307505e-02
  6.5324707e-03
  2.3278737e-01
  1.1972001e-02
 -1.2374876e-02
 -2.2472773e+00
 -2.3744211e-01
 -2.7282657e-02
 -1.4130697e-01
  1.1411288e-02
  1.3992850e-01
  4.1801813e-01
  2.6588207e-01
  7.4141428e-02
  1.3019775e-01
  2.4304439e-01
  6.0010123e-01
 -7.7819817e-02
 -6.0595393e-01
 -4.5979306e-02
 -1.7901994e+00
  4.1377586e-01
 -4.1764390e-02
 -7.4484043e-02
  1.5991335e-01
  1.8178126e-01
 -4.6621442e-02
  1.2888977e-01
 -1.6772741e+00
 -2.4231873e-02
 -1.8847704e-02
  1.7686352e-01
 -2.5942456e-02
  1.7025216e-01
 -2.7039936e-01
  7.4380919e-02
  8.4274329e-02
 -8.4504867e-03
  2.0313470e-01
  1.2196023e-01
 -3.3799928e-02
 -9.6220098e-02
  7.0155241e-02
 -2.4895658e-01
  6.3666716e-02
  5.2646112e-02
  2.5029141e-02
  3.4501836e-01
  3.7993820e+00
 -1.5382176e-03
 -7.4675046e-03
 -7.8660041e-02
 -6.9135062e-02
 -1.7954536e-01
 -8.6556718e-02
  2.5043586e-01
 -1.6347064e-01
 -1.9803412e-02
 -5.2778307e-02
  6.2018119e-02
 -2.2867615e+00
  9.4704278e-02
 -1.1358071e-02
  7.6130405e-02
  1.2701897e-02
 -1.9330335e-01
  4.2243432e-02
  1.1787367e-01
  1.0112468e+00
 -1.8642335e-01
  6.4725339e-02
  3.5134409e-02
  1.0598408e-01
  1.4866750e-01
  1.7456740e-01
 -5.6917059e-01
 -6.4467329e-01
  1.9491011e-01
  2.5585316e-02
 -2.5390106e-01
  3.9547685e-01
  4.9658349e-01
 -2.2765647e-01
  1.7205611e-02
  7.6911941e-02
  1.9496578e-01
  1.8658578e-02
  3.3091208e-01
 -3.6462581e-01
  1.3530265e-01
 -3.2175043e-01
  2.6434418e-02
 -1.8466355e-01
 -1.0693518e-01
 -1.2137266e-01
  2.1869905e-01
 -5.9653777e-01
 -1.3448974e+00
 -8.9630261e-02
  2.2591168e-01
  3.0735740e-01
  4.2567760e-01
  2.3009275e-01
 -6.6170879e-02
  1.2317423e-01
 -1.2056082e-02
 -2.6284796e-03
  2.8384108e-02
 -1.3831728e-02
 -3.8435053e-02
  3.7979420e-02
  9.9443436e-02
  1.1758265e+00
 -2.1724354e-02
 -1.8537933e-01
  1.1396149e-01
 -5.9098923e-01
 -8.2573444e-02
  1.6187447e-01
 -2.6713972e+00
  7.9792941e-01
  6.9489591e-03
  2.9457301e-02
 -1.4512727e-01
 -4.1141849e-02
  6.1243672e-02
 -1.2116785e+00
  7.1050227e-02
  1.2960911e-01
 -1.5791620e-01
  2.2953852e-01
 -5.6552023e-02
 -2.3969123e-01
  2.4841905e-01
  1.1992020e-01
  8.9570666e-03
  4.2004681e-01
  6.6620191e-03
 -2.6894756e-02
 -6.7345077e-01
  1.6344011e-01
  7.0998982e-02
 -7.1513981e-02
  5.2733177e-01
  8.5575670e-02
  5.0126970e-01
  5.5553202e-02
  2.6437011e+00
 -4.1415718e-01
  1.5547657e-02
  1.4162882e-01
 -7.1819319e-04
 -7.8740790e-02
  1.3564512e-02
  1.8394237e+00
 -2.1454395e-01
 -4.0294719e-01
 -3.6030609e-02
  2.3672557e-01
  5.5232517e-02
  3.3388931e-01
 -2.6780786e-02
 -6.3780732e-02
  2.7195075e-01
  2.6863933e-01
  1.3885242e-01
 -4.9672071e-02
  5.6711335e-02
 -1.4412814e-01
 -1.2176051e-01
 -2.3756757e-01
 -1.5245223e-01
  4.9791589e+00
  8.7084495e-02
 -2.7748707e-01
 -2.6252310e+00
  1.9620169e+00
 -1.7980602e+00
  2.2556751e+00
 -1.6016243e+00
  2.5460532e+00
  9.2094707e-01
  6.6117987e-02
 -1.6182590e+00
  1.7496783e-01
  8.9384168e-02
  2.3698896e-01
  1.2437530e+00
 -3.9948344e-01
 -2.6244026e-01
 -6.6431612e-01
 -1.4734000e+00
 -1.1945468e+00
  1.3228998e+00
  7.9791747e-02
  4.5353556e-01
 -1.7802259e+00
  4.4112068e-02
  6.2118661e-02
  6.7822444e-01
  8.4714219e-02
  4.6170071e-01
 -5.1315242e-01
 -1.6220686e-01
 -2.5237741e-02
  1.8065044e+00
  4.3874983e-02
  1.0499300e-01
  1.8276359e+00
 -1.8513433e+00
  9.8228477e-02
  2.0906167e+00
 -8.5994166e-01
 -1.6047692e-01
  1.4817251e+00
  1.5448907e-01
 -1.8236994e+00
 -5.3931724e-02
 -3.6216900e+00
  4.3673420e-01
 -6.1824614e-01
  2.9635661e+00
  4.2392036e-01
  2.4945760e-01
 -2.3532735e-01
 -2.7541287e-02
 -3.9892557e+00
  2.0145159e+00
  4.3066335e+00
 -3.3454686e-01
 -8.9903790e-01
  2.6453659e-02
  1.7804331e+00
 -1.6790295e-01
 -3.8724983e-01
  3.6001295e-01
  4.2138036e-02
 -1.0265105e+00
 -1.4415346e-01
 -3.5330498e-01
  8.1190521e-01
  2.6936638e-01
  1.4990153e-02
 -3.7019455e-01
  3.9514130e-01
 -5.4871207e-01
 -5.8938307e-01
 -1.7914847e-01
 -6.2329683e-02
  3.1876016e-01
 -3.7265855e-01
 -1.1830726e+00
  2.3938328e-01
  1.1110090e-01
 -8.1020616e-02
  1.6546671e-01
  1.2467507e-01
 -7.6181579e-01
 -1.1105404e+00
 -7.6292850e-02
  4.1511276e-01
  6.4827448e-01
  2.2087539e-02
 -1.5392314e-01
  1.9490662e-01
  2.1221420e-02
  9.1501944e-02
 -3.6052741e-02
  1.9494388e-01
 -1.4270556e-01
  8.5902000e-03
  1.6087976e+00
 -2.8430421e-02
 -3.7214246e-02
 -6.2789559e-02
  2.2264588e-01
 -1.0435191e-01
 -1.3944671e-01
 -2.2066286e-01
  1.1082757e+00
 -2.3892344e-04
 -1.2982063e+00
  6.9785708e-01
 -6.5912455e-01
  7.7057368e-01
  7.1798867e-01
  3.3231184e-01
 -9.4983619e-01
 -1.3277230e-01
 -8.5787570e-01
 -5.7392037e-01
 -3.4905636e+00
  1.2289891e-01
  1.3421599e+00
  4.8527336e+00
 -8.9376765e-01
 -1.0605922e-02
 -1.3634553e+00
  2.2530255e+00
 -3.1113603e+00
 -1.0649976e+00
 -1.1592813e-01
 -4.0217876e-02
 -2.7688897e-01
  2.0950816e+00
 -1.6387700e-01
 -1.9110670e+00
  8.2852781e-01
  1.6403072e-02
  7.5998259e-01
 -5.1623851e-02
 -4.0401869e-02
 -6.5913534e-01
 -8.1674486e-02
  3.5709983e-01
 -1.8644130e+00
  1.8653515e-01
  1.5589169e-01
 -4.7030357e-01
 -1.2322317e+00
 -2.0883815e+00
  4.3976486e-01
  4.6597970e-01
 -1.2486959e+00
  1.3667269e-01
  1.4589002e+00
 -8.0595583e-01
  2.0699203e-01
 -1.1922513e+00
 -2.9788548e-01
 -9.5226467e-03
  9.7403461e-01
 -6.0567009e-01
  3.2503668e-02
  1.7999192e-01
 -1.2965120e+00
 -3.2304070e+00
  2.4456553e-02
 -3.1471178e-01
  5.3937968e-02
  7.1342474e-01
  1.1365895e+00
 -3.7579605e-01
  9.4206706e-02
  9.7689599e-02
 -4.7001556e-02
 -4.5341781e-01
 -9.8934954e-01
 -4.2072549e-01
  2.8342056e-01
 -4.2566416e-01
 -1.4811827e+00
 -9.6665584e-03
  4.2981866e-01
  1.5396932e-01
  1.3970661e-01
  3.9105433e-01
 -2.1182144e-02
  5.7293531e-03
 -4.4487279e-02
 -6.0179826e-02
  1.2892617e-01
 -9.9382913e-03
  1.6698486e-01
 -1.0536271e-01
  1.7017591e-01
 -8.4757708e-02
 -6.3236699e-02
  1.4476773e-01
 -1.3501246e-01
  2.0573466e-01
  4.9738366e-02
 -2.7593729e-01
 -1.0447869e+00
 -2.0654116e+00
 -8.3853789e-02
 -7.2318681e-02
 -1.7279470e-01
 -9.3902498e-02
  5.5615914e-01
  9.1913983e-02
 -3.2084908e-02
 -1.0273943e-01
  8.4487475e-02
 -1.6442084e-01
 -1.1629018e-03
  3.7959695e+00
  3.4084776e-01
 -4.6134105e-01
 -3.2663548e-01
 -5.4128373e-01
 -1.4354930e+00
 -4.1721158e+00
 -7.9996371e-01
 -1.7036331e-01
 -2.2213730e-01
 -2.1823952e+00
 -4.0288329e-02
 -7.0322835e-01
  3.6519270e-02
 -2.5020516e-02
  7.1635164e-02
 -1.5467293e+00
 -6.5015316e-01
  8.5069335e-01
  1.3058642e-01
 -3.5592028e-01
 -9.1533023e-01
  4.8916694e-02
 -1.7439538e-01
 -1.5384141e-01
  3.9988756e-01
 -5.1854903e-01
 -9.3184108e-01
 -1.3834970e+00
  7.1106753e-03
  1.1557175e+00
 -1.8124852e-01
  1.4665817e-01
  1.1523457e+00
  1.1395893e-01
  6.3054544e-01
 -5.6275867e-02
  1.2748387e-01
 -1.3615292e-02
  4.3143547e-01
  2.8726730e+00
 -5.1128644e-02
  8.1309594e-02
  1.7427713e-02
 -6.4623827e-01
 -3.1904865e-02
 -1.0661403e+00
 -3.9003053e-01
  3.4282088e-02
 -1.4089133e-02
 -8.4029722e-01
  6.8484014e-01
 -7.7739634e-02
  7.4180126e-01
 -1.1243048e-01
  2.0216596e-03
 -8.9024305e-01
 -2.3575976e+00
  1.0684545e+00
 -1.8874799e-01
 -7.8727469e-02
  2.4786962e-02
  7.1701097e-01
  2.4855185e-01
 -8.4983259e-03
 -1.2255318e-01
  1.6755322e-01
  3.0729126e-02
  6.5015876e-03
 -1.7278133e-01
  1.7150435e-01
 -3.6797933e-03
 -5.9374213e-01
 -2.9380913e+00
 -1.3281649e-01
  1.0203797e-01
  8.2686536e-02
 -3.5398278e-01
  1.2264381e-01
  1.3020293e+00
  8.0197409e-02
  1.6549292e-01
  8.6183324e-03
 -2.7615216e-01
  1.9958006e-02
 -6.2028565e-02
 -2.6007205e-01
 -1.1761223e-02
 -3.8614444e-02
 -1.0410548e+00
 -1.8871491e-01
  1.1251538e-01
  5.3992528e-01
 -2.8954774e-01
  5.6219049e-02
  6.6042066e-01
 -7.3015237e-01
  7.9395305e-03
  8.6743921e-01
 -1.5887904e-01
 -5.1906174e-01
  1.3973594e-03
 -5.9511483e-02
 -1.1282130e-01
 -1.8773517e-01
  3.3843657e-01
  6.7785673e-04
  1.3848052e+00
  1.2029239e+00
  5.3226876e-01
  2.2834171e-02
  1.0812347e+00
 -1.4940360e+00
  9.3647373e-01
  2.4259367e+00
 -1.4847773e+00
  4.0506558e+00
  1.4121834e+00
  1.0278885e+00
 -3.3673248e-01
  2.4747824e-02
 -3.7729685e+00
  1.7634380e-01
  6.4293331e-01
 -2.5042748e-01
 -2.6469777e+00
  4.6114570e-01
  1.8367146e-01
 -1.0082798e-01
  1.3813800e+00
 -3.2987294e-03
 -2.2808974e+00
  1.3170556e+00
 -2.9409039e+00
  5.0698739e-01
  9.6458167e-01
 -2.3590484e+00
  1.4353353e-02
 -4.2907685e-01
  6.2624520e-01
  4.2777410e-01
  1.0822816e-01
 -1.3476940e+00
 -2.9741042e+00
 -4.9662462e-01
  1.1895162e+00
 -3.9753219e-01
  1.0459323e+00
  1.4617829e+00
 -2.6503021e-01
 -1.0205754e+00
  1.3190408e+00
 -2.4577670e+00
  5.9371221e-01
  2.0331328e+00
 -6.2098378e-01
 -2.8053720e+00
 -3.6773033e+00
  1.3732344e+00
  1.6391748e+00
 -1.1423571e+00
  2.3813570e+00
  1.3909391e+00
  3.9668632e+00
 -4.4094830e+00
 -2.5757449e+00
  1.3397745e+00
  4.3087834e-01
  7.3335952e-01
  8.1775403e-01
  5.6776410e-01
  1.1753374e+00
  3.4876862e-01
 -2.7575300e+00
 -1.3187588e+00
  1.5876117e-01
  1.6028285e-01
 -8.7571305e-01
  1.2251244e+00
 -5.6951445e-01
 -1.2735569e+00
 -2.9943264e+00
 -7.4820560e-01
  5.8803570e-01
 -2.1693680e+00
 -1.9019727e-01
  2.3861805e-01
  1.2567952e-01
  1.2056320e+00
 -9.8378863e-03
  1.0199490e+00
  2.4555635e+00
  2.2981796e-01
 -4.6139248e-02
  1.2590919e+00
 -2.3950686e+00
  1.6714128e+00
 -1.4476177e+00
 -1.7186584e-02
 -4.7645617e-02
 -6.6695735e-02
  5.3308016e-01
 -1.2927444e-01
 -5.7754081e-02
  1.0290205e-01
 -2.1604340e-01
 -2.2642219e-02
 -1.7309088e-01
  6.5314615e-01
 -2.3281204e-02
  1.8285239e-01
  8.5071936e-02
  1.2007291e+00
  1.1105445e-02
  1.3343094e-01
  1.2661323e-01
 -1.5256460e-01
  4.3746233e-01
 -2.3686796e-02
 -4.3438849e-01
 -2.6519747e-02
 -7.0952675e-03
 -1.5879790e-01
  4.8423637e-02
  5.1247132e-01
  4.2905888e-01
  3.8006723e-01
 -5.6124028e-02
 -3.9351800e-01
 -4.9589667e-02
 -7.3002733e-02
  2.1906031e-02
 -3.1330380e-01
  1.9005281e-01
  6.6360116e-01
  2.6318887e-02
 -3.4642220e-01
 -3.8449517e-01
  2.3233825e-01
 -1.7548518e-02
  2.0484236e-01
 -2.4875087e-01
 -4.7883008e-02
  1.8342741e-01
  3.0319312e-01
  2.8218609e-01
 -2.9536694e-01
 -1.2583397e-01
  7.6674141e-02
  1.4090259e-01
  1.3531847e-01
 -4.2931679e-01
  7.3579848e-02
 -3.5998902e+00
  6.3233502e-02
  2.2360040e-02
  6.7185506e-02
  4.2922285e-01
 -7.4671239e-02
  4.5948014e-02
 -3.8068581e-02
 -4.6829319e-01
 -6.4007059e-02
 -9.0710640e-02
  2.0373634e-01
  2.5046217e-01
 -1.6713383e-02
  8.0950009e-03
 -3.2321330e-02
  2.7777773e-01
  1.0583886e-02
 -4.6255864e-02
  4.6937194e-02
  1.1885665e-01
 -2.2274365e-01
  7.4036624e-03
  6.3896775e-01
 -3.0640727e-01
  6.5459628e-03
  1.9590713e-01
 -1.0347300e-01
 -2.2426892e-02
 -6.3311219e-01
 -1.2466001e-01
 -1.7916428e-01
 -2.9019234e-01
 -3.4484062e-02
 -5.7491008e-02
  2.9116614e-02
  2.8097156e-01
  2.4143385e-02
 -2.9753864e-01
 -3.2604721e-01
  1.2369865e-01
 -4.1792369e-01
  2.4299119e-01
  5.5513177e-02
  2.0816561e-02
  1.7394321e-01
 -1.4533645e-01
 -7.8929037e-02
  8.7967187e-02
  4.6025921e-02
 -2.9965864e-02
 -1.2655231e+00
 -1.1348984e-01
  2.5299793e-01
 -7.1044825e-02
  1.2343287e-02
  1.9176979e-01
  2.5382187e+00
 -2.8902623e-01
  1.4955443e-01
  1.7767973e-01
 -5.9794050e-01
  5.8247404e+00
 -3.2440752e-02
 -1.5223062e-01
  3.0999908e-01
 -2.4290606e-02
  1.0832250e-01
  3.1733546e-01
 -2.1736090e-01
 -4.8015761e-01
  3.0257010e+00
 -2.3590632e-01
  5.0037497e-01
 -3.0984497e+00
 -2.0673037e-01
 -2.1492341e-01
  1.1424803e+00
 -1.3516371e-01
 -3.8166553e-02
  9.8601270e-01
 -9.7530168e-01
 -1.8581676e+00
 -1.5323415e+00
 -4.8730385e-02
  5.1695216e-02
  5.1089483e-01
 -3.3763053e+00
 -3.6491841e-02
  1.7296751e+00
  2.6681075e+00
  2.7212095e+00
  2.6489133e-01
  8.2670420e-01
  1.1543846e+00
 -1.9722794e+00
 -7.6900050e-02
 -2.7354550e-01
  1.0008544e-01
 -2.7939901e-02
 -1.2054901e+00
 -2.1120511e-02
 -6.6137826e-03
 -9.8067941e-04
  2.4501932e+00
  1.4160082e-01
  9.7045296e-01
  3.0775329e-01
  1.7249467e+00
  7.3776180e-01
  1.1527331e+00
  1.5637051e+00
 -3.8962466e-01
 -2.4102392e+00
 -1.6897702e+00
  1.5095948e+00
  4.0520612e-02
  1.5581704e-02
 -1.1108358e+00
  5.3151160e-01
  7.3444396e-01
  3.2565045e-01
 -7.6679355e-01
  1.4358298e+00
  1.2501897e-01
  4.0061641e-02
  4.9799216e-01
 -8.6872347e-02
  1.0162035e-01
  1.1331778e-01
  5.6958544e-01
  9.0903825e-01
 -1.5975015e-02
  3.2688180e-01
 -1.5076278e+00
  9.8640114e-01
 -1.0169963e+00
  1.1187847e+00
  9.0120065e-01
 -2.8418955e-01
 -1.2825544e+00
 -1.0011184e+00
 -4.1955397e-02
 -3.0837339e-01
  2.2484967e-01
  6.4522302e-01
 -1.4221412e+00
 -1.0175141e+00
 -3.7642324e-01
  1.8941617e-02
 -7.3651448e-02
  1.0870459e+00
 -7.8147417e-01
  5.9382249e-02
  2.1369728e-01
  4.7188202e-01
  9.3442440e-02
 -2.4725947e+00
  3.7001248e-03
  3.2823108e-02
 -2.6800153e-01
  9.8596305e-02
 -3.4220900e-02
 -1.8951579e+00
  7.9855405e-02
  2.3818944e-01
 -7.0027001e-02
  5.0206944e-02
 -5.4041997e-02
  7.5067544e-01
  2.3121798e-02
  4.5573640e-01
 -3.1291088e-01
 -3.3429748e-01
 -1.4016188e-02
 -1.5977873e+00
  2.3323362e+00
 -5.9443551e-01
 -3.1069629e-03
  1.0949119e+00
  4.9701154e-01
  6.1208361e-01
 -8.9976877e-01
 -9.8588669e-01
  1.2773547e+00
 -2.3051906e+00
 -2.0873599e+00
 -3.9599352e+00
 -2.4484131e-02
 -2.2823248e+00
  2.2936141e+00
  8.1720638e-01
  9.9467516e-02
  2.2632847e+00
  2.3759720e+00
  1.9074682e+00
  8.6111295e-01
  1.3370893e+00
 -1.4611231e+00
 -2.9778421e+00
  5.4571166e+00
  1.9543622e-01
  1.8470035e-01
 -4.7868130e-01
  2.4473065e-01
  3.5612544e-01
 -2.2977781e+00
  6.3265544e-01
  3.2019036e+00
 -1.1196436e+00
 -1.7362272e+00
 -2.9121292e+00
  1.8631545e+00
  3.0838161e+00
  1.8001711e+00
 -2.8406043e+00
  3.1287320e+00
 -6.2627494e-01
 -1.0320961e+00
 -2.9369159e+00
 -1.2399872e-01
 -1.2961788e+00
 -2.4994268e+00
  1.2714610e-01
 -5.3067580e-02
 -4.7864399e+00
  8.8701558e-01
  4.8180473e-01
  1.0859928e-01
  2.0391996e+00
  2.1659815e+00
  7.3064268e-01
  2.0773606e+00
 -1.1167966e-01
 -2.4395064e-02
 -1.6805314e+00
 -2.9292669e+00
 -6.1282921e-01
  1.6735201e+00
 -1.4925271e-01
  3.4613425e-01
 -1.1301806e-01
  1.1673934e+00
 -1.9129361e+00
  2.1426699e+00
  3.0568448e-01
  4.5332395e-02
  1.4525343e-01
 -9.0988255e-01
 -6.2097144e-01
  1.3870554e+00
  1.6751257e+00
 -3.0232313e-01
 -8.2926965e-01
  6.4200358e-03
  2.2848335e-01
  2.4085340e-01
 -4.4434033e-02
  9.1359997e-01
  2.4844958e-01
  2.9161286e+00
 -1.2090344e-01
  1.2067518e-01
 -7.0226006e-02
  3.0790234e-01
  2.6198655e-01
 -1.4572480e-01
  5.2141762e-01
 -3.2744044e-01
 -1.2798290e-01
  4.0417343e-02
 -2.4707267e-01
 -2.6570551e-02
  3.7903156e-02
 -5.4966670e-02
 -4.4517137e-02
  1.9871099e-01
  3.5673836e-01
  1.8801063e-01
 -6.2337041e-02
  2.6891166e-03
 -1.9215764e-02
 -1.5773530e+00
 -1.6603663e+00
  2.6692228e+00
  3.1955697e-02
 -7.2816648e-02
  9.2397106e-01
  3.3704403e-01
  6.8213892e-01
 -2.7144246e+00
 -2.8172193e-02
 -8.1331563e-01
  5.3097367e-01
  1.7626265e+00
  9.2898405e-01
  1.5023974e+00
 -6.4297581e-01
  9.8108903e-02
 -1.2903376e-01
  5.3369474e-01
 -7.8851335e-02
 -5.5967999e-01
  3.5354787e-01
 -3.7305573e-01
 -4.8414904e-01
  2.0703917e+00
 -3.9181693e+00
  1.0123466e+00
 -1.9498849e+00
 -7.6934087e-01
 -9.4556069e-01
  2.3107252e+00
 -3.3834481e+00
  6.4464217e-01
 -1.2393910e+00
  1.3206786e+00
  6.2606966e-01
  1.7447851e+00
  3.6995220e+00
 -1.0559611e-01
  1.0404699e-02
  8.8917238e-01
  2.3581508e-01
  2.6934297e+00
 -7.6599211e-01
 -3.1800532e+00
  2.9182227e+00
  1.0976101e-01
  3.5803802e-02
 -1.1410140e-01
 -3.1466264e-02
 -6.7706150e-01
 -8.3763212e-02
 -1.4139906e+00
  2.7575991e-01
 -7.4606478e-01
  2.5765428e-01
 -2.1444863e-01
  3.4811540e+00
  1.1778707e-01
 -2.7983111e-01
  2.8072932e-01
  1.1372356e+00
  1.2797760e+00
  1.1481121e+00
  7.8486907e-01
 -4.8683423e-01
  2.9184300e-01
 -5.8509427e-01
  1.2246215e-01
 -3.1099945e-01
  1.0531774e+00
  2.3154467e-01
 -2.7386454e-01
  6.0886478e-01
 -4.1745490e-01
 -2.0983914e-02
 -6.1488551e-01
 -1.1103557e+00
  1.2968721e+00
  2.7687588e+00
  1.6013351e-01
  4.1135553e-01
  1.0660784e-01
  5.0112377e-03
  1.8614033e+00
 -2.6571406e-02
 -1.1959225e-01
 -1.1185029e+00
 -9.8401636e-01
 -3.0861223e+00
  7.7461576e-01
 -1.4740871e-02
  5.9221274e-01
 -1.3058279e-01
  7.6314196e-02
  8.6874940e-02
 -2.7085420e-01
 -2.4453849e-01
 -1.4857835e-02
  2.3914324e-02
 -3.1442873e-02
 -5.0738372e-02
  8.2834167e-03
 -1.3948965e-01
  2.8379178e-02
 -3.3276880e-01
  1.5577240e-01
 -7.3569432e-02
 -7.8064328e-01
 -1.5849546e-01
  1.0517458e+00
 -5.4149818e-01
 -1.8354598e+00
  7.9481196e-01
 -3.5576093e-01
  2.2533133e+00
  7.1556151e-02
  5.4752088e-01
 -7.8781515e-02
 -2.8007892e-01
  5.9159596e-02
 -1.2751080e-01
 -2.8305003e-01
 -3.9508920e-02
  1.7806849e+00
 -3.7298448e-02
  1.1358005e+00
 -7.1292466e-01
  4.3364115e-02
 -5.7204336e-01
 -2.3789728e-01
 -2.0267496e-01
 -2.9870125e-02
  2.0959911e-01
  2.3681000e-01
 -1.5671036e+00
  2.0158688e-02
  5.6549668e-01
  5.6966162e-01
  6.9731608e-02
  3.5999894e-02
  2.6417786e-01
 -8.0706280e-01
 -2.0884866e-01
 -7.9484940e-01
  1.3302682e-01
  8.5247803e-01
  1.5241963e-01
  2.0117691e-01
  1.3134743e+00
 -5.8707416e-01
 -9.3837112e-02
 -1.0530137e+00
 -1.1718737e+00
 -1.1683783e-01
  2.2487218e+00
 -2.0205313e-02
 -5.8561957e-01
 -9.5868401e-02
 -1.7837654e+00
 -6.4746314e-01
 -4.6071315e-01
 -9.3741584e-01
  7.7351385e-01
 -5.8683127e-02
  1.4847332e+00
  1.6369715e-02
 -3.3427238e-01
  3.3866933e-01
  7.6840721e-02
 -6.5714985e-01
  6.9793487e-01
 -1.1599835e+00
 -4.4080886e-01
  1.1643323e+00
  2.6174158e-01
  7.7297233e-02
 -1.2132652e-01
  2.0603198e-01
  1.1839880e-01
 -1.3225292e+00
  1.6789405e+00
  2.2558378e-02
 -1.1509451e-01
 -8.5145526e-02
 -3.7732448e-02
 -7.8465072e-03
  1.4057593e-01
 -1.5815479e+00
 -1.9203408e-02
 -1.1570143e+00
 -6.8067156e-02
  8.7914638e-02
  4.6284205e-01
  2.2732392e-02
 -2.4054822e-01
 -1.3050144e+00
 -8.6705551e-02
 -1.6965127e-02
 -8.3936512e-02
 -2.2021231e-01
 -1.5153544e+00
 -2.2202648e-01
 -7.7505134e-02
 -5.7143593e-01
  6.0021505e-02
  2.7342921e-01
  1.2730300e-01
  1.6465618e-01
 -2.0748617e-01
  1.6782853e-01
  9.2891715e-02
 -3.0865297e-01
 -9.9514835e-02
  3.8537815e-01
  2.1977555e-02
  2.4067174e-01
 -4.4425821e-04
  8.3058588e-02
 -2.9279366e-01
 -1.3274418e-01
 -2.1252289e-01
  2.0941395e-02
 -2.8602010e-02
 -1.8659161e-01
 -5.0934339e-01
  8.2057722e-02
 -9.0676159e-02
  3.5830765e+00
  7.1543835e-02
 -2.7827457e-01
  1.8560920e-02
  1.1503723e-01
  6.9882028e-02
 -1.5117640e-02
  1.5475391e+00
 -2.0835923e-01
  2.3171806e-01
  1.8308236e-01
  3.8735226e-01
 -2.4440258e-03
 -3.8590666e-02
 -1.0552008e-01
  5.8617922e-03
  9.6528992e-02
  1.0621689e-01
  1.1736351e-01
  8.4491652e-03
  2.9811872e-02
 -6.1785722e-01
  1.4030926e-01
  1.9067898e-02
 -1.0434615e-02
 -1.5186809e-01
  1.3309520e-01
  8.9304960e-01
  1.6725806e+00
  1.6474198e-01
  8.1856972e-01
  1.4210764e-01
  4.2165688e-04
  3.7542019e-02
  2.7575580e-02
 -2.7104443e-01
 -1.1607891e-01
 -1.4559464e-01
 -2.3912668e-01
  1.7619096e+00
 -2.2836857e-01
 -2.9599106e-01
  3.0795394e-02
  3.9995429e-01
 -1.7808236e-01
 -1.4525953e-01
 -9.4437219e-02
 -6.6685304e-02
  1.4774250e-02
 -3.2648094e-02
 -4.4245470e-02
  1.4680511e-01
  9.0975732e-02
  4.8848297e-02
 -2.5702106e-02
  4.4939309e-02
  1.0460188e-01
  4.1072134e-02
  1.1868767e+00
  4.3559153e-02
  1.0262235e-01
  3.2470923e-02
  2.1556125e+00
 -1.6436711e-01
  3.8809530e-02
  6.1578915e-02
  4.7747485e-02
  1.5176591e-02
  1.5714608e-02
  5.5059350e-01
  6.8210542e-02
  3.4361070e-01
  1.4272507e-01
  6.9122739e-02
 -2.1705405e-01
  2.0669080e-01
 -3.8712820e-01
 -2.7664687e-02
  1.2293292e-01
 -5.0554831e-02
 -9.0399472e-04
  1.8923599e-01
  5.2312672e-01
  4.3244015e-02
 -2.9852044e-02
  9.0445064e-02
 -3.7829282e+00
 -2.6549113e-01
 -8.2447328e-02
 -5.0230813e-01
  9.7793120e-01
 -4.4220679e-02
  4.6672848e-01
  1.4426124e-01
 -1.2104269e+00
  1.2428347e+00
  2.8867772e-01
 -1.6992493e+00
  3.1203130e-01
  1.5966283e+00
  6.1142856e-01
 -3.1091952e-01
 -2.7468893e-01
 -1.8720143e+00
  8.5925126e-01
  1.9854048e-01
  2.1874849e-02
 -5.7339559e+00
  2.1008141e+00
 -6.7639358e-02
 -9.4575894e-01
  1.2776470e-01
  1.2448610e-01
  1.1290984e+00
  2.8416377e-01
 -4.0665713e-01
  1.5207717e-01
  1.6598893e+00
  2.1860304e+00
  6.4917344e-01
  7.0963368e-02
 -2.1847625e+00
 -5.2981686e-02
 -2.7358670e+00
  2.5203214e+00
 -1.5643997e+00
 -1.2666292e+00
  4.0016499e-01
  8.2576597e-01
 -5.0123906e-01
 -2.6658481e-01
 -5.6521010e-01
 -8.3533905e-02
  1.2049445e+00
  2.2686210e+00
  4.7626120e-01
  1.8180839e+00
 -2.6849750e-01
  7.7578467e-01
  3.4808197e+00
  2.3454249e+00
 -2.2098291e-01
 -4.7271320e-01
 -1.2005385e+00
  4.8798949e-01
 -1.3628919e+00
 -7.8764433e-01
 -1.8888618e+00
 -9.2649001e-01
 -1.3286747e+00
 -6.5884596e-01
 -2.2895698e-01
  1.7612815e-02
 -2.8212202e-01
  6.2153619e-02
  6.9665653e-01
  1.8386383e+00
 -1.1776207e-01
 -2.1565923e-01
  3.7414172e-01
  2.1463064e-03
  1.1814914e+00
 -2.5663081e-01
 -1.1746898e-01
 -7.3680317e-01
 -2.3811326e+00
  6.8781298e-01
  1.0453613e+00
 -8.6267188e-02
 -9.8397664e-04
 -2.9067302e-01
  8.6304478e-02
 -9.9004650e-01
  2.1836877e-01
  7.2216392e-01
 -1.2097092e-01
 -1.6872402e-02
 -4.5658637e-02
  2.8841966e-01
  8.1659049e-02
  6.8019502e-02
 -3.8719705e-01
 -4.8536088e-02
 -3.8152717e-02
 -6.0791742e-02
  3.2131556e-01
 -3.5748887e-03
  3.2650356e-03
 -1.3929490e+00
 -4.6422631e-02
  1.4917459e-01
 -1.2125883e-01
 -2.4928233e-02
  4.1340876e-01
  4.4419545e-01
 -7.2268337e-02
  5.0121564e-01
 -3.5679370e-02
  6.1609024e-01
 -4.2371833e-01
  2.0013422e-01
 -4.1794232e-01
  7.2784096e-02
  1.4366614e+00
 -4.7425246e-01
  1.4286716e+00
 -4.1354542e+00
  5.2560237e-03
  1.0611601e+00
 -5.4013872e-01
  2.0457432e+00
  7.8960967e-01
  8.7801063e-01
  2.0298615e-01
  2.3106056e-01
  4.9802790e+00
  7.9111260e-01
  1.6552659e+00
 -1.1935736e+00
  1.5857469e+00
  2.7669449e+00
  6.7601018e-02
  8.3366044e-02
 -5.8170080e-01
 -6.7739869e-03
  6.4737701e-01
  4.5768130e-01
  3.1929195e-01
  1.8646408e+00
 -5.4830599e-01
 -5.1773708e-02
 -3.3017850e-01
 -8.6966252e-01
 -7.5233704e-01
  4.8001722e-01
 -8.1289047e-01
  9.6111238e-01
 -6.8981302e-01
 -7.6093748e-02
  8.9462385e-02
  3.8508093e+00
  8.4358746e-01
  1.7620637e+00
 -1.1757319e+00
 -3.0058994e+00
 -1.9069413e+00
  3.6743814e-01
  1.6570095e+00
 -6.4935595e-01
 -8.0797123e-03
 -2.2090693e+00
 -2.3280658e-01
 -1.9992187e+00
 -8.5507862e-02
  2.1629589e+00
 -6.4418459e-01
 -2.2483633e+00
  8.7929644e-02
 -8.2371905e-02
  6.7105621e-02
 -1.0879506e+00
  1.0425276e-01
  3.0953845e-01
  8.0087334e-02
  2.3041712e-01
  5.4435998e-02
 -1.7376014e+00
 -6.0510222e-02
 -1.2219588e+00
  9.8637015e-01
 -7.8056222e-01
 -1.5194964e-02
 -8.3713245e-01
  1.5189102e+00
  1.6221553e+00
  1.0864578e+00
 -4.0775573e-01
 -8.4365457e-02
 -5.1932693e-02
  3.2236848e+00
 -2.3681992e-01
  7.0930414e-02
 -3.7956893e-01
 -2.4926087e-01
  8.5974348e-01
 -1.1035335e-01
 -1.8232228e-01
 -1.6954786e-01
 -2.2171615e-01
 -3.5169080e-01
 -5.7560503e-01
  7.5143337e-02
 -3.4831846e-01
 -3.2628108e-02
  2.2006942e-01
 -6.6349171e-02
  5.7199293e-01
 -1.7233156e-01
  9.4611369e-02
  1.6379528e-01
 -2.0195679e-01
  4.7792125e-02
  2.3032759e-01
  2.9689118e-01
  2.0360142e-02
  2.2634056e+00
  8.1820577e-02
 -1.5246733e+00
 -2.3408563e+00
 -1.7078792e+00
  5.2982878e-02
 -2.4938526e+00
  5.4661375e-02
 -3.7776127e-01
  1.7396925e-01
 -3.0617723e+00
 -6.4164108e-01
  3.9172307e-01
 -2.2489043e-01
  1.1452894e+00
  1.5615421e-02
 -8.2190922e-03
  4.8326039e-01
  8.5516626e-01
  1.5886461e+00
 -3.8141534e-01
 -6.8175930e-01
  9.0827441e-01
 -4.3141487e-01
 -1.5656836e+00
  2.3848587e-01
  7.4383926e-01
  8.9236075e-01
  7.1426943e-02
 -1.4137282e+00
 -4.9461234e-02
  2.0202487e+00
  2.1344172e-02
 -2.2192533e+00
  1.2876305e-01
  3.8434225e-01
 -4.3590152e-01
 -5.5756062e-01
 -8.7123513e-01
  5.6318134e-01
 -8.9649647e-01
 -5.3936434e-01
 -5.0161451e-01
 -2.6387233e-01
  1.9545832e-01
 -4.3120861e+00
  8.6376512e-01
  6.5431279e-01
 -3.1237295e-01
 -1.7520555e+00
 -5.5597222e-01
  2.3992775e-01
  2.8215282e+00
 -1.4844032e-01
  1.9089950e-02
  7.4576426e-01
 -1.4257325e+00
  5.1420945e-01
  1.1311970e+00
  9.4554418e-01
  1.3033660e-01
 -3.4837782e-01
 -5.4277003e-01
 -1.2077706e+00
 -1.4014930e+00
  1.3228618e-01
 -6.3136905e-01
 -4.6155635e-01
  1.2758593e-01
  1.1102281e-01
 -8.5327923e-01
  1.9700823e-02
 -1.1812510e+00
  1.1286851e+00
  6.9517545e-02
 -1.7408448e+00
  1.1688898e+00
  1.2786490e-01
 -1.8194242e-01
  1.1077031e-02
  2.6511860e-01
 -8.3690330e-02
 -1.8453687e-01
 -5.5266388e-02
  7.0632011e-02
  1.2038195e-03
 -1.5999392e-02
  8.0174513e-02
  3.0025283e-01
  6.3665092e-02
  1.4800772e-01
 -6.8569832e-02
  9.2160963e-02
 -1.9380246e-01
  3.0182204e-01
 -7.0248976e-02
  4.5221109e-02
 -6.5405809e-05
 -9.7388558e-02
  8.3810963e-02
 -5.5693857e-02
 -2.9568034e-01
 -3.0465558e-01
 -5.4333393e-02
  4.6741076e-02
 -1.8320720e-01
  1.8333267e-02
 -1.0028826e-01
  9.1395207e-02
  4.3944299e-01
 -1.0905308e-01
  4.4321689e-01
  1.0298777e-02
  1.0318722e+00
  5.9415507e-01
 -2.3535838e+00
  9.0341479e-02
  1.9328465e+00
 -4.8178133e-01
 -2.9563561e-01
 -6.7440122e-02
  2.6190904e-01
  5.7275023e-02
  1.3835645e-01
 -1.1188009e-01
 -3.1282928e-02
 -1.4950147e-01
 -1.6559403e-02
 -2.0948479e-01
  1.7982541e-01
 -8.0302268e-01
  2.8055665e-01
 -1.9863115e-01
  3.7341774e-02
 -3.8927758e-01
  2.9596833e-03
  7.1961358e-02
  7.5633533e-02
 -2.1756656e-01
  1.3854635e-01
 -1.7272000e+00
 -6.8557635e-02
 -4.1929368e-02
  2.8332667e-02
  1.6280840e-01
  2.7924580e-02
  7.7436738e-02
 -3.8752649e-02
  1.4832272e-02
 -4.9613070e-01
 -1.6427979e+00
  9.7858734e-02
 -8.3631091e-03
  2.0166357e-01
  5.1540207e-02
 -1.5513122e-01
 -9.4302905e-01
  3.4442220e-02
 -4.5362022e-02
  1.6711602e-01
  9.7826980e-02
 -4.3781605e-02
  2.0844322e-01
  2.4136566e-02
 -1.1340036e+00
 -8.7326789e-01
 -7.7862883e-01
 -1.4691773e-01
 -7.9045582e-01
  2.4548213e-01
 -3.2594778e-02
  3.2307181e-01
 -1.2842102e-01
  5.5710200e-02
 -8.2913056e-02
  9.7686850e-02
 -7.8872822e-02
  1.0310591e-01
 -6.5064274e-02
  1.7916981e-02
  6.1749965e-02
  1.6105607e-01
  7.8446513e-01
  1.5458155e-01
 -2.9739025e-01
 -5.8133047e-02
 -9.3603119e-02
 -1.7001861e-01
 -5.1025474e-01
 -1.6180778e-01
 -9.4600469e-02
 -1.0786157e-01
  7.6054674e-01
  1.6872592e-02
  6.3039929e-02
  1.0820186e-01
  1.4346854e-01
 -2.2581697e-02
  2.6521034e+00
 -7.3945411e-02
  3.2791921e-01
  1.9487472e+00
  3.6521956e-02
  8.6889088e-02
 -3.3301190e-01
 -5.5559182e-01
  1.7084783e-01
 -1.4752226e-01
 -2.4242854e-02
 -1.7542619e-01
 -1.1287791e-01
 -1.7571679e-01
  7.2198585e-02
  1.4030893e-02
  2.8474471e-02
  1.9352823e-01
  1.5398567e+00
  2.6316956e-01
 -5.9646815e-02
 -5.1373416e-01
  2.2286225e-02
 -1.6712449e+00
 -3.7822131e-02
 -5.0846666e-01
 -2.3639418e-01
  8.8258010e-01
  1.3561172e+00
  6.8031484e-01
 -1.3758036e-01
 -1.2511516e-02
  3.1116581e-01
  1.4984494e+00
  4.2061355e-02
 -5.5238370e-02
 -9.8715878e-01
 -9.9972415e-01
 -7.8240550e-01
  1.2200850e+00
 -9.3493879e-01
 -2.7158065e-02
  1.7572601e-01
 -1.0567819e+00
  2.3523420e-02
  2.0960259e-01
 -1.0980320e+00
  6.5751410e-01
  1.7855432e+00
  1.6954164e-01
 -4.7171432e-01
 -1.2984794e+00
  8.7701812e-02
 -1.1770587e+00
 -2.2422931e+00
  3.9406894e-03
  2.3847867e-02
  7.3753011e-01
 -3.6718601e-01
 -1.6387945e-02
 -1.0913813e-01
  1.1543875e+00
  7.3260295e-01
 -1.0108801e+00
  1.1257499e-02
  5.0508890e+00
  5.1342505e-01
 -1.4951147e+00
 -5.9731264e-02
 -5.4266822e-01
 -8.2344013e-01
  5.1806355e-01
  4.2485666e-02
 -1.7116481e-01
 -3.2811481e-01
  1.0438199e+00
 -7.7799715e-02
 -3.5882556e-01
  6.3810557e-01
 -3.6462364e-01
  1.0445590e+00
  1.9635863e+00
  9.5239633e-01
  1.5490130e-01
 -3.0211481e-01
 -8.5397184e-02
  1.1940199e+00
 -2.5108237e-02
 -1.3183163e-02
 -3.0754477e-01
 -2.0601116e-04
 -6.1781261e-02
 -2.6330307e-01
 -2.7264073e-01
 -1.3259643e-01
  2.1614791e-01
 -2.4831402e+00
 -2.1263583e-01
  1.8349579e-01
  7.6524878e-01
  8.3269602e-01
  2.8462134e-02
 -2.7803522e-02
  3.2510117e-01
  6.2334821e-02
  1.7911264e+00
  1.4859807e-02
 -1.3718705e-02
  1.1789748e-03
  7.3880769e-02
  3.4435771e-02
 -8.4891498e-02
  4.1186512e-03
  2.8161777e-02
  1.5445254e-02
 -9.2869401e-01
 -3.5766002e-02
  1.1151931e-01
 -2.7693123e-01
 -2.6616469e-01
  1.2623551e-01
 -1.2702464e-01
 -6.9965601e-02
  2.0072114e-01
  3.9216358e-02
  1.7403669e+00
  9.8156613e-01
 -1.7587280e+00
  4.3424931e+00
 -4.8937634e-02
 -2.0433383e+00
 -4.3391049e-01
  8.1028610e-01
 -1.5467038e+00
  3.6841884e-02
 -9.7292393e-01
 -2.2343777e-02
  2.1386023e+00
  2.2792244e-02
  6.5611136e-01
 -3.3125284e-01
  6.1148906e-01
  3.8958560e-03
 -1.5194957e+00
  1.1287884e-01
  3.2567848e-02
  1.1440258e+00
  5.3572420e-02
 -5.7803887e-01
 -9.6139334e-02
 -5.5523235e-01
 -1.5563636e+00
  2.5704613e-01
 -2.6173942e+00
  3.7216287e-02
 -7.1452338e-01
  5.0311594e+00
 -1.4140697e-02
  8.6019713e-01
 -6.5863156e-01
 -8.3379251e-01
  1.7732773e+00
  3.8794512e-01
  5.3308582e-01
 -7.3243964e-01
  2.5215003e+00
 -9.9120373e-01
 -1.7315023e-02
  2.9559925e-01
 -1.9836243e+00
  3.4558957e+00
  1.8428619e+00
  4.4105914e-01
 -9.9666789e-03
 -2.7760231e-01
  1.8572297e+00
 -7.2776884e-01
  2.3218055e-01
 -2.7682525e-01
 -4.9127722e-01
 -4.2696267e-02
  1.6819085e+00
 -5.3701943e-01
  1.4860535e-02
  9.5181113e-01
  1.9289051e+00
 -4.2902386e-01
  1.9487931e-01
 -3.7941034e+00
 -5.7287306e-01
  7.4154568e-01
 -1.2873315e-02
  1.6734590e-01
 -2.1445167e+00
  8.5450572e-01
 -5.9086883e-01
  7.4054891e-01
  1.7876525e-01
  5.0232496e-02
 -5.8643617e-02
 -1.3871002e-01
  1.3259269e-01
 -5.2273101e-01
 -1.0628430e+00
 -3.4861383e+00
  1.9621477e-01
  1.8069094e-02
  1.1975192e-01
  3.5392780e-02
 -1.4020627e+00
  1.1543750e-01
  5.2872831e-03
  8.9922273e-01
  3.1927130e-01
  7.0032209e-01
  2.8034666e-01
  4.1211349e-01
 -2.1092351e-01
 -2.2971205e-01
 -3.8880667e-01
  1.0385478e-02
  1.2079696e-01
 -5.1800938e+00
  5.1945704e-01
  9.4525874e-02
 -3.2613325e-01
  2.3878314e-02
  2.1040598e-02
 -1.2858576e-01
 -7.7701405e-02
  9.4907053e-02
  8.6614050e-02
 -1.7618265e+00
  2.4342537e+00
  8.1732875e-01
 -1.7580161e+00
 -1.1975644e+00
 -3.9020400e+00
  3.0072274e+00
  2.5659737e-01
 -2.5630036e-01
  9.2778182e-01
  1.5660199e+00
  2.6167136e-01
  2.5350773e-01
 -1.8163884e-02
 -1.4205840e-01
 -2.6072476e+00
 -4.1108396e-02
 -8.0943400e-01
  1.7965499e-01
 -2.9951552e-01
  6.0978949e-01
  8.1356764e-01
 -2.7179506e-04
  1.6255305e+00
  1.9753492e+00
  1.8033636e-01
 -2.1798497e-01
 -5.6597316e-01
  8.4585959e-01
 -9.6739429e-01
  4.0444903e+00
 -1.8236663e+00
  4.7555724e-01
  7.8050858e-01
 -1.5562634e+00
  2.1891174e+00
 -3.8321624e+00
  2.5836688e-01
 -1.9538291e-01
  4.9362212e-01
 -6.5086760e-02
  2.2745266e+00
 -2.4072269e-01
  2.2633326e+00
  5.7510294e-02
 -1.8929367e+00
  6.1729687e-01
  1.1867331e+00
 -3.6326551e-01
  1.1477638e+00
  1.9653417e+00
 -1.4036665e+00
 -1.6686569e+00
 -1.4477199e-01
  1.1009852e+00
 -1.8164158e+00
 -2.1107976e-01
 -3.5093226e+00
 -5.0105882e-01
  1.1816144e+00
  2.2314390e-02
 -3.3812247e-02
  5.3937590e-01
  1.6200436e+00
 -1.2940130e+00
 -5.0700957e-01
  2.0637451e-01
  5.5068576e-01
  8.5283619e-01
  5.1340580e+00
  1.0192858e+00
 -1.8055538e-02
  3.3033553e-01
 -5.0592957e+00
 -1.4353502e+00
 -1.2730365e-01
  1.8407127e-01
  1.7202830e-02
 -4.3448427e-01
  7.8832142e-02
 -8.5698861e-01
  7.6702785e-01
 -6.8759471e-02
  1.7265332e+00
  5.7651252e-02
  4.2592697e-02
  5.4622289e-02
  4.0539092e-01
 -2.4045368e-01
 -1.3746392e+00
 -1.9944708e+00
  1.7876576e-01
 -2.1469152e+00
  1.6517225e-01
  1.4372175e+00
  3.6371309e-02
 -2.8735591e-02
 -2.0551027e-01
  5.3603578e-01
  3.6293155e-01
  4.4662791e-01
 -2.1273713e-01
  1.9724010e-01
  5.5394969e-03
  3.3032635e-01
  3.5482287e-01
 -1.3357700e+00
  4.3783832e+00
  6.9615997e-02
  3.8509387e-01
 -4.5754740e-01
  9.0932214e-01
  8.5567868e-01
  1.3550683e+00
  7.1192819e-01
 -9.6488315e-01
  1.6498834e+00
 -9.0782702e-01
  6.3226141e-02
  1.4282244e+00
 -9.9593394e-02
 -2.3937047e-01
  4.7111145e-01
  3.3915696e-01
 -6.7713015e-02
 -6.5757471e-01
  1.5245219e-01
 -1.5779476e+00
  9.1000222e-02
 -1.4754153e+00
 -1.0057520e+00
 -3.8904119e-01
  1.6815228e+00
  6.5080002e-02
  8.2094669e-01
  2.0074589e+00
 -1.7304519e+00
 -2.7712825e-01
  2.6100078e-01
  7.3251635e-02
  9.9708503e-01
  2.0663315e-01
  9.7340816e-01
 -3.3786174e-02
 -5.5512199e+00
  4.1319084e-01
 -5.0395741e+00
  8.3749734e-02
  1.5563495e+00
  2.1499765e-01
  1.5443982e-01
  1.2257838e+00
 -6.8655699e-02
 -8.5593872e+00
  7.0162839e-01
  7.0947981e-01
  1.4444853e+00
 -1.5023611e+00
  1.5770439e+00
  1.0978369e+00
  8.5371125e-01
  1.8301684e+00
 -2.0885942e+00
 -1.5853111e-01
  2.7594180e+00
 -2.6134489e+00
 -6.5856653e-01
  8.5042343e-02
  9.0932421e-02
 -2.0292337e+00
 -1.6385126e+00
  2.2495730e-01
  1.2722461e+00
  3.2501235e+00
 -1.4024431e+00
 -2.0584919e-01
 -3.9337477e-01
 -1.0870161e+00
  8.3639033e-02
  1.1277229e+00
 -5.9445322e-01
 -1.3723478e+00
  4.4130456e-01
 -9.6446043e-01
 -2.3132762e-01
 -2.4888405e-01
 -8.6286885e-01
 -4.2449516e-01
  5.3676063e-01
  2.4975978e-02
  4.5606774e-01
  3.5932317e-01
  1.0900650e+00
  2.0082949e-01
  3.3291101e-01
 -1.3928041e+00
 -1.0305549e-01
  9.9747874e-02
  8.5263275e-02
  2.0037538e-01
  5.3183204e-03
  1.1731655e-01
 -6.0894832e-02
  1.1635928e-02
 -1.6594456e-01
  1.2582608e-01
  3.2819140e-01
 -7.7358909e-02
  3.2639775e-01
 -9.1053285e-02
  1.6007011e-01
 -2.9770038e-01
 -1.0522995e-01
 -1.3974454e-01
 -2.9675588e-01
  5.2721351e-01
  2.1802912e-02
 -4.4994324e-01
 -7.9034054e-01
  9.6669167e-02
 -7.1134287e-01
 -1.9560417e-02
 -5.1265497e-02
 -5.2448893e-01
  2.9934934e-01
  8.1792124e-02
  1.3832060e+00
  6.6323388e-01
 -5.5757027e-02
 -1.1585219e+00
  2.1320508e-01
 -1.1022748e-01
  1.9798402e-01
 -2.2481270e+00
 -2.5772423e-01
 -2.5682056e-01
  3.3850324e-01
  3.8513777e-01
  2.5838168e-02
 -1.6077124e-01
  1.9816104e-01
  1.1613946e-01
  5.5592430e-01
  2.3130827e+00
 -1.1513192e-01
  4.3493623e-01
  5.0721830e-01
  1.0212525e-02
 -9.9266745e-02
 -6.4474362e-01
  2.4827722e-01
 -1.6634001e-01
  2.5749579e-01
 -4.6012264e-01
  8.2797092e-01
  7.1018469e-01
  3.8276408e-02
 -1.1491241e-02
  4.0564588e-01
  3.6424938e-01
 -4.4304207e-01
  1.0717223e+00
 -3.2784915e-01
 -5.5511183e-01
 -1.1108993e-01
 -3.5670134e-01
  3.9866865e-01
 -6.1624622e-01
  3.3543605e-02
  5.9884340e-05
 -9.2109986e-02
 -8.7389106e-01
  2.3377037e-01
 -1.2255278e+00
 -1.3585486e-01
 -7.5474870e-01
 -2.0051608e-02
 -1.0637741e+00
 -3.0081482e+00
 -3.8001671e-02
 -1.5825188e+00
 -4.3048406e-01
 -3.1533551e+00
 -1.9062181e-01
  8.3278462e-02
 -9.1681850e-01
 -3.9271897e-01
 -1.6150556e+00
  4.9536289e-03
 -2.9122379e-01
  2.4616921e-02
 -6.1052170e-02
  1.7480190e+00
 -1.9610550e-01
  4.1998345e-01
  7.0485376e-02
  1.1336796e+00
  1.2195785e-01
 -3.1792164e-01
 -9.7437784e-02
  2.3822170e-01
  5.3424198e-02
  5.7167038e-02
  6.6528469e-01
  9.0706134e-01
 -1.2904009e-01
  8.0486067e-02
  3.9132580e-01
 -1.4167104e-02
 -6.2468779e-01
 -2.3607825e-01
  5.2948184e-02
 -1.9537574e-01
  7.0306432e-01
 -9.6650541e-01
 -1.1075516e-02
 -4.0637474e-03
 -6.2411958e-01
  7.0131920e-02
 -3.8383666e-02
 -4.8181903e-02
  9.2789484e-03
  7.5958811e-02
  2.2441989e-01
  7.7928042e-01
  4.3697044e-01
 -1.0688674e+00
 -5.0654238e-01
 -1.5709828e-01
 -4.2420077e+00
  4.8004627e+00
  2.2447297e-02
  7.4967735e-02
  7.7648550e-01
 -9.6596219e-02
  1.2308314e+00
 -3.2602677e-01
  5.3994429e-01
  7.4890643e-01
 -3.5117534e-01
  4.0855932e-01
 -2.6459852e-01
  8.3317357e-01
 -1.6420977e-03
 -1.7776759e-01
 -3.6188564e-01
  1.6098353e-01
  9.9126303e-01
  6.7796129e-01
  3.7234423e-01
  2.9007794e-02
  5.2548335e-03
 -9.2937618e-01
 -2.0576422e-01
  9.5574987e-01
 -3.7381554e-01
  8.1424542e-02
 -1.7168729e+00
  1.0965765e+00
 -2.3141472e-02
 -4.0597510e-02
 -1.2817608e+00
 -9.2817802e-04
  1.6488487e-01
 -1.1503464e-02
  3.6533417e-03
  2.2732797e-01
 -1.6616158e+00
  1.1661485e-01
  1.0878128e-01
 -3.8731563e-01
 -9.0736993e-02
  2.1986648e-01
  2.0716326e-01
  1.4997366e-02
  8.4460735e-01
 -2.5258726e-01
  4.6107522e-01
  4.1015996e-03
 -1.0972184e+00
 -1.6479377e-01
  1.5609440e-01
  3.3430362e-03
 -1.5466828e+00
  9.2515510e-01
 -7.9716492e-01
 -1.2493794e+00
  3.1253692e-02
 -6.4067262e-01
 -4.5417454e-02
 -8.0855668e-01
  1.5494344e-01
 -4.8543114e-02
  7.8300476e-01
  8.4655190e-01
 -3.4561703e-01
 -5.5481976e-01
  6.5639488e-02
 -8.2622111e-01
 -1.2504607e+00
  1.5099715e+00
 -6.6545784e-02
 -4.0840620e-01
 -3.7967335e-02
  2.1883374e-02
  8.6830683e-02
  4.4721267e-03
 -3.1464961e-01
 -7.2835110e-02
  5.6233990e-01
 -1.2240216e+00
  1.1081054e+00
  1.0754012e-03
  9.6767768e-02
  8.9185955e-03
  2.1269009e-01
 -1.0431811e+00
  8.7832980e-02
 -1.2333686e-01
  1.5032794e+00
  8.6310971e-01
 -3.3042085e-01
 -1.5726961e-02
  6.4304098e-02
 -1.0845231e-01
 -1.3613622e-01
 -1.2946300e-01
 -5.0301385e-01
  7.6882464e-01
  1.4177773e+00
  1.0349094e+00
 -3.2025194e+00
  9.4981176e-01
 -2.9104676e+00
 -1.5328524e+00
 -1.4928501e+00
 -1.6876444e+00
  3.0252054e+00
  2.9715672e+00
  2.5305015e-01
 -6.1735332e-01
  3.4859404e-02
  2.0245617e-02
  4.0904870e+00
 -9.4802022e-02
  1.3223252e+00
  3.2898387e-01
 -7.0391136e-01
  1.1377598e+00
 -4.2366557e+00
  6.2302224e-02
  4.7096869e-01
  4.3140244e+00
  2.5111079e+00
 -1.8978584e+00
 -1.0979027e-01
  2.2616422e-02
  3.6228952e-01
  1.6371275e-01
  1.2248423e+00
 -9.7266924e-01
  3.9774403e-02
 -2.6056240e+00
  1.7286290e-01
 -6.3466370e-01
  2.1067120e-01
  1.2513528e+00
 -6.7285407e-01
  3.6949295e-01
 -2.7427554e+00
 -1.9051335e+00
  1.5291749e-01
  1.8763965e+00
 -7.4441195e-01
 -7.9818135e-01
 -1.9096868e+00
  5.2215099e-01
 -1.8285170e-02
 -1.8030848e-02
  5.0098050e-02
 -1.5817627e+00
  3.9371597e-03
 -2.3953047e+00
  1.0703427e+00
  6.8373328e-01
  3.9782685e-01
 -6.8641031e-01
  4.6483304e-02
  2.0170724e+00
 -1.3370192e-01
 -6.9373238e-01
 -4.1615057e-01
 -1.8513060e+00
 -1.5393303e-01
 -2.2375557e+00
 -4.2787414e+00
 -1.1261220e+00
 -3.5516942e-01
  1.4169991e-02
  3.7729282e+00
 -2.5244234e-02
 -1.3892720e+00
 -6.9281518e-01
 -6.2491286e-01
 -2.0480789e-02
  3.8813379e-01
 -1.5618165e+00
  8.6560386e-01
  5.7996144e-03
 -2.6084827e-02
 -4.2940232e-01
  3.4529384e-02
 -2.0895256e-02
 -1.6037118e-01
 -1.1178917e-01
  1.9145465e-01
  4.5742985e-02
  3.3937281e-01
 -8.5279256e-02
 -3.1621646e-02
  1.0135248e-01
 -5.9386715e-02
  9.2846468e-02
 -1.6653322e-01
  1.0892951e-01
 -5.8054960e-01
  1.6698709e-02
 -1.6397975e-02
 -5.2346289e-01
 -5.3129280e-01
  8.4548610e-01
  2.1249497e-01
 -7.0553802e-02
  2.5403740e-02
 -1.0995596e-01
 -1.6178688e+00
 -1.2967398e+00
  1.2865273e+00
  2.6264852e-01
 -7.2879505e-01
  1.9705644e+00
  3.0707014e+00
  6.2282157e-01
  3.3454975e-01
 -1.9501592e+00
 -3.7692420e+00
  1.3215442e+00
 -2.4971841e-01
 -5.4128006e-02
  1.1657667e-02
 -5.1188767e-01
  2.7976921e+00
  2.1048804e-01
  1.7417659e-03
 -2.8003937e-01
 -5.2900004e-01
 -3.5268802e-02
 -4.8934972e-01
 -8.6787361e-01
  1.5516843e-01
  1.4974187e-01
  7.6787764e-01
  3.8419145e-01
  2.8818998e+00
  1.1839179e+00
 -6.7940734e-02
 -7.1079291e-02
  9.3254220e-01
  1.1462167e-01
  1.2471864e+00
 -4.6876049e-01
 -4.6825439e-01
 -6.1664198e-02
