nep4 1 C 
cutoff 4.2 3.7 98 56
n_max 10 15
basis_size 10 15
l_max 4 2 1
ANN 100 0
 -2.0970376e+00
 -1.6757934e+00
 -1.5945306e+00
 -1.0057650e+00
 -2.1388307e+00
  3.0521805e+00
 -2.5540831e+00
  1.0572009e+00
  1.6860628e+00
 -1.3257455e+00
 -1.3121650e+00
 -7.2120512e-01
  4.3932281e+00
 -1.5180720e+00
  4.0801626e-01
  6.3560629e-01
  1.7784914e-01
  2.5865715e+00
  1.4181056e+00
 -2.2141017e-01
 -2.0969698e+00
 -1.6641145e+00
  1.1855872e-01
 -2.3180320e+00
 -4.8582253e+00
 -2.4583919e+00
  2.1470397e+00
 -7.8734672e-01
  1.6421765e+00
 -1.1793543e+00
 -2.4533745e-02
  1.8261317e+00
  1.5292774e+00
 -1.4829342e+00
  1.5376728e+00
 -5.6280220e-01
 -4.2238359e+00
 -2.5582686e-01
  6.9074236e-02
 -1.1881108e+00
  1.3580896e+00
 -2.0758200e-01
 -5.3575021e-01
  5.6670052e-01
 -2.9722886e+00
 -8.2837182e-01
 -2.3495200e+00
  6.6964298e-02
 -2.8280858e-02
  5.6809491e-01
 -2.2291103e-03
  3.3213367e+00
 -8.3539331e-01
 -2.2244656e+00
  9.1106510e-01
  2.2734021e-01
  2.9459816e-01
 -5.1791060e-01
  1.7530154e+00
 -1.6418650e+00
  2.7345812e+00
 -4.2162633e+00
  1.8304852e-01
  8.3916599e-01
 -8.5023135e-01
 -3.2352689e-01
  7.7836223e-02
  1.7615232e+00
  2.1644020e-01
  2.5911975e-01
  2.7627605e-01
 -5.5748379e-01
 -4.8778999e-01
 -8.1514156e-01
  4.4739774e-01
  5.3706950e-01
  1.0992404e+00
  2.7531915e+00
  1.2184314e+00
 -8.1135666e-01
 -1.9042076e-01
 -1.0007071e+00
  2.2503896e-01
  2.3957497e-01
 -2.0323215e+00
 -6.9086373e-01
 -6.1524254e-01
  1.5869500e-01
  4.8774841e-01
  3.5275819e+00
  9.6634971e-03
 -1.1994144e-01
 -4.2435680e-02
  1.4128499e-02
 -1.1220666e-01
 -3.0233504e-02
  3.3553921e-02
  1.7046873e-02
  3.1512901e-02
 -5.1973186e-02
 -6.3363574e-02
  8.9595407e-02
 -1.7581638e-03
 -2.7160561e-02
  6.2365225e-03
 -1.0140819e-02
  1.0806705e-01
  2.7087324e+00
  4.4765387e+00
 -6.2563878e-01
  3.3533659e+00
 -3.4110090e-01
  2.4293241e-01
 -1.1462244e+00
  4.2260170e-01
 -5.7129729e-01
 -1.9777782e+00
  7.2605526e-01
  7.3672116e-02
 -1.2315872e+00
 -8.7351096e-01
 -2.0271100e-01
 -1.0436287e+00
  7.6378512e-01
  1.1491375e+00
 -9.3445510e-01
  6.9024041e-02
 -4.1936335e-01
 -1.1791695e+00
  2.4424727e+00
 -1.5931764e+00
 -2.0816701e-02
 -3.3055468e+00
 -1.8666855e+00
 -2.3341959e+00
 -9.8278910e-01
  7.4947618e-02
 -2.7953658e+00
  2.7635248e+00
  3.2685548e-01
 -1.1422981e+00
 -2.2884219e+00
  2.2835658e+00
 -3.2863322e-01
 -1.2125608e+00
 -5.7721180e-01
  4.3432912e-01
  1.4610161e+00
  5.6563938e-01
 -1.6807128e+00
 -3.0765569e+00
  5.0802195e-01
  2.7697885e+00
 -8.0007650e-03
  2.4574659e+00
 -1.3268634e+00
 -2.7690306e-01
  2.9653866e+00
  8.6397278e-01
 -2.6690885e-01
 -4.2214072e-01
 -2.2211235e+00
  2.7908558e-01
  1.1254395e+00
  8.9699936e-01
 -2.2896631e+00
  1.3442185e+00
  6.6534567e-01
  8.9822024e-02
 -3.4069543e+00
  3.5005851e+00
 -8.9288628e-01
 -1.0749744e+00
 -9.7604722e-01
 -1.3474267e+00
 -3.5684738e-02
  6.8919611e-01
 -2.9062068e-01
 -1.1190813e+00
 -2.4727755e+00
  1.7337228e+00
  5.6926751e-01
 -2.0965862e-01
 -1.5066046e+00
 -1.0258307e+00
 -1.2073158e+00
 -1.5776601e-01
 -1.5015160e-01
 -6.0292380e-03
  9.1506183e-01
 -1.1302202e+00
 -4.2418081e-02
  2.6377158e-02
 -1.2118351e-01
 -2.3113248e-01
 -6.1811819e-03
 -4.4357476e-01
 -1.3112944e-02
 -4.7755972e-03
  1.0333426e+00
 -1.6566857e+00
 -3.4391403e-02
  2.2457089e-04
 -2.0949300e-02
 -3.0589644e-02
  4.7949650e-03
  4.0378392e-02
 -1.0169080e-02
 -1.4401317e-02
 -5.2642979e-02
  2.1148815e-03
  1.0659340e-02
 -9.3124159e-02
  3.3144571e-02
 -1.9539219e+00
  1.0839263e+00
  9.1375522e-02
 -1.9179915e+00
  1.2605597e+00
  2.3738735e+00
 -8.7170929e-01
  1.3052885e-01
 -3.8543096e-01
  3.6435750e+00
 -1.9041981e+00
 -1.3150156e+00
 -3.7284939e+00
 -8.0518347e-01
  2.0510094e-01
  3.0815887e+00
 -6.8075478e-01
  1.3064609e+00
 -1.0697703e+00
  1.7478532e-01
 -2.1670613e-02
 -2.6438310e+00
  3.9970763e-02
  2.2211258e+00
  1.3641639e+00
  1.7176716e+00
 -1.6863170e+00
 -1.0785962e+00
 -7.5290072e-01
 -1.5614317e-01
 -4.3559108e+00
 -3.2157190e+00
  3.6411875e-01
  9.9333745e-01
 -5.1642841e-01
 -1.6997241e+00
  2.6616890e+00
  5.8870989e-01
  1.5034078e+00
  1.1355104e-01
  2.2678437e+00
 -3.0971956e-01
 -3.4880024e-01
  3.3822293e+00
  3.4345744e+00
 -4.2690082e+00
  8.8771991e-02
 -3.7192377e-01
  1.9395138e+00
  6.3684601e-01
  1.3129221e-01
 -9.6635103e-01
 -3.1957235e+00
 -2.6365130e+00
 -6.5959823e-01
 -5.9307510e-01
 -2.0563517e-02
 -4.4121915e-01
  9.0685010e-01
 -2.0744504e-01
 -3.0918725e+00
 -7.3770088e-01
  4.7870979e-01
  1.5263864e+00
  1.6631711e-01
 -1.1633081e+00
 -3.4429400e+00
  2.4987401e-01
  1.3518784e+00
  8.1795025e-01
 -4.1458437e-01
  1.1009042e+00
 -6.5992695e-01
 -2.2599624e-01
  2.9376650e-01
 -5.2906044e-02
 -1.0812929e+00
  1.4051511e+00
 -7.7894792e-02
  3.8559015e+00
  3.4655707e+00
 -2.4275153e+00
 -2.0397749e+00
 -6.6396171e-01
 -2.9431446e-02
 -2.3861539e+00
 -1.9877557e-02
 -8.8886559e-01
  1.5814269e+00
 -2.9633167e+00
 -2.5895545e-01
 -8.0561060e-03
  9.2414439e-02
  2.1952314e-02
  4.0717148e-03
  7.8347456e-01
 -1.8510444e-02
  2.3491536e-01
  5.4862045e-02
 -5.7267416e-03
 -6.5338790e-02
  4.9912129e-02
  3.1754263e-02
 -9.8284006e-02
  4.7167841e-02
  8.7734506e-02
  2.9356901e-02
  9.5941138e-01
 -9.1729933e-01
 -1.7521123e+00
  4.7896683e-01
 -1.6918421e-02
  2.0579669e+00
  6.9017839e+00
 -2.9629189e-01
 -8.3480352e-01
 -9.7722304e-01
 -7.5833905e-01
 -1.8665282e-02
  2.2862321e-02
  4.6397869e-02
  2.7285702e+00
  2.4534390e+00
  1.8121035e+00
  3.3610642e-02
 -2.7408345e-02
 -5.0240636e-01
  5.6250632e-01
  9.9060738e-01
 -2.3171380e-02
 -6.4192498e-03
  1.8578824e-02
 -1.6861635e+00
  1.8889692e+00
 -8.6570346e-01
  1.1484808e+00
 -2.6446139e-02
  2.6664371e-02
 -4.9167421e-02
 -3.6109556e-02
  2.0532255e+00
  2.2594283e+00
 -1.8831273e+00
 -7.7353853e-01
 -1.1229095e-01
 -1.7871033e-01
  1.0507360e+00
  2.8478703e-01
  2.9352472e+00
 -7.3519754e-01
 -5.1813728e-01
 -4.7942567e-01
 -1.2089889e-02
  8.1044696e-03
  9.8068607e-01
  1.0734509e+00
  1.9104492e-02
 -1.5110737e-02
 -1.9006321e-02
  2.5858095e+00
  1.3215154e-02
  1.7536210e+00
 -1.3212116e-01
  1.3987777e+00
  2.6962301e-01
 -8.4620528e-02
  5.2739554e-03
 -7.8179091e-02
 -8.8563859e-02
 -3.1527698e-01
  1.4447594e+00
  8.9963041e-02
 -3.5634454e-02
  8.6799208e-03
 -2.3764365e-03
  1.2979273e-03
  4.6680635e-03
 -6.0735196e-03
 -6.0893220e-01
 -6.3886750e-01
  2.2259841e-02
  2.6742039e-02
  9.1868751e-03
  2.3753105e-02
 -8.7393256e-04
  2.1828227e-02
  1.1486466e+00
  7.8887334e-03
  6.1593290e-02
 -5.9939522e-02
 -8.5956648e-02
  1.8288188e-02
 -4.8296686e-02
 -1.1609485e-01
  1.5694724e-01
  6.1751613e-03
 -4.6490293e-02
 -1.4854292e-04
 -3.2750601e-01
 -1.0701791e-02
 -1.9362226e-02
 -6.0459757e-03
 -1.1701943e-02
  1.6923821e-02
 -1.4875205e-02
  3.5444736e-03
  4.4330911e-04
  3.0754266e-02
  2.7380221e-02
 -7.1410649e-03
  1.2398950e-02
  9.2166342e-02
 -2.2908400e-01
  5.6743850e-03
 -1.5220209e+00
  1.0870693e+00
  2.6837046e+00
  6.0041556e+00
  9.1296607e-01
 -1.0271900e+00
 -1.1765146e-01
 -3.8861003e+00
  1.4258881e+00
 -1.2789623e+00
  5.8564746e-01
 -2.1916976e+00
  3.8900644e-01
  1.8854702e-01
 -1.4927390e-02
  2.9454777e+00
  5.7017434e-01
  4.7596005e-01
  3.2532394e-02
  7.7196732e-02
  1.0951056e+00
 -6.9078566e-03
  6.2739672e-03
 -1.9058222e+00
 -2.2336242e-03
 -3.0428069e+00
  8.8953102e-01
 -1.2070985e+00
  1.0304133e+00
  1.4535929e+00
 -1.6456902e-01
 -1.4002160e+00
  1.5297084e+00
  2.4601808e+00
 -3.4315654e-03
 -1.5687068e+00
  3.8478011e-01
  1.0005032e+00
  9.5339835e-01
 -2.1996989e+00
 -1.4307623e-01
 -1.1838287e+00
 -2.4211949e-03
  1.6123301e+00
 -7.1316928e-01
  2.3926845e-01
 -2.1111052e+00
 -1.6874956e+00
 -1.9244273e+00
  2.1393504e+00
  6.8522239e-01
  1.1186752e-01
  1.7751613e-01
 -4.9030736e-01
 -3.4044499e+00
  6.7963833e-01
  1.1587448e+00
 -2.0450154e-01
  1.1969040e-02
  3.9489368e-01
 -3.1227816e-02
 -7.7958560e-01
 -7.0145883e-02
 -1.7249637e+00
  6.4193624e-01
 -8.4469199e-01
 -1.5180918e+00
 -9.3222338e-01
 -6.1835873e-01
  2.5729895e-01
  2.1837298e-02
 -3.7224345e-02
  1.5984851e-01
  1.8203567e+00
  1.6359571e-02
 -6.2342989e-01
  5.4661892e-03
  5.2194782e-02
 -3.6345378e-02
  1.6981167e+00
  3.0991454e+00
  4.2242226e-01
  4.0310919e-02
 -4.6632639e-03
  2.9923504e-02
 -3.3605650e-01
 -5.8304554e-01
 -9.2769766e-01
  3.3801407e-02
 -2.7525848e-01
  1.9012708e-02
 -4.9208432e-01
  1.8960886e-02
 -5.3181979e-03
  1.4354342e-02
 -4.5150217e-02
  2.1496521e-02
 -6.0680099e-03
  4.1894589e-02
 -2.7557509e-02
 -7.5247861e-02
 -3.4614312e-03
 -7.8172728e-02
  5.5646580e-03
  1.7318590e-02
  4.5973645e-03
 -6.9132730e-02
  3.0820078e-01
  1.6237394e+00
  4.2217988e-01
  2.6544702e+00
  1.2749245e+00
 -2.0862930e+00
  4.6003282e-02
 -3.8586719e+00
 -1.5648225e-02
  2.6594183e+00
  4.0280333e+00
  1.5955982e-01
  1.9257309e+00
 -1.0118341e-01
 -2.8264384e+00
  4.4781521e-01
  1.5691539e+00
 -2.4583454e-01
  1.1017809e+00
 -1.2694604e+00
  9.4087404e-01
  1.3390058e+00
 -5.2892852e-01
  2.5052612e+00
  1.2802736e+00
  2.7447884e+00
  2.6049739e-01
  6.0087334e-02
 -2.8889671e-01
  3.9706042e-01
  4.1041636e-01
  9.4040446e-02
  4.6776086e-01
 -4.9843559e-01
  8.0485338e-01
 -1.0379094e+00
  2.4986577e+00
 -8.2473963e-02
 -6.1191118e-01
  1.4290664e+00
  1.3859420e-01
  4.3916907e+00
 -1.3670385e-01
 -2.1521027e+00
 -7.6615679e-01
  3.7075105e-01
  1.9903852e+00
  1.2701148e+00
 -9.3006253e-01
  1.2790556e+00
 -1.2617197e+00
  1.9836789e-02
  2.0601146e-02
  2.7812213e-01
  9.8231429e-01
  8.7527180e-01
 -4.2893273e-01
 -1.1290851e-02
  6.7579603e-01
 -3.8330221e-01
 -9.1451935e-02
  1.8499266e-01
  1.9836514e+00
  1.7289312e+00
 -2.8607678e-03
  2.6161703e-01
 -1.2158742e+00
 -9.4556612e-01
 -1.4757762e+00
 -4.0769145e-02
  9.2291397e-01
 -8.9410913e-01
  4.1226512e-01
 -7.4533296e-01
 -1.4593265e+00
 -1.7573545e+00
  1.7520304e+00
 -4.1400004e-02
  8.5346680e-03
 -1.9879179e+00
  2.1216786e-03
 -7.2482026e-01
  1.8312187e+00
  2.5401050e-01
 -3.2701612e+00
  4.8809815e-02
 -1.5685624e-02
 -2.3683558e+00
  2.4134648e+00
  3.8328278e+00
 -1.4070343e-02
  1.0587923e-02
 -4.4908289e-02
 -1.7441718e-03
 -3.4620572e-02
 -4.1085673e-03
  1.2456180e-02
  6.9583431e-02
 -5.6545712e-02
 -4.4638012e-02
  6.7144707e-02
 -4.6888165e-02
  1.1250027e-02
  5.1379128e-04
 -1.6508544e-03
 -1.0230084e-01
 -1.3273750e-03
 -4.6515241e+00
 -1.1939344e+00
  3.3027079e+00
 -2.5149624e+00
  9.1732472e-02
 -2.0966539e+00
  9.5012271e-01
  1.0091181e+00
  6.5809524e-01
  2.2991233e+00
  2.3856435e+00
 -1.7081951e+00
 -3.0728939e-01
 -5.5472605e-02
 -1.9873860e+00
  4.4452310e+00
 -9.5227146e-01
  1.7121409e+00
 -1.8147113e+00
  1.3278955e-01
  3.5425907e-01
  1.0790396e-01
  2.0120207e-03
 -3.1794233e+00
  3.0195148e+00
 -3.4206779e+00
  8.0953754e-02
 -9.2734694e-01
 -2.8312859e-01
  4.2226973e-01
  1.2739257e+00
 -1.5640004e+00
 -1.1574934e+00
  1.1035925e+00
 -2.4478595e+00
  1.8728358e-01
 -5.5255681e-01
  8.7682563e-01
  2.3610883e+00
 -2.6183698e-01
  3.7388837e-01
 -9.5005798e-01
 -3.0757448e-01
  1.7860118e+00
  5.2544814e-01
 -2.1206643e-01
 -2.7417328e+00
 -7.6382583e-01
  9.1732997e-01
 -1.2138164e-01
 -1.2618654e+00
  2.8546760e-02
  2.0491078e+00
 -1.4300792e+00
 -3.5577767e+00
 -3.3494031e+00
 -1.4632673e+00
  1.5076698e+00
 -1.2640779e-02
  3.1935479e-02
  8.2225013e-01
  2.7843639e-01
 -1.7599477e+00
 -5.4585648e-01
  9.3627051e-02
 -8.0882001e-01
  2.0906115e-02
 -2.6852742e-02
  2.5557750e-01
 -1.7415410e-01
 -1.6056794e+00
  1.0313003e+00
 -1.9748954e+00
  2.0371864e+00
 -6.0863968e-02
 -4.2074535e-02
 -5.6977391e-01
  8.1430322e-01
 -8.2167573e-02
  1.2984688e+00
  1.8835628e-02
 -1.3915244e+00
  8.0961641e-03
 -3.3310166e-01
  5.2665465e-02
 -4.7691442e-02
  7.7802977e-03
 -2.4648948e-02
 -8.0407810e-01
 -7.0499517e-02
  4.7519177e-02
  4.1588429e-02
 -3.2813247e-02
 -3.6805287e-02
 -3.1188885e-02
  7.4479863e-02
 -8.5409962e-02
 -8.8383947e-03
 -1.6329634e-05
 -8.1064828e-02
  6.8476307e-03
  2.4459470e-02
 -1.6235590e-01
 -6.3880198e-02
 -1.6598964e-02
 -1.9490263e-01
 -1.5824731e-01
 -9.5619380e-01
 -9.3826182e-02
  2.6287906e+00
  1.7898697e+00
  2.0551746e+00
 -1.1493821e-01
  2.1436970e+00
 -4.7261158e-01
  1.9103789e-01
  2.1978114e+00
 -7.4609447e-01
 -1.1668148e+00
 -9.9959552e-01
  8.8238969e-02
  3.9042108e+00
  5.8212560e-01
  1.7926892e-02
 -8.1616509e-01
 -1.2178859e+00
  2.5844550e-02
 -1.4089065e+00
  3.5775673e-01
  2.6841681e-02
 -6.1171645e-01
  8.4458701e-03
 -2.2622645e+00
 -2.4470015e+00
 -2.0272059e+00
  3.5425754e+00
  1.2847142e+00
  2.3305585e+00
  3.9649737e-01
  8.0926931e-01
  3.5092145e-01
 -3.3340909e+00
 -2.7034841e+00
  2.8183384e+00
  1.3641447e+00
  2.8738165e-01
 -2.9509547e-01
 -2.5525634e+00
  2.2020912e-01
 -7.3737037e-01
 -2.1375878e+00
 -2.2275583e-01
  2.5517774e+00
 -9.5117903e-01
 -1.8665214e-01
 -3.6203196e+00
  7.6570827e-01
 -2.3963106e+00
 -3.1619076e-02
  3.7389669e+00
 -1.2258461e+00
  1.0834329e+00
 -7.8182891e-02
 -5.6092906e-01
  3.5483606e+00
  2.1509838e-01
  1.0956465e-01
 -1.7625969e-02
  5.4389381e-01
  6.8190232e-02
 -3.3035588e+00
 -1.4246508e-02
  6.1182648e-01
  4.4602075e-01
 -1.9968667e+00
  8.3370614e-01
 -1.6172840e-01
 -2.8181788e-01
 -9.7165549e-01
  3.5163935e-04
  2.9413450e+00
  7.0117718e-01
  6.9300687e-01
  2.6386252e-03
 -5.6128061e-01
 -4.8057005e-01
 -3.5723627e+00
  2.7485126e-01
  1.3173623e-02
  6.8835157e-01
  4.3212453e-01
 -3.0473175e+00
 -8.9835000e-01
  1.3343361e-02
  1.7265226e+00
 -6.1260343e-01
 -1.6709270e+00
  6.8581358e-02
  1.9413920e-02
  3.3005953e-02
  4.4046044e-02
 -1.3017232e-02
 -7.1073666e-02
  1.5724177e-03
  8.3491369e-04
  1.7845385e-02
 -3.9197635e-03
 -1.7887371e-02
  2.8768331e-01
 -2.6312042e-02
  6.1492585e-02
 -3.1085217e-01
  1.7450549e-02
  1.9576596e-02
 -9.2256263e-02
  2.0873731e-01
  1.0565627e-01
 -1.0470434e-01
 -1.0381970e+00
  8.8420085e-04
 -3.0194390e+00
  8.0273263e-03
  1.2673235e-01
  8.7366235e-01
 -2.6064846e-01
 -2.2638836e+00
 -2.9231647e-01
  8.1480753e-01
  2.0944929e+00
  2.3624566e+00
  2.7337892e+00
 -3.2516623e-01
 -1.7588848e+00
 -9.7866893e-01
  3.7091393e+00
  2.1870983e+00
  6.7889547e-01
 -1.9759623e-02
 -2.8827241e-01
 -3.8588290e+00
  1.9077387e-02
  3.7759452e+00
 -1.8340179e-01
  1.1507406e-02
  1.7449379e+00
 -3.1530495e+00
  6.9685310e-01
  1.3490224e+00
  6.5142471e-01
 -7.1789458e-02
 -1.1896254e+00
  1.4491990e+00
 -1.9025981e+00
  2.9782219e+00
 -7.9568103e-03
 -3.8967749e-01
  2.2159459e-02
  5.1190209e-01
 -1.2223774e+00
  3.9780028e-02
  1.3435746e+00
  1.0681694e+00
  1.0525655e+00
 -4.5676434e-01
  3.2001872e-02
  1.4676666e+00
  2.1264589e+00
  1.5413114e-01
  2.1945000e+00
 -2.4598332e-01
 -1.0180061e+00
 -3.8586843e+00
 -3.1626755e-01
 -1.6392193e+00
  1.4870247e-01
  1.2753455e-01
  6.1734140e-01
 -7.3653036e-01
 -3.5258055e-01
  7.7524237e-02
 -2.2554152e+00
  1.7149107e+00
  3.5194957e-01
 -6.7839181e-01
  7.6661378e-01
 -9.8029174e-02
  9.0354770e-01
  6.8641663e-01
 -2.8535244e-01
  3.5109863e-02
  1.0853313e+00
 -2.4618085e-01
  2.6209041e-02
  1.4691768e+00
 -1.2925857e-01
  1.9704136e+00
 -1.4641307e-02
  5.4581333e-02
  1.9282150e+00
  1.0980319e+00
  6.9003612e-02
 -3.6104009e-02
 -4.2208869e-02
  1.6696023e+00
 -8.3040453e-02
 -2.2517551e-02
  2.0205071e-03
  2.9831201e-02
 -1.6839957e-02
  1.7406978e-02
  4.4191338e-02
  1.2344593e-02
 -1.2823329e-02
 -1.1987904e-02
  6.8871742e-03
 -1.1689844e-01
  2.6090452e-03
 -1.8437097e-02
 -2.1241004e-02
 -7.9869546e-02
 -7.4325409e-03
 -3.9563584e-01
 -6.2723184e-01
 -1.4767528e-01
 -3.1656492e-01
 -6.3073093e-01
 -2.1672605e-02
  7.7031708e-01
  1.3826914e-01
  8.9860421e-01
 -2.5861360e-02
 -1.4634922e+00
  1.7490005e+00
  6.1881810e-01
 -4.4942972e-01
  7.3580068e-01
  7.0015989e-02
  9.7944134e-01
  2.7984498e+00
 -1.1170525e-02
  4.0345616e-03
 -4.3785483e-02
 -8.6475879e-01
 -6.9333607e-01
 -6.1629736e-03
 -7.4009675e-01
  1.0996270e-02
 -1.4837340e-02
 -5.3055620e-01
 -1.2674446e+00
 -1.8761939e-01
  8.8581121e-01
  1.9215934e+00
  2.0563819e-01
 -1.0863518e+00
 -1.1885003e+00
 -1.9204463e+00
 -2.0559666e+00
 -2.0647562e-01
  7.0202254e-02
  1.6058078e-01
  1.5432957e+00
 -3.6913338e+00
  9.3206686e-01
  7.7173954e-01
 -7.0687395e-01
  8.3025211e-01
  2.1863248e+00
 -6.2322074e-01
  3.7269861e-01
 -7.2674942e-01
 -5.7511419e-01
  2.8652531e-01
 -1.3658235e+00
 -1.3207795e-01
 -2.1357223e-01
 -1.8996279e-01
 -8.7886965e-01
 -5.7896978e-01
  3.9363228e-02
 -6.0903132e-01
  2.3054941e-01
 -1.5465111e-02
  2.9479079e+00
 -1.1358317e+00
 -2.8124964e-01
  8.6409903e-01
 -1.6667329e-01
  3.2139206e-01
 -2.2970412e+00
 -8.2087404e-01
  3.1665832e-01
  9.4773734e-01
 -7.9137996e-02
  7.2658672e-03
 -1.2865196e-01
  8.1912223e-03
 -2.6652765e-01
 -7.3083408e-02
  1.4813805e-01
 -1.0476009e+00
  4.2151606e-01
 -3.8505808e-02
  2.6122588e-01
  8.8511603e-03
 -9.9057565e-03
  6.5287384e-03
  3.8871411e-03
  3.1564743e-03
 -3.7834185e-01
 -1.8245138e-01
 -2.4178633e-02
  1.1010352e-01
  6.5408236e-01
 -9.0698693e-03
  2.7719315e-02
 -4.9714696e-02
  2.5806506e-04
  8.6821131e-03
  5.8472853e-02
 -9.6702436e-03
  7.4435681e-02
 -9.4154470e-02
  1.6105523e-02
  5.8666479e-02
  5.1919159e-02
 -7.4966893e-02
 -1.2598131e+00
  7.7254340e-02
 -1.4427529e-01
  3.7103944e+00
  1.1376754e+00
  5.4971540e-01
  1.7168672e-01
  6.7869073e-01
  1.2910894e-01
 -4.9921516e-02
  1.7621951e+00
  4.6218267e-01
  8.5402858e-01
  1.8518530e-01
 -5.8183789e-01
  9.8838204e-01
  5.9304267e-02
  7.5971246e-01
 -8.6684227e-01
  5.4093609e-03
  1.2289101e+00
  1.4897940e-01
  1.5733941e+00
 -2.1257234e+00
  5.7714251e-03
  1.0176576e-02
 -1.3187046e+00
  4.8590738e-01
 -1.6038625e-01
  2.3814720e-01
 -2.8860459e-01
 -4.4117525e-02
  8.3013767e-01
 -9.3350157e-02
 -3.5703368e-04
 -1.1627035e+00
 -2.1558138e-02
  4.8634846e-02
 -1.1561362e+00
 -1.7856726e-01
  3.4671429e-01
  2.0268776e+00
 -7.8947324e-01
 -5.0513446e-01
 -7.1737450e-01
  3.9921299e-01
 -6.3612811e-02
  5.8506024e-01
  1.0284518e-01
  1.8005620e-01
  2.8269034e-02
 -1.2986630e-01
  5.7144772e-02
 -4.4959295e-01
 -1.2733630e-02
  4.8197892e-01
  1.5511857e-01
  7.7538481e-03
  7.8841132e-01
  2.3621410e-02
  5.0912070e-01
 -1.0488580e+00
  4.3432730e-01
  8.8063283e-03
  2.4035591e-01
  1.2080166e-02
 -9.1204651e-02
  1.4612523e-01
  1.2946719e-02
  3.2659394e-01
 -1.2481539e-02
  4.4450182e-01
 -4.8598931e-03
  2.3474382e-02
 -1.6461168e-01
 -2.8572521e-01
 -1.8401130e-01
 -1.3757194e+00
  1.4655497e-02
  1.6399166e-01
  2.3752501e+00
  3.0950652e-02
  2.5438046e-02
  3.7825227e-02
  1.3868549e+00
  1.7919551e-01
 -1.3758116e-02
  3.8207483e-02
 -2.1838218e-02
 -2.2091752e-02
 -1.2119522e+00
  1.2463909e-01
  2.5451502e-02
 -1.7028261e+00
 -3.2366447e-02
  3.2192913e-03
 -9.6001616e-03
  2.2300599e-02
  4.4911869e-02
 -2.0654751e-02
 -1.2008470e-02
  1.8232366e-02
 -2.0104874e-02
 -1.0634526e-02
 -1.7158411e-02
  4.8979381e-03
  2.6086215e-02
  7.0639275e-02
 -7.4179620e-01
 -2.1655797e-03
 -3.0523650e-02
 -1.7892172e+00
  1.6912533e-01
  1.2161757e+00
 -2.0510001e+00
  1.8748868e-03
 -5.5721827e-02
 -5.2237785e-01
 -1.1201397e+00
 -7.2586018e-04
 -1.4779316e+00
 -3.0378383e-02
 -3.8296691e-01
  1.6483371e+00
  1.6490505e+00
 -3.4976229e-03
  1.9976054e-01
 -6.4291365e-02
  1.2836249e+00
 -1.1857649e-02
  8.8263497e-02
  1.0376991e-01
  6.8763934e-02
  1.0756006e+00
 -1.2657285e-01
  5.5922890e-01
 -6.7890060e-01
  2.5438890e-01
 -4.0118022e+00
 -8.5251552e-01
 -3.1031933e-01
 -5.4423106e-01
  4.9013935e-02
 -1.3170415e-01
 -2.6681583e-02
  1.3460925e-02
  7.9534827e-03
 -1.0869234e-02
  1.7545834e-01
  4.4609085e-03
 -1.0459422e-01
  1.5211564e-02
 -1.3574894e-01
  6.5366216e-02
 -8.8829237e-01
 -5.6347245e-01
 -6.5903835e-02
 -7.4117981e-02
  9.6226346e-01
  8.6309813e-02
  2.3409462e+00
 -1.7294581e-01
  1.3001012e+00
 -4.0925559e-01
  2.0095241e-01
 -3.3278260e+00
 -7.4247736e-01
  6.5267420e-01
  1.1694218e+00
 -3.7189178e-02
 -1.6033698e-02
 -4.0342215e-02
 -3.9683354e-01
 -4.8591617e-02
 -6.1149800e-01
 -5.1149756e-01
 -2.5806904e-01
  6.9470137e-01
 -3.0341378e-01
  3.9557774e-02
  1.0050677e+00
  1.0651547e+00
 -5.1650602e-01
  1.4680622e-02
 -1.6855177e-01
 -1.4947958e-01
 -4.8053183e-02
 -9.9250702e-03
  1.2785923e+00
 -8.0794126e-02
  1.4354556e-02
 -4.5185044e-02
  3.8579691e-02
 -3.1108705e-02
 -1.5508633e-02
 -4.0018725e-01
 -6.5164608e-03
  1.8387145e-01
  4.7418628e-02
  2.9245338e-03
  3.0294172e-02
  2.0035626e-02
 -5.4176017e-03
  3.1196558e+00
  6.7845345e-02
  5.2466545e+00
 -2.6882149e-02
  6.0955968e-02
 -2.3977766e-02
 -5.4227603e-03
 -1.2255056e-01
  1.4020043e-02
 -1.4496362e-03
 -3.1981308e-02
 -8.7272298e-01
 -2.6820809e-01
  2.9889495e+00
  2.9138440e-01
 -1.3262498e+00
  2.2724912e+00
  4.2691183e-01
 -5.1109524e+00
  1.9330232e+00
  7.8957045e-01
  8.8012207e-01
 -7.4691319e-01
 -4.8527684e-02
 -5.1760898e+00
 -4.4723305e-01
  2.5168068e+00
  3.1031590e+00
  6.6391118e-02
 -1.9768105e+00
  2.2649095e+00
 -3.9897242e-01
  5.9215698e+00
 -9.4005823e-02
  1.2997558e+00
 -1.7102531e-01
  2.4103294e-01
 -1.3272855e+00
 -1.8555325e-01
  3.0175464e-02
 -1.9226402e+00
  7.7171373e-01
 -1.4431039e+00
  4.3031174e-01
  2.3744449e-01
  4.2792273e+00
  5.9844941e-01
  9.9686635e-01
  1.2956195e+00
  1.6533969e-02
  2.8027213e+00
  7.2316426e-01
  3.7316626e-01
 -5.2407908e+00
  2.2556157e+00
  1.8545102e+00
  2.0712230e+00
  1.1639619e+00
  2.1988428e+00
  1.2882930e+00
  1.0902958e+00
 -1.3109643e+00
  1.0963326e-01
 -3.1555757e-02
 -5.0276051e+00
 -1.3208182e-01
 -1.5291492e-02
  8.6237514e-01
 -4.9998644e-01
 -7.5676787e-01
  1.2321641e+00
 -5.9672344e-01
 -1.6415927e+00
  1.7436963e-01
  1.9863437e+00
  1.6315302e+00
 -2.3214233e+00
  5.3248394e-01
 -2.8882298e-01
  2.5323582e-01
 -1.0691743e+00
  3.6439705e-01
 -1.2619505e+00
  7.7628917e-01
 -1.3564034e+00
  4.8693952e-01
 -5.3184805e+00
 -2.8412834e-02
 -2.1499516e-01
  4.1640404e-01
 -1.3097736e+00
  2.5262792e+00
  3.6183140e-01
 -4.9393503e-03
 -1.4399699e+00
 -6.6899800e-01
  1.6941415e-02
 -4.6277002e-01
 -1.6224608e+00
  1.8198638e+00
  2.0288283e-01
 -2.3202994e+00
 -2.2086646e-02
 -9.2201363e-03
 -1.1837262e-02
  1.9796656e-03
  8.1702787e-03
  8.0122834e-01
  1.1529628e+00
  8.2556754e-03
  3.4566488e-02
 -4.6176780e-02
  1.7900552e-01
 -5.2270036e-02
  1.0051513e-01
  3.8534723e-02
 -7.2504029e-02
 -5.1611178e-03
 -2.4905819e-02
  2.4830601e+00
 -2.2612022e-01
 -1.9010395e-01
 -1.2649860e+00
  4.4974741e-01
 -1.3419197e+00
 -1.2717088e+00
 -1.7147875e-01
 -9.0462726e-01
 -4.1146727e+00
  1.7924145e-01
 -5.4658020e-01
  1.0658085e+00
  1.2686227e-02
 -6.2715912e-01
  3.8824201e+00
 -1.3280901e-01
  1.4974394e-02
 -5.3467169e-02
  4.7664051e-03
 -1.8849584e-01
 -8.2796448e-01
 -7.4691500e-04
  3.5264537e-02
  1.4684277e+00
 -4.8769733e-01
  1.4437028e-03
  4.5322773e-01
 -2.2664859e+00
 -3.2921541e-01
  3.5487807e-01
 -1.8413037e+00
  3.8060833e-02
 -8.5165846e-01
 -1.6445255e-02
 -1.1382475e-02
 -1.1096337e+00
 -8.0010146e-01
  1.3337144e-01
  2.2291358e-01
 -7.2881258e-03
 -9.5695471e-03
 -5.4820257e-01
  4.5918908e+00
  4.3638492e-01
 -3.8459674e-02
 -4.9481353e-01
  1.4594935e+00
 -3.6926195e-01
 -5.0359356e-01
  1.1893845e-02
  4.2296812e-02
 -1.9908435e+00
 -8.1326562e-01
  7.5109862e-03
 -3.0393702e-01
 -2.3659163e+00
 -5.3477123e-02
 -2.6562753e+00
  2.6590532e-01
  1.2816019e-01
  7.3581841e-03
 -3.8314387e-02
 -3.2386775e+00
 -5.4874911e-04
 -1.1600262e-03
 -2.0720470e+00
 -9.9618465e-01
  2.2960215e+00
 -7.9086334e-01
 -8.6402059e-02
  4.3797136e-05
  2.5112294e-02
 -9.9787408e-01
  2.3757817e-02
 -2.1575471e-02
  5.1582571e-02
 -1.0365016e-02
 -3.8650874e-02
  2.4200726e-01
  1.1761757e-02
  1.5736328e-02
  2.3040660e-02
  1.8953247e-02
  1.0964828e+00
  1.0528563e-01
  5.9283808e-02
 -1.3428203e-02
 -4.7485951e-02
  1.7193878e-01
 -2.4054397e-02
 -4.0337421e-02
 -2.2071982e-02
  7.9413429e-03
 -2.3227225e-03
  1.7595534e-01
 -4.8619319e-02
  2.3435609e-02
 -1.3197541e-01
  1.0349630e-02
 -1.0087889e-02
  3.3609819e-02
  1.2129745e-02
 -2.6416294e-02
 -8.6279288e-03
  3.3939511e-02
 -2.7795091e-02
 -4.9934027e-01
 -1.0159899e+00
  1.8200004e-01
 -9.1302353e-01
 -1.4626557e+00
  5.4583770e-01
  1.1545777e-01
 -1.2202642e+00
  1.9851325e+00
 -1.6772697e+00
 -3.1263177e+00
  7.7085239e-03
  2.0579486e+00
 -1.1653759e-01
 -8.1164166e-03
 -1.2777326e-01
  4.2278375e-02
 -3.1151723e-02
 -8.3372379e-03
 -1.3301766e-01
  1.1933017e-01
 -3.0288010e+00
 -1.0953335e+00
 -1.2665641e-01
 -2.1650098e-01
  2.2129395e+00
  4.1352572e+00
 -8.0866545e-01
  2.7009392e-01
  4.7439536e-01
 -1.1023873e+00
  1.3835898e-01
  3.5744681e+00
 -5.8881557e-01
 -4.1346583e-01
  7.1847357e-02
 -2.4511224e-01
  2.5982240e-01
  2.6235697e+00
 -1.1325694e+00
 -1.1770989e+00
 -2.6529511e-02
  9.9293686e-02
 -6.0275320e-02
 -9.8585151e-02
 -1.0545818e+00
 -2.0924072e+00
 -1.5474048e+00
  4.4651130e-01
  2.4854468e-02
 -6.9771624e-01
  1.2661147e+00
 -4.5041874e-01
  3.2557553e-01
 -7.0837629e-01
 -1.0744784e+00
  6.5131599e-01
  4.1307025e+00
  6.1802793e-01
  1.5153982e-01
  1.9909966e-01
  1.2175308e-01
 -2.6487474e+00
  1.8204554e+00
 -2.4304724e-01
 -2.3534212e+00
  1.4738168e+00
 -1.0924064e-02
 -4.1485295e+00
  1.2004324e-02
 -7.2846812e-01
 -3.4867805e-01
 -1.1625948e+00
  1.1843694e+00
 -3.2711696e-02
  5.2487278e-01
 -1.2892327e-01
  9.3924832e-03
 -2.0899508e-02
 -1.1318882e-01
 -3.2671353e-01
  1.9753251e-02
 -1.3863501e-02
 -3.9476179e-02
  6.4559296e-02
  4.1669328e-02
 -3.7200350e-02
 -2.6559180e-02
 -5.1818576e-02
  6.3065693e-02
  5.2353656e-01
  1.7185532e-02
  7.8419968e-03
 -8.6168665e-03
  3.6554165e-02
  3.0514598e+00
  1.5275116e-03
  8.1817005e-03
 -3.6555495e-02
  2.7920406e-02
  7.1537890e-03
 -3.3444718e-02
 -3.4527302e-02
 -2.2681914e-03
 -6.3727451e-03
 -5.1832907e-02
  6.0383682e+00
 -3.5545467e-03
 -3.8489577e-01
 -9.9236494e-01
  9.1634119e-01
 -3.8158086e-01
  2.7791260e-02
 -1.1461434e+00
  7.2794609e-02
  3.0496178e+00
 -2.3375560e-02
  3.8118708e-01
  9.8954844e-01
 -4.9166817e-02
  3.9954963e-01
  5.9334897e-02
  1.7707543e+00
 -1.4414436e-01
  8.2875667e-03
  1.8351048e+00
  1.0157094e-02
 -3.2363560e-02
 -4.1437384e-02
  6.1466509e-01
 -1.9127175e+00
  6.6626841e-01
  5.2756310e-01
 -2.8181248e+00
  1.1157759e+00
  6.4276570e-01
  4.3209916e-01
  1.4701813e+00
  4.7946221e-01
  1.1233629e-01
  1.6402378e+00
  1.0265621e+00
  1.6515844e-01
  7.0203835e-01
  2.9420584e-01
  8.6965317e-01
 -5.4515064e-01
  2.3348775e+00
  1.2260531e+00
 -1.1833090e+00
  1.7476755e+00
  1.6035384e-02
 -4.9194987e-03
 -4.3425846e-01
 -1.6691325e+00
  5.4671580e-01
 -2.4655564e-01
  1.8316920e-01
 -1.0017700e+00
  4.0979090e-01
 -6.4860649e-02
  1.2365881e-01
  1.3515668e-01
  6.3023347e-01
 -8.3490503e-01
 -1.6383012e-01
 -2.8383213e-01
 -1.1226837e-02
  5.2650028e-01
 -3.5177639e-01
 -7.9109418e-01
 -1.0096768e-01
 -1.5700672e+00
 -7.0824766e-01
  3.1537849e-01
  1.6018564e+00
  3.8804825e-02
 -8.3253533e-02
  2.1809325e-01
  6.2512904e-01
 -6.7919199e-03
 -3.2279399e-01
 -3.7435281e-01
 -9.0670031e-01
  8.2756922e-02
 -1.2666945e-01
 -1.2046961e+00
 -9.1055073e-02
  2.8908405e-01
 -2.9684973e+00
  3.2137465e-02
  1.0017818e+00
 -1.4493388e-02
  1.1817348e+00
 -6.8797497e-03
 -3.0294985e-01
 -4.6076635e-01
  2.4518418e+00
  2.8898349e-02
 -6.2339515e-03
 -2.2621378e-02
  1.7084242e-04
  5.4638684e-01
  5.6047731e-05
 -3.0502027e-02
 -5.4968093e-02
 -3.0974586e-02
  4.7741592e-02
 -2.9621121e-02
 -1.0473735e-02
  3.8323305e-03
  3.8351923e-02
  5.7522301e-02
 -4.1656580e-02
  9.6980371e-02
  4.9013790e-01
  2.2224328e-01
 -2.6648853e-02
  1.3469875e-02
 -3.3132041e-01
 -2.2612700e-02
  2.2831624e-02
  1.9406708e-02
  4.3865514e-01
 -1.7815421e+00
 -4.2539816e-02
 -5.8314818e-01
 -1.4937991e-02
 -4.9849119e-02
  9.2988841e-02
  1.0099097e-01
 -1.0710329e-02
  1.6159076e-03
 -3.0076084e-01
  1.8449272e-01
 -1.7435716e-01
  7.0116948e-03
  2.1501735e-01
 -2.4853636e-02
  4.9627099e-02
  2.0907501e-02
 -1.0487407e+00
 -2.3193470e-01
 -1.7557307e-01
  2.1732011e-01
 -2.5250087e+00
  4.2774215e-02
  2.3064466e-01
 -2.1820615e-01
 -4.7176242e-02
  1.9931591e-01
 -1.0212958e-01
 -3.4496728e-02
 -2.0117415e-03
 -6.0159612e-01
  1.4011804e+00
 -1.2269981e-02
  1.0695685e-02
  3.6626574e-02
 -3.3993203e-02
  2.3163980e-01
  1.9125184e+00
  2.9161420e-01
  2.8368849e-01
 -4.3867566e-02
  4.8468146e-02
  9.7470939e-02
  1.9003728e-02
 -1.5940281e-02
 -2.0673754e-02
  1.8253362e-01
  1.3914543e+00
  6.7514596e-03
 -4.7544613e-02
  4.7544863e-02
 -3.3605896e-02
  1.6014688e-02
 -2.7165312e-01
 -6.7256868e-01
  1.7809175e-02
 -1.0406452e+00
 -2.6289197e-02
 -4.3804568e-01
  1.0587974e+00
 -8.7935582e-02
 -1.7300053e-02
 -2.1093515e-01
 -3.0848333e-01
  2.7551112e-01
 -2.8891838e-01
 -8.9619402e-03
  4.8970357e-02
 -3.3310924e-02
 -3.1951707e-02
 -3.1048065e-02
 -7.3485994e-03
  1.5421426e-02
 -3.7857797e-02
 -1.9068201e-01
  6.5620909e-03
 -6.7327678e-02
 -4.0563390e-02
  3.7972572e-01
  4.5273226e-01
 -3.0593725e-02
  8.3922863e-04
  1.0573014e-04
 -2.0659019e-03
 -2.5589719e-02
  2.2550270e-02
  1.7012719e-02
 -8.5602626e-03
  3.1738341e-02
 -3.4635164e-02
  3.6507629e-02
  1.2148271e-01
  3.8956787e-02
  1.9577347e-02
  1.1077093e-02
 -1.0668011e+00
  4.0365821e-01
 -1.2848095e+00
  5.2101833e-01
 -3.4541354e-01
 -1.5824941e+00
  3.0919189e-02
  3.8677421e-01
 -6.4351928e-01
 -1.6518718e-01
 -1.4222382e-01
 -5.0664708e-02
  1.9637748e+00
 -4.5137370e-01
 -2.4896564e-03
 -1.0600379e+00
  1.0246112e-02
  9.3540841e-01
  3.3017565e-02
  1.0136188e+00
 -4.5785141e-01
 -5.4024822e-01
 -2.4987742e-01
  1.7993464e-01
  4.3017304e-01
 -4.4138038e-01
  1.0587530e-01
  2.4547536e+00
 -6.1854403e-02
  3.2878798e-02
 -1.1414888e-01
 -3.7473485e-01
  1.7287886e+00
  3.0273716e+00
 -4.5086655e-01
  1.9659370e-01
 -2.1145192e-01
  1.2190463e-01
 -4.7164622e-01
 -6.2496681e-02
 -2.3986621e-02
  1.3737155e+00
  1.4767425e+00
  4.3089542e-01
  5.7097179e-01
  1.2969550e+00
 -1.3098191e-01
 -5.5589372e-01
  1.2626312e+00
  4.4036436e-01
  3.0096522e-01
 -9.9271226e-01
  5.8129251e-01
  6.2492676e-02
  1.4707763e+00
 -1.8623987e-01
 -1.9411648e-02
 -7.7036864e-01
  1.0412470e+00
  2.3766836e-02
 -4.1082239e-01
  7.0789886e-01
  1.7520995e+00
  2.8186727e-02
  8.0940670e-01
  7.0297897e-01
 -5.1098412e-01
 -3.6119071e-01
  2.2440770e+00
  1.7850062e-01
  5.3535039e-03
 -7.3550522e-01
 -7.0995891e-01
 -7.2502583e-02
  1.0522618e-02
 -3.5634056e-02
 -1.4118986e-01
  9.5402730e-01
  2.4422115e-02
  3.4170087e-02
 -5.1405323e-01
 -7.7136517e-01
  1.0246979e-01
 -8.0205953e-01
  7.3967213e-03
  7.3701488e-03
 -8.0259466e-01
  3.5641831e-01
 -1.3891512e+00
  6.2902284e-01
 -1.1869362e-01
 -6.1917615e-01
  2.0226826e-01
  2.0325903e-04
  7.1846344e-02
  1.3635869e-03
  4.0199677e-03
  1.7261952e-02
  8.1237155e-01
 -2.8985302e+00
 -3.4744166e-02
  3.1726417e-01
  2.6676305e-02
 -4.8243119e-03
  1.0232459e+00
 -1.9027717e-02
  1.2433921e-02
 -3.2566747e-01
 -1.1345086e-02
 -2.5386677e+00
  1.0110010e+00
 -4.1652126e+00
  3.2977464e+00
  1.2479295e+00
  1.3111966e+00
  2.0859733e-01
 -2.7788439e-01
 -3.1588113e-01
 -2.5587447e+00
 -1.5826256e+00
  3.8318998e-01
  1.4125699e-01
 -1.5099137e+00
 -1.7595602e+00
  4.6103528e-01
  2.6137432e-01
  1.2751771e+00
 -1.3041505e+00
  1.0179099e+00
 -5.5545181e-01
 -7.3012501e-01
 -2.1574075e+00
  1.1920568e+00
 -2.5842649e-01
  3.7573376e+00
 -8.2078391e-01
  2.2177447e-02
 -3.0032745e-01
 -1.5817589e+00
 -4.8481331e+00
 -2.5932028e+00
  1.1673103e-02
  8.3964229e-01
  7.0339942e-01
  2.1854932e+00
 -4.7795668e-01
 -1.7235407e-01
 -2.5516891e-01
 -7.6937628e-01
  1.3163942e+00
  2.3408926e+00
  7.7465639e-02
  5.7265383e-01
  3.2900128e+00
 -9.4695918e-02
 -4.3494618e-01
 -1.5406404e+00
  4.8865390e-01
 -1.6013381e-01
  6.4886957e-01
 -1.5794258e-01
 -3.3708468e-01
 -1.7243686e+00
  9.8406769e-02
 -1.5576082e+00
  7.4805468e-01
 -2.5132254e-01
  1.4451466e+00
  2.0177420e-03
 -9.1838822e-02
  4.8896304e-01
 -8.7760764e-01
 -8.5040849e-01
 -5.7846811e-02
  3.1841484e-01
 -2.5758070e-01
 -3.0456945e-02
 -1.0043274e-01
 -1.4109818e+00
  5.0827813e-01
  1.2780700e-02
 -4.6340260e-01
 -2.7403650e+00
 -6.8258584e-01
  8.9011532e-01
 -3.4178633e-02
 -3.2681110e+00
  1.5403236e-03
  2.8573337e+00
 -8.8291861e-02
  8.7391859e-01
  9.3981512e-02
  9.9446215e-03
  8.3367139e-01
  6.9267637e-01
  7.9236459e-03
 -5.5982459e-02
 -2.1871060e-02
  1.6848185e+00
 -1.6167115e-01
 -2.2210522e-02
  1.1419639e-02
 -1.3305744e-03
 -1.7663023e-02
 -2.7883906e-02
  4.6435825e-04
 -1.6681589e-02
  8.6689368e-02
  1.8834585e-02
 -5.8423031e-02
 -1.5207726e-02
 -2.4187485e-02
  2.1055450e-03
  1.8756770e-02
  1.2785168e-01
 -1.2823308e-02
  1.2650526e-01
 -1.6689816e-02
 -1.2130364e+00
  1.1993060e+00
  6.4218459e-03
 -1.1604626e+00
 -3.1684032e-01
 -3.3469200e-02
 -1.7543277e-01
  6.6265208e-01
  3.4641343e-01
 -4.4171402e-01
  6.3258000e-02
  5.7940686e-01
  3.7240443e-01
  4.9687546e-01
  3.8226534e-02
 -3.4278515e-01
 -1.6483514e-01
  3.4069523e-01
 -1.3652480e-01
  2.8597319e-01
  3.4572533e-01
 -3.6692437e-02
 -2.4312744e-01
 -3.9214787e+00
 -8.3857797e-02
 -3.6085707e-01
 -2.0520918e-02
 -1.0481331e-01
  8.0743170e-01
  8.9557141e-01
  2.5671385e-02
  2.3141285e-02
 -1.1421725e+00
 -2.9164252e-01
 -7.8134471e-01
 -3.6100653e-01
  2.0147341e-01
  3.3193591e-01
  2.6856516e-02
 -1.4167905e+00
 -9.8350070e-02
  7.4817562e-03
 -1.7330676e+00
  2.1026972e-01
 -2.1796645e-01
  2.5579519e+00
  3.3605359e-02
  4.7823632e-01
 -3.2637793e-01
  8.2053226e-01
  1.4090253e+00
 -1.0742109e+00
 -3.8079149e-01
 -4.2386618e-02
 -5.6489695e-02
  3.0028945e-01
 -1.7179334e+00
  8.3277917e-01
 -2.0753886e-01
 -1.1406657e+00
  8.0719896e-02
 -1.1395026e-01
 -9.6291406e-03
 -1.1471040e-02
  2.4088569e-01
 -3.0976501e-01
  2.4658095e-02
  1.5402930e-02
 -1.8620847e-01
 -2.1938048e-02
  1.7233272e-01
  9.8144716e-01
  1.5907601e-03
 -1.2490629e+00
 -1.6765598e-02
  1.8993165e-02
  2.0382212e-01
  1.6762380e-01
  6.3409135e-02
 -4.3160073e-02
  6.3537014e-01
 -2.2726841e-02
  9.9774136e-04
  2.6517147e-01
  3.8096763e-02
 -4.7087066e-02
 -2.2112218e-01
 -2.0870301e-01
  1.8076917e-02
 -3.0384131e-02
 -1.0786128e-02
 -1.8716376e-02
  8.3279395e-03
  1.1444625e+00
  6.2775738e-03
  3.4185634e-03
 -4.7594361e-02
 -1.0438579e-02
 -1.5526169e-03
 -3.6967981e-01
  5.2534591e-02
  1.0580002e-01
 -3.6441933e-03
  1.7138870e+00
  6.5692715e-02
 -4.3295667e-02
 -1.3459826e+00
  2.8930929e-01
  7.4002856e-01
 -6.3456006e+00
  7.4773893e+00
  3.3411973e+00
  2.1491803e-02
 -3.5957990e+00
 -4.9566126e+00
  5.4341354e+00
  1.5729070e+00
  9.7857201e-01
  8.5691452e-02
  7.3023528e-01
  4.2398667e-01
 -9.8402286e-01
  2.2421628e-02
 -1.8710767e+00
 -7.8754795e-01
  5.6974910e-02
 -1.0816126e+00
  1.4226960e+00
 -5.9432242e-02
  7.8564569e-02
 -1.0298771e-01
  3.4076421e+00
  2.5281627e+00
  2.4369910e-01
  5.7051513e-02
 -1.0894989e+00
 -1.6161005e+00
 -3.7064418e-01
 -1.4514108e+00
  2.4483306e+00
  1.0814578e-01
  1.2406073e+00
 -5.2149689e-01
  5.1032525e-01
  5.2237809e-01
  8.7830991e-01
 -2.2403557e+00
  3.4248105e-01
  2.1328824e+00
 -6.7415446e-02
 -1.7144576e-02
 -4.8980573e-01
 -1.8613516e+00
 -9.2322923e-02
 -6.7462310e-02
  1.7693231e+00
  1.9129512e-01
 -6.2280860e-02
 -1.6456059e-01
  2.9889047e-02
  2.8583124e-01
 -1.1286813e-02
  1.4790261e+00
 -1.4203885e+00
 -1.8373939e+00
 -5.0134921e+00
  1.7611532e-02
  4.7022569e-01
  1.0017599e+00
  6.3417834e-01
  1.5375109e-01
 -7.2225803e-01
 -9.0236351e-02
 -1.5195653e+00
 -2.5283101e-01
 -1.8076806e+00
 -2.4410933e-02
 -7.8767389e-01
 -1.2724248e+00
  1.3053471e+00
  2.9367676e-03
 -1.4414745e-02
  5.5100326e-03
 -8.3088398e-01
 -2.1467406e-01
  7.2409015e-04
  3.2761410e-02
  1.7864749e-02
 -2.2040710e-03
 -2.0326434e-02
 -3.9486606e-02
  2.8468803e-02
 -2.1330081e-03
  4.7614644e-03
  3.9207898e-02
  1.3979802e-02
  1.0868797e-02
 -6.7696691e-02
 -6.1585817e-02
  9.6241571e-02
 -4.9049906e-02
 -3.2969270e-02
  1.6199218e-02
  4.1527236e-03
  4.0426839e-02
 -1.7067074e-03
 -3.7520986e-02
 -1.2701732e-02
 -6.7977733e-03
 -2.5581544e-02
 -3.2468051e-02
 -1.5173974e-02
  2.0645022e-01
  3.6868075e-01
  1.3611530e+00
  3.3521149e+00
 -5.3527808e-01
 -1.1750977e+00
 -9.9124056e-01
  1.0737180e-01
  1.3801017e+00
  1.4992359e+00
  1.9925350e+00
 -3.0322590e-01
  7.5841850e-01
 -7.3741704e-02
  1.7120848e+00
 -1.6038190e-01
  4.9457874e-02
  2.1322975e-01
 -1.6774822e+00
 -4.8493052e-01
 -2.6467569e+00
 -2.4586780e-01
 -1.0050490e-01
 -8.7514892e-03
 -1.0975879e-01
 -1.1958376e-01
  1.9061206e-02
  1.4064484e+00
  1.3338261e+00
 -1.5095036e+00
  2.0502274e+00
 -2.9955626e+00
  1.2810589e-01
  1.3592887e-01
 -3.6161682e-03
  9.2201322e-01
 -1.4266450e+00
  3.9982386e-02
 -9.6224668e-03
 -7.1373898e-01
  5.6160621e-02
  5.8030581e-01
  6.3911420e-01
  2.7765018e-01
  5.0078410e-01
 -7.2033353e-02
 -9.1772623e-02
  7.1691084e-01
  3.3866501e-01
  1.3544592e-02
 -8.0191761e-01
 -7.2476435e-01
 -2.0121337e-01
 -7.4578291e-01
  3.1139523e-01
  1.2263870e+00
 -3.0528833e-03
  8.7789261e-01
 -2.6390663e-01
  1.2741691e+00
  4.5249039e-01
 -3.4193750e-02
 -3.1238863e+00
 -9.3952483e-01
 -4.7084358e-01
  6.3556844e-01
 -5.5605532e-03
  9.7972542e-01
  2.1204073e+00
 -5.1413816e-01
 -1.3904549e-01
 -1.1577371e-01
  9.6765894e-01
  1.1925385e+00
  2.1321263e+00
  1.2635242e-03
 -1.6632688e-01
  2.1398702e+00
 -6.8508275e-03
  1.4408199e+00
 -1.6669661e-02
 -8.1698410e-02
 -3.3487063e-02
  2.8377710e-02
  9.1567874e-02
 -4.9448401e-01
  2.7490517e-02
 -6.2585995e-02
  3.8907778e-02
 -1.8224807e-03
 -4.6896499e-02
 -2.5880667e-03
 -3.0780962e-02
  1.0866655e-02
  3.1261770e-03
  1.9546470e-03
 -4.6309225e-02
  2.8248075e-02
 -9.0306008e-01
 -9.7834514e-03
  1.8250160e-02
 -1.2678258e-01
  6.6347313e-01
 -1.0150732e+00
  3.4068570e-02
  4.7053028e-02
  8.3265128e-03
  4.2173499e-03
 -2.0075619e-02
 -1.9703684e-02
  6.7724641e-03
 -2.7711296e-02
  3.8906161e-02
 -2.7576832e-02
  9.7644599e-03
 -1.5361021e-02
 -3.2210123e-02
  3.9345309e-02
 -7.6661152e-03
  2.6242996e-02
 -4.4731548e-01
 -5.2757654e-02
  1.4756571e-03
 -1.8829932e-02
 -4.2433541e-02
 -2.2537948e-03
  8.1011141e-04
 -3.3276767e-02
  6.9422112e-03
 -2.1518383e-02
 -1.2125579e-03
  1.0225867e-02
  2.6114008e+00
 -6.8199444e-03
 -3.4556910e-02
 -2.4986975e-02
  4.8450339e-03
 -7.0761673e-02
 -2.6823798e-01
 -1.8263346e-02
 -1.1318742e-02
 -4.1919339e-02
 -2.4152383e-02
  7.9736207e-03
  8.1770554e-02
  1.1204662e-03
 -5.4355292e-03
 -3.9693110e-02
  1.8080497e-02
 -3.0400150e-02
 -5.7784494e-02
  9.0788854e-03
 -4.3710936e-02
 -2.5387591e-02
  2.5586215e-01
 -3.3399463e-02
  5.8271810e-02
  9.1762636e-03
 -1.2036920e-02
  4.6651844e-02
 -6.2267661e-01
 -4.1284960e-02
 -2.5558872e-02
 -7.6087806e-03
  1.7956199e-02
 -2.0538926e-02
  1.1574735e-02
  3.5462897e-02
  6.3129701e-02
 -7.1539901e-02
 -2.9139486e-04
  2.1661783e-02
 -2.7706485e-02
  1.5595088e-02
  6.3894540e-03
 -3.3813599e-03
  1.0471595e-02
  5.9845682e-02
  7.2117915e+00
 -3.5105990e-03
 -5.5272449e-02
  3.7966762e-02
  2.3265151e-02
 -1.0884665e-01
 -1.2308213e-02
  9.1802543e-03
  8.3777700e-03
 -1.3243620e-02
  1.3820332e-02
  3.0008832e-02
 -4.4864368e-02
 -2.1001499e-04
  3.7723638e-03
  3.3576056e-01
 -3.9005164e-02
  1.8968360e-02
 -1.8108722e-02
 -4.5798644e-03
  6.1610499e-03
 -3.0275097e-02
  1.4896681e-02
 -7.2677317e-03
  2.9510737e-03
  1.1489179e-03
  2.2083187e-02
 -4.4903858e-03
 -1.0202492e-02
 -1.2251090e-03
  1.4428781e-02
 -1.7431841e-03
  1.2160001e-01
 -5.7962339e-02
  5.5795480e-02
 -2.2252126e-01
 -1.7011987e+00
 -1.3085066e-01
 -3.0062411e+00
 -8.1551540e-01
 -2.4467912e+00
 -2.0526390e+00
 -1.2890744e+00
  5.8096576e+00
  1.8101392e+00
 -7.2793365e+00
 -1.8824322e+00
  4.7372544e-01
  4.2370763e-01
  1.7021464e+00
  4.8255129e+00
 -2.1138575e+00
  9.4038576e-01
  2.8347483e-01
 -6.0843772e-01
  2.0450175e-01
  8.2021749e-01
  4.3614474e-01
 -4.9557960e-01
 -2.0710745e+00
  9.2569795e-03
 -6.3404026e+00
  8.4693635e-01
  3.9961343e+00
  2.0140502e+00
 -8.5790664e-02
  2.6301713e+00
 -1.0938469e+00
  2.4099941e+00
  7.2950828e-01
  1.4764384e+00
 -1.2573507e+00
 -4.7370598e-01
 -1.2035794e+00
  1.8180843e-01
 -3.2173831e+00
 -6.0860677e+00
  1.4388670e-01
  1.6538620e+00
 -7.1966219e-01
 -8.4256482e-01
 -2.9012388e-01
  5.8901235e-02
 -9.8695941e-02
  7.3990929e-01
  9.7300941e-01
  2.4866126e+00
  9.1642308e-01
 -4.6399155e-01
  1.1495960e+00
 -2.1389821e+00
 -2.2330709e+00
 -1.4888908e+00
 -3.2585204e-01
  2.3811111e+00
 -3.2205772e-01
  2.8519107e-02
  4.4337317e-01
  1.7025924e-01
 -5.3956077e-02
 -1.3504928e+00
 -8.8548291e-01
 -8.9051813e-01
 -1.8947124e+00
  3.4311542e-01
  3.2878274e-01
  5.2340411e-02
  1.6259251e+00
 -2.1970198e+00
  8.2588035e-01
  2.2536187e+00
  1.2970535e+00
 -4.4374976e-01
 -1.6103065e+00
  1.8262805e+00
 -3.6907320e+00
 -1.6019921e+00
  1.4350621e-01
 -9.1407679e-02
  3.3680356e-01
  3.4914067e-01
  2.9442260e-01
 -2.1597709e-01
 -8.6840224e-01
 -2.3005464e+00
  5.7393229e-01
  3.4226429e-02
 -2.0905986e+00
 -9.7670925e-01
  1.3152207e-01
 -7.7679884e-03
  1.9572763e-02
  1.4584868e-01
  8.9767473e-03
  1.3184904e-02
  2.2601113e-03
 -9.1129299e-03
 -1.3358769e-01
  3.7538568e-03
  2.5938996e-03
  2.4757320e-02
  2.8729057e-01
 -7.4413293e-03
 -5.2065451e-02
 -1.1812754e+00
 -1.4243015e+00
  9.9916500e-01
  3.9490473e-01
  1.6362880e+00
 -7.3672071e-02
  2.7142254e-01
  1.0026342e+00
 -3.9022646e+00
 -4.2281137e+00
 -2.7730029e+00
 -6.5566637e-02
 -4.3828765e-01
  1.0384227e+00
  2.9819246e-02
  1.3621733e+00
  5.7463896e-01
  2.6509840e+00
  8.0895448e-01
 -8.5149360e-01
  1.0815464e+00
 -1.3424639e+00
 -2.4365878e+00
 -1.6224602e+00
  2.6043406e-01
  5.6778502e-01
 -1.9897914e+00
  6.6022152e-01
 -4.4267602e-02
 -1.1602089e+00
 -1.2830797e+00
  7.5242192e-01
  2.7495291e+00
 -6.6668308e-01
  5.1928371e-01
 -2.7006831e+00
 -1.3129047e+00
  1.1289780e+00
  6.6620260e-01
 -1.4622883e+00
 -1.5141222e+00
  2.6230268e+00
 -9.1298662e-02
  5.9465127e+00
  3.3489695e-01
 -3.4247580e+00
 -2.8373926e+00
  3.1949365e-01
  2.9034781e-01
 -8.7901175e-01
  2.6499398e+00
  1.5338835e+00
 -1.0532280e+00
 -4.0404417e-02
 -1.7233016e+00
  7.1618445e-02
 -2.5601461e+00
  5.5655313e+00
 -2.8515811e-04
  2.0621243e+00
  1.0933173e-01
  3.2769713e-01
  4.4520018e-01
  1.2489653e-01
  2.2727296e+00
  3.6003997e+00
  8.1417465e-01
 -3.4092152e+00
 -1.1188185e+00
  2.7696991e-02
  1.2253960e+00
  5.0797504e-01
 -2.9884627e+00
  2.7530494e+00
  2.9617551e-01
 -2.1920595e+00
 -4.5724876e-02
  4.3062013e-02
 -4.0739789e+00
 -6.3430768e-01
  1.6582314e-02
  1.7643352e-01
 -5.4612175e-02
 -8.4959485e-02
 -1.3117998e+00
 -1.8548560e-01
 -5.6333983e-01
 -2.7737315e+00
 -9.0799353e-04
 -3.8016501e-01
 -8.1543192e-02
 -7.7017662e-03
 -2.8852927e-02
 -1.4345729e-01
 -4.8902895e-02
  5.6844756e-02
 -2.1553742e-02
  4.0173791e-03
  1.0568265e-02
  2.4477931e-02
  5.7349652e-02
 -3.0290219e-04
 -3.4181203e-03
  1.6792885e-05
 -8.2314890e-03
  1.8620295e-02
 -9.6631068e-01
  3.3344001e-02
  8.3303161e-02
 -4.9827981e+00
 -1.2563791e-02
  1.8538557e-01
 -1.9831137e-01
  4.4957072e-01
 -2.9516840e+00
 -4.1282353e-01
 -2.0770020e+00
  4.3503027e-02
  4.6005586e-01
 -7.8632250e-02
  2.6850578e-01
 -1.6818230e+00
 -2.1378532e-01
  1.4269477e-03
  5.2946541e-02
  6.8766844e-01
 -3.2652725e-02
 -1.5203921e+00
  7.5615758e-01
 -1.6695914e+00
 -1.0996339e+00
 -2.6066577e+00
 -1.4077245e-01
 -2.0101839e-03
  2.6564059e+00
 -3.0826669e+00
 -1.1570094e+00
 -1.0506822e+00
  1.6600143e-02
  2.1536155e+00
 -2.5673586e-01
 -5.6421347e-02
 -2.7161620e+00
  1.3228061e+00
 -1.6802924e+00
 -6.7617494e-01
  8.3352648e-02
 -2.4301119e+00
 -8.8913882e-01
 -1.6936194e-03
 -6.1821121e-01
 -2.3323636e-01
 -8.1509793e-01
  5.6777406e-01
 -2.2395490e-02
 -2.9186618e-01
  4.1202557e-01
  1.4009669e-02
  3.2993081e+00
 -2.3443902e+00
  4.8202795e-01
 -1.0871769e+00
  1.2631273e+00
 -4.7185175e-02
  6.6042745e-01
  7.1550858e-01
  4.2695963e-01
 -2.9179117e-01
 -5.0610352e-01
  8.4730536e-01
 -1.5192893e-02
  1.6655021e+00
  5.3583734e-02
  1.4188927e-01
 -9.4548296e-03
  4.5322010e-01
  5.3658020e-03
  3.4413636e-02
  9.6557766e-01
  4.6655360e-01
  6.5573655e-02
 -2.1087155e-01
  1.7004523e-01
  4.4455137e-03
  4.8092154e-01
 -1.9877073e+00
 -1.9299664e-02
  3.9414468e-01
  6.9403768e-02
 -2.1695903e-01
 -7.0997767e-02
  6.8612534e-01
  1.5237133e-01
 -6.8157292e-03
  1.8109833e-01
  1.9659578e+00
 -4.7710612e-01
  2.2297461e-02
  4.2393420e-02
 -1.2892679e+00
 -5.1059779e-02
 -1.6476524e-01
  2.5601337e+00
  4.6542677e-04
  1.5976263e-02
 -7.3049359e-02
  5.1543489e-02
 -1.9493034e-02
  2.2754109e-02
  7.9544000e-02
 -2.8147932e-02
 -7.5442023e-03
 -8.0791106e-03
 -6.7096764e-01
 -2.7840313e-02
 -3.2879105e-01
  8.3313054e-01
  8.1163468e-03
 -2.9386485e-01
  2.3596515e-01
 -1.9779205e-02
 -6.0752176e-02
  2.6399523e-02
  7.5626749e-01
  5.3220172e-03
  4.3732899e-01
  6.7732608e-01
  5.2618373e-02
  4.5027036e-02
 -2.5313532e-02
  3.0087953e-02
  1.6906005e+00
 -1.0529481e-02
  6.0813360e-02
  2.4674189e-01
  1.1134206e+00
  3.7636927e-01
  6.9866278e-03
 -4.8870009e-01
  4.0306047e-02
  2.5814012e-02
  1.7598337e-02
  7.4549066e-03
 -4.1375294e-02
 -8.6845934e-01
  1.7318869e-02
 -4.4445831e-02
 -2.4670107e-02
 -1.1798865e+00
  3.2471699e-01
  9.4136987e-03
  1.0003391e-01
  1.1236120e-01
 -1.5929215e-02
 -1.6698301e+00
  2.0627820e-01
 -3.3263022e-01
  6.1796587e-02
 -2.2095811e-02
  4.9330780e-01
 -3.6690220e-01
 -5.8532822e-01
  7.2666958e-02
 -1.5499915e-01
 -1.5176824e-01
 -2.9342848e-01
 -1.1796857e-01
  5.3331852e-02
 -4.5103904e-02
  5.7435919e-02
 -4.1937426e-01
 -3.4388285e-03
 -2.1694275e-02
 -1.0965595e-02
 -2.0093396e-02
 -1.2100916e+00
 -1.2215694e+00
  6.9343850e-02
 -1.4997039e+00
  9.0697845e-03
  5.2996302e-01
 -1.4940484e-01
  9.3882456e-03
 -5.3814109e-02
  4.1340962e-01
  8.8040486e-02
  1.3051283e+00
 -5.5838302e-02
  1.6522045e-01
  9.8168230e-01
  6.2642165e-02
  6.4286130e-04
  1.1674153e-02
 -5.5811740e-02
 -8.3231851e-02
 -1.7392083e-01
 -3.1801980e-02
  1.4665985e-02
 -1.8358259e-02
  2.3309616e-03
 -1.1202172e-01
  4.7074661e-02
  1.8556611e-01
 -2.5117705e-02
  2.4823122e-02
  5.2370727e-01
 -1.4420900e+00
 -2.4345919e-02
  4.0085666e-02
  3.4397382e-02
 -4.1040247e-03
  2.1752264e-02
 -1.5376020e-03
  4.6066735e-02
  8.5560822e-01
  8.7334486e-03
 -3.9993692e-02
  2.0645809e-01
 -1.2860835e-01
 -6.0891829e-02
  6.1222917e-01
 -3.1850076e+00
 -3.5000935e+00
 -4.2974248e+00
 -8.8620178e-02
  1.8029308e+00
  5.3343799e-02
  1.1387087e+00
  2.5684404e+00
  6.9104242e-01
  3.1347942e-01
  1.0105239e-02
  1.3237138e-01
 -1.3563837e+00
 -4.8496875e-01
 -9.3032181e-01
 -2.0487013e+00
 -2.8838077e+00
  1.3589435e+00
 -1.4775452e-01
  5.3849522e-02
 -2.1509821e+00
 -1.1168351e+00
 -5.9191531e-01
 -1.1367222e-03
  1.1178125e+00
 -1.5677688e+00
  4.1523728e-01
 -1.7087997e+00
  1.5490979e-01
 -4.6664333e+00
  9.1905308e-01
  2.1227019e-02
 -1.0294665e+00
 -1.2098897e-01
  3.3525413e-01
  3.2181585e+00
  2.6951596e-01
 -1.1902995e-01
  4.3086874e-01
 -3.3515453e-01
 -1.3791854e+00
 -1.1851541e+00
  1.2189853e+00
 -2.7873795e+00
  1.9296041e-02
  1.5817794e+00
  2.4535675e+00
 -1.0545826e+00
  1.4931047e+00
  2.4388516e+00
 -1.4515858e+00
 -4.7636657e+00
 -8.7430477e-01
 -1.4626014e+00
 -2.0981104e+00
 -5.7661903e-01
 -1.0050616e+00
  9.8653042e-01
 -1.4867632e+00
 -9.5902973e-01
  2.8468648e-01
 -1.5165181e-02
 -6.7294443e-01
  1.5603884e+00
  1.0054867e+00
  2.9251629e-01
  1.2275492e+00
  8.1631756e-01
 -7.0069009e-01
 -1.7590771e+00
 -8.6930674e-01
  7.1520275e-01
  1.1758872e+00
 -1.3839650e-01
 -2.3605773e+00
  1.3231184e-01
  1.8832782e-02
 -3.2608807e-01
  9.7317988e-01
  1.1421600e-02
  3.4773912e-02
 -1.1553693e+00
  8.6744912e-03
  1.5493485e-01
 -3.7734312e-01
 -1.8356768e-02
  2.5477367e-02
  1.4625634e-01
  4.1372827e-01
  6.6454954e-02
  1.1214121e-01
  9.1182940e-02
  4.0064957e-03
  4.5970646e-03
  1.1132766e-01
 -2.4871126e-02
  3.1686094e-02
 -3.4270674e-02
  2.7815493e-02
 -4.8968032e-02
 -4.7445972e-02
 -1.0750937e-02
  9.2610866e-02
 -1.0975217e-01
  1.9483395e-01
  6.6592231e-02
  5.1946495e-02
 -5.6880605e-03
 -1.4359008e-01
  4.9271527e-01
  1.8516498e-02
  2.2537360e-02
  1.1939853e-01
  2.5484732e-01
  3.1299271e-02
 -1.8193675e-02
  8.8411880e-01
  2.7198944e-02
  2.7148814e-03
 -4.0536206e-02
 -7.7963673e-02
 -7.9240716e-01
  5.3926478e-03
 -4.6562008e-03
 -3.0015469e-02
  1.9074934e-02
  7.4617423e-02
 -2.4503677e+00
  4.3796566e-03
 -4.2778826e-01
 -5.9813511e-02
  4.1533599e-07
  1.3832920e-02
 -7.5850323e-02
 -1.5438062e-01
 -1.3160029e-02
  2.6017029e-02
  1.9808590e-02
  4.5412648e-02
 -2.8175325e-03
  1.2571986e-02
  3.3128332e-02
  7.7898070e-02
  1.2932587e-03
  4.3116845e-02
 -2.5847334e-02
 -7.3469137e-03
  2.1112795e+00
  4.6099413e-02
  3.3543754e-02
 -6.3623063e-02
 -1.9788126e-02
  2.6374443e-02
  1.9862193e-03
 -7.0496179e-02
  8.0997652e-01
  4.9584033e-03
  2.5801597e-02
 -4.5247319e-01
 -4.7065648e-03
  6.9721061e-01
 -3.1923731e-03
  1.8808790e-01
 -8.0602050e-01
  2.8100371e-02
 -7.2041461e-03
  1.5932370e-02
  1.1834740e-02
 -4.5150377e-02
 -1.7318571e-03
 -2.4915811e-02
  2.1172904e-03
  2.5684449e-01
 -1.8490996e-02
  2.7599308e-01
  1.2999857e-02
  2.5720368e-03
  6.3810483e-02
  7.0935510e-02
 -2.9217422e-03
  2.4247752e-03
  3.0248178e-02
 -4.5427449e-02
 -1.4654570e-02
 -1.2714794e-02
 -2.2154013e-02
 -2.4078837e-02
 -5.3481269e-03
 -1.0455043e-02
  9.0366751e-03
  2.9551785e-02
  3.2421466e-02
 -2.5641746e-03
 -4.8135180e-02
  1.0670723e-02
 -1.4246769e-02
 -3.7237074e-02
 -2.3218784e-01
 -2.6908416e-02
  1.5180033e-02
  2.5172101e-03
 -2.9609438e-03
  1.7804989e-01
  1.0650153e-02
 -1.6663309e-02
  4.0903043e-02
  6.2430482e-03
  4.6710107e-02
  8.3452886e-01
  3.2334331e-02
  7.4173689e-02
  7.8077763e-01
 -4.4382434e-02
 -5.6704956e-01
  1.1953632e+00
 -7.1870881e-01
 -2.0268369e+00
  4.5408196e+00
 -2.0121422e+00
 -5.7171750e-01
  4.3806441e-02
  1.7314796e+00
  2.6647882e+00
 -3.2757318e-01
  8.2600331e-01
 -7.9921566e-02
 -2.3180325e-01
  1.1345319e+00
 -1.9039406e+00
  4.8493734e-01
  6.2450886e-01
 -2.6285419e+00
 -2.1346439e-02
 -9.6492939e-02
 -4.0763214e-01
 -3.1280726e-01
  6.0923684e-01
 -2.0001233e+00
  3.7647167e-01
  1.3006870e+00
 -9.1760141e-01
  2.7081790e+00
 -1.0435630e-02
 -3.3176606e+00
 -6.2609595e-01
  2.6886335e-02
 -1.0609721e+00
 -1.9363538e+00
 -6.7759079e-01
 -1.2389274e+00
  5.7353873e-02
  3.6324233e-01
 -7.5663067e-03
 -4.6254452e-03
  9.1224366e-01
  1.4940025e-01
 -3.5323483e-01
 -1.1513166e-01
  5.0618696e-01
  1.5289962e+00
 -1.4259584e+00
 -3.9574713e-01
  1.2077233e-01
 -2.2881886e-02
  2.1873940e-02
 -1.3999653e-01
 -1.7082956e-01
  3.8712514e-03
 -4.0581945e-01
 -1.6041679e+00
 -1.6207225e+00
 -2.9034622e+00
  1.1957665e-03
  3.0940311e-04
 -9.7392553e-01
  2.0043697e+00
 -1.5778761e+00
  1.2837220e-02
 -3.3117166e-01
 -3.7730861e-01
 -1.6630188e+00
 -6.3112849e-01
  2.7292870e-02
 -5.0768986e-02
 -2.7458411e-01
  1.8602443e-01
 -1.3133748e+00
  3.0088955e-01
 -1.2941596e-01
  2.4501006e-03
  5.2893836e-02
  5.0064333e-02
  1.1142851e+00
  7.0261019e-03
 -2.3985028e-02
 -1.6964944e-03
  9.3814693e-03
  3.6685726e-01
 -2.9329923e-03
 -5.0195652e-01
  8.0996724e-03
  1.9620368e-03
 -2.9653344e-01
  1.9882740e-02
 -2.3757933e-02
 -5.3081162e-02
  4.1347492e-02
 -3.1047642e-02
 -2.1152513e-02
 -7.5897500e-02
  4.2525809e-03
  2.3911485e-01
 -4.4294461e-03
 -1.4263520e-04
 -2.3440620e-02
 -1.6307163e+00
  1.8642608e-02
  3.1291686e-02
 -1.5276469e-01
  4.9644256e-01
 -2.8560888e-02
  2.3277786e+00
  5.9807856e-02
  4.9729413e-01
 -4.5417182e-02
 -4.2745780e-02
  4.0749181e-02
 -1.4896862e-02
 -1.1253436e+00
 -4.4867583e-02
 -5.9874690e-01
  8.0934256e-02
  1.1102797e-01
  1.5158024e-02
  8.6948454e-01
 -2.0267611e-02
  2.0177850e-02
  1.2503465e-02
 -2.3028053e-01
 -1.1669286e-01
 -1.1781754e-02
  1.1018178e-01
  2.4822406e-01
 -5.0440818e-01
 -1.7477281e-02
 -4.5326915e-01
 -1.3315342e-02
 -1.1829922e-02
  6.3829291e-01
  2.2480451e-02
  2.8103573e-02
  1.8874358e-02
  1.0040015e-02
 -1.0442945e+00
 -5.0112121e-03
  3.6308100e+00
  4.6533160e-02
  2.2320937e-02
 -5.7788324e-03
  2.6021322e-02
  1.2246004e-02
 -5.2784313e-02
 -6.1906999e-01
  1.9356413e-02
  4.5724802e-02
 -4.5464118e-03
 -3.2388687e-01
 -2.4278818e-01
 -5.9384074e-02
 -2.1726152e-02
  2.9437460e-02
 -2.6532436e-02
 -1.5421472e-01
 -9.3969628e-02
  1.0763389e-02
 -7.9637133e-02
 -8.0776221e-01
 -3.3373019e-01
 -1.6652539e-02
 -2.1084918e-02
 -1.2837569e+00
 -5.9170794e-04
  7.2176673e-02
 -5.0779697e-03
 -6.6769756e-02
  4.8167866e-02
 -5.4751986e-01
 -4.2752256e-03
 -2.7526166e-02
  1.6594002e-03
  4.5719780e-03
  3.3956158e-03
  7.9491265e-02
 -2.8743613e-01
 -5.4399893e-02
 -8.6096367e-03
 -1.8607046e-02
 -1.0129118e-02
 -9.2717148e-02
 -6.9114041e-01
  1.5497104e-02
 -2.2333875e-02
  5.3704102e-02
 -4.3437430e-01
 -8.4452508e-03
  2.7895337e-01
  2.8450093e-01
  6.7558214e-02
 -2.1318195e-03
 -7.3264755e-02
 -1.4170033e-02
 -3.4248464e-02
 -1.3332079e-02
  3.9899308e-02
 -3.5642464e-02
 -1.0503017e+00
 -1.6938535e-02
  1.7202532e-02
 -3.0889348e-03
  6.2394939e-02
  2.1886488e-02
  1.7477089e-01
  1.2601529e-02
  1.0941300e-02
 -1.0553726e+00
  1.9595385e-02
 -7.7051848e-01
 -8.3199464e-02
 -5.5520463e-01
  1.3907319e+00
  6.7558324e-01
  2.1359366e-01
  2.8593451e-01
 -1.1985914e+00
  7.5989366e-02
 -2.5076330e+00
  6.5650135e-02
 -1.0387797e+00
 -1.8411093e+00
  2.2049464e-01
 -4.1834080e-01
 -2.2726634e+00
 -2.4401498e+00
 -5.7108265e-01
  1.1938276e-02
 -7.9537249e-01
  3.2421145e-01
 -1.6938603e+00
  4.4022942e-01
  6.1188608e-02
 -1.5509573e+00
  4.4580477e-01
  1.1690174e+00
 -1.2635016e+00
 -2.2967750e-01
  6.4160496e-02
 -1.0535887e+00
 -1.3671987e+00
  4.1195267e-01
 -4.6417486e-02
  8.1256235e-01
  1.2248931e-01
  5.4649856e-02
 -4.5041254e-01
 -2.0390464e-01
  5.1079410e-01
 -6.4433306e-01
  7.3553586e-01
  1.7482555e+00
 -1.6917300e-01
  1.1696843e+00
 -8.2666576e-01
  5.7677525e-01
  1.7262225e+00
  1.9741967e+00
 -6.5506171e-03
 -2.6548619e+00
 -2.9660141e+00
 -1.9632075e-02
  1.2927347e+00
  2.8569879e-02
  2.8407225e-01
 -4.7523465e-02
  1.2404313e+00
  1.6463496e-01
 -7.0693868e-01
  2.1464923e-01
 -1.2312511e+00
 -1.9969691e-01
  1.6887614e+00
 -1.4717783e+00
 -6.8461585e-01
 -1.0624383e-01
 -1.5816744e-02
 -2.2885291e-01
 -1.3781492e+00
  6.7592913e-01
  1.3055573e-01
  4.1814074e-01
  1.5697894e-01
 -3.0473030e-01
 -1.0281152e+00
  8.7773240e-01
 -3.6421424e-01
  3.2376641e-01
  1.0096997e-01
  3.9215681e-01
 -3.5612534e-03
  3.0514761e-03
  2.1947064e+00
 -2.3435704e-01
  5.5221715e-03
 -4.1597061e-02
  4.2598195e-02
  6.9769658e-03
  1.8397677e-01
 -3.4980075e+00
  3.0029444e-02
  5.5104069e-02
 -2.3877931e-04
 -1.0436631e-01
  1.5744945e-02
  4.4208825e-01
  5.3419907e-02
  2.3385787e-02
  4.9015330e-03
 -4.0504779e-03
  2.2146990e+00
  3.4138247e-02
 -1.8189977e-03
 -2.5353378e-03
  3.2391932e-02
 -5.3907043e-01
  4.5989109e-03
 -6.8968093e-01
 -4.7295308e-01
 -1.7407645e+00
 -3.0701020e+00
 -1.2609493e+00
  6.7153484e-01
  1.4329561e+00
  1.7487752e+00
  4.0014201e-01
 -6.0072201e-01
 -2.3176649e+00
 -5.6572115e-01
 -1.5293313e+00
  1.6167299e+00
  3.5269356e+00
 -2.8411067e-01
  2.7847084e-01
  2.8296286e-01
 -6.1452132e-01
 -2.8788639e-02
 -1.7903216e+00
  3.5532248e-01
  1.8405671e+00
  3.3856648e-01
 -6.0188198e-01
 -2.0121996e+00
  4.5485550e-01
  4.6778660e-02
 -2.4841654e-01
 -8.2594460e-01
  5.4708391e-01
 -2.6953392e+00
  9.5218080e-01
  1.1672071e+00
  4.4564483e-01
 -5.8021914e-02
  1.2826011e+00
 -7.7930033e-02
 -1.3369697e+00
  1.4365765e+00
  4.6025654e-03
  2.7123909e+00
  3.0457315e+00
 -3.1101608e+00
 -1.7998986e+00
 -9.4396450e-02
 -8.8074219e-01
  1.1740422e+00
 -4.2419983e-03
 -1.2617071e+00
  1.4812459e+00
 -2.4954812e-01
 -2.4964595e-01
  1.4068703e-01
  2.7368786e+00
  3.2527555e-02
 -6.0922199e-01
 -5.3730756e-01
  1.7057127e+00
  5.7937735e-01
  3.2570902e-02
 -1.0618795e+00
  2.4291644e-02
 -1.0496592e-01
  5.0664741e-01
  6.7788565e-01
 -4.6486264e-01
 -1.3923850e+00
 -4.1453803e-01
  8.0971259e-01
 -3.1578285e-01
  1.3527860e-02
  2.1411268e-02
 -1.4320544e+00
  1.4368048e+00
 -4.5509049e-01
  1.8684050e-01
 -7.8151442e-02
  1.3294394e-01
  2.2137628e+00
 -4.1664697e-02
 -1.2493048e-02
 -6.1864108e-02
  3.2691594e-02
  4.0497180e-02
 -3.7942412e-01
  7.2474986e-01
 -6.7347121e-01
  5.8964688e-01
  2.2438962e+00
 -1.5366247e-01
  7.9503283e-02
 -7.3953490e-03
 -2.3014218e-02
 -1.1415041e-02
  2.2427768e-02
  1.2130813e-02
  4.6458758e-02
 -1.8172925e-03
  8.8381819e-02
  8.5576415e-02
  1.1009130e+00
  7.4046389e-03
  3.6021888e-02
 -1.1012095e-02
  3.9998627e-01
 -3.8211893e-02
  4.2903110e-01
 -3.9574606e+00
 -1.4376050e+00
 -1.5268933e+00
 -7.0645571e-01
 -1.1594745e+00
  2.3024273e-01
  8.5564399e-01
  1.0549777e+00
 -2.3171484e+00
 -9.3169713e-01
  1.3003705e+00
 -8.2318550e-01
 -6.7898192e-02
 -2.9637728e-02
  3.3863029e-01
 -4.7116284e-03
  1.7905082e+00
 -4.5513347e-01
  1.7620701e+00
 -8.2315117e-01
  2.9822659e-01
 -2.4646476e-01
 -3.0192822e-01
  2.7709386e-01
 -4.0837488e+00
  2.3334171e-01
  7.3933303e-01
 -1.3772537e-01
  1.1067162e+00
  3.4782383e-01
  4.5440835e-01
  7.8079432e-01
  7.6397806e-01
 -9.5520258e-01
  9.7376299e-01
  1.1007508e+00
 -1.0597006e+00
 -1.8639955e-01
  4.8244885e-01
 -1.6448057e+00
 -7.1809404e-02
  2.7216859e+00
 -3.9938036e-03
 -4.3027321e-01
  8.2916683e-01
 -3.1980643e+00
 -6.1119378e-01
  2.0188022e+00
  1.8395848e+00
  3.5526433e-03
 -4.9880158e-02
  6.7740992e-02
 -1.7834941e-01
 -2.6306383e-02
 -1.5188792e-01
 -2.5420845e-01
  3.4945779e+00
  6.5232497e-01
  4.8129219e-01
 -5.2307910e-01
  1.8408014e+00
  1.1102272e+00
  7.7290392e-01
  2.3706045e+00
 -2.9392752e-01
 -3.0696288e-01
 -1.5178574e+00
  9.6124917e-01
 -7.4601293e-01
 -8.9611399e-01
  1.3342856e+00
 -1.1010144e+00
  1.4087121e-01
  2.6469045e+00
 -1.4606152e+00
  1.1234379e-01
 -3.9663747e-02
  1.3394968e-01
  2.9456275e-02
  3.4341177e-01
 -4.2859651e-03
  1.1281114e-01
  7.7088481e-01
 -5.1637780e-02
 -1.8087273e-02
 -2.1466970e-02
 -1.5273756e-01
  7.8417838e-01
  1.8559569e+00
 -2.6131332e-02
 -2.1999383e-02
  8.6421840e-02
 -6.7752684e-03
  2.3387393e-04
  2.8394645e-02
 -4.8378713e-02
  1.2753569e-02
  1.1465710e-01
 -1.5304960e-01
  1.9026484e-01
  3.8028562e-01
 -6.5895692e-03
  1.6840342e-02
  3.3789285e-02
  1.2709134e+00
 -1.5882757e-02
  2.3130478e-01
 -4.5374939e-01
 -7.6808810e-02
 -2.4014752e+00
  1.1644133e-03
  7.2743192e-02
  1.0294237e+00
 -1.1367542e-01
  1.7171620e-01
 -9.8714268e-01
  7.1587092e-01
 -5.4033893e-01
 -1.2765739e+00
 -8.5262859e-01
  2.8417605e-01
  9.9988276e-01
 -1.8777125e-02
  7.0775825e-01
  7.4569248e-02
 -1.7906234e-01
  6.1847794e-01
  9.4009930e-01
 -3.8674635e-01
 -6.7813790e-01
 -1.9164704e+00
 -2.7236826e+00
 -4.8699781e-01
 -9.4369233e-02
 -1.9892697e+00
 -4.3113858e-02
 -9.2082673e-01
  2.6778451e-01
  1.6636015e+00
  2.9561746e-01
  3.3231992e-02
  4.5268071e-01
 -2.7420312e-02
 -1.5995984e-01
 -6.8538707e-01
  5.1472634e-01
 -2.0788701e-03
  1.1954829e+00
 -2.7108213e-01
  9.0873837e-02
  1.1353761e+00
 -6.3680607e-01
  1.7486230e-01
  4.7219169e-01
 -9.9579804e-02
  4.0623415e-03
 -3.6379892e-01
  7.0094101e-02
 -4.0366223e-01
 -9.4834402e-02
 -1.9419503e+00
 -1.2874265e+00
 -1.2011014e+00
 -1.4158674e+00
  1.8241552e-01
  2.3004754e+00
 -1.4897410e+00
  3.6902525e-02
 -2.6236246e+00
 -7.9768501e-02
 -6.3459927e-01
  2.1949393e-01
 -1.0783179e+00
  1.9554196e-01
  3.2339649e+00
 -2.0000637e-01
 -7.1868310e-03
  3.7842265e-01
  3.0008268e-01
  4.6438181e-01
  7.6881850e-01
 -2.6872305e-02
 -1.7102761e-02
 -5.0602825e-03
 -4.1566707e-02
  3.5076540e-02
 -3.5756882e-02
 -4.6717253e-02
 -1.3602091e-01
 -1.6172243e-02
 -1.3601714e-01
  6.0887006e-03
  2.8954837e-01
 -8.0469519e-02
 -1.2018543e-02
 -1.6914983e+00
  2.4313836e-03
 -1.2441797e-03
 -8.4459916e-02
 -3.6185209e-03
  1.3319968e-02
 -1.3327640e-02
  1.7301535e-02
 -1.0821067e-03
  8.9469410e-02
  4.3726037e-03
  1.4355358e-01
 -1.0360124e-02
  4.1612487e-02
 -9.9864220e-03
 -4.0700170e-03
 -1.5284930e-02
  2.6679514e-02
 -2.3294583e-02
 -1.6926024e-02
  6.3634716e-02
 -5.4305828e-01
  9.4368663e-03
  2.6300806e-03
  1.0107487e-02
  1.3419171e-02
 -3.7000088e-03
  2.1206316e-02
  4.4314435e-01
 -5.7781959e-04
  2.2401471e-02
 -2.9943390e-03
 -1.2668758e-03
 -1.5656600e-03
  2.7094474e-03
  8.2492630e-04
  2.7540450e-03
 -1.1630680e-01
 -2.7684323e-03
  2.3512503e-02
 -7.0249755e-03
 -1.2757935e-01
  1.7000835e-02
 -3.3212252e-02
 -2.3014385e-02
  5.2536337e-04
  4.7954652e-03
  5.6898221e-03
  8.0117298e-04
  1.1608879e-02
  1.3926806e+00
  1.3881871e-02
 -1.2640608e-02
  1.2184680e-02
  1.0516822e-02
  6.7514330e-03
  2.9428530e-01
  2.9261673e-02
 -7.7040261e-04
 -1.0928525e-01
  2.9148761e-02
  1.2866088e-02
  2.3089817e-02
 -1.3282937e-02
 -4.3869402e-02
 -2.1742342e+00
 -1.5641840e-02
 -1.7489237e-03
 -1.0517016e-02
 -7.5839233e-04
  1.1910534e-02
  6.3182935e-02
  2.1201910e-02
  3.7207041e-02
 -6.2762998e-04
  6.0631451e-03
  3.9471337e-01
  6.5255865e-02
 -5.8532864e-01
 -1.0789643e-02
 -1.7622895e+00
  4.0853912e-01
 -1.2580424e-02
 -2.0794696e-03
  4.0242385e-02
  5.0271057e-02
 -3.5913363e-03
  7.8949733e-03
 -1.6035102e-01
 -3.2450225e-02
  6.9550532e-03
  3.5259780e-02
  8.1684990e-03
  2.6671698e-02
 -4.5956224e-03
  4.1923687e-02
 -1.3598091e-04
  3.3330947e-02
  1.2514969e-02
 -3.1168411e-02
  8.1765354e-03
 -1.5463250e-02
  4.6431320e-03
 -3.3110362e-02
  2.2806863e-03
  4.3411474e-03
 -1.6168792e-02
  3.4374874e-02
  3.1352704e+00
 -1.9297309e-02
  3.3652654e-03
 -5.0128482e-02
  2.1630242e-02
 -3.5777595e-02
  1.4158393e-02
  3.8322609e-02
 -3.0002438e-02
 -1.0856681e-02
 -6.3349515e-02
  1.3621505e-02
 -1.9703205e+00
  9.8501761e-03
  4.9931329e-02
  1.3260788e-02
 -2.6749417e-03
 -3.7080593e-02
 -3.6344640e-02
  3.9704919e-02
  9.9360996e-01
 -1.8465109e-01
  2.3324190e-02
 -1.2561473e-02
  4.8339225e-02
  1.8119009e-02
  1.2280675e-02
  2.2270810e-03
 -6.5262413e-01
  4.9452060e-03
 -1.0969149e-02
 -4.3992255e-02
 -9.9477116e-03
  4.5459804e-01
 -3.7575650e-03
  4.4785187e-02
 -6.4819525e-03
  1.3628140e-03
  8.0875391e-03
  3.0703612e-02
 -1.1983730e-01
  2.4934802e-03
 -1.2960773e-03
  8.7430859e-03
 -4.3399747e-02
 -4.3333575e-02
 -5.8482816e-03
  1.2643856e-02
 -5.8530682e-01
 -7.7637494e-02
 -1.2898267e-02
  1.2312689e-01
  1.0187529e-02
 -5.1984116e-03
  3.8002174e-02
 -6.1586339e-02
  1.6631130e-02
  7.6839194e-02
 -1.3906079e-02
  2.9907072e-02
 -1.4618152e-02
 -5.8260807e-03
 -4.0265429e-03
  4.1575275e-02
  1.1439011e+00
 -4.9287301e-02
 -2.3403104e-02
  2.0434968e-03
 -4.9078646e-01
  1.4119773e-02
  1.5255821e-02
 -2.6833301e+00
  6.8295024e-02
  1.3355860e-02
  2.0338120e-02
  1.3649612e-02
 -2.3733452e-02
  1.2594870e-02
 -1.1490442e+00
 -6.9840895e-03
  1.1194257e-02
  1.3911165e-03
  9.9960919e-03
  2.1566436e-02
 -1.8769860e-02
  2.8985556e-02
  1.8616900e-02
 -8.3353510e-03
  2.9120004e-02
 -1.0821196e-01
 -1.3564205e-02
 -5.5689591e-01
  1.0446560e-02
  2.9212707e-03
 -3.9209310e-02
  9.1871724e-02
  1.3200747e-02
  1.1002596e-02
 -5.8298886e-02
 -2.9595541e-02
  1.6823230e-02
  4.2980369e-03
  3.5505693e-02
  3.1837267e-03
 -4.5348853e-02
 -1.3262914e-02
  6.4636236e-01
  5.6966743e-03
 -1.2914345e-02
 -9.9586867e-02
 -1.5571336e-02
 -1.3378119e-02
  4.0870778e-02
 -1.0998051e-03
  2.2857224e-03
  2.5583606e-02
  1.8858138e-01
  3.9098994e-03
  3.7838023e-03
 -2.7380541e-02
 -4.1426420e-02
 -6.7418227e-03
 -3.1798605e-02
  8.5772865e-04
  5.0004206e+00
  2.6109588e-01
  5.1432636e-02
 -2.4582398e+00
  1.8676529e+00
 -2.0617785e+00
  2.2711663e+00
 -1.6550622e+00
  2.5454998e+00
  8.5605145e-01
  1.1747807e-01
 -1.9838495e+00
  7.2035883e-03
  6.8729497e-02
  9.8042134e-03
  1.1669466e+00
 -2.6729794e-03
 -2.7575210e-01
 -6.2496179e-01
 -1.4420340e+00
 -7.4097693e-01
  1.2270964e+00
 -2.1617129e-02
  1.1304379e-01
 -1.6424729e+00
 -3.4302831e-01
  6.1841533e-02
  7.8105491e-01
  1.5794151e-01
 -1.6830454e-02
 -2.6671927e-02
 -3.5725646e-02
 -6.1909012e-02
  1.8035216e+00
 -1.2960295e-02
  7.0187718e-02
  1.7846283e+00
 -1.7334940e+00
 -1.2498634e-01
  2.0403814e+00
 -5.3246599e-01
 -8.2430750e-02
  1.1227036e+00
 -2.1680667e-01
 -1.2040787e+00
 -1.4212118e-01
 -3.3285251e+00
  4.1905364e-01
 -6.2342799e-01
  2.7532313e+00
  4.7563615e-01
  2.7706191e-01
 -2.0849343e-01
 -1.2853818e-01
 -3.0587404e+00
  2.0512614e+00
  3.7405858e+00
 -2.9720634e-01
 -7.9817301e-01
  3.9751381e-01
  1.8485065e+00
 -1.1045286e-02
 -4.1598225e-01
  3.2371458e-01
  1.5520474e-02
 -9.1564858e-01
  8.5412450e-02
 -3.7319908e-01
  7.9827583e-01
  3.6271554e-01
  4.8154943e-02
 -8.9373976e-02
  3.2412821e-01
 -5.1227462e-01
 -5.2668762e-01
 -5.1211793e-02
 -2.2227198e-02
  4.2658553e-02
 -2.3125589e-01
 -4.7395247e-01
  2.8970137e-01
  1.7774981e-02
 -1.9719990e-02
  4.9932557e-03
  1.8219550e-03
 -6.4977771e-01
 -1.1160491e+00
  8.5433368e-03
  3.6973786e-02
  1.9844938e-02
  8.5927799e-02
 -8.9686988e-03
  1.6573735e-01
 -3.8515956e-03
  3.1525567e-02
 -2.0049591e-02
  2.8910382e-02
 -3.2629434e-02
  3.3459876e-02
 -8.9212343e-02
  5.2059228e-03
 -1.3547712e-02
 -2.2381701e-02
  1.1338342e-01
  1.2789542e-03
  1.5029056e-02
 -2.0162420e-02
  1.1242768e+00
 -1.0097345e-02
 -1.0147936e+00
  7.5382864e-01
 -6.7674297e-01
  8.1431627e-01
  7.2116780e-01
  1.9536525e-01
 -5.5593461e-01
 -3.1531474e-01
 -8.3910608e-01
 -6.9466817e-01
 -3.4908676e+00
  5.6379341e-02
  1.3492059e+00
  4.0563941e+00
 -6.7391074e-01
  5.2971016e-03
 -1.2100953e+00
  2.1432948e+00
 -2.4765568e+00
 -9.9131775e-01
  3.1935632e-02
  1.6471457e-02
 -8.9764660e-03
  1.9513727e+00
 -1.1329405e-02
 -1.2337307e+00
  4.4815877e-01
 -3.4696821e-02
  1.1449959e+00
 -5.0247651e-02
  8.7894678e-02
 -6.3940930e-01
 -4.7760118e-02
  3.9836168e-01
 -1.7333915e+00
  5.6830854e-03
  1.7845155e-01
 -8.4831274e-01
 -1.1851957e+00
 -1.9843998e+00
  4.4011283e-01
  8.6798096e-01
 -1.3848383e+00
 -2.4226164e-02
  1.4669936e+00
 -7.8727388e-01
  1.8908048e-01
 -1.0699857e+00
 -2.1467179e-01
 -6.7682907e-02
  1.2036791e+00
 -5.5414236e-01
  8.0322800e-03
  1.8588439e-01
 -1.1579100e+00
 -3.1125224e+00
  3.8769457e-02
 -3.9910066e-01
 -4.9300212e-02
  4.3303618e-01
  1.0571818e+00
 -4.4317651e-01
  7.6282226e-02
  1.0668065e-01
  3.2271219e-03
 -4.8149306e-01
 -1.0097094e+00
 -2.9123294e-01
  3.8630500e-01
 -3.4506166e-01
 -1.2509828e+00
  2.3400048e-02
 -1.3519513e-02
  2.2340973e-01
  2.4824323e-01
  3.1118268e-02
  2.3993293e-02
  1.2732354e-02
  5.8993831e-02
  1.3501965e-02
 -8.3336476e-03
 -2.1548318e-02
  4.2346042e-01
 -1.7111987e-01
  7.2057813e-02
 -2.3381822e-02
 -7.0024543e-02
  2.4159130e-01
 -1.6717296e-02
  3.9890647e-02
 -1.6254423e-02
 -4.3548413e-02
 -9.1786873e-01
 -2.3828174e-03
 -6.0305502e-03
  1.3365095e-02
  2.8021973e-02
 -1.8126838e-02
 -3.3443449e-03
  4.2121135e-02
 -5.8679231e-02
 -2.3223188e-02
  8.5080720e-02
 -8.1892712e-03
  1.0400422e-02
  2.8519390e+00
  7.9782121e-02
  2.2921478e-02
 -2.8638306e-01
 -2.3134275e-01
 -1.1132278e+00
 -3.9359248e+00
 -8.8133270e-01
 -2.0347390e-01
 -9.4490223e-02
 -2.1159489e+00
 -3.4217534e-03
 -3.4292489e-01
 -9.9942066e-02
  1.2503049e-02
  5.9282959e-02
 -1.1752338e+00
 -2.5279376e-01
  8.0940992e-01
 -1.3949808e-02
 -4.3019944e-01
 -9.1602451e-01
  2.5898144e-03
 -2.9551135e-02
 -1.6432628e-02
  2.7843931e-01
 -3.8873163e-01
 -5.6025188e-02
 -1.6337755e+00
 -6.0689943e-03
  1.3188913e+00
 -1.2847169e-01
  2.3885842e-01
  1.0367763e+00
 -2.0380162e-02
  7.3291713e-01
 -6.6935971e-02
  1.1522663e-01
 -1.2806016e-02
  4.0254778e-01
  2.8309691e+00
 -2.7572600e-02
  3.0788198e-02
 -1.3137157e-03
 -3.8737959e-01
  2.0343498e-03
 -1.1230849e+00
 -4.9043357e-01
  6.6716271e-03
 -9.1332950e-02
 -7.5155509e-01
  3.3780287e-03
 -1.6467372e-02
  1.2312690e+00
 -1.3188684e-01
 -2.6636443e-01
 -9.2027175e-01
 -2.3567061e+00
  1.0655593e+00
 -1.8807575e-01
 -8.4600404e-02
  4.7985474e-03
  1.1056622e+00
  1.9735783e-01
  4.5603789e-02
 -5.3648803e-02
  7.7356376e-02
 -2.2510169e-02
  7.4777976e-02
 -4.0043136e-01
  1.7017271e-01
  2.3905357e-02
 -5.9377384e-01
 -2.9441531e+00
  3.9881654e-04
 -2.1023955e-02
  6.6988915e-02
 -4.6153061e-02
 -2.5101809e-02
  1.1879005e+00
 -2.0527730e-02
 -2.7578488e-02
  4.9460858e-02
  3.8782224e-02
  1.2127597e-02
 -1.2277093e-02
 -2.3845851e-02
  3.5121702e-02
 -3.1937145e-02
 -7.4627101e-01
 -1.9387984e-01
  8.6680837e-03
  2.2417218e-03
 -1.3017317e-02
 -8.8879783e-03
  6.3924980e-01
 -1.9222489e-02
 -6.0007867e-04
  9.5010296e-02
 -1.9327700e-02
 -3.3323827e-01
 -9.3904985e-03
 -5.0188981e-02
  5.3807464e-03
 -4.1267298e-02
  4.8784073e-02
  2.1517256e-02
  1.4091250e+00
  1.2328488e+00
  5.3100222e-01
  7.8547522e-02
  1.0498458e+00
 -1.6512125e+00
  9.6626240e-01
  2.3398957e+00
 -1.4708259e+00
  4.0461082e+00
  1.4159809e+00
  9.5593274e-01
 -2.8405318e-01
  2.7934747e-02
 -3.3842082e+00
  2.0834032e-01
  5.3499705e-01
 -2.5903288e-01
 -2.5702519e+00
  8.0151010e-01
  1.4111578e-02
 -3.6235951e-02
  9.3410403e-01
 -5.9291360e-04
 -2.2821405e+00
  1.3097200e+00
 -2.9176071e+00
  4.5878050e-01
  9.4880420e-01
 -2.2811353e+00
 -5.8745677e-03
 -4.7561824e-01
  6.3924122e-01
  4.2695954e-01
  2.5183213e-01
 -1.2609853e+00
 -2.6819215e+00
 -4.9751386e-01
  1.0621421e+00
 -4.2407173e-01
  8.2914138e-01
  1.4590349e+00
 -2.5236157e-01
 -9.7505051e-01
  1.3716111e+00
 -2.3555284e+00
  6.0364830e-01
  2.0335822e+00
 -4.9746761e-01
 -2.7642775e+00
 -3.6391938e+00
  1.3977168e+00
  1.6233201e+00
 -9.7654140e-01
  2.2719216e+00
  1.4089446e+00
  3.9969087e+00
 -4.4092512e+00
 -2.5544009e+00
  1.3351752e+00
  2.9309094e-01
  7.5751853e-01
  6.7897654e-01
  5.8609444e-01
  1.1321819e+00
  2.0313974e-01
 -2.6902688e+00
 -1.2621448e+00
  2.2985861e-01
  1.0297106e-01
 -6.0861444e-01
  1.3084430e+00
 -5.7842761e-01
 -1.2775272e+00
 -2.8450675e+00
 -9.4730771e-01
  5.4795372e-01
 -1.6328685e+00
  8.9093391e-03
  5.4206997e-01
 -1.7237548e-02
  9.5973551e-01
 -3.7689671e-01
  8.7503344e-01
  2.5266042e+00
  3.3979420e-02
  3.5092428e-01
  1.2549518e+00
 -2.2703164e+00
  1.7058491e+00
 -6.4584321e-01
  1.3889804e-01
  1.5536319e-02
 -1.2619440e-02
  6.5360641e-01
 -6.1879430e-02
  2.9873710e-02
 -3.4351761e-03
 -1.5867217e-02
  2.8518081e-02
  6.3202223e-03
  5.9662156e-02
  1.0103113e-02
  2.1237253e-01
  1.2076841e-02
  9.7340173e-01
  2.2813838e-02
  6.7663588e-02
  4.0851790e-02
 -1.4365341e-01
 -1.4876097e-01
 -2.0076700e-02
 -7.7646114e-02
  1.3735171e-02
 -1.6879056e-02
  6.7717001e-02
  2.5773246e-03
  1.1431607e-01
 -3.7967395e-02
  7.4092284e-02
  1.7241891e-02
 -7.2059028e-02
  4.5233904e-04
 -1.0163232e-01
 -4.3530283e-03
 -3.7046827e-02
 -3.7173484e-02
  7.0434940e-01
  7.4298382e-03
 -3.1913850e-01
  2.9535934e-02
 -2.7016006e-02
 -2.9440053e-02
  3.0419589e-03
 -7.2398402e-02
 -1.9887211e-02
  1.9579141e-01
  1.9237247e-01
  3.4088898e-01
  9.9870190e-03
 -1.0181674e-03
 -2.9989064e-02
  2.3699423e-02
  1.4212991e-02
 -2.0122777e-01
  6.7747496e-02
 -3.6063414e+00
  6.1686277e-02
 -2.8763610e-01
  7.8130336e-03
  2.6852617e-01
  1.7997008e-02
 -2.7941899e-02
 -2.6665781e-02
 -1.5943800e-01
  1.0619635e-02
 -1.0666425e-02
  1.4782716e-01
  3.1124717e-02
 -2.8967427e-03
  1.5093118e-01
  3.6448225e-02
  1.7512584e-03
 -7.1083137e-04
  1.9877486e-01
  3.7751114e-03
  6.1516128e-02
 -4.8186271e-03
 -4.1713715e-03
  6.3391232e-01
 -3.5925257e-01
 -4.6697356e-02
  4.9172994e-02
 -4.3735415e-02
 -4.6233055e-03
 -1.9621398e-02
  7.7621308e-03
 -5.8086097e-02
  2.8530965e-02
  1.4002065e-02
 -4.6738633e-03
  1.7908419e-03
  2.5319761e-02
  2.4824435e-02
 -1.1363883e-01
 -6.5350667e-02
  5.8410359e-03
 -1.6348299e-02
  4.0323026e-02
 -1.0564812e-02
  2.8616561e-02
  8.7077636e-03
 -3.7536416e-02
 -8.9616314e-02
  5.8976464e-02
  4.8415229e-02
  1.8868277e-02
 -1.2624315e+00
  1.1680275e-02
  2.1882489e-01
 -5.0540574e-02
  1.3538551e-02
  1.9343840e-02
  1.8873698e+00
 -4.3427735e-03
  1.7082045e-02
  1.6234327e-02
 -5.1977187e-02
  5.8070426e+00
  7.4322701e-02
  2.9255198e-03
  1.2539718e-01
 -2.3432890e-02
  1.6368782e-02
  3.1475249e-01
 -4.6481188e-02
 -5.4342365e-01
  3.0296583e+00
 -3.7259683e-01
  4.2706859e-01
 -3.0183153e+00
 -2.2903548e-01
 -2.5464159e-01
  1.1378545e+00
 -1.3880862e-01
 -1.7496534e-01
  8.2773888e-01
 -7.3561776e-01
 -1.6629245e+00
 -1.6074276e+00
 -3.5572100e-01
  1.8196909e-01
  7.6669681e-01
 -3.2735376e+00
 -5.5329613e-03
  1.7343425e+00
  2.3181419e+00
  2.6526699e+00
  2.0279422e-01
  8.5162032e-01
  9.1040766e-01
 -1.6144921e+00
 -8.1513375e-02
  3.3331074e-02
  1.1781013e-01
 -1.8513979e-02
 -1.1768657e+00
 -1.9802356e-02
  1.3841067e-02
  3.6556471e-02
  2.1655045e+00
  2.7712137e-01
  6.9090348e-01
  1.8876360e-01
  1.5740449e+00
  7.5710917e-01
  1.1413817e+00
  1.5684417e+00
 -2.8683892e-01
 -1.9801466e+00
 -1.5171573e+00
  1.5326722e+00
  1.0134475e-02
  1.8106094e-02
 -1.1503606e+00
  8.8054138e-01
  7.6833892e-01
  4.1184759e-01
 -8.3535862e-01
  1.2506127e+00
  1.1820271e-01
  7.4190712e-03
  4.1058826e-01
 -9.5765397e-02
  6.3380554e-02
  3.9237231e-01
  6.5543455e-01
  8.5810405e-01
  4.4459198e-02
  1.7576382e-01
 -1.6674011e+00
  9.1414380e-01
 -9.5625192e-01
  7.0152491e-01
  9.3123782e-01
 -1.5512154e-01
 -1.1112738e+00
 -8.7662178e-01
 -1.8848319e-02
 -1.1752943e-01
  5.6670541e-03
  2.8439650e-01
 -9.4853967e-01
 -9.9518198e-01
 -9.7519830e-02
  2.2453524e-02
 -1.9290110e-02
  9.3532902e-01
 -7.4594343e-01
  1.5997961e-02
  1.2469774e-01
 -1.4207656e-02
 -1.1863160e-02
 -2.1456838e+00
  2.8590450e-02
 -2.2065842e-04
 -3.8642365e-02
 -3.9932419e-02
 -2.3285732e-02
  1.3632243e-02
 -1.1361562e-02
  3.8391449e-03
  2.9754557e-02
  7.4795736e-03
  6.8290140e-03
  2.5405198e-01
 -1.0333265e-01
  1.0183015e-02
 -2.1001633e-01
 -9.4766974e-02
 -9.8529197e-02
 -1.4764255e+00
  2.3126564e+00
 -5.2821529e-01
  5.3501021e-02
  1.1437995e+00
  4.5675996e-01
  6.1835951e-01
 -8.1669599e-01
 -8.0911249e-01
  1.4480203e+00
 -2.2514822e+00
 -1.8169729e+00
 -3.5907717e+00
 -1.3055312e-02
 -1.9522629e+00
  2.3036594e+00
  5.5775470e-01
  1.9313504e-01
  2.3080978e+00
  2.2562542e+00
  1.8776865e+00
  6.5922081e-01
  9.8888236e-01
 -1.1142895e-01
 -2.9114048e+00
  4.9773889e+00
  3.3292606e-02
  1.7878404e-01
 -5.2164936e-01
  7.4147850e-02
  2.5485158e-01
 -2.2783644e+00
  5.4592001e-01
  3.1862490e+00
 -9.4442540e-01
 -1.6368376e+00
 -2.7847059e+00
  1.7241704e+00
  2.9848499e+00
  1.7543643e+00
 -2.7566874e+00
  3.0820191e+00
 -6.0847896e-01
 -9.3073291e-01
 -2.8897386e+00
 -4.1639158e-01
 -1.2441663e+00
 -2.4437501e+00
  1.9426206e-03
 -2.1668434e-01
 -4.1455317e+00
  8.6533296e-01
  6.2569892e-01
  7.0866071e-02
  2.0228071e+00
  2.1162481e+00
  7.0012385e-01
  2.0897686e+00
 -1.1213649e-01
  3.5649553e-02
 -1.5905101e+00
 -2.1355388e+00
 -5.7940435e-01
  1.6845652e+00
 -3.0582109e-01
  1.0414866e-01
 -2.1038318e-02
  1.3984733e+00
 -1.8905716e+00
  1.6031282e+00
  2.4680246e-03
 -5.4560322e-03
  2.8056043e-01
 -8.2222629e-01
 -7.9438454e-01
  1.5965298e+00
  1.5714611e+00
 -1.3506730e-01
 -1.3438090e+00
  4.6209328e-02
 -1.5943848e-02
 -1.5652679e-03
  1.0953082e-02
  4.4237003e-01
  1.7841950e-01
  2.8133099e+00
 -2.7401807e-02
  9.0610812e-04
 -1.0074531e-01
  3.1479862e-01
  7.8321174e-02
 -9.8547991e-03
  3.3522001e-01
 -8.9021094e-02
  7.1009523e-03
  1.1007479e-02
 -1.3688574e-02
 -1.9366855e-02
  3.2672524e-02
 -2.1694279e-04
 -1.8419620e-02
  2.0606619e-01
  6.6165768e-02
  1.0868484e-01
  3.9893310e-03
 -8.7981587e-03
 -5.8718245e-02
 -1.6144053e+00
 -1.6544863e+00
  2.6594677e+00
  3.1433024e-02
 -4.8645154e-02
  7.9342031e-01
  3.2537362e-01
  6.4416182e-01
 -2.7120941e+00
 -1.1650480e-01
 -8.3260661e-01
  6.8087697e-01
  1.3573002e+00
  1.0732750e+00
  1.4629538e+00
 -6.3696402e-01
  1.5068379e-01
 -3.0420920e-01
  9.6321709e-02
  9.7718388e-02
 -4.2720759e-01
  3.6387357e-01
 -3.9727521e-01
 -4.4348836e-01
  1.9102663e+00
 -3.4932973e+00
  8.9665037e-01
 -1.9854066e+00
 -8.7918222e-01
 -7.2726089e-01
  2.3043950e+00
 -3.3773952e+00
  6.9168812e-01
 -1.2405423e+00
  1.3383280e+00
  4.7362101e-01
  1.7581775e+00
  3.4292119e+00
 -1.0663950e-01
 -4.1662108e-02
  8.8010311e-01
  2.2825646e-01
  2.1363375e+00
 -7.4572581e-01
 -3.1855736e+00
  2.9186273e+00
  2.5400616e-02
  4.9262118e-02
 -1.4948490e-01
  2.6221931e-02
 -6.1841726e-01
 -8.9622661e-02
 -1.3604035e+00
  4.7542453e-02
 -4.4192481e-01
  9.9186487e-02
 -1.2390702e-01
  3.4037094e+00
  8.3883300e-02
 -2.7797106e-01
  4.6892557e-01
  9.1187030e-01
  1.0891954e+00
  1.2788517e+00
  7.8631556e-01
 -4.4492123e-01
  5.6708783e-01
 -6.9522721e-01
  1.3238597e-01
 -3.1103596e-01
  1.1499461e+00
  1.6605838e-01
 -2.9581210e-01
  5.4024899e-01
 -3.4024134e-01
 -1.5900202e-01
 -6.2256908e-01
 -9.4251949e-01
  9.8991615e-01
  2.9976990e+00
 -4.5379069e-01
  4.1049355e-01
  1.4720519e-01
  7.4741761e-03
  2.0823929e+00
  4.2916153e-02
 -3.1594629e-04
 -1.2511401e+00
 -8.4006894e-01
 -3.0647771e+00
  7.6550096e-01
  4.0235804e-04
  5.9367824e-01
 -1.6758440e-02
  9.9004619e-03
  3.7724632e-01
 -2.6525378e-01
  1.8025177e-02
 -3.3109061e-02
  2.5777385e-02
  3.0813578e-03
 -3.3092213e-01
  1.4332184e-03
 -2.9464411e-02
  3.3468648e-03
 -2.6099145e-01
  3.0481432e-02
 -5.8855053e-02
 -8.0940318e-01
 -8.9160196e-02
  1.1185956e+00
 -4.5739624e-01
 -2.0353203e+00
  7.8332824e-01
 -1.3030550e-02
  2.1973946e+00
 -1.4831360e-02
  5.6777549e-01
 -5.9701907e-03
 -2.8496754e-01
  1.2110661e-01
  3.9487947e-02
 -8.6879924e-02
 -1.8903019e-02
  1.1481013e+00
 -1.5243206e-02
  1.4617391e+00
 -7.4230283e-01
 -1.8604305e-02
 -9.9838990e-01
 -2.3706402e-01
 -2.7813208e-03
 -1.1397396e-01
  5.7105981e-02
  2.3767583e-01
 -1.5716110e+00
  3.9393615e-04
  3.6472592e-01
  5.4010302e-01
  2.6569256e-01
  2.7387856e-02
  2.0915040e-01
 -8.0995405e-01
 -2.2845301e-01
 -8.2731962e-01
  3.8327273e-02
  7.5146216e-01
  2.2117557e-02
  3.2119095e-01
  1.2730525e+00
 -4.7753277e-01
 -9.0163007e-02
 -5.5903178e-01
 -1.0577973e+00
 -7.6383956e-02
  2.2424653e+00
 -2.4151374e-01
 -6.9739372e-01
 -1.2743671e-01
 -1.7864128e+00
 -3.2956415e-01
 -6.3314122e-01
 -9.2642426e-01
  4.6769369e-01
 -4.0521696e-02
  1.1428750e+00
 -7.9551369e-02
 -3.6159360e-01
  3.2654440e-01
  5.6666490e-02
 -6.3965499e-01
  6.7037421e-01
 -1.0745593e+00
  5.7598362e-03
  1.1874138e+00
  1.9584383e-01
  4.6052784e-01
  6.9660284e-02
  3.6669847e-01
  1.3648516e-01
 -1.5425782e+00
  1.2670466e+00
  2.8542748e-01
  1.6381118e-02
 -1.0470982e-02
  6.8325244e-02
  1.1723788e-03
  5.2295722e-02
 -1.5876265e+00
  8.7690922e-03
 -7.3293960e-01
 -4.8453525e-02
  3.6439383e-01
  6.6078320e-02
 -2.1915901e-02
 -1.0730214e-01
 -1.1362839e+00
 -3.2215528e-02
 -5.7620839e-03
 -1.4964521e-02
 -7.0480622e-02
 -1.3040307e+00
 -1.2728105e-02
  3.6448711e-03
 -5.3798932e-01
 -2.2016544e-02
 -6.4072763e-03
  5.2967206e-02
  1.1286709e-01
 -4.2091042e-02
 -8.6917290e-03
  6.3852221e-02
 -3.0754656e-02
 -3.0662143e-03
  1.5811366e-01
  3.2634237e-03
  3.5520622e-01
 -1.0203242e-01
 -1.3572375e-02
 -6.5081030e-02
 -1.8877275e-02
 -1.9210896e-02
 -3.9588209e-02
  6.1636660e-03
 -2.1516725e-03
 -4.6248245e-01
  3.7854977e-02
 -1.5167058e-01
  3.0147381e+00
 -3.0466698e-02
  1.7640464e-02
 -9.2549613e-03
 -9.7785122e-04
 -4.4159997e-02
 -9.5211966e-03
  1.4789528e+00
 -3.9608203e-02
 -4.0928610e-02
  6.0736187e-02
  5.0535291e-02
  9.6697221e-03
 -2.8111635e-02
  4.5239269e-03
  2.5105583e-02
  1.0504458e-02
  2.4901817e-02
  3.8044129e-02
  1.8321286e-03
  9.7958393e-02
 -4.2248556e-01
  4.6790056e-02
 -7.2757959e-02
  4.0907342e-02
 -2.4311149e-02
  6.9728615e-03
  3.8383114e-01
  1.6633772e+00
  3.3510186e-02
  7.3942226e-01
 -1.6836097e-04
 -2.1559898e-02
  4.3958627e-02
  6.5118283e-02
 -2.2063507e-02
  3.9457079e-02
 -6.5392745e-03
 -5.9557077e-02
  9.0289187e-01
 -2.9569047e-02
 -8.4166043e-02
  1.9357029e-02
  2.4091166e-02
  1.2998890e-02
 -1.9843083e-02
  1.0836259e-02
 -4.8742186e-02
 -2.9530175e-02
 -4.4131156e-02
  3.3754233e-02
  1.7816756e-02
  1.5761396e-02
  2.4405199e-03
 -7.9909135e-03
 -1.9393576e-02
 -2.2825155e-02
  9.4734831e-03
 -1.9784121e-02
  1.0836533e-02
  3.6763873e-02
 -7.3068351e-02
 -4.7169169e-03
 -4.5188614e-03
  4.3877047e-02
 -4.4357046e-03
 -4.6909317e-02
  6.1927144e-03
 -9.0032711e-04
 -1.0898649e-02
  3.1689692e-02
  9.6528940e-02
  1.4652640e-02
  8.0320001e-02
 -1.2515695e-02
  5.9522361e-02
 -2.2237816e-01
 -4.6582050e-03
  3.5269707e-02
  1.4871432e-02
  7.0411544e-03
  1.0132431e-01
  7.3041350e-02
 -1.1161260e-02
 -1.1067567e-02
  7.2692253e-02
 -3.7081940e+00
  7.1219052e-03
 -4.2278830e-02
 -5.0588239e-02
  9.0609264e-01
 -6.8988125e-03
 -3.8529857e-04
  1.0185077e-01
 -1.5428717e+00
  9.6598291e-01
  2.8989083e-01
 -1.5949088e+00
  3.2266790e-01
  1.5681210e+00
  4.2847034e-01
 -2.6172853e-01
 -3.4366363e-01
 -1.8697447e+00
  1.0522863e+00
  1.4971380e-01
 -1.9203449e-02
 -5.0207577e+00
  2.1004050e+00
 -1.8236244e-02
 -7.7907789e-01
  1.9599752e-01
  1.8052697e-01
  5.9325379e-01
  2.9082349e-01
 -9.0035188e-01
 -6.8780733e-03
  1.2921941e+00
  1.9806744e+00
  3.2827911e-01
 -4.2305151e-03
 -2.4453716e+00
 -1.9435839e-01
 -2.6331992e+00
  2.2423599e+00
 -1.3701209e+00
 -1.2377430e+00
  3.5830989e-01
  1.1862714e+00
 -5.0270736e-01
 -1.5643695e-01
 -9.7511762e-01
 -2.7810484e-01
  1.8935120e+00
  2.2473209e+00
  4.2411941e-01
  1.8796192e+00
 -9.0523893e-01
  8.9600682e-01
  3.4857357e+00
  2.3320923e+00
 -3.9949143e-01
 -4.5863912e-01
 -1.0185442e+00
  4.0353429e-01
 -1.2038945e+00
 -7.9135418e-01
 -2.1596599e+00
 -9.5672923e-01
 -1.3336638e+00
 -6.4807957e-01
 -2.6397008e-01
  3.5035621e-02
 -3.7616545e-01
  2.1380742e-01
  7.6274073e-01
  1.6917417e+00
 -2.1080995e-02
 -2.0263863e-01
  1.1241020e+00
  1.8896526e-02
  1.1732277e+00
 -9.6271411e-02
 -2.6101884e-01
 -8.9758801e-01
 -1.9498824e+00
  6.6108572e-01
  6.7632681e-01
 -5.5878032e-03
  1.9353068e-04
 -8.6195935e-03
  8.8392802e-02
 -8.9637643e-01
  4.8766374e-03
  7.1675593e-01
 -2.6508552e-01
 -1.0169733e-01
 -2.2023395e-03
  6.9937870e-02
  1.9718851e-03
  7.9704143e-02
 -4.8964359e-03
 -5.8184493e-02
  3.2869340e-03
 -3.9106041e-02
  6.6356555e-02
 -1.1218818e-03
 -6.9743525e-03
 -1.4405371e+00
 -4.9154408e-02
  7.8367591e-02
 -2.5931127e-02
 -2.0872760e-03
  1.2023731e-02
  3.5728788e-01
  4.2140704e-02
  1.8159930e-01
 -2.2821473e-02
  5.5607879e-01
 -1.8814480e-01
  1.9704586e-01
 -2.1876270e-01
  4.3694600e-03
  1.4203217e+00
 -4.6802619e-01
  1.1840777e+00
 -3.9579179e+00
  3.1155972e-02
  8.3324778e-01
 -2.9392973e-01
  1.9372150e+00
  2.2940890e-01
  2.9612517e-01
  7.3009394e-03
  4.2987078e-01
  4.2761264e+00
  1.0715989e+00
  1.1805551e+00
 -2.1333228e-01
  1.3889424e+00
  2.6979568e+00
  1.0144099e-02
  5.1136587e-02
 -3.5608798e-01
  6.9579765e-02
  3.9158314e-01
  6.1448812e-01
 -5.6818421e-03
  1.9484034e+00
 -9.0581678e-02
 -1.6446061e-01
 -3.4261522e-01
 -1.2273333e-01
 -6.3954395e-01
  4.2321485e-01
 -7.9314315e-01
  8.9992851e-01
 -3.8469428e-01
  1.2828132e-02
  8.8826396e-02
  3.6158934e+00
  8.5314882e-01
  1.5634124e+00
 -1.6736529e+00
 -2.2316384e+00
 -1.8353802e+00
  3.2796761e-01
  1.5742015e+00
 -6.6415292e-01
  2.2116896e-02
 -2.0759397e+00
  3.2487892e-02
 -2.1010261e+00
 -1.5516996e-01
  2.3500090e+00
 -1.3886958e-01
 -2.2523851e+00
 -5.4741979e-02
 -2.2318782e-02
 -1.1215576e-03
 -5.4308522e-01
  6.2385225e-03
  6.4398766e-02
  1.7586255e-02
  3.3570996e-01
  2.4674548e-02
 -1.6835436e+00
 -2.8265685e-02
 -1.2271452e+00
  6.0139078e-01
 -4.6721560e-01
  3.6231555e-02
 -2.6800182e-01
  1.4369074e+00
  1.7133325e+00
  5.9051734e-01
  4.5735771e-03
 -1.4048003e-02
  1.4155466e-02
  2.2100365e+00
 -2.2850628e-01
  1.3132012e-01
 -4.1580173e-01
 -2.2523962e-02
  1.0573046e+00
  5.7620917e-02
 -6.8155050e-02
  6.7011085e-03
 -3.1898037e-02
 -4.8077533e-01
 -1.9957387e-01
  9.4265506e-02
 -1.5167224e-01
 -2.7398070e-02
  1.5423071e-01
 -9.5656225e-03
  1.2048720e-02
 -2.2866685e-02
  5.6244522e-02
 -1.0583824e-03
 -2.0823351e-01
  2.4509415e-02
  4.9193036e-02
  4.7993254e-02
  2.3579476e-03
  2.2322598e+00
  3.0250142e-03
 -1.5474640e+00
 -2.4669750e+00
 -1.7621620e+00
  5.4702584e-02
 -2.4976950e+00
  8.5621610e-02
 -3.8736311e-01
  1.0222618e-01
 -2.2949266e+00
 -9.2248499e-01
  3.7419692e-01
 -2.0239274e-01
  1.0958409e+00
 -3.3986658e-01
 -3.0154560e-03
  5.2222377e-01
  7.2263384e-01
  1.2494518e+00
 -2.3374993e-01
 -9.9044257e-01
  5.7078886e-01
 -1.5964858e-01
 -1.6076809e+00
 -4.7335639e-03
  6.8468648e-01
  9.3330342e-01
 -1.9768709e-03
 -1.7531588e+00
  1.4388674e-01
  1.3429486e+00
  4.7717124e-02
 -2.2154782e+00
 -9.1864010e-03
  8.7390918e-01
 -4.3945479e-01
 -8.7695348e-01
 -1.6191244e+00
  2.7697709e-01
 -7.6032633e-01
 -6.2177783e-01
 -4.9670306e-01
 -1.3292125e-01
  7.1815580e-02
 -4.3015275e+00
  7.8908622e-01
  8.0565995e-01
 -3.0816391e-01
 -1.6202664e+00
 -5.8453727e-01
  2.5275221e-01
  2.9363885e+00
 -1.8917680e-02
  7.8015245e-02
  6.3406396e-01
 -1.3473556e+00
  5.2148253e-01
  1.0580350e+00
  1.0512329e+00
  7.4532539e-02
 -8.4541440e-02
 -1.2620224e-01
 -7.4080247e-01
 -1.3860233e+00
 -1.7377634e-01
 -1.6785279e-01
 -1.8305619e-01
  1.0447457e-01
  3.9212972e-01
 -8.6811256e-01
 -1.6838308e-01
 -1.0681766e+00
  1.1271755e+00
  2.5238244e-02
 -1.7484391e+00
  9.3181103e-01
  4.7257125e-02
 -1.6267579e-02
 -3.0185522e-03
  4.4394587e-03
  1.7697281e-01
 -1.1290359e-01
 -5.4102130e-02
  4.9093209e-04
 -2.3946378e-02
 -4.9689012e-03
  3.9417665e-02
  1.7683323e-01
 -1.4543118e-02
  3.9642077e-02
  1.1328674e-02
 -2.3267230e-02
 -1.9881789e-01
  1.3509738e-01
 -9.7320139e-02
 -8.5347272e-02
  2.6345286e-03
 -4.4828288e-02
  3.8346857e-02
  3.0549013e-03
 -1.8883713e-02
 -1.7833937e-02
 -1.7379124e-02
 -1.8130364e-02
 -1.0037642e-01
 -3.6830693e-03
  3.2767861e-03
 -7.7550150e-03
  3.7037864e-01
 -2.8621454e-02
  6.8794388e-01
 -1.4997919e-02
  9.6738923e-01
  1.9757092e-01
 -2.2909460e+00
 -8.9913588e-03
  1.9431973e+00
 -8.1763983e-02
 -9.5990095e-03
  3.5929474e-01
  2.4963161e-02
  1.6156366e-03
 -9.8752752e-02
 -4.4328228e-01
  6.9112931e-03
 -4.2568557e-02
 -3.9191503e-02
  6.9423662e-03
  6.3764416e-02
 -6.6947693e-01
  2.3403451e-02
  3.1341806e-02
  3.2355327e-02
 -6.5318815e-02
  4.8207198e-03
 -1.7820254e-02
  1.3565155e-02
  4.5236390e-02
 -4.2805444e-03
 -4.1425779e-01
 -2.7537307e-02
  1.9898843e-02
 -7.2437510e-02
  8.4365560e-03
 -1.1036177e-01
 -1.3022036e-02
  6.3640244e-02
  1.5852889e-02
 -4.8371986e-01
 -1.4756299e+00
 -2.6902514e-02
 -4.2622708e-02
  5.5770822e-02
  4.6671792e-03
 -4.4796459e-02
  2.7260790e-02
  1.6218595e-02
 -2.3286012e-03
  9.2604971e-03
  1.0595621e-02
 -4.0270999e-02
 -7.7366515e-04
  2.4247172e-03
 -1.1069031e+00
 -1.9445278e-01
 -5.6124680e-02
 -4.5543715e-02
 -6.6140431e-01
  4.6556699e-03
  2.5534522e-02
  2.9810655e-01
  2.9519235e-03
 -1.1321679e-02
 -1.5023709e-02
  1.5597944e-02
 -4.1678146e-02
  5.1202010e-02
 -8.6278081e-02
 -7.1305521e-02
  3.9090484e-02
  1.1913233e-02
  5.9956408e-01
 -2.9673364e-03
 -5.4284930e-02
  3.1049638e-03
 -3.1478796e-02
  2.5381269e-02
  6.2875971e-03
 -6.0180590e-02
 -3.7050050e-02
 -9.1114759e-02
  6.8711899e-02
  2.1140238e-03
  5.9549257e-02
  1.0488886e-02
 -5.6552913e-02
 -1.2538726e-02
  2.6577482e+00
 -7.1822427e-02
  1.7949162e-02
  1.4225565e+00
 -1.0706792e-02
  1.0456897e-01
 -1.7004719e-01
 -5.1974680e-02
  4.1090485e-02
  2.2136675e-02
 -2.3109561e-02
 -1.6493954e-02
 -6.0106739e-02
 -1.7233832e-01
 -4.2867917e-03
 -1.1233091e-02
 -8.6550519e-04
  3.0591249e-02
  1.5243794e+00
  2.1384478e-01
 -1.8374663e-03
 -5.6457573e-01
  9.5826769e-03
 -1.6131577e+00
 -3.9047621e-02
 -4.6086469e-01
  5.0990288e-03
  8.1751293e-01
  1.3536303e+00
  6.4171225e-01
  8.4577827e-04
  7.1692884e-02
  1.9446442e-01
  1.4719760e+00
  5.1929820e-03
  9.2207663e-02
 -8.2339108e-01
 -9.9973953e-01
 -7.1154535e-01
  1.2122387e+00
 -1.2049350e+00
 -2.9933944e-02
  5.0603390e-02
 -5.9681582e-01
 -2.2919844e-01
  1.8813659e-01
 -1.0908371e+00
  8.6833709e-01
  1.2957530e+00
  1.8956101e-01
 -2.7714047e-01
 -1.3583046e+00
  1.1640988e-01
 -1.0250148e+00
 -2.3207028e+00
  1.6476250e-01
 -2.3743445e-02
  6.3501287e-01
 -3.6173087e-01
  1.6793054e-02
 -5.5128470e-02
  1.1705269e+00
  6.5399230e-01
 -9.9912149e-01
  5.3934390e-03
  4.7877722e+00
  4.5512399e-01
 -1.4098902e+00
 -2.6037613e-01
 -2.8090829e-01
 -7.2962368e-01
  5.1322407e-01
  2.2259494e-02
 -4.6096826e-01
  1.6822416e-02
  8.7246138e-01
 -3.2886088e-01
 -4.2163476e-01
  4.4633815e-01
 -8.6197987e-02
  1.1217639e+00
  1.8776424e+00
  1.8564992e-01
  2.6197743e-02
 -6.5848581e-02
 -1.3427699e-01
  9.4067430e-01
  3.0801436e-01
 -3.2799348e-02
 -2.3239034e-01
 -1.4991582e-02
 -6.5241806e-02
  1.2792889e-02
 -6.3369535e-02
 -1.3718618e-02
  3.4608915e-01
 -2.4179137e+00
 -2.0410351e-01
  1.3052693e-01
  8.1284779e-01
  8.2631606e-01
  1.8563761e-01
 -3.4545371e-01
  1.9143751e-02
  3.1757927e-03
  1.7237682e+00
 -9.8971538e-03
  3.8296506e-02
 -3.5502559e-03
 -2.4016475e-02
  4.2362561e-04
 -7.6229908e-02
  2.3057409e-02
  2.0270821e-01
  1.7085668e-02
 -8.7370366e-02
 -7.7965930e-03
 -1.5023178e-02
 -2.7659455e-01
 -5.1483750e-02
  1.2381909e-01
  8.2009649e-03
 -7.3921278e-02
  4.3510091e-02
 -2.7735377e-02
  1.6685693e+00
  1.3660674e+00
 -1.4376802e+00
  4.2845740e+00
  2.1443462e-03
 -2.0187309e+00
 -4.4516513e-01
  2.8297094e-01
 -8.5102642e-01
  2.2405298e-01
 -9.3685246e-01
  7.4015521e-03
  1.6713909e+00
  4.9384654e-01
  2.0004326e-02
  1.3302899e-02
  4.8643613e-01
  6.7076781e-03
 -1.5371740e+00
  3.7246055e-03
  2.9134013e-02
  1.1376102e+00
 -3.4486803e-03
 -1.4263933e+00
  1.3512721e-02
 -3.3093378e-01
 -1.8890902e-01
  1.2969290e-01
 -1.8567507e+00
  5.7056189e-01
 -7.1880412e-01
  4.5377131e+00
  8.4062824e-03
  6.9807744e-01
 -6.3780886e-01
 -8.0898350e-01
  1.6056324e+00
 -1.4701569e-02
  5.2718896e-01
 -9.9001360e-01
  2.4751244e+00
 -6.3164091e-01
 -1.5232424e-02
  2.1642980e-01
 -1.9190272e+00
  3.1829000e+00
  1.8661664e+00
  4.4631067e-01
 -6.3091449e-02
 -2.2258781e-01
  1.7629933e+00
 -7.8468788e-01
  1.8027374e-01
 -1.5264960e-01
 -5.9222126e-01
  8.8531218e-02
  1.6666803e+00
 -5.3963953e-01
  2.9798793e-02
  7.4520290e-01
  1.7382532e+00
 -4.8139665e-01
  1.2972435e-02
 -3.6944211e+00
 -3.4889156e-01
  1.1351198e+00
 -4.3133418e-03
  1.7597094e-01
 -1.8611267e+00
  7.7708399e-01
 -6.5634137e-01
  7.1859324e-01
  2.4500877e-01
  2.0105334e-02
  3.4747012e-03
  6.4045988e-02
  3.1347807e-02
 -4.5553347e-01
 -8.4322584e-01
 -3.3806052e+00
  1.9345343e-01
  1.0649153e-02
  9.6748188e-02
 -2.8694281e-02
 -3.1703672e-01
  2.8361395e-02
 -1.2108505e-02
  3.8952235e-02
  7.7562451e-02
  6.1741662e-01
  3.5449977e-03
  4.6116501e-01
 -1.7190684e-02
 -4.8670296e-02
  1.0374039e-02
 -2.0310548e-03
  1.0704500e-02
 -5.1785808e+00
  5.0023254e-02
  1.4394089e-02
 -5.0814983e-02
 -2.0368693e-02
 -6.7003872e-03
 -2.4882311e-02
 -3.3953935e-02
  2.4374874e-02
  8.0853261e-02
 -1.7603519e+00
  2.2434645e+00
  1.0409708e+00
 -1.5033882e+00
 -7.3149896e-01
 -3.9010694e+00
  2.8741670e+00
  2.4094230e-01
 -2.8887433e-01
  9.3566257e-01
  1.5881195e+00
 -3.0021513e-02
  2.5651580e-01
  1.2060749e-02
 -6.8148129e-02
 -2.0644829e+00
 -1.5943357e-01
 -4.9778232e-01
  1.3109297e-01
  1.7712053e-02
  5.6741703e-01
  6.4950347e-01
  3.2136809e-02
  1.2295592e+00
  1.6747762e+00
  4.0829113e-01
 -1.9912232e-01
 -4.2068911e-01
  8.0270529e-01
 -5.4714084e-01
  4.0034356e+00
 -1.7919899e+00
 -1.5748600e-02
  5.2091670e-01
 -3.1713545e-01
  2.1469681e+00
 -3.8325441e+00
  3.1836563e-01
 -2.0905450e-01
 -3.6017027e-02
  4.3716684e-02
  2.2757943e+00
 -1.1029034e-01
  1.9479755e+00
  2.9374361e-01
 -7.2907466e-01
  5.5781096e-01
  1.0767851e+00
 -1.9999503e-01
  1.0123470e+00
  1.9164091e+00
 -8.7265098e-01
 -1.7218580e+00
 -9.7032577e-02
  7.6263469e-01
 -1.8184713e+00
 -2.1503806e-01
 -3.3803473e+00
 -1.0295409e+00
  9.9419719e-01
 -5.5585068e-02
 -5.0972845e-02
  9.2885381e-01
  1.6349329e+00
 -1.3317070e+00
 -1.2498432e-01
  2.4196561e-02
  2.2739978e-01
  6.3387680e-01
  4.6493206e+00
  3.0749378e-01
  2.7936149e-02
 -1.2165139e-02
 -4.4129920e+00
 -1.5389990e+00
 -1.1543728e-01
  4.2874077e-01
 -1.4764891e-02
 -1.2706244e-01
  5.6085743e-02
 -5.5072147e-01
  4.8637267e-02
 -3.3347361e-02
  3.2936644e-02
  7.7590533e-02
  8.7794900e-02
  1.6445525e-01
  6.7173660e-01
  1.7272923e-02
 -1.0946603e+00
 -6.0692108e-01
  1.1163979e-02
 -2.1336112e+00
  4.3417560e-03
  1.3523976e+00
  1.2093705e-02
  2.5672687e-02
  4.5375451e-03
  4.4087679e-03
  2.3712065e-02
  4.2587939e-01
 -3.8623203e-02
  6.7688473e-02
  9.2410212e-03
  6.5354727e-02
  2.5944355e-01
  3.7736383e-03
  4.3496208e+00
 -1.5753195e-02
  3.6960158e-01
 -4.5251906e-01
  8.0194020e-01
  7.7507532e-01
  1.3535080e+00
  2.3431960e-02
 -8.2932341e-01
  1.6001036e+00
 -8.8420057e-01
  2.0989248e-01
  2.0450675e+00
 -2.4116665e-01
 -2.8177381e-01
 -2.6098518e-02
  3.3559120e-01
 -5.7940632e-02
 -1.4472260e-01
  2.0177957e-02
 -1.2878827e+00
  7.0957586e-02
 -1.2261676e+00
 -1.8658559e+00
 -3.0673480e-01
  1.6713520e+00
  4.1236211e-02
  9.0963310e-01
  1.5923028e+00
 -8.6965823e-01
 -1.0302021e-01
  3.4565407e-01
  8.4799565e-02
  9.5724171e-01
  1.9655798e-01
  9.5380557e-01
 -4.1770082e-02
 -4.8208008e+00
  3.8296363e-01
 -5.0370884e+00
  1.3009287e-01
  1.6865487e+00
  1.3217950e-01
  1.1429463e-01
  1.2522329e+00
  1.9350572e-03
 -7.6543193e+00
  6.8641186e-01
  6.9501573e-01
  1.1551404e+00
 -1.5275760e+00
  1.3056087e+00
  1.0664562e+00
  8.3676851e-01
  1.7711529e+00
 -2.0504963e+00
 -1.2326308e-01
  2.7325613e+00
 -2.4642491e+00
 -5.2858359e-01
  2.8980878e-04
  6.7334105e-03
 -1.5937349e+00
 -1.5014261e+00
  2.8620520e-01
  1.0610090e+00
  3.2068303e+00
 -1.5053787e+00
 -2.4530467e-01
 -1.9085996e-01
 -6.7911363e-01
  6.6956080e-02
  1.0629940e+00
 -5.5068463e-01
 -1.2107738e+00
  4.3146309e-01
 -9.2021322e-01
 -6.9998994e-02
 -8.7165028e-02
 -6.7571843e-01
 -3.1235686e-01
  5.6754404e-01
  1.0079446e-01
  2.4611598e-01
  1.1769243e-01
  1.3944358e+00
  1.6666684e-01
  6.7650825e-02
 -1.2988887e+00
 -2.4697850e-02
 -1.9780318e-03
  4.1769248e-02
 -1.6094161e-02
 -4.5308247e-03
  5.9985090e-05
  3.3801198e-03
 -1.0668234e-02
 -2.9646796e-03
  5.1702276e-02
  4.5007113e-02
 -2.6792023e-02
  2.0140444e-03
  1.7994050e-02
 -1.0928735e-02
 -5.5655702e-03
 -4.8059751e-03
 -6.4318269e-02
 -3.3305171e-01
  6.9146085e-01
 -6.8198498e-03
 -4.5913425e-01
 -4.3709984e-01
  2.7620849e-01
 -7.3388290e-01
  8.2217388e-02
  3.6592949e-02
 -1.5850971e-02
  3.5494056e-01
  7.1223326e-02
  1.2417989e+00
  6.2471479e-01
  1.6280511e-01
 -1.1647285e+00
  1.0418130e-01
  1.9525319e-02
 -4.0770457e-03
 -2.2530143e+00
 -1.5025112e-01
 -2.7821448e-01
  8.3672814e-02
  1.1021086e-01
  1.9294116e-01
  6.0078871e-02
  7.7128507e-02
  4.2908176e-04
  2.5942765e-02
  2.3324320e+00
  4.9902620e-03
  6.6307682e-01
  1.7747840e-01
  8.1336863e-02
 -2.6173193e-02
 -6.7258990e-01
  4.5945090e-01
 -9.6663952e-02
  2.1391334e-01
 -5.2095568e-01
  8.2201183e-01
  7.5941736e-01
  2.7020566e-02
 -1.4566642e-01
 -1.7540878e-02
  2.8395638e-01
 -5.1207095e-01
  1.0962433e+00
 -1.9995351e-01
 -6.0927004e-01
 -4.9935165e-03
 -1.1102825e+00
  4.4807935e-01
 -1.0206641e-02
 -2.2992460e-02
  9.6996697e-03
 -7.5193800e-02
 -7.8610522e-01
  1.0034615e-03
 -8.0336148e-01
 -4.3502629e-02
 -2.2765172e-01
  2.3706660e-01
 -7.5312299e-01
 -2.6926882e+00
 -1.6732436e-02
 -1.5837951e+00
 -1.2878512e-01
 -3.1307769e+00
 -1.5485735e-02
  2.0508632e-02
 -8.5664272e-01
 -1.3376904e-01
 -1.8624448e+00
  1.6183736e-02
 -1.1941494e-01
  4.9284957e-02
 -1.8438175e-02
  4.4628438e-01
 -3.5054499e-01
  5.7637312e-02
  3.3459231e-02
  1.0343342e+00
  4.7613408e-02
  1.0184569e-03
  1.8712018e-02
 -4.3424624e-03
 -2.2303948e-02
  3.5763282e-02
  8.8128018e-01
  2.1744957e-03
  9.4727436e-03
  9.4997026e-02
  3.0117801e-01
 -4.3991790e-04
 -6.7920595e-01
  2.5731826e-02
 -8.4842881e-03
  1.1715890e-02
  3.6671511e-03
 -4.1716538e-02
  9.0251386e-02
  4.5881141e-02
 -3.9669862e-01
  1.6790409e-02
  1.2879624e-02
 -3.6949039e-02
  5.4719443e-03
  3.3747372e-01
 -5.3899764e-04
  7.7656174e-01
  8.9466769e-01
 -9.9584824e-01
 -6.0034901e-01
 -9.3464129e-02
 -4.2550097e+00
  4.6951499e+00
 -1.0759382e-02
  3.8956439e-01
  2.3271464e-01
 -4.5632377e-02
  1.5991279e+00
 -7.5923604e-01
  4.6182148e-02
  7.2260177e-01
 -5.4858881e-01
  1.0362774e-01
 -5.8845842e-01
  7.4519002e-01
  1.5333666e-02
 -1.1805626e-01
 -3.6234942e-01
 -6.1428845e-02
  7.2097403e-01
  4.8410982e-01
  8.0301303e-01
  2.2140941e-02
  9.3122190e-03
 -1.0799866e+00
 -9.2609689e-02
  7.7492040e-01
 -4.6351475e-01
  2.0765323e-02
 -1.7052668e+00
  1.5009521e+00
 -8.6266384e-02
 -6.6566125e-02
 -1.2112683e+00
 -1.5753001e-01
  3.8942203e-02
 -1.4486154e-02
  4.5117963e-02
  9.9245705e-02
 -1.6370122e+00
  1.3296171e-01
 -8.7254709e-03
 -3.0495614e-01
 -6.2630549e-02
  8.7509699e-02
  1.9991694e-03
  2.0984199e-02
  7.0921612e-01
 -2.2279705e-01
  1.4820370e-01
  8.9147530e-02
 -8.1269783e-01
 -4.4946447e-02
  1.6343264e-02
  4.6252333e-02
 -1.4887015e+00
  7.4061334e-01
 -6.4205897e-01
 -6.4141087e-02
  2.2084711e-02
  6.7849346e-02
 -3.3561431e-02
 -9.7877121e-01
  1.6919899e-01
 -4.5128081e-02
  8.6229634e-01
  6.5406311e-01
 -1.1349165e-01
 -3.1824812e-02
 -8.1912309e-02
 -7.8398591e-01
 -1.0613291e+00
  1.6515167e+00
 -6.6991568e-02
 -4.3209091e-02
  4.6181311e-03
  6.8607521e-03
  1.3576218e-02
  5.0922981e-03
 -1.0253212e-01
  3.6144052e-02
  1.6007531e-01
 -1.4011425e+00
  2.6242530e-02
  9.1165965e-03
  5.3419735e-02
  1.1460072e-02
 -6.7245523e-03
 -1.0187451e+00
  9.0103121e-03
  6.3746557e-02
  7.4284101e-01
  9.9848270e-02
 -3.2023844e-01
 -1.8549429e-03
  4.7199018e-03
 -3.9926365e-02
 -4.5132972e-02
 -9.8134978e-03
 -4.6369168e-01
  8.2795489e-01
  1.6016653e+00
  9.8798162e-01
 -3.1004074e+00
  7.8320682e-01
 -2.7422075e+00
 -1.4423206e+00
 -1.4957426e+00
 -1.6616198e+00
  2.9477532e+00
  2.9815431e+00
  1.5091321e-01
 -7.0045114e-01
  1.9762570e-02
  6.1377421e-02
  3.9033864e+00
 -1.3872854e-01
  1.0806890e+00
  1.9424035e-01
 -6.4488137e-01
  1.0454344e+00
 -3.5786226e+00
 -4.1283742e-03
  4.8028585e-01
  3.6318996e+00
  2.4573591e+00
 -1.5321536e+00
 -1.1264799e-01
  4.1417297e-02
  2.0449592e-01
  1.7642120e-01
  8.1160408e-01
 -1.2759252e+00
  1.0870885e-02
 -2.5534031e+00
  3.0730903e-02
 -5.8772933e-01
  3.1958748e-02
  1.4347088e+00
 -1.1312545e-01
  4.3026349e-01
 -2.5411777e+00
 -9.1681176e-01
  4.2424619e-01
  1.8678598e+00
 -2.1430153e-01
 -2.2946095e-01
 -1.7961744e+00
  4.0472480e-03
  7.4094936e-02
  3.3774268e-02
 -1.7723296e-02
 -1.2332196e+00
  4.7947308e-03
 -2.1775606e+00
  1.0878358e+00
  6.8078136e-01
  2.4784793e-01
 -1.4357676e-01
 -2.3807600e-01
  2.0672727e+00
  2.2151810e-01
 -6.6547418e-01
 -3.1216687e-01
 -1.7739403e+00
 -7.2728343e-02
 -1.8448029e+00
 -3.5353103e+00
 -1.1592075e+00
 -2.9982919e-01
  5.4977471e-03
  3.4138839e+00
 -9.7125098e-02
 -1.4084787e+00
 -1.7155652e-01
 -1.3843150e-01
  5.5450823e-02
  2.2067904e-02
 -5.5115581e-01
  1.1757820e+00
  4.3935195e-02
 -4.4279706e-02
 -1.7673992e-02
 -2.9602915e-02
  8.5266247e-02
 -2.4414675e-02
 -2.7247230e-02
  9.5531410e-01
 -3.6175832e-02
  3.5226077e-01
 -1.9591704e-03
  6.1462376e-02
  9.1018341e-03
  2.7971840e-02
 -3.5013452e-02
 -3.7617449e-02
  6.7042649e-02
  6.9502988e-03
  3.2483605e-03
 -5.0064637e-03
 -7.2829679e-02
 -4.7311658e-01
  7.7302641e-01
  2.1296850e-01
  1.6416205e-02
 -1.1430163e-01
 -4.9264584e-02
 -1.4450783e+00
 -7.9760247e-01
  1.1194670e+00
  1.2433325e-01
 -4.9640727e-01
  1.9712800e+00
  3.0519500e+00
  5.8399510e-01
  3.9546528e-01
 -1.8941686e+00
 -3.6868134e+00
  1.3276021e+00
 -8.1940927e-02
  5.8326341e-02
 -2.3942208e-02
 -3.2256296e-01
  2.7300603e+00
  3.5034600e-01
 -4.9551595e-02
  1.0394005e-02
 -3.2924289e-01
 -1.6472414e-01
 -1.4865215e-01
 -9.6775401e-01
 -3.1459550e-03
  5.4176033e-02
  7.7667528e-01
  1.1068598e-01
  2.9152474e+00
  1.4572309e+00
 -1.1386846e-01
 -8.0762163e-02
  8.0918473e-01
  1.1297388e-01
  1.0935211e+00
 -7.9941154e-02
 -4.3612188e-01
 -3.1788811e-02
