nep3 1 C 
cutoff 4.2 3.7 98 56
n_max 8 6
basis_size 8 8
l_max 4 2 0
ANN 100 0
 -7.3897449e-04
 -4.9797841e-04
  1.9747801e-03
 -8.1725011e-04
  1.1318962e-04
  7.5182330e-04
 -6.7443192e-01
 -2.1496573e-01
  1.6859297e-04
  2.6492926e-03
  1.0431013e-03
  1.5691502e-04
 -1.1638675e-03
  1.7989770e-03
 -4.7411991e-04
 -8.7414950e-04
 -7.7816623e-04
 -2.9600973e-04
  3.4264373e-04
 -1.6723202e-03
 -6.3678257e-05
  3.1510970e-04
  1.1481017e-05
 -7.7891670e-04
 -7.7638088e-04
  3.4256622e-01
  1.7358268e-03
  7.5662741e-04
  2.2237592e-04
  3.3311572e-04
  1.6043370e-04
 -4.1270698e-03
  5.6785154e-01
 -1.2121159e-03
  9.9693995e-04
 -4.8064077e-04
  1.5691614e-03
 -1.6350939e-04
 -2.9326268e-03
 -1.5977302e-03
 -1.3498208e-03
  7.0586670e-05
 -7.2781916e-04
 -7.5962080e-04
 -4.9106806e-04
  4.1104521e-04
 -2.8837651e-03
 -2.8626859e-04
  1.3235374e-04
 -7.8495848e-04
  4.3454438e-01
 -5.3909388e-03
  4.3366803e-04
 -3.1792899e-03
 -3.8910383e-01
  4.7224946e-04
 -3.3557246e-04
 -4.1839993e-03
  6.1864275e-03
  5.1510293e-04
  7.3586759e-04
 -5.3714134e-04
 -1.1301168e-02
  4.7410289e-03
  9.3501585e-05
  8.0304900e-03
 -1.9126655e-05
  6.1437604e-04
  6.9293678e-03
 -2.7505249e-01
 -5.4146092e-02
 -2.6975621e-03
 -1.5772264e-03
  6.7780784e-05
  8.9835603e-04
  6.0924457e-04
  1.6711463e-01
  5.2869748e-03
 -1.3312282e-03
 -1.3933589e-03
 -3.4381736e-03
 -4.6804303e-04
  4.7498435e-04
 -3.4891474e-03
 -2.2159766e-03
 -4.5024190e-04
  1.4473487e-02
 -4.0217128e-06
  9.9081582e-01
 -1.2761728e-03
  5.9691980e-04
  1.0712858e-01
  7.5796223e-03
 -8.1218528e-03
  2.4054277e+00
 -1.1759855e+00
 -1.8964547e-01
 -1.9655272e-05
  7.1775192e-01
  1.2050021e-01
  5.8520236e-04
  1.1902499e+00
  1.9742440e-02
 -6.3675386e-04
  2.1726670e-02
 -3.9014715e-01
  6.7997098e-01
 -3.6122638e-04
  6.3978904e-04
  1.1390492e+00
 -3.0102669e-03
  5.9000057e-01
 -1.8863233e+00
 -3.2697377e-01
 -6.4956319e-01
 -6.9530139e-04
 -8.1371747e-02
  1.1194511e-03
  6.8032154e-04
  5.7452512e-01
 -5.0190359e-01
 -5.7270457e-03
  5.3123021e-01
  6.5140527e-01
 -2.7275074e-04
  9.4922922e-05
  3.9178833e-02
  1.5007027e-03
 -1.0851744e-02
 -6.4678147e-04
  4.9096922e-04
 -6.2248448e-04
  2.3761041e+00
 -1.7313185e+00
 -3.3173690e+00
  2.9370949e-01
 -3.9931846e-01
 -8.1419480e-01
 -6.8211937e-01
  6.6570091e-01
 -4.6762800e-01
 -3.5831978e-04
 -1.9743496e+00
 -5.2214165e+00
 -5.1560154e+00
 -3.3552106e-04
  8.1537956e-01
  1.0110567e+00
 -3.0797429e-04
  6.6470885e-01
  9.3787082e-02
  6.6377664e-01
  5.1713556e-01
  1.7875820e-02
  1.5341062e-03
  9.1475534e-01
 -1.2719960e+00
  2.4890802e+00
  3.4877634e-01
  8.6236000e-01
 -9.8352051e-01
  2.3110960e-01
  4.3341118e-01
 -2.8103197e+00
  1.9359661e+00
  1.3581525e-01
  2.6198804e+00
  3.5223851e-03
 -8.2272661e-01
  5.0845335e-04
 -1.4394754e+00
  3.5023136e-04
 -1.8571519e+00
 -4.4651505e-01
  1.4400713e-03
  1.3038829e-05
 -1.0682245e+00
 -8.4141479e-04
 -4.0251896e-04
 -1.3607608e-04
 -1.0545067e-04
  6.1356265e-04
 -8.8522291e-01
 -3.4178415e-01
  2.7071396e-02
  5.6889923e-03
 -2.0289396e-01
 -6.1119918e-04
 -3.5430063e-02
 -1.4552230e-03
 -1.0895083e-05
 -6.3858257e-04
  5.5644697e-01
 -1.4216852e-01
 -2.3820691e-01
 -8.3042628e-01
  3.1724846e-04
 -2.2567739e-01
 -3.6176416e-04
  1.1081792e-03
  4.1314676e-02
 -6.5186787e-01
 -2.3304346e+00
  2.7042436e-03
 -1.6115317e-03
  9.0659736e-04
  1.0462585e-01
 -4.0304707e-03
  1.8030073e-03
  1.7113909e-02
 -9.1559312e-04
 -6.1724675e-03
 -3.9145202e-04
  1.9776244e-03
 -4.3138191e-02
 -2.1933356e-05
  5.4951720e-03
 -2.7719783e-04
  1.0175759e-03
 -1.5194889e-03
  4.1352451e-04
 -1.2403738e-03
 -4.0667641e-04
 -6.4065750e-04
 -2.4898668e-01
  1.3098046e-04
  3.1189730e-03
 -4.2525196e-01
 -6.4406864e-02
  6.5525039e-04
 -6.8050245e-04
 -2.4426037e-03
 -1.0389684e+00
  2.5959543e-04
 -8.2412846e-03
  7.0626731e-04
  1.6300382e-02
  2.2248409e+00
  4.1864383e-01
  5.4832012e-04
  4.3714862e-02
 -1.5346928e-03
  1.2375354e-03
  3.6303064e-01
  8.1498967e-03
  3.5778414e-03
  6.2771641e-02
  4.0021138e-03
  1.2548333e-01
  5.1150173e-03
 -3.9419136e-04
 -3.8547119e-01
 -1.8456179e-01
 -1.0343892e-01
  3.1713137e-04
 -5.4977247e-03
  5.6642748e-04
  1.0805670e-06
  1.0157587e-03
 -6.8338664e-04
  7.4064897e-05
  5.3789676e-04
 -1.0004311e-03
  2.2733582e-03
  1.0332966e+00
 -1.8408902e+00
  6.0508615e-01
  1.7338599e-01
 -6.4615709e-01
 -1.2170024e+00
  1.3840326e+00
  5.1875345e-02
 -1.4731565e-01
  7.8448671e-01
 -2.8554738e-01
  7.1757358e-01
 -4.3113422e+00
  3.8597488e-01
  2.9364648e-01
 -1.3205932e-01
 -1.3390429e+00
  1.6952633e+00
  2.0973487e-01
 -1.9754009e+00
  2.0022988e+00
 -5.8105278e-01
 -1.1013216e+00
  8.1740701e-01
  7.6394236e-01
 -2.0190325e+00
  3.5402284e+00
 -1.2494363e+00
  1.1757628e+00
 -4.3621373e-01
  2.3149233e-02
  8.6891316e-02
  6.8295175e-01
  1.8681825e+00
 -2.8175642e+00
  6.2117749e-01
  3.5112060e-03
 -1.4304789e+00
  6.5001094e-01
 -5.0652307e-01
 -1.4594158e+00
 -1.4802895e-01
  2.0021713e+00
 -2.0925032e-03
 -2.9774586e-04
 -1.4711857e-04
  2.5796212e-04
  3.7179957e-04
  4.7447049e-04
  1.5349265e-03
 -1.1563346e-03
  7.2351238e-04
 -9.3046292e-05
  9.8757481e-04
 -2.3079272e-03
 -8.1220205e-04
  1.0846870e-03
 -5.0591119e-04
 -1.3757867e-04
  8.8579836e-04
  2.7929926e-03
  2.8731654e-04
  6.9211319e-04
  1.0973316e-04
 -1.2847300e-03
 -1.0974430e-03
 -3.3863664e-05
 -2.1122731e-03
 -6.2368589e-04
  4.6030519e-04
  2.7837078e-03
 -8.6766639e-04
  4.6432388e-04
 -4.3260495e-04
  5.8630761e-04
  4.0240065e-04
  4.8436096e-04
  5.9179787e-04
  1.5521592e-03
 -1.3581732e-03
  8.2582230e-04
 -1.4734298e-03
 -7.2337792e-04
 -2.2340115e-04
 -1.2964556e-03
 -2.6403856e-03
 -2.1412577e-03
  1.2148310e-04
  1.1942501e+00
 -1.5344076e+00
 -1.5710810e+00
 -1.4695127e+00
 -5.2072391e-02
 -1.4465026e-03
  8.1950217e-01
 -1.8838439e-02
 -8.1331935e-03
  9.7616349e-04
 -2.8859396e+00
 -4.3781283e-01
 -1.1599499e-03
 -1.4199169e-02
 -1.7742252e+00
  4.8986913e-05
  2.0967866e-01
 -1.3086058e-01
 -4.8219343e-03
 -7.8099263e-01
  7.8940723e-04
 -9.0100326e-02
  1.9807657e-03
 -4.9828899e-01
  1.6019086e+00
  3.9772804e+00
  1.7054889e-01
 -6.5198362e-02
 -5.8253575e-03
  2.0900482e-04
 -3.5585428e-05
 -3.1737686e-04
  2.8498542e+00
  8.6290604e-01
 -1.5858205e-01
 -1.0771542e+00
  1.1885716e-03
  1.0233449e-03
 -3.6480464e-02
  3.2742012e-01
  8.4363532e-01
 -1.1177806e-03
  2.9268971e-04
  1.4096526e-03
 -8.5594487e-01
 -3.0924353e-01
 -2.5339422e-01
  1.1359543e+00
 -1.0368296e+00
 -1.5271457e+00
  6.8554627e-03
 -2.9283795e+00
  2.3004683e-02
  7.2585654e-01
  5.1311278e-01
 -1.7511065e+00
 -1.9350189e+00
 -2.7388653e-03
 -9.9023856e-02
  1.3891437e-04
  1.0180257e-01
  2.9704502e-01
 -8.9703363e-01
 -1.0445402e+00
  2.0121446e+00
  3.3892831e-04
  1.1026293e+00
 -3.7694612e-05
 -8.8651109e-01
 -1.8697268e+00
  1.6343138e+00
 -1.2408772e+00
  2.5433843e+00
  1.0463009e-03
  1.8758359e-03
  7.7756381e-01
 -3.9584526e-01
  8.0996984e-01
 -6.9597691e-01
  1.9028777e-01
  2.3001137e-01
  1.6489872e-03
 -7.8115958e-01
  2.6295736e-01
  1.3648598e+00
  5.6389475e-04
 -6.9688109e-04
  1.6058834e-03
  4.6984811e+00
  8.6686683e-01
  7.1607369e-01
  1.0462523e+00
  1.8433324e+00
  3.1750029e-01
  6.7754549e-01
 -2.2863953e+00
 -2.8169632e+00
 -6.0310052e-04
  1.1057156e+00
  1.8379387e+00
 -1.3014770e+00
  3.7415460e-02
 -8.5319573e-01
 -3.3164960e-01
  1.2738950e+00
 -1.6906613e+00
  1.0361482e+00
 -2.9804339e+00
  9.5868975e-01
  7.9045832e-01
 -8.1917027e-04
  5.9616411e-01
 -8.8336182e-01
 -1.1117318e+00
  3.3982918e+00
  7.4190730e-01
  7.6805234e-01
  8.9839939e-03
 -6.8429377e-05
  4.3564138e+00
 -2.0224631e+00
  5.5225945e-01
 -4.1632252e+00
  1.3720782e-01
  2.9896796e-02
 -8.1414003e-03
 -2.2089837e+00
  1.0646769e-01
  3.0483303e+00
  1.8144760e-04
  6.6160119e-01
 -3.7542551e-03
  1.5105716e-04
  2.9667589e-04
 -9.6383190e-04
 -1.1256991e-03
 -1.4027684e-03
 -1.1530856e-03
 -1.5900099e-03
 -3.0932588e-06
  1.4050743e-03
 -6.1450619e-04
 -6.0154131e-04
 -2.0621101e-04
  6.8735285e-04
 -3.6997546e-04
 -1.4434180e-03
 -1.1206556e-03
  8.6709209e-05
  4.9513445e-04
 -2.9095734e-04
 -3.0216615e-04
  2.0509596e-04
  4.0780488e-04
 -1.9811592e-03
  7.2340958e-04
 -4.7206267e-05
 -1.7323035e-03
 -8.7241537e-04
 -1.0768429e-03
 -3.4192044e-04
  2.0371829e-04
 -3.0577043e-04
  8.8916020e-04
  7.8254845e-04
 -1.3109342e-03
  8.0949831e-04
  8.1421185e-04
  5.4500543e-04
 -2.1145348e-03
  1.6593949e-03
 -1.9972445e-04
  2.0088351e-04
 -2.6594123e-03
 -1.4236476e-03
  1.8024068e-04
  6.3731160e-04
  4.6425906e-04
 -1.2734730e-03
 -9.7209049e-05
 -5.9140642e-04
 -4.2407904e-04
  1.0446010e-03
  1.6589125e-05
 -2.5624304e-05
 -1.7211965e-03
 -1.0638523e-03
 -2.1740147e-04
  7.0588093e-04
 -1.9255278e-04
  4.6636292e-04
 -1.1398599e-03
 -1.3299141e-03
  6.1966159e-04
 -2.8225413e-04
 -1.4762754e-03
  1.6491828e-03
 -1.1824835e-03
 -1.3342479e-04
 -6.4684218e-04
  2.6194812e-04
 -1.9576710e-03
  2.1411404e-04
  1.6400652e-04
  2.5664992e-04
 -8.3582092e-04
  1.5014567e-03
  8.8855566e-04
 -2.1678084e-03
 -6.2436220e-04
 -4.2835347e-04
  2.1194750e-04
  1.4875013e-03
 -7.6654961e-04
  1.2283681e-03
  4.1394468e-04
  1.0609944e-04
  1.6077905e-04
 -2.5715125e-03
 -1.2862908e-03
  2.3223050e+00
  1.6059124e-01
 -1.8250639e+00
  1.3879218e+00
 -2.3212752e+00
 -5.8629769e-01
 -5.9317593e-02
 -1.0381891e+00
  1.5115052e-01
 -1.0401119e-01
 -1.1841403e-01
 -1.6336819e+00
 -1.9939815e+00
 -2.8903844e+00
  1.0804615e+00
  1.4816865e-01
 -1.7150412e+00
 -2.9127124e-01
 -6.5699869e-01
 -8.6678725e-01
  1.5862124e+00
  2.6947207e+00
  5.0396264e-01
  3.7232447e-01
 -2.8857138e+00
  1.1644017e+00
  1.8683660e+00
  9.4578886e-01
 -6.5785819e-01
  1.4490337e-04
 -1.6219737e-01
 -1.2758456e+00
 -1.3913260e-01
  7.7863729e-01
 -1.5265056e-01
 -2.9801669e-02
 -4.8629612e-01
  9.9712722e-03
 -6.0420263e-01
 -7.4162036e-01
 -1.3481674e-03
 -1.7060679e+00
 -4.2440087e-02
 -5.5535432e-02
 -3.9313277e-03
  3.4119413e-04
 -2.1660651e-04
 -8.1823899e-05
  4.6953573e-04
 -1.2539322e-03
  3.1278923e-04
 -9.6854608e-04
  7.5576754e-06
 -8.9746772e-04
 -7.5920491e-04
 -4.6724605e-04
 -1.7025259e-04
 -1.9084162e-03
 -3.4753431e-04
 -8.4167354e-05
 -7.0054451e-04
  2.0689720e-04
  6.1025750e-04
  1.5112956e-03
 -6.8070932e-04
  3.8354521e-04
  1.6296312e-03
  1.4685310e-04
  1.3313518e-04
  4.6156620e-04
  7.8289781e-04
 -1.6081205e-04
 -3.7308410e-04
  8.7314198e-04
  1.2945276e-03
  1.9857250e-04
 -9.8947261e-04
  2.5352978e-03
 -9.4614341e-04
 -5.6119513e-04
 -8.5868686e-04
 -1.2693889e-03
  2.4826243e-03
  1.6643963e-03
  2.0573528e-03
 -1.4284129e-04
 -4.4979600e-04
  6.3398205e-05
  4.8449308e-01
 -4.9519643e-01
 -1.1222860e+00
  9.6390709e-02
 -5.7092947e-03
 -4.1927114e-01
  2.6028762e+00
  1.9992797e+00
  4.9543652e-01
  1.8831057e-04
  5.5420161e-03
  2.5045715e-04
  1.5569106e-01
  1.1563045e+00
 -2.4052607e-03
  8.5491735e-01
 -3.4182593e-01
 -3.2587111e-02
  1.9944614e+00
 -1.5599984e+00
  3.1864436e+00
 -1.3946553e+00
  4.5042327e-03
  3.7992218e-01
  2.1385585e-01
 -3.6144480e-01
 -3.0824206e+00
  1.0362780e+00
  5.1051505e-02
  1.9693689e-01
  3.9086294e-01
 -5.9135926e-01
 -3.8091695e-01
  3.4940910e-01
  7.0249397e-01
  2.2245069e-01
  8.7604389e-02
 -1.9491684e-02
  3.6781201e-01
 -5.4600888e-01
  7.6617353e-02
  3.7364569e-01
 -6.0336579e-02
  3.2733318e-05
  1.8084524e+00
  3.8276106e-02
  1.9323810e+00
  8.3551311e-01
  1.5611634e+00
 -1.5787169e-03
  1.4355264e+00
 -4.5270374e-01
  3.3582203e+00
  9.6784246e-01
  1.0739963e+00
  9.0147817e-04
 -2.3979824e+00
  9.0142196e-01
  1.4715818e+00
  1.3494489e-04
  7.1118504e-01
  8.2614809e-02
 -2.6410809e+00
  2.2225187e+00
  2.4422040e+00
  1.7693857e+00
  2.8155887e-02
  5.5380317e-04
  8.7883081e-03
 -5.9292322e-01
  3.4129983e-01
  1.5052984e+00
  1.3817178e+00
 -5.9488893e-04
 -1.2199800e-03
  1.0348062e-01
  2.4963959e-01
 -1.0005476e+00
  7.3609281e-01
 -1.2182094e+00
  4.5615502e-02
  1.8963418e-03
 -8.0215730e-02
 -4.8756570e-05
  6.2147483e-05
 -6.4755348e-04
  2.7710476e-03
 -3.0331614e-05
  3.1286064e-01
  3.3080645e+00
  3.7774611e-01
 -2.5951937e-01
 -2.7518892e+00
  6.0887355e-03
 -1.5141287e+00
 -1.1449462e+00
  2.8314126e+00
 -6.0630805e-04
 -1.1189159e-01
 -2.0374298e+00
 -1.4858853e+00
 -9.0175301e-01
 -1.8606028e-01
 -4.1513947e-01
  1.3311058e-01
  2.8047936e+00
 -4.2326517e+00
 -7.4791294e-01
  1.3116709e+00
 -1.6447344e+00
 -5.3161675e-01
 -3.7921954e-02
  3.8876200e+00
 -6.6427881e-01
 -1.3240572e+00
 -4.0038615e-02
  1.5143696e-03
  6.7561843e-05
 -9.9463981e-01
  9.6215737e-01
 -3.4955651e-02
  1.7496078e+00
  1.1758204e+00
  1.0899904e-01
 -8.6826444e-02
 -1.6571538e-03
  1.1516404e-01
 -5.8533069e-02
  8.1693754e-02
 -3.3991192e-03
 -3.6805572e-03
  1.4402197e-03
 -1.1829680e+00
  5.4121095e-01
  6.4244980e-01
  1.0385092e+00
 -1.4699049e+00
 -1.7123087e-03
 -4.1261840e-01
  1.5503552e+00
  1.6494027e+00
  1.1153568e-01
  6.6974616e-01
  1.0830592e-01
  2.1456232e+00
  1.2649755e+00
  7.6812088e-01
  7.8645302e-04
  6.3560814e-01
 -5.5193967e-01
  2.1137645e+00
  1.1202414e-01
  1.6432364e+00
  2.8958724e+00
 -7.7936146e-03
  4.4299769e-01
  7.5350738e-01
 -9.0691799e-01
 -5.7965221e+00
  1.0006411e+00
  1.9036982e+00
  6.5839678e-01
 -6.8767682e-02
 -4.5862606e-01
 -1.7303783e+00
 -1.5455854e-01
 -1.2248764e-01
 -2.6581002e-02
 -2.0657540e-03
 -5.3243837e-03
  1.3892736e+00
 -9.7847140e-01
 -1.0638240e-03
 -2.4032032e-03
 -7.7069423e-04
 -7.3866177e-05
  6.1277373e-05
 -1.0487956e-03
  1.2498656e-04
  2.2706459e-04
  9.1877009e-04
 -9.8718192e-05
 -4.3016020e-04
  6.1672654e-05
  9.4172737e-04
 -1.1792299e-03
  3.7130638e-04
  4.0431914e-06
 -1.7949897e-04
  5.0870911e-04
  1.4692935e-03
 -1.4398134e-03
 -3.2020552e-04
  1.0040796e-04
 -4.6596627e-04
  1.2845325e-04
 -1.4021073e-03
  2.4482676e-01
 -1.4218106e-04
 -2.5334777e-04
 -3.1768758e-04
 -4.5826708e-04
 -7.3096622e-04
 -8.2344317e-04
 -1.4476102e-03
  1.1716719e-03
  1.9771983e-03
  1.7661770e-03
 -1.4834721e-03
  5.6015793e-04
  7.6555897e-04
 -6.9368095e-04
 -4.9687328e-04
 -8.5004268e-04
  6.0954168e-05
  4.0103943e-05
  1.6318462e-03
  9.6010498e-04
 -6.8462937e-04
  9.1220147e-04
 -3.9974546e+00
  9.2049849e-01
  2.6038077e+00
  1.0006745e+00
  2.9801992e-01
  5.7001162e-01
 -1.3279469e+00
  1.7253378e-01
  1.6235748e-01
  5.3004868e-02
 -9.5313591e-01
 -1.0723460e+00
  2.0179921e-01
 -3.4843750e+00
  2.5374002e+00
  1.7453273e-03
  6.5093897e-03
  3.8800728e-01
  4.5866332e+00
 -1.3432146e+00
 -3.1159198e+00
  1.0285518e+00
 -1.2119843e+00
 -7.8034723e-01
  1.4247802e+00
  1.3904340e+00
  7.5724745e-01
 -2.3078806e+00
  8.9702564e-01
  1.7280746e-01
 -7.1360096e-02
 -2.1258648e-01
  2.4621315e+00
 -1.3525839e-01
 -6.9305676e-01
 -2.0525680e+00
 -4.8294485e-01
 -1.7386697e-02
 -2.8014801e+00
  1.1296968e+00
  2.9810956e+00
  1.6850053e-01
  1.5277308e+00
  1.1217485e-03
 -2.4456179e+00
  2.4339473e+00
  1.3008593e+00
  8.0805190e-02
  9.3344879e-01
  2.6325351e-01
 -1.0329049e+00
  5.9229034e-01
  9.5673364e-01
 -2.0942327e-02
 -3.1508449e-01
 -7.2866660e-01
 -1.6208519e-01
  2.5704629e+00
 -1.0855680e+00
 -1.3327547e+00
 -1.4493885e+00
  3.0612533e+00
 -4.0292475e-01
 -1.8805583e+00
  2.0707872e+00
  2.3053038e+00
 -1.1957232e-01
 -2.7099538e-03
  1.9671563e+00
 -1.1536981e+00
 -2.6800280e+00
  1.9653629e+00
 -1.5997626e-02
 -6.9605297e-01
 -7.4917376e-01
  3.0015404e+00
 -1.7592618e+00
 -3.5797536e-01
 -1.3168594e+00
 -1.8317944e+00
  4.6091634e-01
  7.2499970e-05
  1.9175605e-01
  6.4688019e-02
  1.8685123e+00
 -5.5799057e-04
 -3.4363184e-04
 -1.1323228e-01
 -3.7417140e+00
  4.9247541e+00
  2.8727489e+00
 -8.7885851e-01
 -6.1067730e-01
  1.1171144e+00
 -2.6883921e-01
  2.7239531e-01
  3.0483654e-01
 -1.1208086e-01
 -7.7883458e-01
  2.9466183e+00
  7.2310030e-01
 -3.6822319e-02
 -1.1547794e+00
  1.6860189e-03
 -3.3076310e-01
  2.1913083e+00
  1.7972733e+00
  2.2688136e+00
 -1.1346910e+00
  1.2329525e+00
  6.7451280e-01
  2.5649089e-03
  5.3326225e-01
 -1.4238904e+00
  4.6941862e-01
  7.8119114e-02
  1.4158598e+00
  5.0989014e-01
  4.5752653e-01
  1.0523418e+00
 -2.8227258e+00
  2.7261400e+00
  9.5505302e-04
  6.0220701e-01
  3.3663246e-01
  1.5589787e-04
 -1.0053028e+00
  2.5516667e+00
 -2.5791576e+00
 -2.3144620e-04
  4.7322884e-03
  6.2103439e-03
 -7.9354749e-04
 -3.6545389e-05
 -3.0499790e-04
 -1.2760519e-04
 -4.2790343e-04
  1.3387250e-03
  1.6918664e-03
  2.6182644e-04
 -6.6920044e-04
  4.8062491e-04
 -2.4730694e-03
  1.0996161e-03
 -6.8103534e-04
  1.1677665e-03
  2.1567792e-03
  6.5290823e-04
  7.0649636e-04
  4.4629705e-04
 -3.3864141e-03
 -4.8660306e-04
  4.5693276e-04
  2.3245648e-04
 -1.2536497e-03
 -1.9590840e-04
  8.0017949e-04
 -9.5137092e-04
 -2.0033200e-03
  1.1482544e-03
 -3.9145438e-04
  9.2619285e-04
 -1.8354002e-03
  1.8600667e-04
 -1.2176490e-04
 -2.7059298e-04
  5.6439074e-04
 -9.7291992e-04
  2.0868278e-03
 -1.7196044e-03
 -6.0996658e-04
  1.8045618e-03
 -9.5022016e-04
 -1.7973557e-04
 -1.5712448e-03
  1.2234175e-03
  1.3876245e+00
  1.1604518e-02
 -2.4910479e+00
 -8.6569393e-01
  5.2749872e+00
 -3.7242034e-01
 -2.6529558e+00
  2.9845712e+00
 -1.8254253e+00
 -1.4585122e-01
  1.7631633e+00
 -5.9168572e+00
  1.4685783e-01
  9.3606412e-01
 -1.5811180e-03
  1.0536894e-01
  1.6469775e-01
  9.7588301e-01
 -2.6664910e+00
  5.5210161e-01
  8.2013232e-01
 -2.0419240e+00
 -1.0364861e-01
 -3.1076217e-01
  1.2797531e+00
 -8.9345986e-01
 -4.2122814e-01
  1.4289559e+00
 -2.4742351e+00
 -5.2934402e-01
 -2.7641794e-01
 -9.4081980e-01
  7.4984169e-01
 -8.8125539e-01
  2.7044198e-02
  3.6289200e-01
  5.8846205e-01
 -6.5203500e-04
 -5.5696166e-01
  1.4451571e+00
 -5.7423958e-03
 -2.2410786e-01
 -1.7502052e-01
 -1.8330583e-03
 -1.1297280e+00
 -5.4910015e-02
 -1.0180854e+00
 -1.7811550e+00
 -6.0200053e-01
 -1.7972084e+00
  1.5675513e-01
  9.8901665e-01
 -1.6831611e-01
 -1.3736179e-02
 -1.3900946e+00
 -1.1185851e-02
 -3.9688790e-01
 -3.1447864e+00
  3.5653787e+00
  1.0921894e+00
 -8.9323774e-02
 -9.9937850e-01
 -2.3551979e+00
  6.0921826e+00
  3.9753411e+00
 -2.1333721e-01
  4.1226036e-04
  6.0193348e-01
 -2.7281933e+00
 -1.1547575e+00
  6.7883267e+00
  4.4637701e-01
 -1.4441750e+00
 -1.9985467e-02
  2.1495992e-01
  7.9700750e-01
  8.1220734e-01
  1.3778610e+00
 -5.0501424e-01
 -4.4870833e-01
  4.7793853e-04
 -7.2868399e-02
 -3.3165994e+00
 -8.6742431e-01
 -2.4949086e-01
 -1.1092121e-02
 -3.5681944e-05
 -1.5106293e-03
 -1.0943603e-03
  3.3536478e-04
 -9.5254305e-04
 -1.0265617e-04
  3.3440074e-04
  2.5361625e-03
  2.2052985e-01
 -2.5741640e-04
  1.4250916e-03
 -4.8903050e-04
  3.8331700e-04
 -1.1424035e-03
 -4.6480555e-04
 -3.6795248e-04
  1.1531457e-03
  7.3553476e-04
  1.1163978e-03
 -3.8609459e-04
  2.2040058e-03
 -2.9858953e-04
 -1.3935105e-03
 -1.6249333e-03
  8.2113995e-04
 -1.4197374e-03
  1.2598782e+00
 -2.3810122e-04
  3.8590343e-03
  3.6344433e-04
 -7.9833856e-04
  7.6428533e-04
 -1.3939521e-03
 -7.0874370e-04
 -1.1221595e-03
  2.6407960e-04
  4.4561620e-04
  1.2168665e-04
  2.9968971e-04
 -5.5030384e-04
  4.6114354e-05
  1.2543679e+00
  3.3372326e-04
 -3.6931218e-04
 -5.3848262e-04
  8.6246559e-04
  3.2254293e+00
 -5.7403912e-04
  2.8078133e-02
  2.1609460e-01
  6.9125749e-02
 -8.1783336e-01
 -2.0229828e+00
 -1.0819860e+00
 -3.7796125e-02
  8.6457264e-01
  6.5616798e-05
 -6.0877472e-01
  3.6277860e-01
  2.2099693e-01
 -1.0191669e+00
 -4.6887994e-04
 -8.4497586e-02
  1.7232127e-01
  9.7824609e-01
  2.5160000e-01
  1.9140513e+00
 -8.1510752e-02
  2.1924039e-03
 -6.4285308e-01
  7.1620220e-01
  1.6327368e+00
  6.7200458e-01
  4.6000901e-01
 -2.9975855e-01
  4.5693930e-02
 -5.4786151e-04
  7.3170316e-01
 -2.0827800e-01
 -1.2451975e+00
 -1.2675055e+00
  8.9579940e-01
 -1.7587830e-03
  6.1096635e-04
 -6.7719719e-03
  1.7354217e-01
 -1.5490706e+00
  8.6638611e-05
 -3.1621230e-01
  5.7161356e-05
 -1.5704212e-03
  3.2223519e-03
  6.8017317e-04
 -4.1595107e-04
  1.4251943e-03
 -6.4709928e-04
  9.6925016e-04
 -4.7713700e-05
  6.5671053e-04
 -1.6302309e-03
 -2.0271895e-04
  1.8088715e-03
  2.3837564e-04
  2.0492077e-04
 -4.8687889e-05
 -5.3603719e-05
  1.2520706e-05
  7.6188747e-04
  6.4031803e-05
  8.2481693e-04
 -9.4099622e-04
  3.9661853e-04
 -5.3548202e-04
  9.6071942e-04
 -7.4718718e-04
  9.2125428e-04
  4.1306634e-03
 -1.5765408e-03
 -2.3254633e-03
 -5.6909950e-04
  3.0620485e-03
 -2.0253610e-04
 -9.7550708e-04
  8.9691064e-05
  9.5844822e-04
 -3.9132082e-04
 -1.4865710e-04
 -2.7049211e-04
 -2.7149229e-04
  5.7404360e-04
  1.7658474e-03
  2.8346214e-05
 -1.5025699e-04
 -9.4265048e-04
 -1.6433038e-04
  2.3189865e-04
 -2.2070676e-03
  3.7458638e-04
  1.3971399e-04
 -3.6117315e-04
 -9.9149570e-02
  3.3367253e-04
  3.3200630e-03
 -4.3362932e-04
 -7.5691745e-02
 -9.9391676e-04
  7.7970646e-05
  1.7330279e-03
 -4.0886276e-03
 -1.3485344e-03
  2.5234530e-03
 -4.2725679e-01
  1.4645003e-01
 -2.2388883e-03
 -7.0160942e-04
  1.3611180e-04
 -9.0049274e-05
 -2.3198389e-03
 -1.6719028e-02
  1.7097577e-01
  6.2175930e-01
 -6.0093653e-04
 -1.1196720e-03
  1.1059459e-03
 -9.4168000e-03
  6.6218479e-04
 -2.6708556e-04
 -8.2360028e-05
 -1.3540378e-03
  3.3124387e-03
  3.7504305e-04
  1.1478559e-04
  1.0174288e-03
  2.3380050e-03
  1.4589098e-03
  2.8703301e-04
  2.3971972e-04
  2.0672530e-03
 -4.5131130e+00
  2.1440597e+00
 -5.1128471e-01
  4.4860249e+00
  6.8304533e-01
  8.9870335e-04
 -3.3804195e+00
  4.8539501e-01
 -6.9644940e-01
 -1.9089447e+00
  3.6939549e+00
 -2.3751075e+00
 -4.9271938e-01
  3.8983781e-02
  1.0125827e+00
  2.4130490e+00
 -4.4508410e-01
  1.4718564e+00
  2.2163165e+00
 -5.0438514e+00
 -3.0204979e-01
 -2.9501674e-01
  2.3291865e-03
  1.0980840e-03
  5.4423976e-01
  2.1472943e+00
  2.5656423e-01
 -1.6067210e-03
 -2.8050947e+00
  1.0753145e+00
 -8.7029524e-02
 -1.6681523e+00
  1.9453045e+00
 -6.1089486e-01
 -1.9313438e-01
 -1.6022168e+00
  1.4190976e-01
  4.4676714e-04
  1.3869623e+00
 -2.1448843e+00
  2.7839277e+00
  7.8162766e-01
  4.7608268e-05
  1.9614420e-04
 -1.5636088e+00
 -1.4404995e+00
  2.1598289e+00
  3.7901514e+00
 -5.7205039e-01
  1.6777217e-03
 -1.7562610e+00
  1.3391986e+00
 -1.2208507e-01
 -2.4608219e-01
  7.8330642e-01
 -1.4740375e+00
 -3.9855781e+00
 -5.2811491e-01
  1.9194441e+00
  1.0680461e+00
 -3.0237392e-01
  1.1102846e+00
  4.9435976e-01
  2.9710519e+00
  3.0275755e+00
 -1.2792233e+00
  4.4889799e-03
  4.4003484e-01
  1.2236025e+00
  7.6544052e-01
 -4.7995743e-01
  1.4328051e+00
 -2.1508596e+00
  2.0075715e+00
 -3.3305726e+00
  4.6619391e+00
 -1.1855086e+00
 -4.5480757e+00
  3.2710633e-01
  3.5031152e-01
 -1.0987327e-03
 -1.1907302e-02
 -3.1794765e+00
  8.5031807e-01
 -2.7289276e+00
 -6.1206639e-01
 -5.4495212e-02
  2.7040208e-02
  4.6648275e-02
  6.5510301e-03
  2.0139232e+00
  1.9646062e+00
  9.2647249e-01
  5.6550169e-01
 -4.0129647e+00
 -2.1912394e+00
 -1.5728429e-01
 -7.4895859e-02
  1.3485872e+00
 -1.5270991e+00
 -1.4855069e+00
  1.8367304e+00
  2.5090886e-02
 -1.0789796e+00
  5.0013722e-03
  4.2526588e+00
 -2.5465786e+00
 -9.8318917e-01
 -5.7011008e-01
 -6.2600893e-01
  4.8865733e-01
  6.3896137e-01
 -7.9620093e-02
  7.2092205e-01
  2.0554808e-01
  7.1007861e-03
 -6.4376760e-01
  1.8978668e+00
  1.9697645e-03
  2.3295060e-02
 -1.0820452e-01
 -4.9974009e-01
 -1.5022536e-04
 -6.2185913e-01
  1.4353664e-01
 -1.3671680e-02
  3.0463548e+00
 -1.6870224e+00
 -9.0408381e-03
 -7.6090276e-02
  1.3700078e-01
  9.4238250e-03
 -2.3161890e-01
 -6.7739832e-01
 -2.5450857e+00
 -2.3150656e-01
 -1.4595046e+00
 -9.4945662e-02
 -5.6752313e-02
 -6.0912422e-03
  3.0930221e-04
 -1.0781293e+00
  3.4145188e-01
 -4.5482013e-01
  1.3863325e-01
  4.7712699e-03
  1.7334869e-02
  4.7845695e-02
 -6.0612249e-01
 -2.3194699e-01
 -3.2241535e-01
  9.0250812e-02
 -8.2116985e-01
  7.9195231e-01
  6.6452193e-01
  8.9768365e-02
  3.4804210e-02
 -7.8082812e-01
  2.9308376e-01
  7.8244877e-01
 -6.8072432e-01
  5.5552348e-02
 -9.4922340e-01
  6.6321325e-01
  1.6105521e-01
 -4.0656033e-01
  1.1932968e+00
  8.9984559e-02
  1.4254092e-02
  6.6149198e-02
 -1.3571902e-02
 -2.5282362e-02
  1.5974890e-03
 -2.0809703e+00
 -9.2363429e-05
 -3.2340381e-02
  1.1236768e-03
 -3.6184800e-05
 -7.4719492e-04
 -1.5706677e-03
  3.9754328e-04
  2.1448986e-04
 -1.0722849e-03
  3.7713084e-04
  2.6615633e-04
 -5.8010657e-05
  1.4871890e-03
 -1.3230368e-03
  1.8030766e-04
  8.7806181e-04
 -4.9313903e-04
 -2.5329631e-04
  4.7498292e-04
  3.8555751e-05
 -4.4555409e-04
  5.1222119e-04
 -1.0106144e-03
  1.7598430e-03
 -4.7771749e-04
  4.5351443e-04
  1.3043998e-04
  1.6986928e-03
  3.7276687e-04
 -1.2664783e-03
  4.8639366e-04
 -4.4395309e-04
  8.2882907e-05
  2.9360381e-05
  1.6712686e-03
 -2.8103823e-04
 -2.7689217e-03
 -8.7262299e-05
 -4.4218163e-04
  4.0134822e-05
  8.2320481e-04
 -3.1564879e-04
  2.4034744e-03
  2.7235650e-04
  3.8388625e-04
 -3.8025426e-04
  4.8213304e-04
 -2.8792110e-03
  2.9888030e-03
 -4.7728952e-04
 -9.6600532e-04
  3.1893683e-04
 -3.1879279e-03
 -7.1541814e-04
  4.5996177e-04
  2.7327315e-04
 -1.6060872e-04
 -1.1356144e-05
  7.6968106e-04
  2.7392400e-04
  3.3987398e-04
  9.1963680e-05
 -6.4535596e-04
  4.9684977e-04
  7.9210775e-05
 -1.0792873e-04
  1.9438699e-04
  2.0596278e-03
  1.0163806e-03
  2.9846577e-03
  1.5884980e-04
  7.3011353e-05
  8.6873269e-04
 -1.7999511e-04
  6.1041815e-04
 -4.1445179e-05
 -1.2799250e-03
  2.2066489e-03
  3.7194509e-04
  2.0027474e-04
 -8.4690878e-04
  1.5386769e-03
 -2.0222166e-03
 -2.0994389e-04
  5.0856144e-04
  1.6655885e-03
  1.4587659e-03
 -2.0921759e-03
 -1.2781490e-03
 -1.4042482e-03
 -3.8458908e+00
  3.1283829e+00
  1.9792203e+00
 -1.0151646e+00
  1.4224869e+00
  5.4945760e+00
  9.8623377e-01
  5.9150195e-01
 -3.5916445e-01
  3.7963679e-01
  1.8840644e+00
 -1.1578259e-02
  1.3252463e+00
 -9.3793583e-01
 -6.5744065e-02
 -2.4216995e+00
 -1.6436163e-01
  1.7639264e-01
  2.6964912e+00
  1.8146468e+00
 -3.3405900e-02
  1.3943975e+00
 -2.5784321e+00
  1.7377585e-01
  1.5721495e+00
  7.7666253e-01
  1.2293384e+00
 -2.0610228e+00
  7.3863882e-01
 -8.7837535e-01
  1.0379369e+00
 -2.4853995e-01
  7.3275721e-01
  9.4146293e-01
 -1.5872740e+00
 -2.1811401e-02
 -2.5412487e-04
 -7.5177826e-02
  1.4340452e+00
 -1.1840367e+00
  1.4403849e+00
  3.0715990e-01
  7.8763366e-03
  6.4392993e-04
  1.6878591e-03
 -4.2030457e-04
  1.9316840e-03
  5.8781664e-04
  2.4007651e-04
  2.0719122e-03
 -1.3141562e-01
  5.7711750e-02
  1.8648604e-03
  1.6118131e-04
 -1.8454577e-03
  2.6246675e-04
 -1.8254907e-03
  3.7307222e-04
 -6.5048588e-03
  3.7979995e-04
  1.4404823e-03
 -5.0554080e-03
  1.8095357e-02
 -8.2018028e-04
 -7.2342766e-05
 -3.3766069e-02
  1.7358828e-03
 -1.1701229e-03
  3.7965315e-04
  3.0356737e-02
  1.1976781e-02
 -7.0266484e-04
 -4.1207738e-04
  3.2286090e-03
 -2.7315595e-04
 -4.6896846e-03
 -3.4409389e-04
 -6.3523260e-04
  6.9879420e-04
 -4.4142734e-04
  8.2729588e-04
  1.4997905e-03
 -1.1012617e-03
  8.1186625e-04
 -8.0295798e-04
  2.5344442e-04
 -1.0782783e-03
  7.6237798e-04
  2.8622727e+00
 -8.6757809e-01
 -5.5488193e-01
 -2.4398763e-01
 -9.0163291e-02
 -1.2744793e-03
 -3.4720473e+00
 -1.4027468e+00
  2.2111764e+00
  1.1323666e-02
  4.8139357e-04
 -2.4560876e+00
 -1.7190644e-01
  1.4471206e-03
 -5.1216722e-01
  2.1407909e-04
 -3.3946007e-03
 -3.1176248e-01
  1.2144641e-04
 -8.8530600e-01
 -1.7531478e+00
 -2.0609345e-01
 -9.9207240e-01
 -6.5436408e-02
  5.6262392e-01
 -5.4840016e-01
  5.6515664e-01
  1.2602413e+00
 -3.5256252e+00
 -2.9493690e-01
 -1.3764327e-03
  3.7734606e-03
  1.5915225e+00
 -2.3556926e+00
 -2.9785472e-01
  3.0735412e-01
  3.4908822e-04
 -4.9914359e-03
  7.8024110e-03
  8.5184473e-01
 -1.2462109e+00
  6.8206078e-04
 -3.0725002e-01
 -1.2589410e-03
 -1.9488089e+00
 -8.7733578e-04
 -4.4155037e-01
 -2.5923436e-03
 -2.6180079e+00
 -6.9250510e-04
  3.5409191e-01
  9.7681719e-01
  1.1312633e-01
  1.6494257e-04
 -2.2247843e-03
 -4.3011998e-04
 -4.0510762e-03
 -2.7924363e-04
 -2.1051208e-05
 -3.6547612e-04
  5.3451089e-03
  1.1086940e-01
 -1.0322453e-03
  9.8412670e-04
  1.6316488e-02
 -1.2351986e-03
 -6.4933772e-04
  1.7733080e-03
  1.0067120e-03
 -2.0232847e+00
 -1.4038575e-02
  1.2400635e-03
  1.1515256e-04
  1.1251869e-03
  2.4729198e-02
 -6.6656834e-01
 -7.9319119e-01
  4.3533166e-04
  8.3500094e-04
  6.2527385e-04
 -3.2684865e-04
 -1.2969915e-03
 -5.1497603e-03
 -1.3216938e-03
  1.0725959e-04
  1.6494690e-03
 -1.0163349e-03
 -2.9491398e-03
 -3.3362203e+00
  1.3427467e+00
  5.6524546e-04
 -2.1220037e-01
  8.6753704e-02
  5.7409799e-01
  1.9011507e+00
 -1.6931376e-01
  8.0049582e-02
 -1.1187897e+00
  9.0366948e-01
  1.4431529e+00
 -1.0851041e+00
 -1.7487893e+00
  3.1708235e-01
  2.1723991e-03
 -9.0981387e-02
 -1.2884394e+00
 -5.9266254e-02
 -1.5336280e-02
 -1.2918319e+00
  1.0401366e+00
 -3.2730666e-03
 -6.6726055e-04
 -2.4805837e+00
  1.5360827e+00
  1.1489525e+00
 -2.8196428e+00
  1.6293017e+00
 -1.1339231e-04
  5.8809863e-03
 -2.0686467e+00
  1.7066021e+00
 -4.5438629e-02
 -7.4502999e-01
 -2.3749560e-02
 -4.4147493e-03
 -2.4735261e-04
  1.6155719e+00
 -5.4464328e-01
  1.4015205e-03
  6.7164982e-04
  1.0708155e-01
 -7.7521941e-04
  3.5474543e-04
  2.4287682e-03
  2.8769397e-03
  2.2402455e-04
  1.4452513e-03
 -5.0946261e-04
 -5.1933585e-04
 -3.9736522e-04
 -7.2934281e-04
  4.8419595e-04
  2.7891092e-03
 -4.5538899e-03
  7.4281247e-04
 -2.7895463e-04
  6.7881052e-04
  1.1240829e-03
  2.7861272e-04
 -3.2184224e-05
 -5.8718689e-04
  1.1613907e-03
 -2.6598093e-04
 -5.0311885e-04
 -2.4649294e-04
 -3.2761280e-04
 -6.3678779e-04
  3.0979211e-04
  1.9597358e-04
  1.6842308e-03
  7.7526423e-04
  1.4157034e-05
 -2.2145212e-03
 -1.9442654e-03
 -4.6456658e-04
  2.4551517e-04
 -3.3789276e-04
 -4.0360905e-05
  1.2418935e-04
 -8.8951149e-04
 -8.4945414e-04
 -2.8382771e-04
  4.8324183e-01
  7.8033120e-04
  1.1652819e-04
  4.8969028e-04
 -1.0518277e+00
 -1.9331836e+00
 -1.9257176e-01
 -1.1378886e-03
 -7.7392823e-01
 -1.8687181e-03
  3.6093184e-01
 -6.9924170e-01
 -2.3020501e-01
 -1.1348943e-01
  2.5819454e-01
  2.0853671e-01
  2.8976345e-01
 -5.2909815e-01
  1.5951580e+00
  8.1965118e-04
 -3.0628678e-01
  4.8449937e-01
  1.1105421e+00
  8.2932845e-02
  1.1948577e-01
  1.5127752e+00
 -4.2447242e-01
 -2.0513972e-03
  2.7765179e-01
  6.6140306e-01
 -2.1416399e+00
 -1.4238955e-02
  1.1450328e-02
 -1.1695671e-02
  2.5827765e-02
  7.3162115e-01
  2.3675275e-01
 -4.8520702e-01
  3.3701072e-05
 -4.5121284e+00
 -1.0707728e-01
  7.3865132e-04
 -2.0487030e-05
  6.2466494e-04
 -3.0729617e-03
  1.0201230e-03
 -5.0717667e-03
  2.2710275e-04
  2.3350121e-01
 -1.1071714e-03
 -1.5668080e+00
  1.4829167e+00
 -5.2577440e-02
 -1.3360708e+00
  4.3952370e-01
  1.4477797e-01
 -4.1509491e-01
  1.7464769e+00
 -1.5561374e+00
 -2.2939689e-01
  1.8211298e-01
 -1.5611163e+00
  4.2636320e-01
 -2.6657386e+00
  2.9381615e-01
  9.6363015e-03
  1.0198239e-01
  9.8237067e-02
 -2.6669323e-01
 -1.6560106e+00
 -2.7643044e+00
  3.1898072e-01
 -2.6634482e-01
  6.7163956e-01
  3.3760208e-01
 -6.1765873e-01
 -1.3602970e+00
 -2.1722920e+00
  2.4628080e-01
 -1.2414793e+00
 -4.8493791e-01
  3.4605989e-01
 -3.0310339e-01
  1.2942298e-01
 -2.8374455e+00
  4.3096786e-04
 -4.8298934e-01
 -2.3305307e-04
 -2.1094078e-04
 -8.5186660e-01
  4.5654815e-01
  3.7367591e-01
  6.1091903e-04
 -7.5661414e-04
 -1.8632351e-03
  2.3010024e-04
 -8.5953339e-05
 -1.1866398e-04
  3.9931983e-03
 -3.2025922e-04
 -1.9855333e-04
 -9.2849025e-04
 -3.7710599e-04
  1.1223514e-03
 -6.8593625e-04
  1.4030662e-03
 -1.6379106e+00
 -1.1205743e-03
  2.5097104e-03
  7.3183241e-04
 -2.2820535e-03
 -1.2763020e-03
 -1.7870368e-03
 -3.7850204e-04
 -9.5847552e-04
  5.9533661e-04
  2.3054960e-04
 -6.0355908e-04
 -1.6806240e-03
 -1.0930515e-03
  4.2293576e-04
  6.1407371e-04
  1.3322093e-03
 -2.8515555e-04
  6.4303441e-04
  2.0105243e-04
 -1.4259720e-03
  3.1722043e-04
  1.3253361e-05
  6.2979257e-04
  5.9845910e-04
 -3.9138435e-03
  5.4879102e-04
 -2.0101601e-04
  1.1801467e-03
  3.1774127e-04
 -1.5302380e+00
  1.2254680e+00
 -6.8177843e-01
  1.0808483e+00
 -1.5774536e-01
 -4.6452522e-04
 -1.5829805e+00
 -9.7000694e+00
 -3.8775816e-03
  5.1931238e-01
 -1.0684255e+00
 -3.9937112e-01
 -1.5758015e+00
 -1.4254830e+00
 -1.8426332e-01
  5.8862036e-01
  1.0117389e+00
 -4.6813574e-02
 -4.4723457e-01
 -7.7275968e-01
 -1.3261702e+00
  1.4352839e+00
  6.4539691e-03
 -3.8208041e-01
 -2.0671703e-01
  4.8133078e-01
  1.4042840e+00
 -4.8587218e-01
 -1.0672075e+00
  5.1770743e-04
 -5.7816660e-01
  1.2579323e-01
  6.3071656e-01
  6.7162740e-01
 -3.8643244e-01
 -1.0138271e+00
 -5.3084927e-04
  9.2759059e-05
  1.4534871e-01
 -2.7764253e-03
 -1.5842496e+00
  1.7715094e-03
 -5.0497688e-03
  1.6670245e-03
 -1.0306106e-03
  2.9440513e-03
  6.3753425e-04
 -1.6987344e-04
  4.8111979e-04
  4.7712275e-04
  5.9127449e-03
 -1.0058066e-03
 -7.1270956e-04
 -2.1994193e-04
 -3.3236132e-04
 -7.0123919e-05
  2.0152077e-04
 -2.1411411e-03
 -4.9491972e-04
  6.4539025e-04
 -1.2988457e-03
  3.1814459e-04
 -8.2639471e-04
 -1.0531564e-03
  9.0625091e-04
 -2.0536745e-01
 -2.3273022e+00
 -6.7140156e-04
 -3.5187847e-04
  1.0670000e-03
 -1.8834567e-04
  7.2960602e-04
 -6.7968416e-04
  9.8707504e-04
  6.0901960e-04
  7.9143952e-05
 -1.4343031e-03
 -8.0043660e-04
 -1.2732984e-03
  4.7906104e-04
 -7.4153778e-04
  2.2319923e-03
  8.3493232e-04
 -1.0475297e-03
  2.0767133e-04
  7.8143721e-04
 -3.5353662e-03
  5.7237550e-05
  2.5397215e+00
  9.1551888e-01
  1.9296529e+00
  4.7808518e+00
  3.6398134e-01
 -2.6069099e-01
 -8.9736885e-01
  5.2364540e-01
  1.7421863e+00
  1.3441837e+00
  2.2130583e-01
 -1.2001046e+00
 -1.2484787e+00
  6.3601929e-01
  1.0333256e+00
  1.3933715e+00
 -6.7082506e-01
 -1.1310652e-01
  4.6569246e-01
  4.6031776e-01
 -8.1546998e-01
  9.9747014e-01
 -9.7269796e-02
 -3.4132066e-01
  4.4162905e-01
  3.1385994e-01
  1.3496923e+00
 -2.9426038e-01
  4.1934633e-01
 -1.6440623e-03
  9.3982957e-04
  4.0544543e-01
  2.1268907e-01
 -1.4727650e+00
 -3.1886351e-01
 -1.6592547e+00
 -5.6219113e-01
 -3.9867648e-01
  2.9409149e-01
  1.6585232e-01
 -1.8154711e+00
  4.6923442e-04
 -4.8766184e-01
  3.3512583e-04
 -2.2142296e-01
  2.7911544e+00
  9.1452396e-01
  1.1643174e-01
 -5.9746069e-01
 -1.2736956e+00
  1.3577555e+00
 -3.0857460e+00
 -1.4580677e-01
 -1.2610713e-03
  3.5062453e-01
  3.1711280e-01
  1.3947303e+00
 -1.2892888e-02
 -1.0114808e-01
  1.1508216e-04
 -3.5457435e-01
  1.3547214e+00
  4.5280522e-01
 -4.5434403e+00
 -8.9298874e-01
  5.4574400e-01
 -1.9737292e-04
  4.2736310e-01
 -1.2675322e+00
 -5.5729783e-01
  4.3717456e-01
 -3.0364204e-04
 -2.9687399e-01
 -1.5262018e+00
 -2.7871943e-01
  1.9339662e+00
 -4.2627424e-01
  5.5617255e-01
 -7.2664666e-01
  1.3319074e+00
  1.3591850e-03
 -4.8317620e-01
  1.6519917e+00
 -8.5503548e-01
  6.6354236e-04
  1.6821864e-03
 -1.2990008e-01
  1.8124401e-03
 -8.6477345e-01
  2.6952138e+00
  8.8501066e-01
  3.1346972e+00
  2.9579663e-01
  5.3137457e-01
  6.0880822e-01
  2.4423811e+00
  1.3628590e+00
 -6.5894246e-01
  5.3610224e-01
  8.1229722e-03
  9.4923131e-02
  1.0749410e-01
 -1.5859599e+00
 -6.4188865e-04
  6.7502904e-01
  8.7189412e-01
  6.5337342e-01
 -1.5229733e-01
  2.7334312e-01
  2.1947708e+00
 -1.2491970e+00
 -3.8222584e-01
  3.1983328e+00
 -1.1663330e-01
  1.9959460e+00
 -9.2864245e-01
 -4.6032234e-03
 -8.4126825e-03
 -5.2888423e-02
  4.1440153e-01
  1.3924614e+00
 -1.1046915e+00
  1.7883943e+00
 -7.8015095e-01
  5.3054303e-01
 -4.0487153e-03
 -1.9150645e-01
 -1.7826279e+00
 -9.0984482e-01
 -2.0581700e-03
 -1.7351705e+00
 -1.1264723e-04
  1.4596215e+00
  1.4897510e-03
 -1.6891789e-01
 -1.6280454e-02
 -9.3334526e-01
  3.0853428e-04
 -1.0743785e-02
  1.3741430e+00
 -2.0062864e+00
 -1.3440114e-02
  1.7676756e+00
  4.3872751e-02
  1.2640915e+00
 -9.1588862e-02
  4.3174325e-04
  1.2286677e-03
 -5.9445179e-01
 -5.4527974e-01
  7.4308783e-01
 -2.8607112e-01
  1.3023382e+00
 -1.8738538e+00
 -4.7649974e-03
 -3.7460455e-01
 -6.6502804e-01
  3.1459529e-03
  3.9835546e+00
 -1.4195696e+00
  1.6608127e+00
  7.2102058e-03
  1.4984005e-03
  3.4367853e-01
  1.6966758e+00
 -4.9588740e-01
  1.6640562e+00
 -1.3550424e-03
 -1.7478453e-02
 -1.6344025e-03
  2.2664535e-01
  4.9298709e-05
 -8.1456596e-01
 -5.2844750e-04
  7.7449805e-03
 -1.4262587e-03
 -6.8112630e-01
 -6.2006077e-04
 -4.8497299e-04
  2.3695390e-01
  1.1869080e+00
 -4.3878867e-03
  6.9516376e-02
  1.8701323e+00
  9.4289035e-01
 -1.5332640e-05
  4.5059818e-01
  5.7763070e-01
  4.4252560e-03
 -7.1979664e-02
  3.2742125e-01
  6.1317038e-02
  1.0339053e-03
  1.9705747e-01
  5.0856364e-01
  8.4413326e-01
  1.1408261e+00
 -9.8795605e-01
  9.1543834e-04
 -7.4421132e-01
  1.6559263e-01
  3.8891690e+00
  1.5468242e+00
 -6.3694245e-01
 -2.5407948e+00
 -4.6880491e-04
 -1.1855320e-03
 -2.2999530e-01
  4.7637239e-01
  7.3094282e-04
 -7.1152949e-01
 -4.5687715e-03
  9.6112926e-06
 -3.1898033e-03
  6.5928570e-04
  1.0655344e-03
 -4.5254779e-01
  5.5764373e-03
 -2.2358585e-03
 -7.0191920e-04
  5.9020597e-01
  2.1455258e-03
  5.1066661e-01
  2.0161667e-01
  3.9760530e-02
  3.2211828e-01
  4.4631431e-01
  5.9624898e-01
  5.3360134e-01
 -5.5837877e-02
 -7.5634132e-04
  1.4448836e+00
  6.4491101e-02
 -6.4008243e-02
 -7.4907847e-02
 -9.6836733e-03
  2.4035661e-03
 -3.2048136e-02
  6.6702324e-01
  3.2568163e-01
 -1.5944555e-04
  5.1035643e-01
 -2.8616325e-03
 -5.8231735e-01
 -4.5145416e-01
 -1.1176044e+00
  3.5915403e-03
 -7.0758760e-02
  3.1914745e-04
 -2.1544260e-01
  2.7192876e-01
 -4.0044257e-01
 -6.3274437e-01
 -2.5911000e+00
 -3.9774054e-04
  7.1597737e-01
  2.5162244e-01
  5.7501381e-04
 -8.3624935e-01
 -3.0047158e-04
  3.8082993e-01
 -1.0528855e-04
 -8.2435198e-02
 -1.9231623e-04
 -3.2094569e+00
 -2.7869651e+00
 -1.3834891e+00
 -1.4387647e+00
  7.4765098e-01
 -2.6516166e+00
  4.9936813e-01
  9.8054469e-02
  6.8900712e-02
  7.8148646e-03
 -1.1671475e+00
 -5.9420091e-01
 -2.9134515e-01
  2.1217142e-01
  4.4974047e-01
  1.6720301e+00
 -1.5306726e-04
  2.1128835e-01
 -2.7325776e+00
 -9.7947001e-01
  3.8282681e-01
 -1.8586250e-01
  1.5711776e+00
 -7.3750556e-02
  1.9751467e+00
 -3.8820189e-01
  5.2685863e-01
 -1.1623412e+00
 -2.1348975e+00
  1.4534873e+00
  8.3330175e-05
 -2.8107762e-01
  3.2179525e-01
  6.1034220e-01
 -1.3781402e-01
  3.5768291e-01
  9.9537748e-01
 -7.8574178e-04
  7.8824425e-01
 -6.1030313e-04
 -9.7843848e-02
  6.4928911e-04
  1.5273341e-03
  2.6552247e-02
  2.5573552e-01
 -1.0149817e-01
 -1.2911667e-01
 -7.2570860e-02
 -4.6574655e-01
  1.2085421e-03
  3.1311026e-01
  8.6794251e-01
 -7.7114752e-03
  2.4058529e-05
  4.4426128e-01
  1.7825279e-03
 -1.5696465e-03
 -8.7127904e-05
 -2.3534888e-02
  2.3409273e-04
  1.1148428e-03
  1.0874435e+00
  9.6318018e-01
 -4.7441287e-04
  1.1683276e-02
  9.9283934e-04
 -6.6353515e-04
 -1.1276775e-01
 -1.5998733e-01
 -3.1084677e-02
 -2.2141995e-01
 -7.3262864e-01
 -5.2280164e-01
  5.8233051e-04
 -1.5890194e-04
  1.7934559e-01
  7.4571306e-01
 -7.2676398e-02
  2.5172406e-04
 -8.3048850e-01
  1.5222451e-04
  7.0482306e-04
  1.6280620e-03
  3.1251706e-02
  8.6388050e-04
  2.1374314e-03
  4.6645444e-05
 -4.7209527e-04
  3.6927640e+00
 -6.0043182e+00
 -3.8974118e+00
  6.1879796e-01
 -1.0673597e+00
 -1.3738648e+00
  1.8548675e+00
 -2.0583899e+00
 -1.7717800e+00
  4.2095479e-01
 -3.0102046e+00
 -3.3991857e+00
 -4.9844984e-04
  7.8050513e-04
  1.1816757e+00
  2.2363985e+00
 -1.4332191e-03
  2.2429125e+00
  1.7272935e-03
  2.4027061e-01
 -1.7495262e-03
  2.8955448e-01
  1.8827348e+00
  1.3576207e+00
 -1.8663286e+00
  5.1922840e-01
  9.7838461e-01
  8.1312555e-01
 -7.4937068e-02
  8.0953515e-01
  6.0731900e-01
 -2.0824404e-01
 -4.0726792e-02
  2.3206575e-01
  5.0815850e-01
  9.2867547e-01
  3.1312010e-01
 -2.7773209e-04
 -1.1756374e+00
 -3.1626448e-03
 -5.9951562e-04
 -2.2240900e-03
  4.5811173e-02
 -2.3930548e-03
  1.1797842e-01
 -4.9316455e-05
  5.0115311e-01
  3.3113973e-03
  3.4329097e-04
  5.8667327e-04
  1.9375392e+00
 -1.2746029e+00
 -6.2173512e-04
  2.9961299e-04
  9.3149347e-04
  2.1858476e-01
  2.4237093e-03
 -2.9666829e-03
  1.4617991e-04
 -5.7852943e-04
  2.6020619e-01
  1.2665934e-02
 -4.1715565e-01
  5.6311552e-04
  2.3672089e-01
 -1.7385428e-03
 -3.6072568e-04
  2.7181453e-04
  4.9798363e-03
 -1.6578583e+00
  5.9452659e-01
  3.0901867e-03
  6.3980877e-01
  6.3177280e-04
  2.0863293e-03
 -1.3954439e-03
 -5.1908707e-03
 -2.2140026e-01
 -1.2351812e-03
  1.3097259e-03
  7.8386751e-05
  1.0495557e-03
 -6.8067051e-03
  9.1105950e-04
 -1.3148783e-06
  6.3298736e-05
 -3.5671664e-03
  6.4874810e-05
 -4.2968881e-01
  4.4931178e+00
  2.0386810e+00
  3.1513243e+00
  3.4058201e-01
  2.9605696e+00
 -3.2299454e+00
  6.9136590e-01
  1.8358520e+00
  2.1818061e-01
  4.1725101e+00
  9.8812324e-01
 -4.3188834e+00
  3.3189242e+00
 -1.6849591e+00
 -4.3414760e+00
  8.7487662e-01
  3.0957680e+00
 -1.7903279e-01
 -4.8081928e-01
 -2.7579789e+00
 -2.8277013e+00
 -3.2985480e+00
  5.2909893e-01
  4.3896899e+00
 -7.2057909e-01
 -1.5644099e-01
 -4.8930364e+00
 -5.6208295e-01
 -2.0170779e+00
 -2.3697984e-01
  4.9925524e-01
  1.0192182e+00
 -1.9020625e+00
  2.6953518e-02
  9.7030896e-01
 -1.2011348e+00
  6.2738121e-01
  1.8989335e+00
  2.3849089e+00
  4.4776011e+00
 -9.4305747e-04
 -1.1105445e-05
  1.9764653e-03
  1.8439935e+00
  3.3818668e-04
 -1.3667776e-03
 -1.8513120e-03
  2.2526477e-01
  5.2982935e-04
  1.8055201e-01
  1.4429374e+00
  2.0224917e+00
  1.5365711e-02
  4.8267499e-01
  3.0935767e-01
 -9.9405056e-01
 -1.0829473e+00
  3.4716162e-01
  1.0317174e-01
 -2.2216509e-01
  1.0585232e+00
  1.3458250e+00
  4.7742793e-01
 -5.2498317e-01
 -1.1342685e+00
  2.0616886e-04
  4.3304593e-04
 -2.4966486e+00
 -1.0109627e+00
  2.5470235e+00
  6.3580489e-01
 -4.0110233e-01
  2.4008323e-03
 -7.7592170e-01
  2.8186882e-01
 -6.4185530e-02
  3.0946317e+00
  7.6172709e-01
  1.0298659e-03
  2.5251979e-04
  2.3446484e-03
  3.0692634e-01
 -3.8598543e-01
  7.8307062e-01
  8.5013598e-04
  5.5041790e-01
 -2.2920177e-03
  3.1864828e-01
 -2.2701583e+00
 -5.4204297e-01
 -1.7124899e-02
 -6.1615360e-01
  7.5046741e-04
  1.9452314e+00
  1.9093219e+00
  9.2817432e-01
  3.9593864e-04
  1.0956366e-01
  1.6794337e-01
  5.6985980e-01
 -1.2061032e-04
  1.4677182e-01
  5.7431520e-04
 -4.1018584e-04
 -2.3011535e-02
 -1.3118415e+00
 -3.8443601e-03
 -2.0777763e-01
  5.5814844e-01
  3.6486945e-01
  4.9965072e-01
 -3.9946720e-01
 -1.6944052e+00
 -1.7831063e+00
  1.7491566e+00
 -1.1902325e+00
  1.6833641e-05
 -1.0197669e-03
  4.5747018e-01
  3.3039775e-01
  5.8702785e-01
  3.2906919e+00
  1.1555945e-01
  8.2626883e-03
  7.4339290e-03
 -1.0293893e-03
 -2.3504777e-05
  3.5903400e-01
  4.4603462e-04
  6.8678632e-02
 -4.1902089e-04
 -3.2166288e+00
 -2.0288625e+00
  1.3311667e+00
  4.7156253e-04
  1.4983380e+00
 -2.1658318e-05
  1.8421055e+00
  1.1883250e+00
  8.0103886e-01
 -9.5427135e-04
  1.0232713e+00
  1.4932071e+00
  2.0099058e+00
  5.3734374e-01
 -7.6219487e-01
 -1.0831407e-03
 -1.0778872e-01
  5.2510900e+00
 -1.5872843e+00
 -1.7795468e-03
 -6.0525817e-01
  8.9973692e-06
  3.5001253e-04
 -4.3290734e-01
 -4.0774935e-01
  3.2719789e+00
  4.2072082e-01
 -1.8706718e-02
 -2.8224001e-03
 -1.9809062e-04
 -6.0175389e-02
 -1.4857866e-02
  1.2038649e+00
  2.2412992e+00
 -1.4672793e+00
  2.0597289e+00
  2.8709820e-01
  3.7731649e-04
  1.6164390e+00
  3.9586058e-01
 -1.1922120e+00
  1.1389612e-04
 -1.1511194e-02
  2.9424517e-03
 -6.6042086e-04
 -7.0650611e-05
 -2.5346820e-04
  3.4755559e-04
  1.5789362e-03
 -3.1213011e-04
  1.1366459e-03
 -4.0428815e-04
  7.1512314e-04
  1.7982873e-03
  6.5391869e-05
 -2.2176660e-03
  9.6923840e-04
 -6.2714459e-04
 -2.8500959e-04
 -6.2247756e-04
 -2.3323190e-03
 -1.7581091e-03
  8.2785223e-04
 -1.8868230e-03
  5.6085060e-04
  2.4408611e-04
  1.8351414e-04
 -5.3383299e-04
  1.6201994e-03
 -1.2495127e-03
  2.5828357e-04
 -4.5742712e-04
 -3.4412145e-04
  3.8061466e-04
 -1.0635960e-04
  8.6911872e-04
 -2.1383453e-04
  4.4836540e-04
  1.2513080e-03
  1.8897179e-03
  2.7402499e-04
  1.0578420e-03
  2.5075683e-04
  9.6942950e-04
  1.3682064e-04
 -8.4237900e-04
 -4.3173664e-04
 -2.2700719e-04
 -2.8183389e+00
  7.8961343e-01
  6.3258529e-01
  4.5197392e-01
 -1.2916830e-01
 -1.7510580e-01
 -9.2845947e-01
  8.4825820e-01
  7.4560636e-01
 -2.2712057e-02
 -2.0894121e-02
 -2.5436840e+00
 -7.2115189e-01
 -6.8020429e-03
 -4.4499296e-01
  1.2249006e-04
 -1.2200397e+00
  8.3645910e-02
 -7.5160944e-01
  5.5202097e-02
 -3.6219195e-01
  2.5311210e+00
 -2.3400071e-03
 -1.9497038e-03
 -1.3388385e+00
  3.6897832e-01
 -1.1670596e-01
 -8.9257830e-01
 -1.6285330e+00
 -1.0307818e-01
 -2.4680990e-01
  8.8076895e-01
 -6.2069343e-04
  3.0003445e-02
 -4.9363054e-02
  3.2435349e-01
  1.3235265e-03
 -3.6644270e-03
  7.2299355e-01
 -2.9352016e-03
 -1.2532489e-03
 -5.4322404e-04
  4.6007074e-03
  1.0274178e-03
 -1.5207425e-04
 -3.2917515e-04
 -7.1996998e-05
 -3.1783298e-04
  2.5731456e-04
 -1.5914062e-04
  5.3008316e-06
  2.8957562e-05
 -6.5967446e-04
  5.5569183e-04
 -1.0561934e-03
 -7.5423991e-04
  4.6805438e-04
  3.0872121e-04
 -1.0520162e-03
 -1.2296158e-03
 -8.4060099e-04
  2.7777097e-04
 -1.9130202e-04
  5.1948824e-05
  8.0853677e-04
 -7.9252594e-04
  1.5823728e-04
  2.9801737e-04
 -6.7407095e-06
 -9.0647378e-04
 -1.2669469e-03
  2.8130008e-04
  2.6399383e-04
 -3.0887243e-04
  4.7755876e-04
 -5.1036786e-04
 -1.6321104e-03
  2.5770272e-04
  6.8439485e-04
  8.5105037e-04
 -2.2414334e-03
  1.2625848e-04
  3.2358221e-05
 -1.1222453e-03
 -5.9102676e-06
  1.1003203e-03
 -2.9461604e-04
 -2.6121989e-04
 -2.2634528e+00
 -5.2560103e-01
 -8.9677833e-02
  9.0316199e-03
  1.2667120e-03
 -2.8119741e-02
 -2.4143865e+00
 -1.4832705e+00
 -1.4357420e+00
 -5.7770228e-01
 -4.1715941e+00
 -5.0692703e-04
 -1.7109712e+00
 -1.4870706e+00
 -1.4801289e+00
 -1.2013779e+00
  2.0615594e-02
 -1.0096231e+00
  7.6789957e-01
  2.7567771e-01
  3.1956127e+00
 -3.5574961e-01
 -1.3617313e-03
  6.9313055e-06
  2.6371688e-01
  5.2377176e-02
  3.2884188e+00
 -5.9268218e-01
  2.5013783e+00
 -4.2812952e-01
 -7.1753764e-01
  3.5779488e+00
  1.3333564e+00
  9.4326381e-03
 -1.1198676e+00
 -9.6473790e-04
  4.9413915e-04
 -1.5992353e-03
  1.4277738e+00
 -1.2282651e-03
  5.7401967e-01
  2.9002929e-01
  2.0160031e-04
 -2.4340136e-04
  3.0516932e-04
 -2.2684268e-05
 -1.8076631e-04
 -2.2116743e-05
  4.0677388e-04
  7.7306363e-04
  1.2188219e-04
  9.1021846e-04
 -8.7295257e-04
 -9.5510710e-05
 -4.5806699e-04
 -4.5518397e-04
  3.5867408e-05
  9.2904738e-05
  7.8394034e-05
 -8.8188716e-04
 -3.2021059e-04
 -4.2181878e-04
  7.1818102e-04
 -3.4995228e-05
 -1.7471683e-03
  3.4699103e-04
 -6.4581726e-04
  4.0611497e-04
  1.3314979e-03
 -1.4344412e-03
 -3.5830523e-04
 -4.6835653e-04
  2.8242813e-03
 -4.4908281e-03
 -1.4185183e-03
  5.2034389e-04
 -3.1093182e-03
 -5.9328675e-05
 -1.3588979e-03
 -6.6773489e-04
  2.3553986e-04
 -4.3904860e-04
 -3.1069950e-03
 -1.3141325e-03
  2.0574643e-03
  5.2875100e-04
  5.2901243e-05
  6.3593499e-04
  1.4110559e+00
 -1.3482048e-01
 -3.7302506e-01
  2.5425197e-03
 -1.2553390e+00
 -3.2980330e-02
 -1.9898287e+00
  1.8919046e-01
 -5.7773612e-04
 -6.0207020e-03
 -1.7364965e-01
 -1.8008491e-01
  5.1539426e-04
 -6.9499789e-03
  5.3245819e-01
 -2.7116628e-03
 -7.6919392e-04
  5.3078556e-01
  2.0905511e-01
  5.7642078e-03
  4.1516092e-01
  7.0344144e-01
 -1.5778363e-03
  1.7769190e-03
 -2.2373393e+00
  2.7719242e-02
  8.5819229e-02
  1.6885406e-07
  4.8691038e-02
  4.0573344e-05
 -2.7232632e-04
  2.4395654e+00
  1.2144971e+00
  2.2287199e-02
  1.1250068e-04
 -1.5215311e-03
 -1.5870816e-03
 -2.3396694e-04
  1.3217808e-03
 -8.3723699e-04
 -1.8819906e-03
  1.2617215e-03
 -1.6543438e-04
  4.0086349e-03
 -1.5639609e-01
  2.1539387e-04
 -9.5715316e-04
 -2.4685621e-01
 -6.8658026e-04
  1.9156272e-03
  1.0585968e+00
 -1.9791199e-02
 -7.2974274e-03
 -6.3536013e-04
  1.3253137e-03
 -3.2618287e-01
 -4.9385908e-01
 -1.6425529e-03
  1.9524327e-01
 -1.0038597e-04
 -4.9453411e-02
 -1.1189386e+00
 -1.5125227e-01
 -2.4697697e-02
 -3.0542005e-02
  3.7420521e-04
  1.1537132e-03
 -5.4304296e-04
  2.8246042e-01
 -4.0096981e-03
  1.8243529e-02
 -3.5681370e-01
  8.9589376e-03
  2.0831181e-01
  7.2011859e-03
 -7.7613764e-02
  7.1161348e-01
 -1.3265131e-01
  4.2667077e-03
 -2.6933950e-01
 -4.0383991e-03
 -3.6658892e-01
  5.6452978e-01
 -4.7384609e-02
 -2.7814332e-01
 -6.1230443e-04
  5.8426769e-03
  1.0521762e-03
 -3.7684257e-04
  1.5937622e-03
  6.5046959e-05
 -2.0278075e-03
 -2.8506585e-04
 -3.8199319e-04
 -1.0704999e-03
  5.5400869e-05
  1.9806358e-03
  2.5052503e-03
 -1.0739950e-03
  3.5539022e-05
 -8.1010658e-06
  3.3383360e-04
  2.1756913e-04
 -5.2752049e-04
  1.9657664e-04
 -2.1883583e-04
 -2.4647091e-04
 -1.7022426e-03
  1.7371603e-04
 -1.9785541e-03
  4.2116988e-04
 -9.7562431e-04
 -3.2889342e-04
  1.0654771e-04
  6.4645290e-05
  1.9394938e-05
 -2.5744794e-04
  1.1531569e-03
  1.4391711e-03
 -2.3863763e-03
 -1.6519652e-03
  4.5582288e-05
 -4.2405346e-04
 -1.4131444e-05
  1.4875187e-03
  1.1335002e-03
  2.8813459e-04
 -4.8247504e-04
 -1.1132574e-03
  3.8012627e-03
  3.8678849e-05
 -1.4478662e-04
 -2.8175064e-03
 -4.9371307e-04
 -3.2086449e-05
  4.3919348e-04
 -9.3437266e-04
  8.6097294e-05
 -5.5872733e-06
  1.6071108e-04
 -7.6132885e-04
 -3.3389407e-04
  3.1793333e-04
 -5.2733737e-04
  2.9239112e-05
  2.0645750e-03
 -5.9259211e-04
 -5.0185760e-04
 -1.8339403e-04
 -1.1761273e-03
  2.8833660e-04
 -1.1338794e-03
 -9.9475647e-04
  1.1857812e-03
  2.2438210e-03
  3.5150774e-04
 -5.0646086e-06
 -1.8105452e-04
  6.8158549e-01
 -3.8582677e-04
 -4.7611620e-04
  6.1832304e-04
 -7.8225409e-04
 -6.0375937e-04
  2.8562517e-04
  6.3362834e-04
 -1.0310020e-03
 -5.8922241e-04
  2.7322260e-04
  2.3772025e-03
 -7.9185033e-04
  1.3334935e-03
  1.4014139e-03
 -1.4681013e-03
  1.4443802e-05
 -3.0600873e-04
 -7.4482137e-01
 -3.0295631e-01
  3.0617747e-01
  1.1235276e+00
 -4.0274420e+00
 -2.7637603e+00
  2.2656894e+00
 -1.3632571e+00
 -1.1944766e-01
 -3.3655515e-01
 -2.8069949e+00
  8.4651107e-01
 -4.5474589e-01
 -7.9433000e-01
  2.0179856e+00
  1.9612960e+00
  2.0958486e-01
 -3.7528961e+00
  3.7622910e+00
  2.2105625e+00
  1.8677839e+00
  1.7532489e-01
  1.0755523e-01
  1.1342950e+00
 -1.6900129e+00
 -6.6440505e-01
  1.7991041e+00
 -3.1113701e-02
 -8.7246478e-02
 -1.1214725e+00
 -8.0139823e-03
 -9.7067577e-01
  5.0468183e-01
  6.1330968e-01
 -9.6637625e-01
 -1.9965371e-01
  3.7829626e-01
 -9.9028591e-03
 -4.8151192e-01
  2.4761138e+00
 -3.2420731e-03
  6.7057256e-03
  1.8663405e-01
  2.1307857e-01
 -3.1337980e-03
  1.9797173e+00
  3.3536558e+00
  4.4072982e-02
  2.3353701e+00
  8.2363129e-02
  3.3732524e+00
 -5.9114957e-01
  5.3258061e-01
 -9.6483558e-01
  1.7173516e+00
  1.1877068e+00
 -1.1712752e-04
  2.3469841e-03
 -5.7737990e-03
  1.3356663e+00
  3.3051515e-01
 -1.0766874e-01
  1.5080411e+00
  1.8406543e-01
  8.3698243e-01
 -1.7195190e+00
  5.7255965e-01
 -1.1793795e+00
  2.4486887e+00
  1.5921350e+00
 -2.5137663e-01
  2.1398826e-01
 -1.2106848e+00
  3.9347193e-01
  2.3821662e-01
  3.5778642e+00
  2.6258612e-02
 -1.3683544e+00
 -2.8844562e+00
 -7.2174948e-01
  7.4771661e-01
  2.5354079e-03
  1.3700016e+00
 -8.2424999e-04
 -6.0216761e-01
  4.3700280e-04
 -1.0545144e+00
  1.3078786e-03
 -9.2123388e-05
 -8.6580584e-04
 -3.1819020e-03
  1.0340414e-03
 -5.5370072e-04
 -1.2688400e-03
  3.6123171e-01
  1.0956534e-03
  1.6573233e-03
  1.1375015e-04
  2.0992495e-03
  1.0469348e-04
  1.2436879e-01
 -1.9954445e-03
  7.9028280e-03
 -1.2681198e-03
  6.8994559e-04
  1.2058802e+00
 -1.5556939e-01
  3.6463139e-03
 -2.4483795e-03
  4.4400786e-04
 -2.5549825e-04
 -2.4901298e-01
  2.1677512e-01
  1.8274269e+00
  7.0378356e-02
  5.1205780e-04
  6.0777011e-04
  1.7931986e-04
  1.8596571e-03
 -2.8198147e-01
 -4.7768274e-04
  2.4525830e-01
 -3.5232699e-01
  7.4930990e-04
 -1.5736755e-04
  1.3376111e-03
  8.2743936e-04
  1.5012144e-04
 -1.5660363e-01
  1.8231909e-03
  1.0501125e-03
 -5.0756772e-04
 -2.6808546e-03
 -2.0395504e-01
 -5.0587696e-01
 -2.0798302e-04
 -1.7014675e+00
 -1.8508047e-03
 -3.8242650e+00
  3.2974117e+00
  1.5456979e+00
 -2.0162317e-03
 -3.1536788e-02
  2.4342664e-01
  5.8095302e-03
 -8.3762892e-02
 -1.1404328e+00
  2.8332019e-01
 -6.2627017e-02
 -2.3748618e-01
 -3.8254073e-01
  3.9833484e-04
  1.0454932e+00
  1.2671688e-02
  3.9163589e-01
 -7.4770325e-03
  2.4608405e+00
 -2.6035437e-01
  7.8400868e-01
  2.2711284e-01
  2.2785287e-01
 -2.3795259e-01
 -8.4803589e-02
 -7.8324378e-01
  2.8237441e-01
  3.1545877e-01
 -7.1626061e-01
 -1.6850551e+00
  5.8157096e-04
 -4.3440424e-04
  9.1078162e-01
  8.4449893e-01
 -2.3761156e-03
  2.4463341e-03
 -7.4688986e-02
  8.0464839e-04
  3.1418420e-02
 -4.2312331e-02
  3.6359584e-01
  8.6441141e-04
 -4.0102947e-01
 -3.1565253e-03
 -6.2439436e-01
 -1.0031150e-03
 -1.4538567e+00
 -2.3484388e-01
  1.6690457e-03
  3.0795229e-03
 -8.8660640e-04
 -3.4229658e-03
  1.5944585e+00
  1.0919927e-03
  7.4076526e-02
  2.5334027e-01
  1.3535528e+00
  2.0676248e+00
  3.9362881e-01
  4.5966431e-01
 -4.3498076e-04
  2.7619689e-03
  1.9475731e-01
 -4.2856470e-01
 -3.0097646e-01
  9.6276832e-05
  2.9223076e-01
 -7.4525696e-04
 -5.1623659e-04
 -2.3410615e-01
  3.8432190e-01
 -6.3629910e-02
  2.0571840e-04
  6.5430242e-04
 -1.3716379e-04
 -1.8184826e-03
  1.0308419e+00
 -1.9285646e-01
 -3.4491101e-03
 -1.6565603e-03
 -8.3594449e-04
 -3.1609400e-04
 -7.1506033e-04
  1.0231489e-04
  1.5901421e-04
  6.4270751e-04
 -2.3969708e-04
  5.0608965e-04
  6.2044293e-01
 -1.2230021e-03
  3.1851188e-05
  3.1196070e-04
 -2.2130625e-04
 -2.6109873e-04
 -7.1280560e-04
  6.5352666e-01
 -5.9781811e-04
  7.2803150e-04
  4.4645765e-04
  1.9401881e-04
 -1.1266654e-03
  6.3542029e-05
 -7.0697133e-04
  1.6252539e-04
 -6.0964248e-04
 -7.7783997e-04
 -4.0495157e-04
 -1.6515729e-03
 -4.8465497e-04
  1.3709711e-04
 -1.6997538e-04
  1.4061908e-03
  4.9715681e-04
  9.1861824e-05
  2.9786257e-04
 -2.3104376e-03
 -9.4740186e-04
 -2.3272331e-04
  1.6984120e-03
  1.1462608e-03
  9.7899197e-04
  1.5352243e-03
 -3.6046840e-04
  4.1815609e-04
 -5.0487166e-04
 -8.0995902e-04
  5.2859634e-04
  2.0065515e-04
 -9.8679308e-04
 -1.1522195e-03
  2.3040641e-04
  7.8731572e-04
  2.1413763e+00
  7.4599229e-06
  1.4137200e-03
  7.3262048e-04
 -4.2260246e-04
  3.1269989e-03
  4.1512419e-03
 -4.0624494e-04
 -1.6876512e-04
 -5.3092785e-04
  2.0170079e-03
  1.0827802e-03
  6.1847747e-04
  2.3344070e-04
  3.5377964e-04
  1.4619472e-03
 -1.8790822e-03
  1.6877610e-04
  1.3106599e-03
 -7.2305977e-01
  5.3514302e-04
  1.7027283e-04
 -2.7483606e-04
  8.2573155e-04
  1.4066865e-04
 -2.6232775e-03
  2.2261776e-04
 -7.6118932e-04
  1.4637699e-03
 -3.9353626e-04
 -5.5826205e-04
  1.5845428e-03
 -6.9245865e-04
  1.3633246e-03
  5.3315843e-04
 -2.9246305e-04
  3.8060336e-04
 -2.8867181e-04
 -1.6344054e+00
  4.7075014e+00
  3.0195074e+00
  2.0625930e+00
 -6.7337579e-01
  4.6016943e-01
 -3.9025778e-01
  6.5072972e-01
  6.8826568e-01
  2.4304249e+00
  1.2036654e+00
  3.9030001e+00
  3.5890931e-01
 -1.2310135e-01
 -1.3411127e+00
 -3.2273877e+00
  1.0438081e+00
  1.1805552e+00
  5.6822777e-01
 -1.4636520e+00
 -1.5795764e+00
 -7.5839885e-02
 -1.4434532e+00
  1.5255493e+00
  1.5986911e+00
 -9.1116214e-01
  6.3761723e-01
 -3.1668558e+00
  1.2469606e+00
 -1.8694247e+00
  8.6132890e-01
  2.9796094e-01
 -7.3556525e-01
  5.7772642e-01
 -1.1092688e+00
  3.2332262e-01
 -8.8788539e-02
  2.2372123e-02
  1.9622328e+00
 -4.5564533e-03
  2.9379506e+00
  7.2964007e-01
 -1.2789898e-02
 -6.0894284e-03
  1.2602953e-03
  3.5362723e-04
 -7.3876581e-04
 -1.3547166e-03
 -4.3455776e-04
  1.7769459e-03
 -1.5831272e-04
 -2.5334794e-04
  9.3587418e-04
 -9.9350279e-04
  6.6013366e-04
 -2.4876662e-04
 -1.2638122e-03
 -1.6492261e-03
  1.5016788e-03
  3.1266530e-04
  2.0358739e-03
 -1.7780063e-03
 -2.9049414e-05
  1.4561012e-03
 -1.3573270e-04
 -1.0394938e-03
 -1.0249182e-03
 -2.2559217e-03
  2.2070648e-03
  8.8574464e-04
  5.0378323e-04
  4.6493733e-04
  2.7851919e-03
 -7.9194462e-05
 -3.3697737e-03
  1.6366229e-04
 -4.3025566e-04
  1.7690354e-03
  1.3089862e-03
  1.6899492e-03
 -1.7683869e-05
 -2.1629022e-03
  1.5898948e-03
 -4.2380278e-05
 -2.2366765e-04
 -7.2210300e-04
  3.1891381e-04
  7.2049203e-05
  2.1256385e-03
  2.0783900e-04
 -1.1682727e+00
 -1.8681301e-05
  1.0793483e-03
 -7.7785325e-04
  1.5324526e-01
 -7.7545935e-01
 -7.0804939e-02
 -2.3120355e-03
 -2.3327571e-04
  1.4228931e-03
  5.5239245e-04
 -5.4277951e-04
  2.6582885e-03
 -3.7206290e-04
  3.9780186e-03
 -5.2022067e-04
 -3.5047960e-02
  1.0227564e-03
  4.4223794e-04
  8.1806671e-04
  9.0797280e-04
 -6.6889252e-04
  2.5178257e-01
 -8.9838039e-03
  7.6819153e-04
 -3.2232335e-04
  2.5684690e-01
 -1.0112677e-03
  1.2654599e-03
  2.6967637e-03
  4.4521648e-03
  4.6306639e-04
  1.0958504e-03
  7.1116112e-05
 -7.9147873e-04
 -4.6316054e-05
  4.8867697e-03
 -9.7433282e-03
  1.4186864e-03
 -5.6898728e-04
  4.6438345e-04
 -9.5927704e-04
  3.0501504e+00
  8.3789420e-01
 -1.0297663e+00
 -1.2943288e+00
  2.2004133e-01
 -2.5274418e-03
 -3.0338638e+00
 -2.0613384e+00
 -1.1830124e+00
 -6.6375542e-01
 -2.7528949e+00
 -6.3046372e-01
  2.3198819e+00
  1.0122042e-03
  1.0525935e+00
 -1.3754185e-03
  5.4852557e-01
 -8.2572645e-01
  4.9676546e-01
  2.8480773e+00
 -1.1606599e+00
 -1.5474427e-02
  8.4700197e-04
 -1.0772833e-02
 -5.0983948e-01
  2.8268600e+00
  1.4585584e-01
 -9.6358401e-01
 -8.0303714e-02
 -2.9551500e-01
 -1.2090555e-03
  4.0636274e-01
 -1.1977422e+00
 -1.5434510e+00
  1.2521603e+00
 -9.9108064e-01
  2.0989223e-01
 -1.2278521e-03
 -6.1566174e-01
  1.7756509e+00
 -2.0188896e-04
  2.5850610e-04
  9.5904958e-05
  8.0017804e-04
 -1.8591675e-04
  3.6987610e-04
  5.2276172e-04
 -3.8954971e-04
  5.5516372e-04
  1.3300170e-03
 -8.9086912e-04
  5.4271345e-04
  1.7933066e-03
  9.5695799e-04
  2.4112273e-05
  3.4827035e-04
 -1.7504866e-03
 -4.3414603e-04
  9.0887392e-04
 -3.9852105e-04
 -1.4646659e-03
 -7.6469680e-04
  4.9507921e-04
  1.4216366e-03
 -5.4735830e-04
  1.0890873e-03
 -2.5161942e-03
  1.1418297e-04
  2.5858541e-04
 -8.4924937e-04
 -4.3495640e-04
  9.7629288e-04
 -7.8671222e-04
  7.3370640e-04
 -1.1191054e-03
  6.5589283e-04
 -1.0058735e-03
 -3.1382951e-04
 -9.7674201e-05
 -1.0395213e-03
 -7.1339091e-05
 -1.1800783e-03
  2.2671610e-04
  2.7983519e-04
  4.9901044e-04
  1.6933821e-04
 -1.6202736e-03
 -8.2575250e-05
 -2.3235180e+00
  8.8647944e-01
  5.6478220e-01
 -2.8269141e+00
  5.3196883e-01
 -8.0742532e-01
 -9.4518572e-01
 -2.4119513e+00
  9.8664647e-01
 -1.7411946e-01
 -1.3669757e+00
 -6.0853720e-01
 -5.4386980e-04
 -1.7688445e+00
  2.4371915e-02
  2.0556891e+00
  2.8295040e-01
 -2.1168975e-02
 -1.5415249e+00
  3.9425662e+00
 -1.7080742e+00
  3.3407941e+00
  1.6248782e+00
  1.9201015e+00
  6.6596919e-01
 -1.3165534e+00
  1.0489182e+00
  2.1440339e-01
  3.4947300e-01
  7.8455365e-01
  3.0094806e-02
  1.2842776e-01
 -2.1125373e-01
  4.4349674e-02
  1.3064342e+00
 -7.5821918e-01
  1.7392809e+00
 -1.0742494e-02
 -3.0409476e-01
 -7.0582093e-05
 -6.3605881e+00
  9.4924909e-01
 -2.6070774e-01
 -1.5202521e+00
  4.0896031e-01
  6.6012859e-01
 -2.9447809e-01
  1.7913460e+00
 -1.2587777e+00
 -1.7595333e+00
  2.7864340e-01
  3.0852649e+00
  6.4809728e-01
 -7.7470586e-02
 -7.2753914e-02
 -1.1245560e-01
  2.4585244e-01
 -1.0666610e+00
 -2.5596037e-03
  1.7827938e+00
  9.9204046e-01
 -1.8370153e-02
  1.3541746e+00
 -3.6341383e+00
 -2.7420291e-01
  1.7906665e+00
 -2.1962952e-02
  2.6520486e+00
 -2.7823188e+00
 -1.0694360e-01
  4.5866923e+00
 -9.6611935e-01
  1.7814264e-01
 -3.0263865e-01
 -1.4172949e+00
 -1.2454898e+00
 -1.4490123e-01
  2.3221707e-01
  2.9348078e+00
  4.8141092e-01
 -5.1664229e-02
 -3.9931583e-06
  3.7214965e-01
 -3.6336343e+00
  2.3244052e+00
  2.1993622e-01
  3.3648420e-04
 -2.3795037e-02
 -2.8472066e+00
  1.7096701e+00
  2.7451317e+00
 -3.7093558e+00
  4.7477591e-01
  4.6557646e+00
 -1.3192846e+00
  2.1481977e+00
 -1.2255430e+00
 -7.6513243e-04
  3.2147822e-01
 -1.6934246e-01
  2.0410709e+00
 -3.8583538e-01
  2.8145932e-02
  6.8330604e-01
 -7.3307240e-01
  5.8079869e-02
  8.5792267e-01
  3.8972478e-02
  6.6850538e-04
  6.7548132e-01
 -1.0321481e+00
 -5.6694776e-01
  2.0470717e+00
 -5.1095471e+00
  5.6646566e+00
 -4.1883230e-01
 -1.5451163e+00
 -1.5816374e+00
  5.5152833e-01
 -4.5217705e-01
 -7.7668017e-01
  3.2897937e+00
 -1.1671718e+00
  7.0120478e-01
  3.1731173e-04
 -1.1817231e-03
 -2.9416606e+00
  5.4419243e-01
  2.3579480e-01
 -3.0477042e-03
 -7.2019116e-04
 -4.8346230e-04
 -5.9060401e-01
  2.1793990e+00
 -6.4311469e-01
 -1.4001278e+00
  7.7080131e-01
 -1.8412784e+00
  3.8376434e+00
 -5.6775111e-01
  1.3455409e+00
  8.2761157e-01
 -1.4528122e+00
 -4.1704643e-01
  3.3473365e+00
  1.2692906e+00
 -1.4413054e+00
  1.6982645e-03
 -1.3537936e+00
  1.7552335e+00
 -1.3961731e+00
 -2.6953938e+00
 -7.3931706e-01
  2.1715407e+00
 -9.9493015e-01
  3.3284833e+00
 -3.2234464e+00
 -3.7970150e-01
  2.5455205e+00
 -3.5931573e+00
 -1.9882784e+00
 -3.1200011e+00
  1.2458442e+00
  1.3424561e+00
 -1.6960279e+00
  7.2011575e-02
  2.0547158e-01
 -1.1028171e+00
 -1.9135211e+00
 -1.6065795e+00
 -2.9460616e+00
 -2.1337759e+00
  1.9612417e-03
 -3.2815796e-01
  2.1050039e-01
  7.5692643e-04
  3.2399254e+00
  2.5513830e+00
  1.0130991e+00
  8.3867639e-01
  5.2381887e+00
 -1.8209793e-03
  1.4130838e+00
 -5.8780322e+00
 -3.9614320e+00
 -7.5273119e-02
 -1.0019450e+00
  7.2289800e-04
 -1.1371078e+00
 -9.4412374e-01
 -3.8817668e-04
  3.3804879e-04
  4.9222797e-01
 -4.1423970e-01
 -1.3385452e-01
  3.2605758e-01
  2.0770001e+00
  6.3594991e-01
 -2.3806992e-03
 -3.9290130e-01
 -5.7530528e-01
  3.5355933e-02
  1.9932193e+00
 -1.8523833e+00
  1.5643131e+00
 -1.0546057e-04
  5.1081190e-03
  1.2287180e+00
  6.3737839e-01
 -1.0375999e-03
  3.0355668e-04
 -1.1462221e-01
 -6.0285324e-01
 -1.8116548e-04
  1.7024325e-01
  2.9387446e-03
  2.5656736e-05
 -2.2543034e-04
  2.5986964e-03
  3.1095155e-04
 -1.2207081e+00
  1.0314659e-03
 -3.2131118e-01
 -7.9726748e-02
 -1.5487195e+00
 -5.2559382e-01
 -1.3399303e+00
 -1.2740310e+00
  3.7447074e-01
 -1.1018128e+00
  8.8905245e-01
 -1.0281034e-03
 -1.8428239e-01
  1.7362064e-03
 -1.0206574e-02
  1.6621806e-01
  3.8563877e-01
  5.6950644e-02
 -9.4632521e-02
 -1.0231938e-01
  1.5251620e-03
 -9.0832770e-01
  1.8031201e-01
  4.7954291e-01
 -1.5941640e+00
  2.3630011e+00
 -2.6744511e+00
  1.2168648e+00
 -1.9082909e-02
 -1.6920133e-01
  1.8603302e-04
  1.4522182e+00
  1.6868912e+00
 -3.8782468e-01
  3.8575265e-01
 -1.4710807e-03
  8.6863431e-05
 -1.0258212e-03
  1.4034648e-01
 -6.5012503e-01
  5.7130586e-04
  7.2759972e-04
  3.5668681e-03
 -1.0930573e-03
  2.1636531e+00
 -1.6882032e-01
 -1.9526564e-01
  5.3841025e-01
 -9.8799604e-01
 -2.6342130e+00
 -1.8279134e-01
  1.5366958e+00
  3.5423398e-01
  4.3497426e-03
  5.9790071e-02
  1.7109547e+00
 -1.4673102e+00
  6.2425258e-03
 -2.0338080e+00
 -2.3633798e-04
 -1.8102993e-01
 -1.4067461e+00
  1.7341310e+00
  5.4107714e-01
  1.9955553e+00
 -1.6249013e+00
 -2.2721794e-01
 -2.4468505e-01
  2.1387680e+00
 -4.1212244e+00
  2.6971574e+00
  6.6375613e-01
 -1.6481583e-01
 -3.2216859e-01
 -2.9002801e-01
 -6.9271094e-01
 -2.7843909e+00
  1.9378448e+00
  3.2382143e-01
  7.9986542e-01
  5.6335751e-02
 -1.5997025e+00
  1.1575543e+00
 -2.5218009e-04
 -1.0167824e+00
  7.2964490e-04
  6.4338696e-01
 -7.7818008e-04
 -4.0171313e+00
 -3.9995654e+00
 -3.2222092e-01
  3.7509623e+00
  1.0507392e-01
 -7.8062397e-01
 -2.9702537e+00
  7.3803765e-01
  9.6058673e-01
  3.6373749e-01
  3.0445523e+00
  5.2068532e-01
 -2.5662079e+00
  8.3837038e-01
  4.3765125e-01
  1.7965610e+00
 -2.1767957e+00
  4.3589750e-01
  2.7978110e+00
  1.4950459e+00
  1.4701791e+00
 -1.3143267e-02
  2.0756996e-01
  6.5816712e-01
 -2.9231715e+00
  2.1070886e+00
  2.8026996e+00
  2.8706035e-02
  1.2991493e+00
  2.6568277e-03
  7.8944719e-01
 -1.1807830e+00
  6.0050387e-02
  2.3989074e+00
 -9.4763404e-01
  4.5346829e-01
  7.1045953e-01
 -2.1173552e-01
 -2.5170250e+00
  1.7841786e+00
 -3.2749233e+00
 -7.7788015e-03
  1.2438070e+00
  6.2006777e-03
 -1.2058350e-04
 -2.0614008e-03
 -1.9442741e-03
  4.8769035e-04
 -1.3920607e-04
 -9.6573774e-04
 -1.3394259e-04
 -5.8041996e-04
  4.0235682e-05
 -3.7137099e-04
  2.9552152e-04
 -2.3067347e-03
  1.3607720e-04
 -1.8645436e-04
 -1.4710962e-04
 -5.1513413e-04
  7.3244277e-04
  1.3884011e-04
  5.4962969e-05
  2.1129123e-04
  1.8847824e-04
 -8.4163406e-04
 -1.0396878e-03
 -5.1517796e-04
 -1.1527596e-04
 -2.4112372e-04
  1.4321763e-03
 -2.2059365e-05
 -5.7649415e-04
  1.5562258e-04
  6.8793626e-05
 -1.0103043e-03
  1.6338859e-03
 -5.4116303e-04
  3.1704386e-04
 -2.8288546e-03
 -9.7444601e-04
  2.6475318e-04
 -8.8439335e-04
  1.3997366e-03
  2.0163259e-03
  2.1605111e-04
 -1.2576689e-03
  3.7119980e-04
  6.4865028e-04
 -8.8884897e-04
  1.6917801e-04
 -5.4141747e-06
  8.6417486e-04
 -2.7739715e-03
 -7.8499739e-05
 -4.3989359e-05
 -1.0150535e-05
  9.9013152e-04
  3.6592552e-05
  5.9240829e-04
 -5.1966321e-04
  1.3146177e-03
 -2.0908106e-03
  9.0397691e-05
  1.0640897e-03
  3.5618556e-05
  3.0279931e-05
  5.4638035e-04
 -3.0199549e-04
  1.0595685e-04
 -5.1996325e-05
 -7.0142472e-05
  3.2046381e-05
  9.0894333e-05
  8.0623559e-04
 -9.8192086e-04
 -5.4546568e-04
  2.3811706e-04
  9.1987749e-04
  1.2814138e-03
  9.4022549e-04
 -2.5858395e-04
 -1.5950717e-03
  9.3311159e-04
  1.1643262e-03
  2.9584416e-04
 -3.2557794e-03
  8.7550061e-04
 -1.9652641e-03
 -7.9617783e-04
 -9.5085579e-04
  1.5428934e-03
 -2.2751739e-04
  3.5809673e-05
 -7.1456528e-04
 -1.4695381e-03
 -3.8042956e-05
  9.9918374e-04
 -1.6796752e-03
 -3.0657812e-04
  5.7088691e-06
 -7.6842349e-04
 -3.5208010e-04
  1.1349301e-05
  1.2134667e-03
 -5.2239274e-04
  7.9160609e-04
  3.5424120e-04
 -9.4655610e-04
 -9.3217526e-04
 -1.0322589e-04
 -1.4113239e-03
 -2.1719446e-03
 -1.5776075e-03
 -3.6675605e-04
  2.4183431e-04
  5.7094469e-05
 -4.6880409e-04
 -1.1055687e-04
 -1.9460052e-03
 -9.8783210e-05
  1.0453819e-04
 -1.0422529e-03
 -7.6279719e-04
  2.1405616e-04
  2.8803417e-05
  4.3230227e-04
 -2.2879033e-03
 -8.7439828e-04
 -1.6579916e-03
 -3.7391440e-03
 -3.9256949e-04
  1.4457019e-03
 -6.5429421e-04
 -2.8127199e-04
 -4.2014028e-04
  1.1585059e-03
  3.7133630e-04
  3.4095551e-04
 -6.2863261e-04
 -5.4433063e-04
  8.3666435e-04
 -7.3763883e-01
 -1.2726163e-05
  2.5781710e-04
 -1.9198883e-04
  3.0246150e-04
  1.2676467e-04
 -2.1755771e-04
  9.9812401e-04
 -7.5481599e-04
  6.4059830e-05
  3.4209225e-02
  3.5698782e-04
  1.0067783e-04
 -4.1459661e-04
  1.3891214e-03
 -3.1434617e-04
  7.0869422e-04
 -3.4849808e-04
 -3.6491008e-04
  2.0280415e-03
  5.7674297e-05
  5.7660509e-04
 -2.6494989e-04
 -5.0227314e-05
 -1.4174480e-03
 -2.2961045e-04
  5.0163624e-05
  6.4199942e-04
  4.5256465e-04
  3.3592680e-03
  7.9974526e-04
  3.5929697e-04
  3.2962897e-05
 -7.2194636e-04
  1.1685643e-04
 -5.4071913e-04
  8.1225124e-04
 -2.4664207e-04
 -1.2392754e-03
  2.3928727e-04
 -1.9580377e-03
 -1.6982966e-03
  6.9654133e-04
  4.5093536e-04
  8.1980368e-04
 -6.8195385e-04
 -1.5506355e-04
  9.3157135e-04
  1.1829388e-03
 -3.1965459e-04
  1.9324025e-04
  6.7440508e-04
  9.4885327e-06
  3.8912939e-04
 -1.7731165e-04
 -2.1648759e-04
  2.0235933e-04
  1.4838971e-03
 -2.5875820e-03
 -4.5602021e-04
 -7.7087496e-04
 -1.6680232e-04
  4.8083140e-04
 -2.1912886e-03
 -3.5724929e-04
 -5.2738516e-04
  1.6364624e-03
 -3.4562516e-05
  3.6888104e-04
 -4.3949188e-04
 -4.8644273e-04
  6.4057368e-04
  2.2668441e-04
  2.1928705e-03
  3.4353463e-05
  2.0995487e-05
  4.9613859e-04
  6.8309403e-04
 -4.6448931e-04
  3.7925602e-05
 -4.2471738e-04
  1.6860181e-03
 -6.1638802e-01
  4.5581156e-04
 -1.8814783e-01
 -1.8914303e-04
  1.7049597e-01
  5.9334675e-06
  2.2462863e-01
  1.4577852e+00
 -8.7388676e-01
 -1.6383182e-02
  1.7240788e+00
 -2.4722836e+00
 -1.2571804e-01
  3.9656311e-01
 -2.8485367e-01
  2.7284730e-04
  7.9878902e-01
  1.1204076e+00
 -1.7518529e+00
 -1.8799307e+00
 -7.2279021e-02
  2.2469542e+00
  1.2277427e-01
  1.7072625e-02
 -1.8626127e+00
  1.2717707e+00
  2.0251431e+00
  7.6676323e-03
 -6.4990216e-01
  3.5877887e-04
  1.4581354e-01
 -1.6036676e+00
 -6.4516902e-01
  2.1304563e-04
  1.3679180e+00
  4.6113026e-01
 -1.3329409e-04
  4.3919641e-03
 -8.4395242e-01
  5.7215511e-04
  5.4653770e-01
 -1.7158691e+00
  8.8667721e-01
  5.3733587e-04
 -5.4859981e-04
 -6.3253322e-04
 -2.0219928e-03
 -1.5555247e-03
 -3.5383098e-05
 -2.7216796e-03
 -4.8021958e-03
  5.7254103e-04
  1.0431858e-03
  3.6011191e-04
 -4.9809070e-04
  2.2972561e-04
 -2.2014361e-03
  7.5954583e-04
  9.3809585e-04
 -2.7893280e-04
  1.7273074e-04
  4.7434290e-04
 -1.8374591e-04
 -1.8933968e-04
  3.5748704e-04
  3.5521854e-04
  2.1691490e-03
  3.7064427e-05
  1.1212935e-05
 -3.3946414e-04
  1.0978259e-03
 -1.0842647e-05
  8.5625076e-04
 -5.5752700e-04
  2.2334731e-03
 -3.0969564e-04
  3.1602522e-04
  2.9022942e-04
  3.9664767e-04
 -1.0652126e+00
  1.1563997e-03
  4.7332625e-05
  4.1160636e-04
  1.0851744e-03
 -2.2412771e-03
  4.9672526e-06
  6.9722277e-04
  1.2441315e-03
 -8.1955636e-01
  7.7549160e-01
  7.0889995e-02
  1.0762875e+00
 -2.0898592e-01
  1.2505554e-01
  3.5517341e-01
  3.0947452e-02
  8.0386090e-01
 -5.3694868e-01
 -1.8151894e+00
 -1.5730970e+00
  6.2876928e-01
 -6.4687862e-04
 -5.2220386e-01
 -1.1070052e-02
  5.0450683e-02
  1.0116153e+00
  3.3091768e-04
  1.9267087e+00
 -1.4731928e-04
  1.0075719e+00
  4.0734693e-04
  7.1628219e-01
 -4.9488631e-01
  4.7465670e-01
  8.6531091e-01
 -5.4459572e-03
  3.6890268e-01
  9.5170958e-04
 -3.9549780e-04
  7.8964913e-01
  4.5665048e-02
  5.0457348e-03
 -2.1142970e-01
  6.2286353e-01
 -1.6683807e-04
  3.4978619e-04
 -1.3935161e-01
  1.8096184e-02
  2.4595731e-03
  2.2382141e-04
 -4.8558108e-04
 -1.7717375e-03
  2.9742098e-01
 -1.4226553e+00
 -8.4546024e-01
 -1.1750419e-01
 -7.3759311e-01
  8.5655350e-04
  1.5859638e+00
  2.5030484e+00
  1.5062639e-01
 -6.1495155e-01
 -1.7741256e+00
  3.7459660e-01
 -2.7265339e+00
 -3.7824792e-01
  1.6284720e+00
  1.6963857e-04
  2.4807224e-01
  1.1924586e-01
  9.2752582e-01
  1.9568657e+00
  8.6554745e-04
 -2.1438558e-01
 -5.0540906e-01
  2.4392241e-01
  1.8714811e+00
  3.4222019e+00
 -8.1103152e-01
  1.0488009e+00
  1.2670398e+00
 -1.6602597e+00
 -9.5536715e-01
  4.3140374e-02
  1.2979245e+00
  3.7754461e-01
 -3.0474737e+00
 -3.6506009e-01
 -9.0094907e-03
  3.2622274e-04
 -4.9458987e-01
  6.5306926e-01
  1.3040661e+00
  8.7630833e-05
 -3.2722045e-02
 -2.2140749e-02
 -1.1861708e+00
  9.7211730e-01
  3.7009470e+00
  6.6224843e-01
  6.6837375e-03
  1.3537621e+00
 -2.8207066e+00
  1.1804311e+00
  1.1373237e+00
  2.4261768e-01
  1.8137237e-02
 -2.0904319e-01
 -2.7975341e-04
  5.4837292e-01
  3.7349548e+00
  7.5742638e-01
  4.5678753e-01
 -1.9955529e+00
 -1.2562072e+00
 -8.4371364e-01
 -3.0691972e-01
  1.4744785e+00
  1.8318480e-02
  6.9668792e-02
 -8.5563564e-01
  1.5755010e+00
  1.9150709e+00
 -7.3351771e-01
 -1.2675464e+00
  1.6098999e+00
  5.0913012e-01
 -3.3987623e-01
 -1.0625005e+00
 -6.0027301e-01
  3.4327471e-01
 -1.0232085e+00
  5.7029164e-01
 -9.8115113e-03
  1.1105920e-04
 -1.7982104e-03
 -5.4192526e-04
  2.3415927e-02
  4.7690928e-01
 -5.1163818e-04
  8.7396288e-01
 -4.7811043e-01
  2.9912522e+00
  6.8508422e-01
 -2.2743118e+00
 -3.8143018e-01
  1.6248027e+00
  3.1046662e-03
  2.0901005e+00
 -7.9431647e-01
  6.0672867e-01
 -5.8067846e-04
 -1.5212067e-04
  1.3612670e-01
  1.1746682e-03
  1.7155759e+00
  9.0822697e-01
  3.0430475e-01
  2.5739804e-01
  1.1724749e+00
  4.7177323e-03
  4.9460658e-01
 -1.5356555e+00
  2.4288577e-04
  4.4374555e-01
  7.5613612e-01
  3.5666558e-01
  2.0987782e+00
  1.0265373e-03
  4.9116653e-03
  1.2378851e-01
  1.6548036e-01
 -2.2367301e+00
 -1.2010546e+00
  6.9589657e-04
 -2.9099232e-04
 -9.5869750e-01
  1.0081392e-04
  4.3452865e-01
 -2.2902758e+00
 -1.5235310e+00
 -1.8603765e-04
  7.3244345e-01
 -2.2214363e+00
  3.3305913e-01
 -5.3929932e-02
 -1.9111515e-04
  1.5244007e+00
 -1.1076617e+00
 -3.8725573e-01
  2.0801920e-01
  1.2971673e+00
 -2.0451982e+00
  9.9411750e-01
 -9.2177981e-01
  5.8210838e-01
 -1.4698516e-01
 -5.8212608e-01
 -1.6082736e+00
 -1.4191170e-01
  2.1223135e+00
 -2.5493382e-03
 -1.4077711e+00
  9.1638381e-04
  1.5143811e+00
  2.9213505e-03
 -1.3831966e+00
 -9.1789508e-01
 -1.5007758e-03
  2.6202706e-01
 -7.3586041e-01
 -7.1501130e-01
  1.4673832e-01
  2.1496424e-02
  1.0789690e+00
 -7.0814689e-04
 -5.6829834e-01
 -2.1719859e+00
  3.3631007e-04
  5.5786488e-03
  2.3616598e+00
 -6.0967280e-04
 -1.0719779e+00
  6.9751418e-01
 -3.5451725e+00
 -1.2233944e+00
 -2.3603135e-01
 -1.4452964e+00
  1.8580911e+00
  3.1835165e-02
  1.8733391e-03
 -1.7817556e-03
  5.4979676e-01
 -5.6663313e-04
  1.9611392e-04
  7.0928127e-01
 -4.2514494e-01
 -1.5887936e+00
  2.8555253e+00
 -4.2185915e-01
  5.0258315e-01
 -6.0276634e-01
  7.0086896e-01
 -4.5796585e-01
 -4.5227641e-01
  4.7181293e-01
 -8.7068141e-01
 -1.3100940e-03
  2.0726189e-01
  1.0646039e+00
  1.2730420e+00
 -3.0051433e-05
  1.4694782e-03
 -8.8372725e-01
  1.1631254e-03
  1.2047496e+00
  3.4350222e-01
 -9.8887664e-01
 -1.0780398e+00
 -1.1222853e-01
  9.3402678e-01
  2.5608518e+00
  4.9633291e-01
 -3.9366147e-04
 -1.8278511e+00
 -5.0392777e-01
  1.2504221e-01
  8.8944525e-01
  1.1183434e-03
  3.5546339e-01
  4.1944203e+00
 -9.0987694e-01
  1.1683933e+00
 -2.0059807e+00
  2.4023428e-04
  1.7184610e-03
 -1.2204816e+00
  3.1866843e-01
 -1.1108387e+00
 -1.5928724e-01
 -6.4580292e-01
  3.6288664e-04
 -4.5529309e-01
 -5.4733438e+00
 -2.0217331e-01
 -1.0782757e+00
 -2.0320240e-01
 -2.2113352e+00
 -2.8150809e+00
 -9.1621333e-01
 -4.7092798e-01
  3.6241025e-01
 -1.1265037e+00
  1.4268266e+00
  6.9647944e-01
  2.1165276e+00
  3.7934870e-01
  2.4475527e+00
 -2.1694782e+00
  3.8425753e-01
  4.1347885e-01
  2.6667121e-04
 -3.4559685e-01
 -4.2454011e-04
 -5.3523862e-01
 -2.4877369e-04
  3.8586420e-01
 -1.5146247e+00
  5.3304691e-02
  1.5005468e-01
  3.4356573e+00
 -2.5501063e+00
 -3.4386757e-01
 -1.8555585e+00
 -3.4384483e-01
 -5.2196370e-04
  1.2964088e-01
 -1.9607221e+00
  2.7870500e-04
 -3.3647427e-01
 -1.3227868e+00
  2.4638633e-05
  1.7205595e+00
  2.3609259e+00
 -1.6109140e+00
 -3.0110648e+00
 -5.3172970e+00
 -7.1701270e-01
 -3.1557794e+00
 -6.6638345e-01
  3.8171149e-04
 -3.3820371e-04
  3.2846812e-02
  1.7710780e-01
 -1.1532693e-03
 -1.1249870e+00
  1.6696988e-01
 -2.3046155e+00
 -9.1633886e-01
  1.5645660e+00
 -1.6386089e+01
  3.5595602e-01
  1.8333331e+00
 -2.2020011e+00
 -1.2403734e-01
  2.3872123e+00
 -8.9366001e-01
 -4.8321053e-01
  2.0754173e+00
  2.8316047e+00
 -2.1221036e-01
 -2.9126527e+00
  3.4686837e+00
  1.8314908e+00
 -1.7295803e+00
  5.7403201e-01
 -4.1872004e-01
 -2.4020994e+00
 -1.3848033e+00
  6.5113699e-01
 -1.8556507e+00
  4.0543208e+00
 -1.2709941e+00
 -3.8115835e+00
  4.8419121e-01
  2.3801644e+00
 -1.6636200e+00
 -4.5850325e-01
 -6.4616930e-01
 -1.1441398e+00
  2.1941273e+00
 -3.4897375e-01
 -1.0013060e-01
  1.0316280e+00
 -8.5676461e-01
 -1.8785952e+00
  1.1171664e+00
  2.0796053e+00
 -3.9396687e+00
 -1.8661926e+00
  5.7861376e-01
 -2.9910989e+00
  1.6954805e+00
  1.6995828e+00
  3.2040784e-01
 -5.8626193e-01
  6.0530806e-01
 -6.6594750e-01
  1.7360222e+00
 -2.6953617e-01
 -1.8048760e+00
 -8.7779635e-01
  1.4480466e+00
 -7.3790550e-01
 -8.1847262e-01
  8.9321727e-01
  3.8747337e+00
 -2.9778383e+00
  3.6418562e+00
  3.1098788e+00
 -1.3476459e+00
  2.7620890e+00
 -3.7320063e-01
 -1.1125804e+00
 -1.3450590e+00
 -2.3666956e+00
  3.2371917e+00
  3.5994387e-01
  1.0287769e-01
 -2.1354511e+00
 -2.2580378e+00
 -1.0213633e+00
  1.1227737e-01
 -7.3567456e-01
 -3.0818358e-01
  6.9026977e-01
 -5.9891683e-01
 -1.9590669e+00
 -2.7770540e-01
  3.0432162e-01
 -9.2748398e-01
  2.4097401e-01
  2.7061948e-01
  1.3260852e+00
  2.2891655e+00
 -1.0002150e-01
  1.3844365e+00
  1.4484419e+00
 -1.0001644e-01
 -1.6504691e+00
  1.0464702e+00
 -9.3675119e-01
  1.0000563e-01
 -3.4365949e-01
 -2.0787930e+00
  5.9120828e-01
  2.0428548e+00
 -4.7145116e-01
 -1.1839499e+00
 -1.2759377e+00
  3.0037615e-01
  2.2460918e+00
 -1.7467661e+00
  1.7867140e+00
  1.0121429e-01
 -1.1128912e+00
  1.9093734e+00
  7.6839310e-01
  1.0000423e-01
 -3.8948885e-01
 -1.5186919e+00
  2.3075824e+00
 -1.3075089e+00
 -2.0142353e+00
  5.6278360e-01
  1.0000034e-01
 -7.0158261e-01
  4.5901731e-01
 -3.1814829e-01
 -2.6123769e+00
  1.1590869e+00
  1.2729095e+00
 -2.1392679e+00
 -2.5517495e+00
 -1.1524063e+00
  4.1909763e-01
 -4.3807134e-01
  1.7944125e+00
  4.8165813e-01
  1.1476067e+00
 -1.8675098e+00
 -3.9279201e+00
  8.1828552e-01
  2.7105236e+00
 -8.8261849e-01
 -6.1359173e-01
  1.7134725e-01
  4.2332392e+00
 -4.3961024e+00
 -2.5915654e+00
  1.3429263e+00
  1.9147713e+00
  1.0997665e+00
 -5.1538074e-01
 -6.8829387e-01
  1.3533861e-02
  1.3533861e-02
  1.3533861e-02
  1.3533861e-02
  1.3533861e-02
  1.3533861e-02
  1.3533861e-02
  1.3533861e-02
  1.3533861e-02
  2.5395025e-02
  2.5395025e-02
  2.5395025e-02
  2.5395025e-02
  2.5395025e-02
  2.5395025e-02
  2.5395025e-02
  1.8851573e-02
  1.8851573e-02
  1.8851573e-02
  1.8851573e-02
  1.8851573e-02
  1.8851573e-02
  1.8851573e-02
  1.1165326e-02
  1.1165326e-02
  1.1165326e-02
  1.1165326e-02
  1.1165326e-02
  1.1165326e-02
  1.1165326e-02
  9.0488708e-03
  9.0488708e-03
  9.0488708e-03
  9.0488708e-03
  9.0488708e-03
  9.0488708e-03
  9.0488708e-03
  5.5070086e-03
  5.5070086e-03
  5.5070086e-03
  5.5070086e-03
  5.5070086e-03
  5.5070086e-03
  5.5070086e-03
